svm_type c_svc
kernel_type rbf
gamma 5.95912e-05
nr_class 2
total_sv 2538
rho 0.866852
label 1 0
nr_sv 1205 1333
SV
1 1:1 2:2 3:1 4:1 5:2 6:3 7:1 8:1 9:1 10:1 11:1 12:1 13:1 14:1 15:1 16:1 17:2 18:1 19:1 20:1 21:1 22:1 23:1 24:1 25:1 
1 3:1 13:1 25:1 26:1 27:2 28:2 29:1 30:1 31:1 32:2 33:1 34:1 35:1 36:1 37:1 38:1 39:2 40:1 41:1 42:1 43:1 44:1 45:1 46:2 47:1 48:1 49:1 50:1 51:1 52:1 53:1 54:1 55:1 56:1 57:1 58:1 59:1 60:1 61:1 
1 25:1 171:1 328:1 334:1 335:1 336:1 337:1 338:1 339:1 340:1 341:1 
1 4:2 5:2 12:1 25:1 49:1 58:2 64:1 68:1 75:2 94:2 100:1 120:1 151:1 172:1 175:1 183:2 187:1 194:1 206:1 273:1 290:1 474:1 493:1 500:1 501:2 502:1 503:2 504:2 505:2 506:2 507:2 508:2 509:1 510:1 511:1 512:1 513:1 514:1 515:1 516:1 517:1 518:1 519:1 520:1 521:1 522:1 523:1 524:1 
1 8:1 25:1 43:1 68:1 75:1 171:2 172:2 204:1 214:2 335:1 425:1 504:2 505:2 691:1 692:2 693:1 694:1 695:1 696:1 697:1 698:1 699:1 700:1 701:1 702:1 703:1 
1 5:2 25:1 100:1 115:1 153:1 219:1 304:1 328:2 373:2 530:1 653:1 695:2 704:1 705:2 706:2 707:1 708:1 709:1 710:1 711:1 712:1 
1 25:1 29:2 49:1 58:1 68:1 75:1 100:1 118:1 151:1 166:1 187:1 196:1 204:2 246:1 290:2 334:1 358:1 373:1 539:1 570:1 593:2 612:2 655:1 695:2 713:1 714:2 715:1 716:1 717:1 718:1 719:1 720:1 721:1 722:1 723:1 724:1 
1 5:1 25:1 53:1 91:1 171:2 172:1 205:1 214:2 219:1 339:1 503:2 692:1 693:2 754:1 755:2 756:1 757:1 758:1 759:1 760:1 761:1 762:1 763:1 764:1 765:1 766:1 767:1 
1 5:3 25:1 40:1 57:2 58:1 59:1 115:1 205:1 214:1 500:1 539:1 695:2 773:2 774:1 775:1 776:1 777:1 778:1 779:1 780:1 
1 25:1 373:1 539:1 786:1 827:1 1077:1 1078:1 1079:1 1080:1 1081:1 1082:1 
1 12:1 22:2 25:1 29:1 46:1 161:1 172:1 194:1 339:1 348:1 349:1 373:1 474:2 539:1 872:1 1148:1 1149:2 1150:2 1151:2 1152:1 1153:1 1154:1 1155:1 1156:1 1157:1 1158:1 
1 25:1 70:1 94:1 214:1 219:1 1076:1 1116:1 1199:1 1200:1 1201:1 1202:1 
1 2:2 4:1 11:2 23:3 25:1 46:1 51:2 53:1 67:1 75:1 104:1 116:1 149:1 151:1 170:1 191:2 194:1 207:1 220:1 221:1 232:2 318:1 386:1 509:1 531:2 548:1 554:3 832:1 1002:1 1013:1 1085:1 1185:2 1266:2 1267:2 1433:1 1458:2 1459:2 1460:1 1461:2 1462:2 1463:2 1464:1 1465:1 1466:1 1467:1 1468:1 1469:1 1470:1 1471:1 1472:1 1473:1 
1 23:2 25:1 49:1 51:1 116:1 194:2 216:1 221:1 509:2 548:1 832:1 1085:2 1185:2 1266:2 1267:2 1401:1 1458:2 1459:2 1465:1 1500:1 1512:3 1513:1 1514:1 1515:1 1516:1 
1 25:1 29:1 249:1 419:1 434:1 1124:1 1554:1 1555:1 
1 25:1 100:1 118:1 145:1 433:1 785:1 1159:1 1556:1 1557:1 1558:1 1559:1 1560:1 
1 3:1 25:1 30:2 49:1 63:2 75:1 100:1 157:1 172:1 315:1 363:1 367:1 380:1 385:1 537:1 564:3 611:1 653:2 1089:1 1495:1 1628:1 1677:1 1678:3 1679:1 1680:1 1681:1 1682:1 1683:1 
1 3:1 17:1 25:1 30:3 32:1 49:2 55:1 63:2 75:2 100:2 118:2 157:1 205:1 269:2 358:1 363:1 402:1 537:1 564:3 611:1 653:2 837:1 1089:1 1376:1 1495:1 1623:1 1628:2 1678:3 1679:2 1683:1 1731:1 1732:1 1733:1 1734:1 1735:1 
1 25:1 30:1 33:1 34:1 38:1 42:1 46:1 49:1 55:1 57:1 70:1 76:1 91:1 100:2 115:1 118:1 152:1 157:1 249:2 290:1 307:1 408:1 420:2 527:1 528:1 529:1 570:1 611:2 659:1 902:1 1760:1 1761:1 1762:1 1763:1 1764:2 1765:2 1766:2 1767:1 1768:1 1769:1 1770:1 1771:1 1772:1 1773:1 1774:1 1775:1 1776:1 1777:1 1778:1 
1 25:1 46:1 110:1 358:1 715:1 716:1 1084:1 1966:1 1967:1 
1 17:2 25:1 44:1 94:1 106:1 120:1 121:1 172:1 197:1 247:2 281:1 287:2 288:3 305:1 307:1 327:1 392:1 492:1 549:2 1247:1 1312:1 1434:1 1519:1 1747:1 2009:2 2010:1 2011:2 2012:1 2013:1 
1 25:1 42:1 46:1 61:1 89:2 106:1 110:2 121:1 216:1 387:1 564:1 653:2 771:1 1216:2 1373:1 1379:1 1400:1 1611:1 1791:1 2083:1 2084:1 2085:1 2086:1 2087:1 2088:1 2089:1 2090:1 
1 5:1 25:1 35:2 162:1 173:1 219:1 373:1 398:1 685:1 2082:1 2117:1 2118:1 2119:1 
1 16:1 17:1 22:1 23:1 25:1 44:1 46:2 49:1 58:1 118:1 172:1 194:1 247:1 338:1 371:1 373:1 401:1 426:1 474:1 531:1 591:1 613:2 665:1 687:1 902:1 2120:1 2121:2 2122:2 2123:1 2124:1 2125:1 2126:1 2127:1 2128:1 
1 25:1 108:1 184:1 380:1 503:1 855:1 1187:1 1606:1 2207:1 2208:1 2209:1 2210:1 
1 25:1 49:1 97:1 161:2 418:1 503:1 509:2 564:2 653:1 690:1 978:1 1306:1 2183:1 2227:2 2228:2 2229:1 2230:1 2231:1 2232:1 
1 25:1 106:1 121:1 373:1 502:1 503:1 2294:1 2295:1 2296:1 2297:1 2298:1 2299:1 2300:1 
1 22:1 23:1 25:1 53:1 197:1 339:1 373:2 434:1 505:2 519:1 539:2 695:2 838:1 1115:1 1195:1 1904:1 2208:1 2319:1 2320:1 2321:1 2322:1 2323:1 2324:1 
1 5:1 25:1 49:1 72:1 73:1 74:1 317:1 483:1 901:1 2400:1 2401:1 2402:1 2403:1 2404:1 
1 16:1 22:1 25:1 49:1 97:1 108:1 118:1 125:1 261:1 348:1 349:1 367:1 373:2 418:1 436:1 504:1 618:1 780:1 800:1 801:1 1139:1 1200:1 1414:1 1484:1 2405:1 2406:1 2407:1 2408:1 2409:1 
1 5:1 16:1 25:1 46:1 49:1 59:1 77:1 95:2 110:1 118:1 135:1 151:1 161:2 162:1 168:1 172:1 173:2 187:1 214:1 219:1 243:2 251:1 269:1 290:2 341:1 503:1 539:4 547:1 594:1 611:1 653:1 765:1 865:2 872:1 985:1 1020:1 1077:1 1115:1 1193:1 1263:2 1339:1 1346:1 1352:1 1699:1 1847:1 2092:1 2496:1 2497:1 2498:1 2499:1 2500:1 2501:1 2502:1 2503:1 2504:1 2505:1 2506:1 2507:1 
1 16:1 17:1 25:1 35:1 39:1 40:1 44:1 46:1 58:1 75:2 106:2 110:1 112:1 121:2 167:1 187:1 246:1 318:1 367:1 373:1 551:1 613:1 751:1 799:1 865:1 913:1 947:3 1054:1 1131:2 1266:1 1320:1 1353:1 1839:1 1985:1 2122:1 2510:1 2511:1 2512:1 2513:2 2514:1 2515:1 2516:1 2517:1 2518:1 2519:1 
1 8:2 25:1 42:1 47:1 48:1 53:1 58:1 64:2 95:2 98:1 100:1 106:1 110:1 115:2 117:1 118:1 120:1 121:1 129:1 157:1 166:1 171:1 249:2 273:1 290:1 312:1 318:1 371:1 386:2 387:1 475:1 865:1 1097:1 1128:1 1274:1 1298:1 1711:2 1861:1 2550:1 2551:1 2552:1 2553:1 
1 5:2 12:1 13:1 25:1 49:1 94:2 151:1 175:1 187:1 219:4 297:2 348:1 349:1 373:1 455:2 502:2 1139:1 1451:1 1461:1 1536:1 2640:1 2641:1 2642:1 
1 25:1 34:1 35:2 46:1 58:1 59:1 100:1 109:1 151:1 204:2 205:1 255:1 290:1 297:1 367:1 373:3 502:1 531:1 799:1 865:1 866:1 882:2 912:1 1137:1 1437:2 1536:1 1707:2 2066:1 2659:1 2660:2 2661:1 2662:1 2663:1 2664:1 2665:1 2666:1 2667:1 
1 3:1 25:1 34:1 55:1 57:1 214:1 222:1 304:1 380:1 492:1 531:1 653:1 695:1 705:1 751:1 1137:1 1712:1 2674:1 2675:1 2676:1 
1 5:1 22:1 25:1 46:1 135:1 219:1 373:1 492:1 500:1 503:1 539:1 695:1 713:1 1158:1 1182:1 1195:1 1323:1 2709:1 2710:1 2711:1 2712:1 2713:1 2714:1 
1 25:1 34:1 175:1 373:1 539:1 635:1 687:1 695:1 712:1 1346:1 2734:1 2735:1 2736:1 2737:1 
1 3:1 5:1 25:1 58:1 61:1 100:2 106:1 118:1 121:1 129:1 151:1 167:1 171:1 181:1 187:1 194:1 198:1 219:2 222:1 486:1 547:1 722:1 799:1 824:1 979:1 1223:1 1352:1 2279:1 2450:1 2864:1 2901:1 2902:2 2903:2 2904:1 2905:1 2906:1 
1 8:1 16:1 25:1 49:1 55:1 68:1 100:1 112:2 113:2 114:2 115:2 118:1 153:1 204:2 255:1 323:1 373:1 500:1 505:1 655:1 695:2 696:3 697:1 699:2 721:1 1159:1 1278:1 1419:1 2021:1 2569:2 2907:1 2908:1 2909:1 2910:1 
1 17:1 25:1 46:1 110:1 171:1 203:1 204:1 216:1 221:1 222:1 273:1 404:1 489:1 492:1 505:1 521:1 556:1 1163:1 1451:2 1458:2 1465:1 1698:1 2933:1 2934:1 2935:1 2936:1 2937:1 2938:1 2939:1 
1 5:1 12:1 13:1 25:1 40:1 44:1 49:1 68:1 72:1 73:1 74:1 75:2 76:1 112:1 113:2 114:2 157:1 161:1 194:1 202:1 219:1 290:1 326:1 358:1 373:2 593:1 686:1 694:1 724:1 779:2 931:1 1357:1 1401:1 2248:3 3260:1 3261:1 3262:1 3263:1 
1 25:1 40:1 68:1 135:1 153:2 219:1 304:1 373:2 503:1 594:1 653:1 655:1 689:1 694:1 695:2 705:2 708:1 709:1 842:1 3292:1 3293:1 3294:1 3295:1 3296:1 
1 5:1 8:1 23:1 25:1 49:1 91:1 118:1 157:1 172:1 183:1 187:1 194:2 214:1 509:2 539:1 588:1 598:1 1078:1 1092:1 1215:2 1373:1 1716:1 2022:1 3335:1 3336:1 3337:1 3338:1 3339:1 3340:1 3341:1 3342:1 
1 25:1 46:1 53:1 67:1 91:1 97:1 162:1 172:1 197:1 214:1 373:1 418:1 547:1 916:1 1151:1 1195:1 1560:1 1866:1 1949:1 2066:1 3019:1 3346:1 3347:1 3348:1 3349:1 
1 13:1 25:1 340:1 1010:1 1404:1 3365:1 3366:1 3367:1 
1 25:1 33:3 34:1 40:1 42:1 49:2 55:2 57:1 58:3 59:1 68:1 110:1 115:1 133:1 153:1 161:1 247:1 249:1 253:1 307:1 367:1 371:1 503:1 547:1 760:1 947:1 1034:1 1115:2 1484:1 1554:2 1633:1 1761:2 1762:2 1764:1 1766:1 1768:1 1774:1 1778:1 2213:1 2352:1 3388:1 3389:1 3390:1 3391:1 3392:1 3393:1 3394:1 3395:1 3396:1 3397:1 3398:1 
1 5:2 25:1 34:1 42:1 43:2 58:1 75:1 94:1 95:1 97:1 138:1 153:1 161:1 214:2 219:3 222:1 378:1 386:2 480:1 695:2 978:1 1177:1 1946:1 2132:1 3399:1 3400:1 3401:1 3402:1 3403:1 
1 5:2 25:1 49:1 75:1 94:2 100:1 118:1 148:1 151:1 171:1 187:1 197:1 213:1 231:1 290:1 315:1 373:1 418:1 488:1 519:2 547:1 639:2 651:1 768:1 775:1 799:1 1078:1 1159:2 1336:1 1404:1 1715:1 1716:1 2194:1 2814:2 2854:2 3256:2 3442:2 3443:2 3444:2 3445:2 3446:1 3447:1 3448:1 3449:1 3450:1 3451:1 
1 25:1 46:1 49:2 85:1 94:2 118:1 187:1 373:2 434:1 505:1 587:1 714:1 2120:1 2348:1 3256:2 3448:1 3484:1 3485:2 3486:1 3487:1 3488:1 3489:1 
1 25:1 49:1 51:1 68:1 94:1 95:1 99:1 197:1 203:1 315:1 321:1 373:2 576:1 639:1 724:1 752:1 837:1 1054:1 1055:1 1159:1 1171:1 1438:1 2814:1 2854:1 3230:1 3256:2 3443:1 3444:1 3445:1 3446:1 3448:1 3484:1 3490:1 3491:1 3492:1 
1 5:1 8:1 13:1 16:1 25:1 58:2 59:1 61:1 110:1 175:1 219:1 281:1 290:1 297:1 323:1 373:1 380:1 512:1 522:1 752:1 799:1 3501:1 3502:1 3503:1 3504:1 
1 5:1 25:1 46:1 406:1 639:1 872:1 1906:1 3519:1 3520:1 
1 25:1 34:1 49:1 72:1 94:1 95:2 112:1 113:2 114:2 153:1 180:1 204:1 326:1 373:1 541:1 607:1 695:1 729:1 931:2 1137:1 2597:1 3529:1 3530:2 3531:1 
1 4:1 23:1 25:1 34:1 38:1 40:1 42:1 49:1 55:1 91:1 113:1 114:1 120:1 153:1 162:1 171:1 183:1 231:1 257:1 258:1 271:1 284:1 373:1 531:2 539:1 692:1 695:1 754:1 760:1 884:1 1323:1 1331:1 2125:1 2167:1 3538:2 3539:1 3540:1 3541:1 3542:1 3543:1 3544:1 
1 5:1 25:1 29:1 46:1 72:1 113:1 114:1 157:1 173:1 247:1 326:1 651:1 773:1 822:1 1003:1 1124:1 1216:1 2022:1 2680:1 3392:1 3486:1 3605:1 3606:1 3607:1 3608:1 3609:1 3610:1 
1 17:1 25:1 29:1 58:1 315:1 538:1 947:1 3694:1 3695:1 3696:1 
1 25:1 172:1 373:1 1686:1 3768:1 3769:1 
1 5:1 13:1 17:1 25:1 46:1 48:1 58:1 64:1 67:1 70:1 95:1 106:2 118:1 120:1 121:2 161:1 167:1 187:1 216:1 249:5 269:1 280:2 371:1 420:1 421:1 509:1 523:1 547:1 548:1 551:2 564:1 581:1 920:1 921:1 931:1 966:2 1002:1 1115:1 1438:1 1554:4 1761:1 1910:1 2548:1 3229:1 3513:1 3772:1 3773:1 3774:1 3775:2 3776:1 3777:1 
1 23:1 25:1 35:1 58:1 161:1 304:1 338:1 358:2 392:1 538:1 935:1 939:2 1077:1 1116:1 1623:1 1628:1 2458:1 2516:1 2943:1 3486:1 3512:1 4019:1 4020:1 4021:2 
1 3:1 13:1 22:1 25:1 46:1 58:1 64:1 94:1 96:1 129:1 172:1 385:1 497:1 509:1 548:1 611:3 1002:1 1077:1 1332:1 1437:1 1461:2 1681:1 2096:1 2905:1 3616:1 4059:1 4060:2 4061:1 4062:1 4063:1 4064:1 4065:1 4066:1 4067:1 
1 5:1 13:1 25:1 49:1 153:1 216:1 243:1 306:1 380:1 381:1 467:1 486:1 648:1 713:1 832:1 935:1 1607:1 2024:1 2587:1 4122:1 4123:2 4124:2 4125:1 4126:1 4127:1 
1 8:1 25:1 43:1 44:1 49:1 72:2 77:1 78:1 131:1 172:1 243:2 248:1 326:1 505:1 649:1 758:1 1077:1 1364:1 1378:1 1543:2 2024:2 2200:1 3255:2 3512:1 4124:1 4125:2 4130:1 4131:1 
1 5:1 8:1 25:1 49:1 58:1 72:1 142:1 172:1 187:1 194:1 214:2 219:1 318:1 418:1 422:1 429:1 488:1 502:1 539:2 726:2 888:1 1013:1 1091:1 1117:2 1402:1 1416:1 1460:1 1736:1 1764:1 3348:1 4132:1 4133:1 4134:1 4135:1 
1 25:1 29:1 43:1 68:1 106:1 127:1 243:2 312:1 655:1 694:1 1048:1 1666:2 2024:1 3575:1 4124:1 4125:2 4138:1 4139:2 4140:2 4141:1 4142:1 4143:1 
1 3:2 25:1 49:1 68:1 75:2 94:1 95:1 106:1 121:1 135:1 307:1 315:1 373:2 560:1 639:1 761:1 913:1 1239:1 1411:1 1433:1 1604:1 1607:1 1706:1 1891:1 1999:1 2186:2 2264:1 2814:1 2854:2 3256:2 3444:1 3445:2 3448:2 3485:2 4144:1 4145:1 
1 9:2 16:1 25:1 29:1 36:1 42:1 45:1 49:1 75:1 94:1 99:1 100:1 221:2 307:1 436:1 567:1 760:1 865:1 895:1 971:1 973:2 1128:1 1607:1 1863:1 2030:1 2031:1 2348:1 4250:1 4251:1 4252:2 4253:1 4254:1 4255:1 4256:1 4257:1 4258:1 4259:1 4260:1 4261:1 4262:1 4263:1 
1 5:1 16:1 17:1 25:1 30:1 42:1 46:1 58:3 95:1 100:1 112:1 113:1 114:1 120:1 155:1 187:1 194:1 202:1 226:1 290:2 312:1 318:1 328:1 340:1 373:1 428:1 516:1 539:1 576:1 651:1 860:1 892:1 1091:1 1225:1 1353:2 1412:1 1491:2 2090:1 2209:1 2734:1 2736:1 3455:1 3749:1 4383:1 4384:1 4385:2 4386:1 4387:1 4388:1 4389:1 
1 8:1 17:1 22:1 25:1 35:2 44:1 46:1 53:1 110:1 161:1 175:1 194:2 204:2 213:1 214:2 219:1 231:1 232:1 373:1 465:2 474:1 504:1 505:2 519:1 531:1 611:1 695:2 1331:1 1786:1 1854:1 2194:1 2320:1 2364:1 2939:1 3033:1 3671:1 4390:1 4391:1 
1 25:1 46:1 51:1 94:1 106:1 121:1 152:1 153:1 171:1 268:1 281:1 307:1 358:1 373:2 505:1 563:1 639:1 765:1 830:2 1433:1 1570:1 1638:1 1697:1 1700:2 2227:1 2520:1 2723:1 2814:2 2854:1 3046:1 3256:1 3444:1 3445:1 3448:3 3484:2 3485:1 4392:1 4393:1 
1 2:1 4:1 5:1 6:1 11:1 25:1 49:1 94:1 153:1 219:1 1076:1 4394:1 4395:1 4396:1 
1 3:1 5:1 25:1 94:1 95:1 110:1 151:1 152:1 153:1 161:1 171:1 180:1 187:1 216:1 318:1 335:1 373:2 639:1 775:1 825:1 830:1 872:1 1010:1 1013:1 1835:1 1946:1 2814:1 2854:1 3256:1 3278:1 3444:1 3445:1 3448:2 3484:1 4397:1 4398:1 4399:1 4400:1 4401:1 4402:1 
1 25:1 49:1 68:1 75:2 100:1 151:1 221:1 318:1 373:2 375:1 385:1 519:1 525:1 537:1 804:1 865:1 1136:1 1500:1 2660:2 2681:1 3768:1 4523:2 4524:1 4525:1 4526:1 4527:1 4528:1 4529:1 4530:1 4531:1 4532:1 4533:1 4534:1 
1 13:1 23:1 25:2 42:1 46:1 51:1 77:1 118:1 133:2 157:1 196:1 284:1 288:2 290:1 307:1 369:1 402:1 856:1 1320:1 1331:1 1352:2 1750:2 1790:1 1907:2 4538:2 4539:1 4540:2 4541:1 4542:2 4543:1 4544:1 4545:1 4546:1 4547:1 4548:1 4549:1 
1 5:1 9:3 11:1 25:2 38:1 46:2 49:1 55:1 68:1 76:1 100:4 108:1 110:1 119:1 125:1 145:1 152:1 153:1 161:4 162:1 172:2 183:1 187:1 216:1 243:1 269:1 273:2 290:3 328:1 339:1 373:3 393:1 432:1 435:1 436:1 481:1 501:1 570:1 703:1 751:1 816:1 837:1 973:2 979:1 982:1 1010:2 1118:1 1356:2 1414:1 1419:1 1433:1 1622:1 1648:2 1856:1 2062:1 2299:2 2345:1 2499:1 3486:1 3822:1 4188:1 4559:3 4560:2 4561:1 4562:1 4563:1 4564:2 4565:1 4566:1 4567:1 4568:1 4569:1 4570:1 
1 3:1 25:1 64:1 154:1 166:1 198:1 318:1 424:1 501:1 564:1 575:1 724:1 726:1 766:1 841:1 901:1 979:1 1075:1 1819:1 1820:1 2426:1 2591:1 4598:1 4599:1 
1 25:1 49:1 97:1 100:1 138:1 249:1 427:1 732:1 984:1 1044:1 1128:1 1376:1 1558:1 1887:1 2100:1 2227:1 2322:1 2614:1 2957:1 4613:1 4614:1 4615:1 
1 25:1 666:1 668:1 4806:1 4807:1 4808:1 
1 25:1 58:1 425:1 564:1 859:1 1148:1 1353:1 2122:1 2620:1 4811:1 
1 3:1 25:1 29:1 45:1 49:1 72:1 75:1 94:1 106:1 112:1 113:2 114:2 117:1 118:1 121:1 133:1 152:1 153:1 157:1 226:2 296:1 325:1 373:2 639:1 752:1 935:1 1098:1 1284:1 1536:1 1625:1 1626:1 1706:1 2814:1 2854:1 3256:2 3262:1 3444:1 3445:1 3448:2 3484:1 3485:1 4840:1 4841:1 
1 5:1 25:1 49:1 68:1 151:1 171:2 172:1 187:1 214:1 315:1 335:1 385:1 409:1 500:1 503:1 505:1 533:1 693:2 697:1 701:2 1736:1 2277:1 3863:1 4842:1 
1 4:1 25:1 106:1 121:1 204:3 290:1 334:1 377:1 434:1 440:1 549:1 724:2 872:2 3182:1 3455:1 4200:1 4775:1 4843:3 4844:1 4845:1 4846:1 
1 3:1 25:1 29:1 34:1 35:2 40:1 46:1 49:1 58:1 59:1 68:1 204:2 214:2 273:2 297:2 315:1 373:2 531:1 556:1 611:1 653:1 695:2 759:1 935:1 1292:1 1433:1 1971:1 2364:1 2939:1 3671:1 4856:1 4857:1 4858:1 4859:1 
1 3:1 25:1 29:1 30:1 40:1 42:1 49:1 58:1 59:1 135:1 152:1 153:1 204:3 205:1 221:1 296:1 301:1 373:2 385:1 503:1 531:1 653:1 695:2 701:1 710:1 935:1 3531:1 3671:1 4857:1 4858:1 4860:1 4861:1 4862:1 4863:1 4864:1 
1 5:1 25:1 219:1 687:1 695:1 705:1 2352:1 4870:1 4871:1 
1 5:2 12:1 14:1 25:1 44:1 49:1 94:3 153:1 172:2 194:1 212:1 214:2 219:1 290:1 371:1 373:1 374:1 418:1 474:1 505:1 547:1 695:1 705:1 1078:1 1555:1 2127:1 2405:1 3546:1 4390:1 5093:1 5094:1 5095:1 5096:1 5097:1 
1 25:1 75:1 118:1 981:1 1017:1 1263:1 1555:1 2194:1 4894:1 5098:1 5099:1 
1 5:2 25:1 44:1 46:2 49:1 51:1 53:1 66:1 68:1 75:1 100:1 129:1 135:1 154:1 166:1 197:1 219:2 222:2 290:1 339:1 373:2 404:1 409:1 699:2 902:2 1010:1 1058:1 3544:2 3579:1 3728:1 4011:1 4409:1 5051:1 5100:1 5101:1 5102:1 
1 23:1 25:1 45:4 46:2 48:1 68:1 94:1 100:1 110:1 171:1 226:1 315:1 533:1 564:1 638:1 822:1 833:1 935:1 970:1 1128:1 1404:1 1772:1 2203:1 3202:1 3562:2 4311:1 5108:1 5109:2 5110:1 5111:1 5112:1 5113:1 
1 15:1 25:1 49:1 161:2 162:1 226:1 243:1 492:1 539:1 939:1 1037:1 1607:1 2277:1 2511:1 2512:1 3328:1 3725:1 3782:1 3783:1 3789:1 5116:2 5117:1 
1 15:2 25:1 49:1 58:1 91:1 161:1 162:2 243:2 277:1 428:1 429:1 492:2 707:1 1115:1 1327:1 1607:1 1866:1 3328:2 3782:2 3783:2 3786:1 4133:1 5116:2 5118:1 
1 5:1 25:1 29:1 34:1 35:1 55:1 57:1 72:1 100:1 113:1 114:1 118:1 153:1 226:1 564:2 653:1 822:1 1003:1 1683:1 2352:1 2839:1 3332:1 3486:1 3605:1 3606:1 3607:1 3801:1 3834:1 5184:1 5185:1 
1 5:1 8:1 17:1 23:1 25:1 34:1 35:1 45:1 46:1 49:1 55:2 64:2 72:1 73:1 74:1 75:3 76:1 91:1 94:2 100:1 113:1 114:1 119:1 153:1 226:2 247:3 270:1 428:1 497:1 653:2 750:1 799:1 822:3 892:1 954:1 1003:2 1168:1 1353:1 1377:1 2352:2 2364:1 3003:1 3486:3 3605:1 3607:2 3608:1 3610:1 3801:1 3834:2 4814:1 5184:2 5185:1 5186:1 5187:1 5188:3 5189:1 5190:1 5191:1 5192:1 5193:1 5194:1 
1 5:1 23:1 25:1 46:1 82:1 106:3 121:3 172:1 197:1 212:1 231:2 261:1 262:1 290:1 547:1 578:1 721:1 1157:1 1305:1 1548:2 2364:1 2422:1 2934:1 3132:1 3481:1 4054:1 4205:1 4266:1 5097:1 5319:1 5320:1 5321:2 5322:1 5323:1 5324:1 5325:1 5326:1 5327:1 5328:1 
1 23:1 25:1 29:1 49:1 100:2 112:1 113:1 114:1 197:2 214:2 304:1 315:2 325:1 326:1 373:1 529:1 538:1 539:1 653:1 695:2 701:2 707:1 775:1 1052:1 1077:1 1451:2 2330:1 3832:1 4443:1 4818:1 5345:1 5346:1 5347:1 
1 5:1 8:1 12:1 25:1 46:1 94:1 106:3 121:3 194:1 214:2 219:2 222:2 447:1 477:1 492:1 693:1 695:1 755:2 756:2 757:1 763:1 1364:1 1416:1 1457:1 1736:1 3342:1 4139:1 5322:1 5366:1 5367:1 
1 5:2 25:1 46:1 58:2 68:2 108:1 132:2 155:1 172:1 175:1 197:1 214:1 219:2 222:1 304:1 348:1 349:1 373:1 503:1 674:1 695:2 705:2 712:2 1078:1 1134:1 1315:1 1814:1 2364:1 3240:1 5368:1 5369:2 5370:2 5371:1 
1 5:2 25:1 29:1 45:1 68:2 77:1 100:1 112:2 113:2 114:2 115:1 151:1 203:1 214:2 216:2 219:1 222:1 273:1 304:1 315:1 318:1 373:1 576:1 651:1 653:1 694:1 695:2 705:1 799:1 830:2 837:1 1134:3 3262:2 5402:2 5403:1 5404:1 5405:1 
1 25:1 34:1 36:1 42:1 47:1 49:1 94:1 95:1 96:1 97:1 100:1 106:1 112:1 113:1 114:1 115:3 121:1 150:2 151:1 161:1 171:1 173:1 187:1 219:2 290:2 302:1 334:1 386:2 476:1 510:2 576:1 602:1 611:1 618:1 637:2 731:1 740:1 1013:2 1077:1 1625:1 1626:1 1700:1 2248:1 2258:2 3262:1 4648:1 4727:1 5642:1 5643:1 5644:1 5645:1 
1 25:1 44:2 95:1 118:1 127:1 198:1 206:2 505:1 547:1 618:2 771:1 1007:1 1160:1 1162:1 1593:1 1885:1 2405:1 2733:1 3081:1 3270:2 3286:1 3687:1 5663:2 5664:1 
1 25:1 49:1 75:1 196:1 243:3 290:1 515:2 1122:1 1303:1 1573:1 1775:1 1834:1 1845:1 2088:1 2480:1 3185:1 3671:1 3879:1 3982:1 5684:1 5685:2 5686:2 5687:1 5688:1 
1 4:1 13:1 14:2 25:1 29:1 35:1 44:1 68:1 94:3 110:1 152:1 153:1 161:1 162:2 167:1 172:2 175:2 187:1 219:1 280:1 373:1 374:1 492:1 635:1 653:1 655:1 1128:1 1332:2 1402:1 1461:2 2216:1 4064:1 4214:1 5757:2 5758:1 5759:1 5760:1 5761:1 
1 5:1 14:1 25:1 35:1 58:1 135:1 219:1 226:1 305:1 328:1 358:1 373:2 473:1 492:1 591:1 653:1 706:1 758:1 979:1 1194:1 1985:1 2492:1 3328:2 4063:2 5762:1 5763:2 5764:2 5765:1 5766:1 
1 25:1 49:1 68:1 75:1 125:1 135:1 161:1 171:1 221:1 373:2 492:2 687:2 695:2 800:1 913:1 1115:2 1116:1 1315:1 1323:1 1402:1 1446:2 2260:1 2736:1 5437:1 5571:1 5860:2 5861:1 5862:1 
1 17:1 25:1 49:1 99:1 100:1 106:2 110:1 121:2 131:1 151:1 154:1 157:1 166:1 173:1 247:1 271:1 358:1 406:1 539:1 549:1 732:1 993:1 1013:1 1080:1 1242:1 1276:1 1320:1 1416:2 1417:1 1512:1 1540:1 2364:1 2517:1 3103:1 3220:1 3333:1 3822:1 3985:1 5872:1 5873:1 5874:1 5875:1 5876:2 5877:1 
1 25:1 35:2 49:1 58:1 75:1 82:1 99:2 100:1 110:1 113:1 114:1 131:1 133:1 166:1 187:1 221:1 240:1 295:1 380:1 406:1 549:1 587:1 593:1 634:1 653:1 711:1 973:3 1088:1 1124:1 1536:1 1790:1 3126:1 3468:1 4118:1 4931:1 5615:1 
1 25:1 334:1 371:1 486:1 492:1 4806:1 4807:1 4808:1 5881:1 
1 5:1 8:1 17:2 25:2 44:1 58:4 67:1 75:2 106:4 121:4 131:1 161:1 171:1 197:1 249:1 339:1 418:1 497:1 533:1 547:1 549:1 551:2 554:1 641:1 765:1 771:1 1084:1 1129:1 1200:1 3158:1 3455:1 4176:1 4811:1 5265:1 5810:1 5892:1 5893:1 5894:1 5895:1 5896:1 5897:1 5898:1 5899:1 
1 5:1 25:1 49:1 135:1 153:1 334:1 503:1 594:1 602:1 655:1 689:1 695:1 705:1 710:1 842:1 1623:1 3293:1 3296:1 5368:1 5957:1 
1 4:2 25:1 46:1 49:1 68:1 118:3 129:2 131:1 175:1 183:1 187:1 189:1 214:1 220:2 334:1 358:1 386:1 503:1 721:1 1010:1 1117:2 1278:1 1450:1 1460:1 1906:1 2066:2 2666:1 3616:1 4060:1 4432:2 5970:1 
1 13:1 25:1 44:1 75:1 110:1 112:1 247:1 367:1 380:1 500:1 533:1 592:1 618:1 746:1 751:1 795:1 819:1 1126:1 1436:1 1622:1 1856:1 1885:1 2161:1 2368:1 2441:1 2951:1 3219:1 3255:1 5971:1 5972:1 5973:1 5974:1 5975:1 5976:1 5977:1 
1 5:1 8:2 25:1 30:2 49:1 67:1 75:1 100:1 157:1 171:1 175:1 249:1 373:1 474:1 476:2 503:2 726:1 1457:2 1716:1 1736:1 2710:2 3054:1 3340:1 3502:1 5793:1 5848:1 6010:2 6011:1 6012:1 
1 8:1 16:1 25:1 28:1 29:2 40:2 42:1 44:1 46:1 48:1 53:1 55:1 58:1 75:2 76:1 95:2 100:1 115:1 135:1 145:1 152:1 153:1 157:1 161:2 172:1 280:1 290:2 326:2 328:1 373:1 475:1 492:1 541:2 547:1 549:1 591:1 645:5 653:1 712:1 830:1 882:1 947:1 1010:1 1075:1 1092:1 1125:1 1292:1 1415:1 1638:1 1871:1 1954:1 2020:1 2041:1 2364:1 2458:3 2588:1 2601:1 3395:2 3530:1 3624:1 4283:2 4389:1 4447:2 4983:1 5870:4 6034:3 6035:1 6036:1 6037:2 6038:1 6039:1 6040:1 6041:1 6042:1 6043:1 6044:1 6045:1 
1 5:2 12:1 13:1 14:1 25:1 58:1 59:1 94:3 95:1 172:1 214:1 219:4 222:1 348:1 349:1 380:1 386:2 500:1 695:2 705:2 1115:1 1489:1 1949:1 2405:1 3345:1 3863:1 4139:1 4833:1 
1 25:1 75:1 108:1 155:1 172:1 187:2 194:1 206:1 232:1 249:2 321:1 363:1 364:1 373:2 418:1 477:1 503:1 505:2 547:1 693:2 1139:1 1555:1 1904:2 1949:2 2022:1 2192:1 2194:1 2634:1 3033:1 5097:1 6048:1 6049:1 6050:1 6051:1 6052:1 6053:1 
1 16:2 21:1 25:1 44:1 49:1 75:1 94:2 110:2 120:1 170:2 172:1 197:2 204:1 313:1 358:1 401:2 460:1 475:1 500:1 503:1 505:2 594:1 695:1 860:1 966:3 1162:1 1433:1 1790:1 2215:2 2220:1 2614:1 2980:1 3412:1 4548:1 6050:1 6054:1 6055:3 6056:2 6057:1 6058:1 6059:1 6060:1 6061:1 
1 16:1 25:1 51:1 106:2 121:2 288:1 314:1 503:1 714:1 807:1 947:1 1013:1 1946:1 1991:1 2946:1 4623:1 4921:1 6094:1 6095:1 6096:1 
1 25:1 197:1 304:1 305:1 813:1 911:1 1779:1 6098:1 6099:1 
1 5:2 13:1 17:1 25:1 28:1 40:2 43:1 44:1 46:1 49:1 67:1 94:1 95:1 106:2 118:1 121:2 187:2 273:1 280:1 281:1 290:1 312:1 313:2 330:1 338:1 503:1 538:1 547:1 574:1 578:1 639:1 724:1 947:2 1052:1 1353:1 1747:1 2028:2 2469:1 2470:1 2546:2 3040:2 3237:1 3389:1 4304:1 4306:1 4307:1 6104:2 6105:1 6106:1 6107:1 6108:1 
1 25:1 95:1 97:1 639:1 765:1 786:1 2227:1 2736:1 2798:1 3608:1 3697:1 4953:1 6140:1 
1 3:1 25:1 34:1 63:1 86:1 380:1 564:1 588:1 611:1 653:1 707:1 1331:1 1677:1 1678:1 1679:1 1680:1 
1 5:3 13:1 25:1 46:1 49:1 115:1 157:1 172:1 183:1 194:1 306:1 418:1 539:1 547:1 612:1 702:2 713:1 902:1 912:1 1080:1 1130:1 1236:1 1298:1 1450:1 1716:1 1946:1 2234:2 3283:1 5097:1 5116:1 5973:2 6172:1 6173:1 6174:1 6175:1 6176:1 
1 25:1 58:2 75:1 146:1 187:1 194:1 246:1 334:1 373:1 488:1 567:1 1654:1 2234:2 2860:2 4674:1 5497:2 5530:1 6178:1 6179:1 
1 16:1 23:1 25:1 44:1 49:1 58:2 231:2 246:1 288:1 373:2 446:1 533:2 1158:1 1654:2 2392:2 2393:1 2584:1 2648:1 2851:1 2854:1 2860:2 3412:1 3431:1 5497:2 5498:1 5500:1 
1 5:1 23:1 25:1 35:1 44:1 46:1 51:1 68:2 70:2 75:2 95:3 100:1 110:1 125:2 133:1 135:1 152:1 153:1 171:1 172:1 197:1 219:1 287:1 290:2 327:1 334:1 373:3 492:1 493:1 527:1 528:1 529:1 530:1 547:1 570:1 593:1 611:1 625:1 641:1 674:1 789:1 912:3 1010:1 1013:1 1059:1 1116:1 1258:2 1328:1 1362:1 1644:2 1698:1 1787:1 1914:1 1969:1 2072:1 2167:1 2395:1 2506:2 2660:2 3062:1 3205:1 3278:1 4267:1 4275:2 4443:1 4529:1 5804:1 6219:1 6220:1 6221:1 6222:1 6223:1 6224:1 6225:1 
1 3:1 13:1 25:1 29:1 43:1 46:1 48:2 49:1 67:1 94:1 187:2 198:1 363:1 492:1 509:2 531:1 908:1 1010:1 1013:1 1332:1 1417:1 1743:1 2344:1 2722:1 2897:1 3181:1 3278:1 3491:1 4100:2 4671:1 4917:1 6250:1 6251:2 6252:1 6253:1 6254:1 6255:1 6256:1 
1 3:1 13:1 25:1 46:1 72:1 75:2 79:1 95:1 100:1 106:1 113:1 114:1 121:1 140:1 153:1 172:1 196:1 219:1 287:1 288:2 295:1 304:2 305:1 307:1 327:1 336:1 367:1 420:1 421:1 489:1 498:1 551:1 564:1 751:1 765:1 766:1 800:4 901:3 908:1 911:1 913:1 1102:1 1379:1 1697:1 1823:1 2436:1 4168:1 5332:1 6261:1 6262:1 6263:1 6264:1 
1 3:1 8:1 17:1 22:2 25:1 44:2 46:1 49:1 53:3 67:1 75:2 95:1 99:1 106:1 120:1 121:1 131:1 157:3 161:7 194:1 197:1 211:1 246:1 247:1 281:1 312:1 314:1 318:3 328:1 330:1 338:2 358:3 364:1 373:6 380:1 386:2 401:1 427:1 497:1 509:2 539:1 541:1 556:1 570:1 612:1 687:1 765:1 830:1 894:1 913:1 1010:2 1059:1 1066:2 1067:2 1069:1 1087:1 1118:1 1122:1 1126:2 1150:1 1151:2 1225:2 1308:2 1401:1 1402:1 1419:1 1605:1 1721:1 2122:2 2132:1 2264:1 2317:1 2958:1 2974:1 3026:2 3202:2 3651:1 4163:1 5183:3 5878:1 6100:1 6278:1 6279:4 6280:1 6281:1 6282:1 6283:1 6284:2 6285:1 6286:1 6287:1 
1 8:2 13:1 17:1 25:1 43:1 44:1 58:2 94:2 100:1 110:1 115:2 120:1 166:1 171:1 172:1 178:1 290:2 304:1 373:3 418:1 457:1 492:3 510:1 541:1 653:1 713:1 724:1 751:1 909:3 1075:1 1151:1 1286:1 1303:1 1555:1 1617:1 2121:1 2426:1 2431:1 2943:2 6311:1 6312:1 
1 25:1 32:1 40:2 44:1 46:1 49:1 57:1 75:1 86:1 97:1 115:1 118:1 131:1 152:1 297:1 306:1 418:1 492:1 501:1 581:1 724:1 1098:1 1118:1 1151:1 1480:1 1623:1 1991:1 2203:1 2276:1 2511:1 2512:1 2778:1 3671:1 3785:1 3801:1 3865:1 4372:1 6352:2 6353:1 6354:1 
1 16:1 25:1 46:1 58:1 172:1 197:1 613:1 3431:1 6356:1 
1 5:2 17:1 25:1 40:1 49:1 304:1 334:1 367:2 373:1 539:1 639:1 653:1 762:3 912:3 1362:1 1604:1 1911:2 2655:1 2782:2 2937:2 3300:2 3455:1 3741:3 4530:1 4531:1 6182:1 6366:2 6367:1 6368:1 6369:1 
1 5:2 8:1 25:1 46:1 48:1 49:1 82:2 175:1 194:1 211:1 290:1 503:2 509:1 543:1 596:1 674:1 1352:2 2020:1 2148:2 2234:2 2299:1 2606:2 3222:1 3250:2 3352:2 3697:1 6373:2 6374:1 6375:1 
1 8:1 25:1 28:1 40:1 49:1 58:1 64:2 67:1 75:1 95:1 115:1 172:1 231:1 287:2 288:2 334:1 373:1 374:1 959:1 1654:2 1819:1 1880:1 2234:1 2851:1 4932:1 5497:2 6409:1 6410:1 6411:1 6412:1 
1 5:1 8:1 17:1 25:1 28:1 29:1 49:1 64:1 95:1 151:1 152:1 155:1 169:1 187:1 194:1 288:2 317:2 326:1 328:1 492:1 655:1 705:1 713:1 911:1 912:1 2234:2 2372:1 5153:2 6413:1 6414:1 6415:1 6416:1 6417:1 6418:1 6419:1 
1 22:1 25:1 94:1 110:2 118:1 121:1 194:1 288:2 307:1 434:2 474:1 492:2 547:1 584:1 647:1 714:1 1039:2 1057:1 1555:1 1623:1 1710:1 2090:1 2194:1 3633:2 4147:2 4148:2 6424:1 
1 8:1 13:1 25:1 32:2 46:1 58:1 61:1 75:1 77:1 94:1 112:1 118:1 172:1 197:1 246:1 247:1 304:2 572:1 579:1 653:1 1040:1 2301:2 3801:1 4371:1 6354:1 6455:1 6456:1 
1 23:1 25:1 49:1 99:1 100:1 133:1 157:1 367:1 387:1 587:4 982:1 1087:1 1158:1 2186:2 2227:1 2264:1 2352:1 2368:1 2825:1 2918:1 3903:1 5417:1 6467:1 
1 8:1 17:1 25:1 35:1 49:1 58:1 145:1 157:1 206:1 219:2 290:1 327:1 336:1 348:1 349:1 371:1 389:1 492:1 611:1 739:2 745:1 909:1 1139:1 1282:1 1620:1 1623:1 5669:1 
1 17:1 25:1 97:1 118:1 1020:1 1291:1 1554:1 1573:1 
1 12:1 16:2 17:1 25:1 46:2 49:1 120:1 153:2 162:2 194:2 213:1 214:3 232:1 290:1 371:2 472:2 474:2 547:1 549:1 695:2 752:1 771:1 985:1 1071:1 1139:1 1549:1 1555:1 2634:1 2680:2 2709:2 2710:2 4331:1 5097:1 5322:1 5645:1 6508:1 
1 5:1 25:1 29:1 36:1 46:1 49:1 57:2 58:2 91:1 108:1 110:1 118:1 120:1 135:1 171:2 214:1 219:1 220:1 276:1 290:1 304:1 373:1 503:1 760:2 761:2 1118:1 1334:1 2843:1 3154:1 3847:1 5162:1 5816:1 6509:1 6510:1 6511:1 6512:1 
1 5:1 25:1 57:2 108:1 135:1 161:1 171:2 214:1 348:1 349:1 366:1 702:1 703:1 760:1 761:1 1139:1 1298:1 1299:1 1402:1 1648:1 3154:1 3847:1 6509:1 6518:1 6519:1 
1 5:1 25:1 36:1 42:1 97:1 100:1 106:1 108:1 110:1 121:1 140:1 149:1 290:2 318:1 334:1 373:1 503:1 659:1 761:2 1334:1 1554:2 1710:1 2553:1 3081:1 3847:1 4604:1 6509:1 6520:1 
1 5:1 25:1 29:1 58:1 91:1 97:1 135:3 151:1 157:1 171:2 172:1 290:1 367:1 373:1 376:1 392:1 409:1 503:1 607:1 703:1 760:1 1118:1 1334:1 1716:1 2120:1 2352:1 2363:1 3847:2 6509:1 6519:1 6528:1 6529:1 
1 16:1 25:1 30:1 46:1 94:1 95:1 107:1 110:2 129:1 135:1 141:1 170:1 206:1 290:1 318:1 366:1 373:1 409:1 471:1 497:1 503:1 529:1 659:1 743:2 761:1 982:1 1856:1 2020:1 2022:1 2088:1 2107:1 2283:1 2352:1 3367:1 3832:1 3847:1 4478:1 6530:1 
1 3:2 4:1 8:1 13:1 16:1 23:1 25:1 46:1 51:1 58:1 75:1 95:1 128:1 172:1 178:1 249:2 328:1 380:1 389:1 576:1 720:1 724:1 1139:1 1164:1 1256:1 1372:1 1563:1 1750:1 1871:1 1966:1 2760:2 3307:2 4319:1 4320:1 4588:2 5161:2 6554:1 6555:1 6556:1 6557:1 6558:1 6559:1 
1 25:1 46:1 72:1 95:1 99:1 100:1 113:1 114:1 118:1 166:1 288:2 587:1 647:1 799:1 1039:1 1087:1 1118:1 1203:1 1323:1 1608:1 3081:1 3854:1 6560:1 6561:2 6562:1 6563:1 6564:1 
1 8:1 25:1 44:2 49:1 110:1 115:1 151:2 152:1 153:1 161:1 214:2 287:2 288:2 304:2 305:2 307:1 554:2 560:1 1037:1 1185:1 1433:1 1512:1 1747:1 2757:1 3123:1 3124:1 3455:2 3769:2 5322:1 6565:2 6566:1 
1 13:1 16:1 25:1 34:1 42:1 49:1 94:1 100:1 110:1 131:1 151:1 152:2 153:1 221:2 281:1 287:1 288:3 300:1 304:1 305:1 366:1 367:1 371:1 386:1 401:2 533:1 598:1 706:2 899:1 911:2 1128:1 1190:1 1428:1 1433:1 1660:1 1994:1 2021:2 2355:1 3546:1 5617:2 6585:1 6586:1 6587:2 6588:1 6589:1 6590:1 6591:1 6592:1 
1 25:1 46:3 72:2 113:2 114:2 288:1 428:1 439:2 588:3 632:2 800:1 1124:1 1623:1 1859:1 1897:1 5183:2 5280:1 6614:1 6615:2 6617:1 6621:2 6622:1 
1 25:1 55:1 73:1 74:1 76:1 100:1 112:1 115:1 152:1 318:1 406:1 427:2 455:1 533:1 570:1 727:1 837:1 895:1 1077:1 1098:1 1104:1 1159:1 1254:2 1405:1 1493:1 1510:2 1545:1 1772:1 1963:1 1969:2 2617:1 2688:1 2946:1 3272:1 3834:1 4430:1 5166:1 6639:1 6640:1 6641:2 6642:2 6643:1 6644:1 6645:1 6646:1 6647:1 
1 25:1 94:1 100:2 120:1 133:1 197:1 219:2 373:2 386:2 529:1 693:1 701:1 705:1 713:1 799:1 837:1 1334:1 2349:1 2352:1 3284:1 3863:1 
1 5:1 8:1 23:1 25:1 94:1 99:1 100:2 106:1 110:1 120:1 121:1 166:1 172:1 187:1 204:1 214:1 222:1 246:1 273:1 290:1 328:1 404:1 406:1 413:1 505:1 549:1 582:1 674:1 695:2 705:1 716:1 729:1 1403:1 1460:1 1790:1 1904:1 2065:1 2131:1 2264:1 2757:1 3813:1 3863:1 6685:1 6686:1 6687:1 6688:1 6689:1 6690:1 6691:1 6692:1 6693:1 
1 25:1 100:1 216:4 281:1 334:1 373:1 693:1 717:1 987:1 1118:1 1750:1 2090:1 2478:1 3269:1 4037:2 4139:1 4383:1 6695:2 6696:1 
1 5:1 13:2 22:1 25:1 52:1 75:1 94:1 172:1 213:1 214:1 219:1 253:1 290:1 373:1 474:1 492:1 674:1 695:1 705:1 959:2 1037:1 1323:1 1949:2 2405:1 3863:2 4139:1 5096:1 5097:1 6424:1 6697:1 6698:1 6699:1 6700:1 
1 5:2 8:1 25:1 43:1 44:1 70:1 108:1 128:1 161:1 187:1 246:1 283:1 509:1 547:2 617:1 795:1 1116:1 1854:1 3432:2 4792:1 6727:2 6728:2 6729:1 
1 25:1 46:1 49:1 53:1 59:1 77:1 100:1 152:1 161:1 205:2 371:2 373:3 380:1 503:1 523:2 531:1 539:1 548:1 653:1 1077:1 1963:1 2186:1 2310:1 2525:3 2526:1 4062:2 4870:1 6279:1 6302:1 6733:1 
1 25:1 30:2 40:1 46:2 47:2 48:2 58:1 73:1 74:1 75:2 76:1 82:1 95:4 97:2 100:2 106:1 109:1 112:2 121:1 152:1 155:1 168:2 169:2 172:1 175:1 187:1 194:1 202:1 226:2 232:1 278:1 312:1 327:1 406:1 531:1 538:1 591:2 747:2 888:1 901:2 939:1 973:1 1024:1 1059:1 1104:1 1128:1 1151:1 1255:1 1334:1 1536:1 1854:1 2046:1 2740:1 2768:2 2961:1 3154:1 3798:2 5959:1 6779:1 6780:1 
1 5:1 25:1 43:1 46:2 49:1 51:2 53:1 120:1 157:1 171:2 205:1 214:1 216:1 232:1 358:1 409:1 433:1 500:2 503:1 673:1 760:1 785:1 837:1 1139:1 1404:1 1716:1 1774:1 2092:1 3412:1 3749:1 3847:1 4409:1 6511:1 6806:1 
1 12:1 13:1 23:1 25:1 44:1 46:1 49:1 50:1 58:3 94:1 120:1 148:1 155:1 164:1 175:1 247:1 271:1 304:1 451:2 455:1 904:1 909:1 1182:1 1527:1 1605:1 1866:1 1969:1 2048:1 2667:1 2686:1 3106:1 4590:1 5042:1 5571:1 5761:2 6819:1 6820:1 
1 3:1 5:3 8:1 17:1 22:1 23:1 25:1 49:1 53:1 58:2 59:1 67:1 75:1 142:1 152:1 153:1 172:2 194:1 205:1 212:1 214:3 248:1 258:1 380:1 434:1 474:2 505:2 521:1 695:1 705:1 1155:1 1195:1 1270:1 1786:1 1904:1 2320:1 2710:1 2851:1 3033:1 3342:1 4323:1 5097:1 5368:1 6549:1 6906:1 6907:1 
1 5:1 16:1 25:1 46:1 49:1 172:1 197:1 214:2 503:1 860:1 987:1 1067:1 1148:1 1157:1 1272:1 1274:1 1285:1 1555:1 1560:1 1866:1 2392:1 3152:1 3431:1 5922:1 6917:1 6918:1 6919:1 
1 4:1 8:4 16:1 23:1 25:1 40:1 44:2 49:2 51:1 58:1 70:1 75:1 77:1 82:1 100:1 106:2 107:1 108:1 110:4 120:1 121:2 129:1 131:1 157:3 161:2 166:1 168:1 169:1 170:4 171:2 172:2 181:3 197:1 198:1 206:1 219:1 226:1 231:1 243:1 247:1 253:1 290:2 307:1 318:2 328:2 330:1 331:1 365:1 367:1 375:1 409:1 418:1 420:1 447:1 467:1 507:1 510:1 533:2 549:1 560:1 598:1 611:1 618:1 686:1 700:1 762:1 789:2 906:1 924:2 947:1 965:1 979:2 1032:1 1103:1 1118:1 1274:1 1284:3 1285:1 1306:1 1440:1 1463:1 1555:1 1622:1 1623:1 1628:1 1657:1 1686:3 1690:2 1761:1 1850:1 1960:1 2125:1 2194:1 2349:1 2383:2 2648:1 2702:1 2715:1 2902:2 2969:1 2970:1 3055:1 3152:1 3579:1 3754:1 4348:1 4452:1 4511:1 4587:1 4588:1 4590:2 4591:1 4592:1 4684:1 5275:1 5906:1 6060:1 6334:1 6931:2 6932:1 6933:1 6934:1 6935:1 6936:1 6937:1 
1 8:3 25:1 36:1 40:1 46:2 49:2 51:1 57:1 58:1 68:1 75:1 110:1 115:1 118:1 120:1 166:1 171:1 172:1 178:1 187:1 190:1 197:1 232:1 307:1 324:1 358:1 531:2 547:1 549:1 550:1 567:1 570:1 721:1 895:1 1084:1 1139:1 1285:1 2028:1 2167:1 2248:1 2953:1 3196:1 3261:1 3389:1 3865:1 3937:1 5530:1 5959:1 6943:1 6944:2 6945:1 6946:1 6947:1 
1 15:1 25:1 44:1 100:1 125:1 162:1 243:1 475:1 753:1 1175:1 3333:1 6965:1 
1 8:1 14:1 25:1 95:1 108:1 120:1 175:1 187:1 194:1 222:1 373:3 429:1 455:2 472:1 492:1 503:1 597:2 702:2 912:2 1880:1 1969:1 2148:1 2218:1 2399:1 2680:1 3366:1 4286:2 5727:1 6977:1 6978:1 6979:1 6980:1 
1 4:1 5:2 11:2 12:1 25:1 49:1 82:2 151:1 162:1 175:1 187:1 219:2 290:1 340:2 439:1 611:1 906:1 2299:2 2300:2 2457:2 5278:2 7004:2 
1 17:1 23:1 25:1 44:1 46:1 94:1 110:2 150:1 167:1 172:1 173:1 197:1 288:1 307:1 446:1 487:1 509:1 579:1 755:1 1032:1 1564:1 1622:1 1656:1 1830:1 1904:1 1961:1 2876:1 3455:1 4625:1 7026:1 7027:1 7028:1 7029:1 7030:1 7031:1 7032:1 
1 5:2 8:1 25:1 44:1 46:1 72:1 73:1 74:1 110:1 118:1 161:1 172:1 198:1 216:1 288:2 418:1 503:1 761:2 784:1 892:1 911:1 969:1 1555:1 2194:1 3142:1 3363:1 4347:1 5050:1 5175:1 5816:1 
1 5:1 25:1 40:1 49:1 68:1 135:1 151:2 155:1 157:1 175:1 187:2 214:1 288:2 304:1 305:1 307:1 363:1 364:1 380:1 386:1 420:2 503:1 547:1 560:1 902:1 947:1 970:1 971:1 2327:1 2330:2 3277:1 3769:2 5577:1 5710:1 6565:2 7037:1 7038:1 7039:1 7040:1 7041:1 
1 5:1 8:1 9:2 13:1 25:1 46:1 49:1 94:1 96:1 100:2 110:1 118:1 119:1 153:1 171:1 175:1 198:2 211:1 226:1 281:1 358:1 480:1 503:1 547:1 576:1 674:1 716:1 729:1 751:1 799:1 931:1 1010:1 1128:1 1493:2 1566:1 1894:2 1926:1 2252:1 3619:1 7195:1 7196:1 7197:1 7198:1 7199:1 
1 2:1 23:1 25:1 46:2 53:1 97:1 99:1 110:2 125:1 157:1 172:1 222:1 258:3 406:1 500:1 579:1 629:1 695:1 705:1 732:1 799:2 966:1 996:1 1129:1 1209:1 1564:1 1880:1 2027:1 2266:1 2903:1 3159:1 3384:1 4743:1 6583:1 6679:1 7208:1 7209:1 7210:1 7211:1 7212:1 7213:1 
1 8:1 13:1 15:1 17:1 22:1 25:1 58:2 118:1 161:1 198:2 226:1 280:1 290:3 386:1 492:1 541:1 591:1 645:2 682:1 753:1 830:2 1010:1 1077:1 1124:1 1450:1 1926:1 2300:2 3561:2 4476:2 5341:1 7220:1 
1 25:1 35:1 67:1 68:1 75:1 95:1 171:2 226:2 246:1 338:1 386:1 410:2 426:2 537:1 613:1 653:1 887:1 1010:1 1306:2 1926:1 2167:1 2545:1 3103:1 3396:1 3606:1 6356:2 7238:2 7239:2 
1 5:1 25:1 30:2 46:1 58:1 68:1 100:1 161:1 166:1 338:1 373:2 556:1 873:1 1131:2 1266:1 1839:1 2545:2 2669:1 3395:1 6541:1 7248:1 7249:2 
1 16:1 25:1 44:1 46:1 106:1 121:1 162:1 206:1 225:1 232:1 354:1 355:1 418:1 434:1 474:1 521:1 547:1 762:1 828:1 838:1 1164:1 2613:1 3872:1 4612:1 5219:1 5408:1 7266:1 7267:1 7268:1 
1 25:1 151:1 1871:1 2186:1 2348:1 3378:1 4074:1 7288:1 7289:1 7290:1 
1 16:1 23:1 25:1 43:1 49:1 68:2 106:1 121:1 315:2 387:1 714:1 1159:1 1163:1 1404:1 2186:1 2499:2 3202:1 7291:1 7292:2 7293:2 7294:1 7295:1 
1 5:1 25:1 172:1 247:1 288:1 420:1 509:1 888:1 6723:1 7343:1 
1 4:1 25:1 35:2 46:1 51:1 75:1 99:1 115:1 120:1 135:2 151:1 175:1 187:2 219:2 373:1 380:1 386:2 492:1 554:1 560:1 611:1 710:1 724:1 902:1 971:1 1055:1 1331:1 1513:1 1633:1 1686:2 1700:1 1969:1 2660:2 3455:1 3501:1 3769:1 4153:1 5646:1 7350:1 7351:1 7352:1 7353:1 
1 5:1 8:1 25:1 220:1 373:1 1076:1 3122:1 5870:1 7380:1 
1 5:1 25:1 34:1 35:1 42:1 43:1 44:1 45:1 46:2 55:1 68:1 75:2 94:1 99:1 106:1 115:4 117:2 118:1 121:1 152:1 220:1 247:1 315:1 325:2 503:1 533:1 572:2 575:1 714:1 727:1 830:1 908:1 1097:1 1098:1 1480:1 1538:1 1608:2 1987:1 2210:1 2301:2 2426:1 3486:1 4371:2 4372:1 5988:1 7435:1 7436:1 7437:1 7438:1 
1 13:1 17:1 22:2 25:1 57:1 58:2 94:2 135:1 152:1 219:1 220:1 226:2 304:1 324:1 373:2 539:1 659:1 760:1 903:1 909:3 1139:2 1182:2 1936:2 2734:1 6482:2 7441:1 7442:1 
1 1:1 5:2 11:1 12:1 25:1 67:1 75:1 125:1 151:1 161:1 290:2 492:1 503:1 593:1 597:1 799:1 1142:1 1644:2 2292:1 2506:1 2667:1 4016:1 5278:1 6588:1 6799:1 7494:1 7495:1 7496:1 7497:1 7498:1 
1 15:2 17:1 22:1 23:1 25:1 44:1 46:2 53:1 75:2 172:1 206:1 290:1 418:1 539:2 762:1 822:1 1010:1 1078:2 1414:2 1457:1 2852:1 3683:2 3687:1 5097:1 7267:1 7518:1 7519:1 
1 13:1 25:1 46:1 48:3 58:1 61:1 94:1 100:1 171:2 172:1 194:1 318:1 548:1 653:1 714:1 799:1 901:1 1021:2 1209:1 1448:1 2394:1 3055:1 4990:1 5535:1 5550:1 6453:2 7246:1 7529:1 7530:1 7531:1 
1 25:1 53:1 67:1 827:1 838:1 916:1 1173:1 3342:1 4612:1 7564:1 
1 5:2 25:1 49:2 51:1 75:1 87:1 97:1 106:1 120:1 121:1 157:1 175:1 216:1 271:1 328:1 358:2 373:3 492:1 533:1 687:1 947:1 1772:1 2006:1 2352:1 2452:1 2610:1 3252:2 3498:1 3864:3 5101:1 7571:1 7572:1 
1 10:1 17:1 22:1 23:1 25:1 58:2 68:2 188:1 203:1 221:1 308:1 401:1 591:2 645:1 751:1 806:2 955:2 962:1 1151:1 1307:1 1686:2 2431:1 3055:1 4003:1 6602:1 7264:1 7580:1 7581:1 
1 25:1 35:1 44:1 46:2 94:1 99:1 118:2 120:2 129:1 135:1 162:2 183:1 187:1 216:1 260:1 328:1 373:2 418:1 503:1 505:1 519:1 588:1 610:1 692:1 941:1 1747:1 2405:1 3808:1 4432:2 5097:1 5116:1 5497:2 7634:1 7635:1 
1 5:1 12:1 25:1 58:2 172:1 175:1 214:3 231:2 258:1 304:1 380:1 674:1 695:1 705:1 902:1 1014:1 2364:1 2709:1 2710:1 3055:2 3544:1 7651:1 
1 5:1 8:1 23:1 25:1 46:1 58:2 75:1 94:1 100:2 110:1 120:1 151:1 187:1 216:1 253:1 288:2 295:2 492:2 498:1 503:1 1036:2 1039:2 1334:1 1519:1 2401:2 2627:1 2850:1 3579:1 6633:2 7675:1 7676:1 7677:1 7678:1 7679:1 7680:1 
1 5:2 25:1 49:1 75:1 94:2 152:2 288:3 289:2 304:2 378:2 533:1 687:2 761:2 800:2 847:2 911:2 913:1 1124:1 1128:1 1298:1 5476:1 
1 5:1 25:1 35:1 39:1 49:1 68:1 72:1 75:1 77:1 100:2 118:1 119:1 152:1 157:1 161:1 281:1 288:4 305:1 315:1 386:1 800:1 895:1 1039:2 1116:1 1239:1 1402:1 1405:1 1458:1 1607:1 1608:2 1623:2 1953:2 2200:1 2428:1 3103:1 3262:1 3451:1 5816:1 6633:1 7675:1 
1 25:1 72:1 73:1 74:1 76:1 288:1 290:1 587:1 632:1 1039:1 5183:1 6621:1 6633:1 
1 8:1 9:1 17:1 25:1 46:1 58:1 67:1 68:1 94:1 106:1 121:1 132:1 140:1 171:1 183:1 197:1 200:1 208:1 226:1 243:1 260:1 273:1 328:1 343:1 503:1 547:1 687:1 765:2 816:1 901:1 1021:1 1023:1 1154:1 1330:1 1362:1 1412:1 2138:1 2175:1 2630:1 5144:1 5461:1 5764:1 5776:1 7703:2 7708:1 7709:2 7710:2 7711:2 7712:1 7713:1 
1 22:2 25:1 44:1 46:1 49:1 67:1 75:1 125:1 135:3 147:2 161:1 172:1 219:1 367:1 373:1 489:1 503:1 551:1 687:1 695:1 1402:1 1403:1 1446:1 2736:1 5571:1 5860:2 5861:1 5862:1 7754:1 7755:2 7756:1 7757:2 7758:1 7759:1 7760:1 
1 25:1 40:1 42:1 49:1 93:1 113:1 114:1 115:1 147:1 172:1 257:1 258:1 373:2 455:1 475:1 503:1 516:1 695:2 1115:1 2587:1 3260:1 3275:1 3540:1 3541:1 4036:1 4331:1 4467:1 5771:1 5860:1 7755:1 7761:1 
1 17:2 25:1 44:1 46:1 53:1 100:1 106:1 110:1 121:1 127:1 155:1 161:2 166:1 175:1 372:2 395:1 416:1 533:1 729:2 818:1 822:1 937:1 1053:1 1085:1 1371:1 1556:1 1572:1 1573:3 1578:1 1623:1 1826:1 2006:1 3210:1 4116:1 4432:1 5601:1 7762:2 7763:1 7764:1 7765:1 7766:1 
1 25:1 33:1 46:1 57:1 115:1 117:1 216:1 338:1 373:1 830:1 1077:1 3262:1 3395:1 6912:1 
1 5:1 13:1 16:1 17:1 23:3 25:1 32:1 49:1 53:1 88:1 94:1 95:1 100:1 110:1 120:1 128:1 133:1 157:2 161:1 167:1 172:3 196:1 197:1 209:1 232:1 243:3 290:1 404:1 425:1 467:2 473:1 549:2 554:1 1077:1 1112:1 1118:1 1193:1 1225:2 1263:1 1274:1 1329:1 1404:1 1543:1 1703:1 2024:2 2825:1 2843:1 3026:3 3152:1 3800:2 3985:1 4124:1 5162:1 5417:1 5817:1 6189:1 7196:1 7844:1 7845:1 
1 25:1 222:1 531:1 715:1 716:1 872:1 909:1 1519:1 2715:1 7847:1 
1 5:1 8:1 16:1 25:1 35:1 46:1 49:1 100:1 135:1 142:1 172:2 204:1 205:1 214:1 221:3 231:1 232:1 234:1 235:1 358:1 371:2 492:1 500:1 503:1 547:1 695:1 701:1 918:1 1536:1 1690:1 1795:1 2937:1 2939:1 4037:1 4818:1 6237:1 7650:1 7849:1 
1 25:1 46:1 68:1 97:1 198:1 314:1 549:1 1341:1 4539:1 6002:1 7861:1 
1 25:1 49:1 55:1 68:1 97:1 110:1 112:1 113:1 114:1 118:1 161:2 171:2 198:2 226:2 248:1 290:1 301:1 315:1 436:1 490:1 647:1 765:1 913:1 1193:1 1284:2 1468:1 1536:1 1611:1 1889:1 1890:1 2320:1 2569:1 2778:1 4033:2 5506:1 6381:1 6702:1 7872:1 
1 5:2 25:1 29:1 42:1 75:1 94:1 95:1 112:2 114:2 118:1 161:1 203:1 226:2 288:2 315:1 376:1 433:2 547:1 564:1 579:1 651:1 653:1 785:2 837:1 865:1 935:1 947:2 1402:1 1991:2 2518:2 2569:2 4356:1 4372:1 4830:2 5816:1 6094:1 
1 25:1 44:1 97:1 106:1 120:1 121:1 172:1 214:1 216:1 288:1 318:1 429:1 455:1 562:1 993:1 1039:1 1077:1 1080:1 1791:1 1868:1 1971:1 2022:1 2736:1 3152:2 4383:1 4429:1 4730:1 4741:1 5021:1 6653:1 7940:1 7941:1 
1 12:1 13:1 16:1 25:1 49:1 75:1 95:1 100:1 358:1 373:2 428:1 541:1 560:1 931:2 1124:2 1303:1 3448:2 3531:1 3879:1 4727:2 5042:1 7425:1 7942:1 7943:1 
1 25:1 214:1 288:1 386:1 429:1 455:1 1039:1 2218:1 4133:1 5021:1 6110:1 7940:1 
1 5:1 25:2 44:1 49:1 100:1 133:1 157:1 197:1 198:1 247:1 301:1 364:1 373:1 645:1 720:1 842:1 855:1 901:1 1010:1 1181:1 1321:1 2208:1 2272:1 2973:1 3367:1 5530:1 6813:1 7949:1 7950:1 
1 3:2 4:2 5:1 22:1 25:1 49:2 51:1 58:2 68:2 93:1 157:1 162:1 171:1 219:2 222:1 306:2 318:1 373:2 409:2 539:1 695:2 705:1 721:1 1431:1 1510:1 1968:1 2088:1 2364:1 4443:1 8098:1 
1 12:1 25:1 35:2 46:1 49:1 58:2 82:2 110:1 166:1 172:1 204:1 214:2 226:1 232:1 371:1 418:1 714:1 732:1 1010:1 1059:1 1364:1 1434:1 1555:1 2194:1 2709:1 2710:1 3055:2 5100:1 5325:1 8099:1 
1 25:1 58:1 59:1 172:2 194:1 214:2 380:1 505:2 695:1 704:1 1451:1 1747:1 2860:1 3729:1 4323:1 
1 5:1 17:1 22:1 25:1 51:1 53:1 55:1 68:1 95:1 106:2 118:1 121:2 131:1 132:1 135:2 157:1 161:1 226:2 247:1 288:4 290:1 313:1 367:1 418:1 503:1 509:2 564:2 572:1 588:1 913:1 1003:2 1039:2 1316:1 1395:1 1405:1 1420:1 1494:1 1696:2 2188:1 2261:1 2469:1 2470:1 2501:1 2634:1 3277:1 3877:1 6758:3 8106:1 8107:1 
1 25:1 42:1 53:1 58:1 94:1 133:1 172:3 187:2 214:1 304:1 313:1 338:1 343:2 418:1 426:1 523:1 539:1 549:1 615:1 1560:2 1703:2 1854:1 2211:1 2364:1 2547:1 2667:1 2853:2 3078:2 5477:1 8108:1 8109:1 
1 17:1 25:1 94:1 171:1 176:1 197:1 231:1 261:1 373:2 492:1 503:1 715:1 716:2 729:1 832:1 1013:1 1236:1 1460:1 3444:1 5166:1 5767:1 6766:1 7578:1 8137:1 8138:1 8139:1 8140:1 8141:1 8142:1 8143:1 
1 2:1 4:1 8:2 11:1 25:1 67:1 94:1 118:2 131:1 172:1 197:1 290:1 340:1 393:1 503:1 533:1 541:1 547:1 716:2 718:1 729:2 753:1 908:1 931:1 1117:1 1304:1 1438:1 1835:1 1910:1 2258:1 3158:1 3229:1 3777:1 4171:1 6965:1 8171:2 8172:1 
1 4:1 5:2 13:1 25:1 58:1 94:1 106:1 121:1 129:1 150:2 171:1 172:2 175:1 178:1 187:1 373:1 503:2 513:1 547:1 588:1 594:1 712:1 1013:1 1118:1 1357:1 1402:1 1432:1 2099:1 3923:1 3934:1 5325:1 5996:1 8176:2 8177:1 8178:1 8179:1 
1 5:3 25:1 46:2 75:1 108:1 118:1 151:1 187:1 211:1 280:2 379:2 416:1 510:1 1013:1 1128:1 1181:1 1215:2 1373:2 1500:2 1573:2 1860:2 2364:1 2798:2 4814:1 8183:1 8184:1 8185:1 
1 16:1 25:1 42:1 72:4 75:3 76:1 95:1 96:1 99:1 100:1 106:1 113:1 114:1 121:1 143:1 157:1 171:1 226:1 295:2 564:1 581:1 651:1 1112:1 1302:1 1894:2 1988:1 2260:2 2352:1 2368:1 2950:1 3255:3 3987:2 6129:1 8186:1 8187:1 8188:1 8189:1 8190:1 
1 1:1 5:1 8:1 9:1 13:1 15:1 25:1 53:1 131:1 151:1 162:2 172:1 187:1 226:1 243:1 290:1 503:2 519:1 695:1 697:1 1151:1 1155:1 1195:1 1904:1 2320:1 2457:1 2476:1 3687:1 3784:1 4179:1 4184:1 5278:1 7004:2 8193:2 8194:2 
1 17:2 25:1 31:2 32:2 40:1 49:1 58:1 67:1 118:1 120:1 171:1 216:1 273:1 281:1 306:1 402:1 406:1 422:1 539:1 935:1 947:1 1080:1 1402:1 1493:1 1630:1 1680:2 1969:1 2122:1 2167:1 3486:1 3606:1 4133:1 4741:1 5975:1 6354:1 8206:2 8207:1 8208:1 
1 25:1 44:3 72:1 75:1 77:1 95:1 113:1 114:1 118:2 120:1 168:1 171:1 172:1 226:1 246:1 295:1 314:2 330:1 367:1 512:1 547:1 564:1 581:2 583:1 653:1 969:1 1112:1 1159:1 1425:1 1549:1 1555:1 1699:1 2138:1 2260:1 3794:1 5921:1 7343:1 8190:1 8232:1 8233:1 
1 4:1 5:1 8:1 15:2 25:1 97:1 100:2 110:1 119:1 131:2 162:2 216:1 243:1 318:1 328:1 408:1 503:1 539:1 562:1 579:1 695:1 714:2 771:1 1077:1 1200:1 1225:1 1404:1 1417:2 3225:1 3518:1 5472:1 8193:1 8194:1 8264:1 8265:1 8266:1 
1 1:1 4:1 5:1 25:1 106:1 121:1 153:1 162:1 503:1 5278:1 6965:1 8193:1 8194:1 
1 25:1 151:1 162:1 187:1 373:1 695:1 2218:1 4133:1 8193:1 8194:1 
1 25:1 157:1 766:1 1525:1 2089:1 4123:1 8310:1 
1 17:1 25:1 35:1 131:1 133:1 214:1 318:1 364:1 447:1 469:1 503:1 653:1 765:1 771:1 1225:2 1465:1 2183:1 2529:1 2936:1 3152:1 3293:1 3622:1 3705:1 4348:1 4921:1 5167:1 8311:1 8312:1 
1 16:2 25:1 30:1 42:1 46:1 49:3 57:1 58:1 72:1 75:2 77:1 85:2 86:2 95:1 97:1 99:2 100:1 110:1 113:1 114:1 120:1 143:1 157:1 166:1 168:1 170:1 172:1 181:1 187:1 216:1 231:1 290:2 297:1 328:1 339:1 358:1 380:1 387:1 402:1 436:1 525:1 533:1 564:2 653:1 663:1 686:1 710:1 768:1 808:1 810:2 822:1 913:1 1087:1 1115:1 1209:1 1225:2 1276:1 1278:2 1373:1 1457:1 1617:1 1623:1 1630:2 1900:1 2018:1 2087:2 2106:1 2200:1 2203:1 2254:1 2368:2 2422:1 2553:1 3126:1 3489:1 3498:1 3511:1 3759:1 3819:1 4123:5 4161:1 5004:1 8313:1 8314:1 8315:1 8316:1 
1 25:1 44:1 46:1 58:3 68:2 106:1 121:1 187:1 290:1 304:1 334:1 500:1 1078:1 2062:1 2529:1 2566:1 2567:1 3293:2 3622:2 4037:1 8054:1 8323:1 
1 5:1 13:1 25:1 42:1 44:2 49:1 53:1 75:1 94:1 95:2 106:1 110:1 121:1 135:1 151:1 152:1 161:1 167:1 171:2 187:2 247:1 288:1 290:2 304:1 305:1 307:1 327:1 328:1 358:1 380:1 531:3 680:1 681:2 834:2 901:1 947:1 1031:1 1088:1 1105:1 1121:1 1125:1 1126:2 1128:1 1165:2 1506:2 1521:1 1931:1 2010:1 2327:1 2330:1 2431:1 2441:1 3046:1 3416:1 3455:1 3461:1 3801:1 3803:1 4497:2 4510:1 4621:1 5133:1 5577:1 6345:1 6355:1 8351:1 
1 25:1 161:1 216:1 1554:1 1733:1 4831:1 5710:1 8359:1 
1 1:1 2:1 3:2 4:2 5:3 8:1 11:1 16:1 17:1 22:1 25:1 43:1 44:1 75:1 187:1 222:3 243:2 271:1 367:1 547:1 789:1 1010:1 1263:1 1274:1 1323:2 1402:1 1833:1 3672:1 3981:1 4966:1 7847:2 8365:2 8366:2 8367:2 8368:1 
1 5:1 25:1 57:1 72:1 547:1 2613:1 4605:1 4606:1 4878:1 6420:1 
1 25:1 40:1 48:2 92:2 106:1 117:1 121:1 152:1 173:1 187:1 307:1 312:1 338:2 476:1 530:1 551:2 731:1 908:1 939:1 1276:1 1747:1 2072:1 3550:2 4831:1 8378:2 8379:1 
1 17:1 25:1 30:2 32:1 46:1 55:1 58:1 68:1 77:1 91:1 315:1 358:1 380:1 422:2 503:1 531:1 570:1 653:1 760:1 1098:1 1991:1 2943:1 3045:2 3802:1 4831:1 8383:1 8384:1 8385:1 
1 9:1 23:1 25:1 43:1 46:1 68:1 75:1 97:1 100:1 106:1 110:1 121:1 157:1 187:1 290:1 314:1 389:1 482:1 499:2 547:1 557:2 732:1 832:1 913:1 1103:1 1225:1 1564:1 2090:1 2630:1 3093:1 3096:1 3278:2 3416:1 4630:1 5987:1 8437:1 8438:1 
1 25:1 46:1 58:1 67:1 68:1 95:1 96:1 118:1 157:1 243:1 426:1 523:1 613:2 615:1 687:1 1067:1 1308:1 2122:2 2277:1 3137:1 4724:1 8054:1 8304:1 8439:1 
1 5:2 16:1 23:1 25:1 46:1 75:1 120:1 155:1 161:1 187:1 327:1 426:1 439:1 488:1 495:1 503:1 516:1 665:1 687:1 760:1 761:1 843:2 1013:1 1019:1 1077:1 1352:1 1402:1 1414:1 1747:1 1866:1 2220:1 2498:1 3152:1 4401:1 4539:1 6758:1 7478:1 8208:1 8440:2 8441:1 8442:1 
1 5:1 9:1 22:1 25:1 28:1 29:1 42:1 73:1 74:1 75:2 76:1 96:2 99:1 100:1 106:1 108:1 109:1 112:2 113:1 114:1 118:1 120:1 121:1 171:1 198:1 226:1 359:1 387:1 712:1 1007:1 1159:1 1644:1 1716:1 1830:1 1854:1 2187:1 2569:1 3185:1 3206:1 7206:1 7872:1 8270:1 8443:1 8444:1 
1 25:1 59:1 100:1 171:2 198:1 231:1 246:1 247:2 290:1 338:1 380:1 613:1 653:2 687:2 1010:1 1087:1 1151:1 1306:1 1307:1 1505:1 1721:1 1926:1 2686:1 3396:1 8445:1 8446:1 8447:1 
1 25:1 46:1 100:2 106:1 109:1 121:1 171:1 318:2 341:1 373:3 539:1 695:1 807:1 1013:1 1080:1 1154:1 1352:1 1913:1 2291:1 2499:1 2719:1 2994:1 3367:1 3498:1 3502:1 7634:1 8448:1 8449:1 
1 5:2 22:1 25:1 75:1 125:1 162:2 171:1 492:1 689:1 701:1 912:1 959:1 1451:2 2457:1 2734:1 2735:1 2760:1 5712:1 8450:1 8451:1 8452:1 8453:1 8454:1 8455:1 
1 25:1 29:1 38:1 40:1 46:1 49:1 55:2 57:1 75:1 76:1 109:1 145:1 160:1 161:1 188:1 312:1 338:1 392:1 434:1 539:1 632:1 1115:1 1302:1 1402:1 4335:1 4402:1 4591:1 6576:1 7441:1 7567:1 8456:1 8457:1 
1 16:1 25:1 29:1 34:1 40:1 46:1 55:2 94:1 100:1 115:1 117:1 249:2 290:1 297:1 632:1 1097:1 1115:1 1139:2 1277:1 1278:1 1494:1 1495:1 1554:1 2018:1 2283:1 2301:1 3040:1 3045:1 3605:1 3606:1 4248:1 5139:1 6354:1 8238:1 8458:2 8459:1 8460:1 
1 13:1 25:1 95:1 96:1 97:1 157:1 337:1 2122:1 2301:1 8461:1 
1 25:1 28:1 45:1 77:1 91:1 100:2 115:1 117:1 118:1 157:1 171:1 194:1 271:2 325:1 469:1 539:1 556:3 701:1 751:1 822:1 918:1 935:1 1128:1 1433:1 3103:1 3154:1 3802:1 4162:1 5506:1 8462:1 
1 5:1 11:1 25:1 58:5 75:1 97:1 110:1 135:1 157:1 161:1 171:3 194:1 198:1 219:1 290:1 328:1 373:2 380:1 386:1 503:1 533:1 700:1 756:2 757:3 789:1 825:1 941:2 971:1 973:1 1007:2 1032:1 1402:1 1422:1 1716:3 1736:1 2034:1 2072:1 2186:2 2408:1 3342:1 5765:1 6461:1 6468:1 7691:1 8463:3 8464:2 8465:1 8466:1 8467:1 8468:1 
1 17:2 25:2 49:1 73:1 74:1 75:1 76:1 100:2 108:1 110:2 112:2 118:1 120:1 226:2 296:1 297:2 364:1 588:2 632:1 801:1 1404:2 1558:1 1568:1 1572:2 1573:4 1607:1 1623:1 2200:1 3934:3 4918:2 
1 25:1 46:2 53:1 95:1 152:1 153:1 172:1 213:1 219:1 297:1 373:2 474:1 505:2 901:1 1195:1 1605:1 1664:1 1665:1 2127:1 2320:1 2934:2 3927:1 6451:1 8469:1 8470:1 
1 25:1 29:1 68:1 118:1 204:1 214:2 249:1 315:1 659:1 695:1 701:1 760:1 1054:1 1055:1 1949:1 3749:1 3784:1 8250:1 8471:1 
1 25:1 51:1 100:1 108:1 120:2 135:1 151:1 168:1 171:1 173:1 202:1 214:2 219:1 318:1 358:1 406:1 455:2 531:1 548:1 641:1 726:1 753:1 766:1 773:1 799:1 804:1 913:1 1239:1 1395:1 1712:1 2666:1 4715:1 6560:1 7760:1 8472:1 8473:1 8474:1 8475:1 8476:1 
1 25:1 115:1 117:1 216:1 325:1 830:1 3529:1 
1 13:2 25:1 40:2 44:1 77:1 95:1 145:2 392:1 587:1 613:1 1010:1 1138:2 1148:1 1353:1 1666:2 2122:1 2943:1 7728:1 8348:1 8446:1 8477:2 
1 3:1 5:1 25:1 40:1 59:1 77:1 115:1 120:1 131:1 194:1 204:2 212:1 214:2 221:2 363:1 364:1 386:1 404:1 474:1 504:1 505:1 531:1 653:2 659:1 695:2 701:1 707:1 855:1 1433:1 1604:1 1611:1 2215:1 3671:1 3865:1 4338:1 4857:2 4858:1 4860:1 5537:1 
1 25:1 46:1 57:1 181:1 598:1 695:1 826:1 1276:1 1750:1 2225:1 4063:1 8478:1 
1 14:1 16:2 25:1 58:1 91:1 94:1 100:2 120:1 152:1 153:1 157:1 171:2 187:1 204:2 214:3 222:2 304:1 358:1 371:1 428:2 533:1 695:2 701:1 761:1 918:2 1334:2 3769:2 4859:1 5239:1 8479:1 
1 13:1 16:1 25:1 29:1 35:1 38:1 40:3 42:1 49:1 52:1 59:1 97:1 115:1 118:1 151:1 152:1 157:1 187:1 216:1 284:1 363:1 364:1 373:2 455:2 575:1 653:1 695:2 706:1 721:1 751:1 830:1 837:1 947:1 970:1 1278:1 1419:1 1433:1 1628:2 1954:3 2943:1 3864:1 8477:3 8480:1 
1 5:1 8:1 9:1 25:1 30:1 40:1 46:2 49:1 57:1 194:1 318:1 503:2 701:1 979:1 1078:1 1434:1 1683:1 1761:2 2283:1 3671:1 4337:1 4339:1 4831:1 5710:2 5965:2 8384:1 8481:1 8482:1 
1 25:1 249:1 314:1 492:1 712:1 1115:1 1554:1 2507:1 4539:1 4856:1 5783:1 
1 25:1 51:1 95:1 96:1 99:1 100:1 108:1 120:1 140:1 150:1 171:1 318:1 326:1 358:1 373:3 693:1 724:1 761:1 1239:1 1790:1 2553:1 4127:1 4409:1 4525:1 5179:1 5370:1 8483:1 8484:1 
1 5:2 25:1 29:1 34:1 35:1 40:2 42:1 46:1 49:1 55:1 57:1 58:3 59:1 75:1 94:1 95:1 115:1 153:1 161:1 172:1 175:1 194:1 219:1 222:1 297:1 373:3 531:1 542:1 695:2 705:2 970:1 2099:1 2505:1 3865:2 4431:1 5179:1 5370:1 8483:1 8485:1 8486:2 8487:2 8488:1 
1 25:1 40:1 46:1 49:1 95:1 100:1 108:1 112:1 113:1 114:1 115:1 120:1 125:1 140:1 151:1 165:1 171:2 221:2 331:1 373:2 409:2 548:1 692:2 765:1 1085:1 1088:1 1128:1 1191:1 2248:2 2731:1 2755:1 8489:1 8490:1 8491:1 
1 8:1 25:1 29:1 35:1 38:2 49:1 67:1 95:2 100:1 106:1 108:1 110:1 120:2 121:1 135:1 146:1 151:1 170:1 171:1 187:1 247:1 290:1 328:1 338:2 436:1 439:1 488:1 503:1 509:1 581:2 645:1 653:1 703:1 714:1 792:2 1130:1 1139:2 1159:1 1460:1 1612:1 1695:1 1721:2 1880:1 2620:1 3533:1 8492:2 8493:1 8494:1 
1 25:1 30:1 57:1 110:1 131:1 161:1 172:1 197:1 284:1 290:2 328:2 564:1 598:1 865:1 1373:1 1402:1 1525:1 1790:1 2087:2 2321:1 3778:1 7013:2 8495:1 
1 25:1 46:1 58:2 68:1 214:1 304:1 639:1 724:1 1353:1 2062:1 2529:2 3293:2 3622:2 4542:1 4837:1 8496:1 
1 12:1 25:1 58:1 94:1 162:1 171:1 172:1 187:1 194:1 219:1 220:1 304:1 334:1 373:1 380:1 381:1 418:1 472:1 1116:1 1736:1 1791:1 2208:1 2680:1 3544:1 4732:1 4829:1 8497:1 8498:1 8499:1 
1 5:1 8:1 25:1 110:1 151:1 175:1 187:1 194:1 216:1 280:1 328:1 371:1 474:1 486:1 539:1 916:1 1078:1 1461:1 2220:2 2221:2 5116:1 
1 25:1 28:1 46:1 94:1 99:1 106:1 110:1 121:1 125:1 151:1 172:1 243:3 318:1 505:2 519:2 587:1 645:1 714:1 753:1 765:1 830:1 935:1 947:1 1460:1 1691:1 2573:1 2760:1 3101:1 3115:1 3234:1 3434:2 3490:1 3899:1 4124:1 8500:1 
1 25:1 73:1 74:1 76:1 108:1 110:1 112:1 118:1 152:1 197:1 226:1 248:1 418:1 449:1 588:2 833:1 1118:1 1225:1 1404:2 1555:1 1558:2 1572:1 1573:3 2120:1 2194:1 3934:2 4918:1 8501:1 
1 25:1 328:1 373:1 426:1 567:1 665:1 687:1 1306:1 1721:1 1926:1 
1 5:1 8:1 16:1 17:1 25:1 49:1 53:1 58:1 68:1 95:1 99:1 100:1 106:1 121:1 154:1 166:1 257:1 258:1 287:1 288:3 289:1 290:1 304:3 305:1 308:1 337:2 338:2 373:2 548:1 613:1 724:1 895:1 1087:3 1104:1 1139:1 1789:1 5716:1 5899:1 8502:1 8503:1 8504:2 8505:1 
1 4:2 11:1 13:1 15:2 25:1 40:1 46:1 53:1 109:1 153:2 161:1 162:1 172:1 187:2 226:1 243:1 281:1 473:1 492:2 505:1 519:1 547:1 594:1 645:1 916:1 947:1 1150:1 1195:1 1323:2 1904:1 2194:1 2320:1 2399:1 2518:1 3346:2 3349:1 3618:1 3789:1 3996:1 8506:2 8507:1 
1 5:1 8:1 25:1 64:1 94:1 95:1 120:1 153:1 253:1 287:1 317:1 353:1 355:1 373:1 418:1 434:1 502:1 503:1 547:1 912:1 986:1 1193:1 1412:1 1589:1 1620:1 1665:1 2198:1 2607:1 3412:1 3956:1 5153:3 5649:1 8184:1 8508:1 
1 5:1 25:1 30:1 46:1 49:1 55:1 75:1 151:1 161:1 187:1 257:1 258:1 281:1 288:3 296:1 304:2 305:1 358:1 373:2 503:1 530:1 548:1 596:1 611:1 653:2 711:1 883:1 895:1 908:1 1010:1 1700:3 2096:1 2186:1 2227:1 2283:1 3103:1 8503:1 8504:3 8505:1 8509:1 
1 4:1 11:3 15:1 25:1 75:1 100:1 135:1 151:1 153:1 162:1 183:1 492:4 502:1 597:1 639:1 645:2 695:1 765:1 799:1 916:1 1323:2 1949:1 2399:2 2409:1 2733:1 2857:1 3346:2 4723:1 5100:1 5102:1 5278:2 5899:1 6176:1 8510:1 8511:1 8512:1 8513:1 8514:1 8515:1 
1 25:1 42:1 44:1 45:1 46:1 49:1 72:1 75:2 118:1 131:1 194:1 247:1 338:1 366:1 367:1 386:1 410:1 426:1 427:1 489:1 570:1 572:1 579:1 834:2 859:1 935:1 1353:1 1736:1 2122:1 2569:1 2620:1 3060:1 3583:2 3606:1 4811:1 6356:1 6455:1 6518:1 
1 14:1 25:1 33:2 34:1 35:2 39:1 40:1 42:1 94:2 112:1 157:1 204:2 214:2 219:1 221:2 304:1 325:2 326:1 505:1 547:1 653:1 695:2 837:1 3046:1 3865:1 5345:1 7737:1 8516:1 8517:1 
1 8:1 16:1 25:1 35:1 42:1 44:1 46:1 51:1 66:1 115:1 135:1 171:1 290:2 789:1 804:1 1055:1 1112:1 1448:1 2352:1 2355:1 2943:1 3046:1 3078:1 4253:1 4409:1 4730:1 5370:1 5485:2 6585:1 8518:1 8519:1 8520:1 8521:1 8522:1 8523:1 8524:1 
1 17:1 25:1 67:1 171:1 204:2 205:1 214:2 219:1 221:1 222:1 234:1 290:1 367:1 429:1 504:2 505:2 695:2 1024:1 1434:1 1880:1 2851:2 2939:2 3342:2 5169:1 8525:1 8526:1 8527:1 8528:1 
1 5:1 25:1 36:4 49:1 57:1 67:1 68:1 75:1 82:1 94:1 128:1 152:1 187:1 492:1 530:1 531:1 695:1 895:1 1116:1 1976:1 3346:1 3606:1 5368:1 5906:1 7739:2 8529:1 8530:2 8531:1 
1 5:1 25:1 43:1 99:1 100:1 108:1 110:1 133:1 166:1 358:1 439:1 509:2 523:2 533:1 611:2 632:1 701:2 799:1 1020:1 1460:1 1721:1 2372:1 6279:1 
1 5:1 25:1 100:1 171:1 334:1 335:1 418:1 1414:1 1656:1 1791:1 
1 5:3 13:1 25:1 68:1 94:1 100:1 109:1 115:1 118:1 152:2 153:2 169:2 287:1 288:5 304:2 305:2 307:2 330:1 386:1 448:1 531:1 761:2 911:3 1118:1 1299:1 1519:1 1623:1 1711:2 2688:1 3982:1 8472:1 
1 25:1 95:1 100:1 110:2 427:1 449:1 632:1 1556:2 1559:1 1560:1 1573:2 1976:2 2569:1 3223:2 4918:2 8532:1 
1 5:2 22:1 25:1 58:1 66:1 171:2 197:1 204:1 373:2 374:1 376:1 471:1 503:1 703:1 755:1 1088:1 1148:1 1461:2 1716:1 6630:2 8533:1 8534:1 
1 5:4 25:1 42:1 49:1 118:1 121:2 172:1 187:1 214:2 358:1 367:1 455:1 488:1 503:1 695:2 705:2 837:1 1623:1 1747:1 2458:1 3606:1 5571:1 8535:2 
1 5:3 25:1 30:2 36:1 59:1 75:1 82:1 154:1 166:1 187:1 197:1 216:2 318:1 378:1 406:1 492:1 539:1 547:2 612:1 653:1 822:1 830:1 1048:1 1080:1 1431:1 1493:1 2020:1 2210:1 2450:1 3171:1 3486:2 4248:1 4372:1 5783:1 6482:1 8474:1 8536:1 8537:1 
1 25:1 290:1 539:1 715:1 716:1 8538:1 
1 16:1 25:1 49:1 64:1 67:1 75:1 120:1 172:1 196:1 206:1 476:1 492:1 564:1 703:1 762:1 1030:1 1451:2 1665:1 1819:2 1820:2 1913:1 2022:1 2192:1 2392:1 2591:2 3046:1 3272:1 3431:1 
1 5:1 16:1 22:1 25:1 46:1 49:2 55:1 75:1 125:1 157:1 161:1 358:1 373:1 418:1 477:1 533:1 934:1 1088:1 1118:1 1194:1 1472:1 1644:1 1861:1 2331:1 2733:1 3250:1 3328:1 3473:1 4063:1 4286:1 5763:1 6842:2 7988:1 8539:1 8540:1 8541:1 
1 25:1 53:1 64:1 68:1 100:1 108:1 110:1 118:1 133:1 157:1 171:1 172:1 194:2 197:2 216:1 222:1 249:1 288:1 412:1 413:1 459:1 474:1 509:1 666:1 714:1 716:1 789:1 932:1 1323:1 1554:2 1623:1 1848:1 1988:1 2459:2 2518:1 2525:1 3982:1 4031:1 5181:1 6749:1 7944:1 8542:1 
1 25:1 67:1 249:1 966:1 1554:1 4878:1 8543:1 
1 25:1 58:1 100:1 110:1 135:1 171:2 175:1 373:2 409:2 700:1 1175:1 2053:1 3278:1 3591:1 4663:1 7478:1 7699:1 
1 17:1 25:2 44:1 46:1 64:1 82:1 95:1 170:1 175:1 187:1 197:1 288:1 290:2 367:1 381:1 483:1 547:1 629:1 901:2 911:1 1013:1 1119:1 1225:1 1249:1 1313:2 1409:1 1424:1 1425:1 2331:1 2332:1 2546:1 2634:1 2946:1 4452:1 5601:1 7532:1 8544:1 8545:1 8546:1 
1 25:1 58:1 171:2 187:2 231:1 335:2 373:2 488:1 702:2 1010:1 1434:1 1460:2 1637:2 2404:2 3055:1 3109:2 
1 13:1 25:1 29:2 40:2 46:1 55:1 83:2 100:1 110:1 112:2 115:1 117:1 153:1 253:2 318:1 486:1 517:1 539:2 701:1 727:1 832:1 1077:1 1772:2 1991:2 2330:2 2569:2 2825:2 4818:2 5783:2 8547:2 8548:1 8549:1 
1 25:1 63:1 330:1 338:1 380:1 401:1 503:1 538:1 598:2 1085:1 1133:2 8550:1 
1 3:3 4:1 13:1 16:3 23:2 25:2 29:1 40:1 42:1 44:3 46:7 48:2 49:4 68:1 75:2 77:1 100:2 106:2 118:1 121:2 131:1 135:1 151:3 173:1 187:2 194:1 214:2 216:1 232:1 281:2 287:2 288:4 290:2 296:1 304:2 305:2 307:1 314:1 380:2 386:3 420:1 428:1 492:3 509:1 554:2 560:2 564:1 570:3 751:1 799:2 800:2 822:2 947:1 970:1 971:2 1029:1 1121:1 1225:1 1247:1 1433:1 1468:1 1710:3 1752:1 1822:1 1970:2 2021:1 2208:1 2327:2 2330:3 2461:1 3142:1 3356:1 3630:3 3769:2 3864:2 3976:1 4283:2 4313:1 4412:2 4671:2 4681:1 4873:3 5169:2 5530:1 5577:1 6357:1 6452:2 6565:2 6993:1 7037:2 7038:1 7039:1 7040:1 7041:1 7240:2 8551:1 8552:1 
1 4:1 8:1 13:1 25:1 49:1 129:1 175:1 219:1 296:1 373:1 380:1 531:1 560:1 655:1 902:1 973:1 1750:1 1783:1 1940:1 2021:1 2395:1 4267:1 4524:1 4564:1 8537:1 8553:1 8554:1 
1 25:1 28:2 29:3 42:1 44:1 68:1 72:3 83:3 92:1 97:1 99:1 118:3 120:1 131:1 133:1 157:1 273:1 315:1 325:1 539:1 547:1 550:1 724:1 837:1 924:1 1239:1 1524:1 1891:2 2838:1 3028:1 3152:1 3501:1 3799:1 4600:3 4878:1 5162:1 8555:1 8556:1 
1 5:1 25:1 118:1 141:1 373:1 401:1 509:1 3155:1 4105:1 4793:1 5477:1 8168:1 8557:1 
1 25:1 59:1 106:1 121:1 135:1 171:1 219:1 276:1 304:1 406:1 409:1 503:1 560:1 653:1 761:1 1048:1 1118:1 1736:1 2495:1 3847:1 6510:1 6519:1 8558:1 
1 5:1 25:1 151:1 187:1 262:1 373:1 1076:1 1356:1 1945:1 3066:1 4592:1 6640:1 8559:1 8560:1 
1 5:1 15:1 25:1 243:1 539:1 1148:1 1215:1 3606:1 6965:1 
1 5:2 12:2 25:1 28:1 29:2 51:1 75:1 83:2 91:1 112:2 133:1 196:1 226:3 288:2 433:1 469:1 751:1 785:1 935:2 947:2 1077:1 1276:1 1433:1 1991:1 2437:2 2518:2 2569:1 3103:1 3236:1 3899:1 6094:2 6902:1 
1 25:1 35:2 42:1 94:1 100:1 151:1 152:2 153:1 248:1 288:2 304:1 305:1 307:1 308:1 378:1 386:1 655:1 706:2 824:1 911:2 1112:1 1116:1 1190:2 2021:2 2355:1 2569:1 4785:1 8273:1 8561:1 8562:1 
1 25:1 194:1 214:1 288:2 409:1 503:2 800:1 2473:1 4378:2 6561:1 8239:1 8563:2 8564:1 8565:1 
1 5:2 17:1 25:1 38:1 44:1 58:1 86:2 94:1 100:1 120:1 157:1 166:1 216:1 249:1 273:1 281:1 304:1 371:2 406:1 420:1 439:1 538:2 663:1 701:1 724:1 865:1 2023:2 3606:1 4222:2 6494:2 7427:2 8566:1 8567:1 
1 5:1 13:1 25:1 49:1 51:1 68:1 75:1 152:1 172:1 198:2 287:1 288:3 289:2 304:2 307:2 687:1 751:1 901:1 913:1 1010:2 1197:1 1711:1 2506:2 2750:2 
1 5:1 25:1 49:1 58:1 59:1 94:1 106:2 121:2 150:1 152:1 172:1 216:1 219:2 222:1 226:1 273:1 334:1 338:1 373:2 428:1 492:1 653:1 695:1 721:1 755:1 780:1 837:1 1010:1 1013:1 1493:2 3486:1 3606:1 8568:2 8569:1 8570:1 8571:1 8572:1 8573:1 
1 3:1 5:1 25:1 44:1 53:1 68:1 95:1 131:1 171:1 221:1 258:2 288:1 300:1 304:1 305:1 386:1 533:2 598:1 638:1 676:1 706:1 901:1 911:1 1396:1 1510:1 1822:1 1994:1 2313:1 2355:1 2399:1 2492:1 2733:1 2907:1 3219:1 3830:1 4378:1 6250:1 8274:1 
1 5:1 8:1 13:1 25:1 46:1 58:2 75:1 110:1 151:2 269:1 281:1 288:3 519:1 598:1 800:2 801:2 979:1 1116:1 1276:1 1277:1 1394:1 1622:1 2348:1 2854:1 3055:2 3328:1 5256:1 5500:1 7548:1 8296:1 8574:1 8575:1 8576:1 8577:1 
1 8:1 25:1 32:1 97:1 258:1 564:1 1376:1 3013:1 
1 25:1 46:1 49:1 53:1 58:1 118:1 197:1 338:1 358:1 428:1 588:1 613:3 770:1 902:2 1010:1 1736:1 1987:1 2122:2 2290:1 2655:2 3606:1 6356:2 8578:1 8579:1 8580:1 
1 5:2 25:1 35:2 42:1 153:1 270:1 373:3 471:2 492:2 503:1 695:3 755:1 916:1 1078:1 1115:1 1301:1 1623:1 2178:1 3328:2 4052:1 8581:1 8582:1 
1 25:1 46:2 68:1 75:1 120:1 121:1 168:2 171:1 172:1 181:1 194:1 197:1 198:1 206:1 243:1 358:1 418:1 487:1 503:1 560:1 649:1 713:1 775:1 991:1 1007:1 1305:1 1402:1 1699:1 1781:1 2187:1 2636:1 3030:2 3080:1 3185:1 3596:1 7980:1 8443:1 8450:1 8583:1 8584:1 8585:1 
1 16:1 25:1 373:1 509:1 613:1 1013:1 1076:1 1926:1 4596:1 6279:1 
1 5:2 11:2 25:1 46:2 58:2 67:1 171:2 194:1 219:1 334:1 373:1 503:2 756:2 757:2 1007:2 1032:1 1716:2 2034:1 2072:1 3342:2 8463:2 8464:1 8465:1 8466:1 8467:1 
1 25:1 29:1 32:1 40:1 46:1 48:1 49:1 55:1 57:1 75:1 95:1 97:1 109:1 145:1 327:1 338:1 392:1 427:1 502:1 539:1 581:1 587:1 711:1 939:1 1524:1 3103:1 4061:1 4162:1 5975:1 8457:1 8586:1 
1 5:1 25:1 49:1 172:1 297:1 509:2 612:1 632:1 676:1 959:1 1438:1 1880:2 2666:1 3769:1 3815:1 3854:2 4243:1 6256:2 8427:1 8587:1 8588:2 8589:2 8590:1 8591:1 8592:1 8593:1 
1 25:1 57:1 172:1 564:1 939:1 1637:1 2172:1 2946:1 4151:1 5817:1 
1 25:1 30:1 503:1 1495:1 1712:1 6356:1 
1 10:1 17:1 22:1 23:1 25:1 44:1 46:1 49:1 152:1 172:1 206:1 213:1 214:2 231:1 373:1 474:1 594:1 674:1 987:1 1182:1 2068:1 2392:1 3484:2 4390:1 4559:2 5356:1 
1 5:1 25:1 35:1 49:1 118:1 171:2 172:1 194:1 196:1 219:1 358:2 373:1 436:1 503:2 702:1 703:1 722:1 756:1 757:1 1007:1 1019:1 1176:1 1716:1 1736:1 1913:1 2022:1 2187:1 2723:2 3416:1 
1 25:1 147:1 162:2 166:1 172:1 290:2 293:1 318:1 326:1 367:1 372:1 426:1 503:1 548:1 554:1 565:1 665:1 712:1 714:1 720:1 943:1 990:1 1209:1 1793:1 1926:2 2006:1 2177:1 3293:1 3746:1 4485:1 5793:1 6281:1 8594:1 
1 22:1 25:1 36:1 46:1 58:1 161:1 172:1 318:1 503:2 509:1 547:1 598:1 965:2 1014:1 1117:2 1306:1 1679:2 2192:2 2903:2 4591:1 6468:2 8595:2 8596:2 8597:1 
1 5:1 8:1 22:1 23:1 25:1 29:1 46:1 58:1 68:1 75:1 110:1 118:1 120:1 182:1 194:1 213:1 373:2 418:1 474:1 529:1 547:2 682:1 757:1 1010:2 1433:1 1460:1 1472:1 1555:1 1644:1 1656:1 2185:1 2194:1 2610:1 2931:1 3490:1 3832:1 4681:1 4921:1 6095:1 6414:1 6482:1 7833:1 8368:1 8598:1 8599:1 8600:1 
1 25:1 30:1 46:1 171:2 194:1 296:1 304:1 318:1 373:1 380:1 474:1 531:1 634:1 653:1 760:1 761:1 825:1 973:1 1457:1 1458:1 1554:1 1716:1 3342:1 3683:1 6424:1 6510:1 6529:1 8036:1 8601:1 
1 12:1 14:1 25:1 44:1 52:1 53:2 67:1 94:2 172:2 214:1 219:1 222:1 290:1 474:2 505:2 611:2 695:2 705:1 753:1 837:1 1078:1 1139:1 1195:1 1451:2 1604:1 1665:1 2194:1 2392:1 2851:1 3872:1 4931:1 7694:1 
1 25:1 108:1 146:2 151:1 187:1 202:2 318:1 492:1 503:2 978:1 1115:1 1116:2 1124:1 1142:1 1306:2 2235:1 2342:1 2506:1 3038:1 3342:2 3352:3 4227:1 5768:1 8602:1 8603:1 
1 8:1 13:1 25:1 46:1 49:1 53:1 61:1 115:1 118:1 120:1 157:1 231:1 246:1 258:2 288:2 318:1 328:1 363:1 367:1 378:2 386:1 539:3 564:2 712:1 775:1 1151:1 1303:1 1898:1 2248:2 2412:2 4123:2 
1 5:1 17:1 22:1 23:1 25:1 53:1 68:1 75:1 100:1 172:1 214:1 385:1 393:1 455:1 505:1 516:1 519:1 1084:1 1195:1 1570:1 1856:1 2164:1 2392:1 3050:1 5341:1 8604:1 8605:1 8606:1 8607:1 
1 14:1 17:1 25:1 100:1 153:1 159:2 219:2 247:1 328:1 337:1 401:1 404:1 426:4 492:1 523:1 531:1 567:1 611:1 613:2 665:2 687:2 795:1 913:1 1010:2 1721:1 1785:1 2122:1 3365:1 3921:1 4052:1 6420:1 7909:1 8608:1 8609:1 
1 15:1 22:1 25:1 29:1 68:1 106:1 121:1 162:1 248:1 290:2 503:1 566:1 694:1 700:1 701:1 916:1 1465:1 1555:1 2194:1 2811:1 3347:2 3538:2 4474:1 4540:1 7782:2 
1 25:1 30:2 40:1 44:1 58:1 109:1 110:1 115:1 168:1 171:1 172:2 367:1 492:1 533:1 613:1 770:1 902:2 935:1 1010:1 1087:1 1191:1 1520:1 1622:1 1721:1 1823:1 2138:1 3671:1 3865:1 4857:1 4858:1 5506:1 5716:1 8610:1 
1 5:1 25:1 27:1 29:1 30:1 40:1 50:1 52:1 59:1 113:1 114:1 129:2 133:1 183:1 318:1 492:1 653:1 694:1 775:2 959:1 1480:1 1733:1 1751:1 2330:1 2352:1 3347:2 4372:2 5184:1 5506:1 8611:1 8612:1 8613:1 8614:1 8615:1 
1 5:1 13:1 16:1 25:1 61:1 94:1 171:1 172:1 212:1 214:1 455:1 473:1 474:1 481:1 505:2 564:1 653:1 721:1 1116:1 1185:1 1570:1 2262:2 2315:1 2392:1 2736:1 3123:1 3124:1 4390:1 6424:1 8476:1 8605:1 8606:2 
1 5:1 13:1 25:1 44:1 46:1 75:1 99:1 151:2 152:1 172:1 214:1 287:1 288:4 304:1 305:1 500:1 548:1 554:1 560:1 655:1 724:1 800:2 1116:1 1247:2 1512:1 1747:1 1994:1 2330:1 3769:2 6565:2 8208:1 
1 5:2 17:1 23:1 25:1 49:1 82:1 110:1 157:1 204:1 221:1 416:1 428:1 469:1 477:2 503:2 761:2 892:1 1159:1 1396:1 1457:3 3142:1 3181:1 3579:1 3606:1 3683:1 4309:1 5816:1 6630:1 7299:1 7688:1 8616:1 
1 25:1 328:1 539:1 1412:1 2174:1 4591:1 4836:1 6283:1 
1 3:1 25:1 208:1 338:1 426:1 433:1 665:1 785:1 2463:1 4591:2 6993:1 8617:1 8618:1 8619:1 
1 16:2 25:1 106:2 110:1 120:1 121:2 162:1 197:1 373:2 765:1 827:1 838:2 916:1 1067:1 1115:1 1154:1 1161:1 1165:1 2733:1 3431:1 5171:1 5408:1 8620:1 8621:2 8622:1 8623:1 8624:1 
1 25:1 44:1 49:1 120:1 161:1 194:1 212:1 474:1 505:2 519:1 827:2 838:1 916:2 1161:2 1165:1 1173:1 1402:1 2308:1 3488:1 6424:1 8621:1 8625:1 
1 5:2 16:2 25:1 49:1 95:2 100:1 113:1 120:1 151:1 172:1 187:1 219:1 280:1 373:2 380:1 455:2 516:1 591:2 653:1 775:1 1010:1 1480:1 1814:1 1926:1 2326:1 2327:2 2364:1 3447:1 3486:1 3606:1 4486:1 5571:1 7037:1 7441:1 8626:2 8627:1 
1 5:1 25:1 127:1 157:1 539:1 591:1 3606:1 8450:1 8626:1 
1 25:1 49:1 57:2 118:1 197:1 290:1 503:1 564:2 838:1 1607:1 1628:1 2186:2 2348:1 3202:1 6437:1 8478:2 8628:1 
1 1:1 5:2 9:1 11:1 15:1 17:1 22:1 25:1 44:1 49:1 53:1 75:1 106:1 121:1 155:1 162:2 172:1 226:1 290:1 367:2 503:1 687:1 695:1 913:1 1010:1 1178:1 1195:1 1416:2 1450:1 1906:1 2117:1 2118:1 2264:1 2299:1 2300:1 2666:1 2667:1 3346:1 3749:1 5278:2 5341:1 5877:1 8184:1 8193:2 8194:2 8629:2 8630:1 
1 5:1 11:1 14:1 15:1 25:1 46:1 53:1 183:1 243:2 318:1 330:1 367:1 493:1 503:2 505:1 695:1 860:1 916:1 1162:1 1195:1 1416:1 2122:1 2320:1 2392:1 3142:1 4125:1 4179:1 5278:1 5877:1 8193:2 8194:2 
1 1:1 4:1 5:1 13:2 15:1 25:1 96:1 151:1 153:1 162:1 226:1 243:1 366:1 367:1 401:1 695:1 1080:1 1116:1 1416:2 1450:1 2118:1 2299:1 2300:1 2630:1 2666:1 2709:1 3237:1 3619:1 4179:2 5278:1 5877:2 7078:1 8193:1 8194:1 8631:1 8632:1 8633:1 
1 11:1 15:1 25:1 42:1 58:1 75:1 94:1 96:1 110:1 133:2 155:1 243:1 386:1 560:1 570:1 576:1 653:1 687:1 721:1 732:1 775:1 825:1 941:2 1010:1 1019:1 1077:1 1395:1 1644:1 2027:1 2186:2 2211:1 4124:1 7261:1 8631:1 8634:1 
1 4:1 5:1 25:1 59:1 61:1 92:1 94:1 110:1 162:1 328:1 380:1 503:1 530:1 539:1 594:1 653:1 730:1 901:1 908:1 924:1 987:1 1092:1 1274:1 1495:1 2331:1 3124:1 3296:1 7145:1 8635:1 8636:1 8637:1 8638:1 
1 5:1 16:1 25:1 75:2 77:1 94:1 100:1 427:1 449:1 760:1 761:2 799:1 838:1 1239:1 1572:1 2368:1 2854:1 3209:1 3210:1 3223:2 4369:1 4612:1 4614:1 4979:1 8639:1 8640:1 8641:1 8642:1 8643:1 8644:1 
1 5:1 25:1 503:1 542:1 838:1 965:1 1179:1 1961:1 3431:1 5896:1 8645:1 8646:1 
1 3:1 5:1 8:1 12:1 13:1 25:1 46:1 49:1 58:1 151:1 162:1 175:1 187:1 219:1 328:2 334:1 373:1 418:1 539:1 541:1 591:1 695:1 706:2 1414:1 2232:1 2234:1 2642:1 
1 8:1 17:1 25:1 35:1 40:1 67:2 95:1 100:1 153:1 155:1 204:2 226:2 318:2 334:1 371:2 373:1 418:2 433:1 547:1 785:1 1266:2 1524:1 1555:1 2107:1 2194:2 2663:2 5663:1 6731:2 8647:1 8648:1 
1 5:1 9:1 11:1 25:1 29:1 46:1 99:1 100:1 131:1 151:1 162:1 187:1 197:1 198:2 246:1 318:1 378:1 525:1 612:1 695:1 721:1 724:1 1010:1 1221:1 1460:1 1926:1 2634:1 3277:1 4179:2 4184:1 4285:1 6965:1 8649:1 8650:1 8651:1 
1 5:1 8:1 11:2 15:2 16:1 25:1 75:1 99:1 128:1 148:1 157:1 161:1 226:1 243:1 358:1 648:1 1402:1 1644:2 4124:1 4138:1 5050:2 5816:1 8208:1 8652:2 8653:1 
1 8:1 9:1 13:1 15:2 16:2 25:1 29:1 34:1 35:2 36:1 38:1 46:1 75:2 110:1 112:1 113:1 114:1 120:1 145:1 161:1 171:1 180:1 197:1 219:1 226:1 243:1 277:3 290:1 516:1 539:1 578:1 587:1 674:1 695:1 712:1 721:1 732:1 775:1 908:1 1059:1 1278:1 1402:1 1457:1 2027:1 2311:1 2348:1 2507:1 3512:1 3785:1 4647:1 4856:1 7515:1 8654:2 8655:2 8656:1 
1 4:1 8:1 9:1 11:1 12:1 13:1 15:2 25:1 108:1 162:1 172:1 194:2 226:2 243:1 277:1 278:1 406:1 492:2 503:1 505:1 612:1 645:1 695:1 721:1 726:2 916:1 1115:1 1323:1 1450:1 1644:1 2082:1 2096:1 3346:1 6965:1 8652:1 8657:1 
1 2:2 4:1 5:4 8:1 9:1 10:1 11:6 13:2 14:1 15:2 22:1 25:1 34:1 35:1 44:2 46:2 49:1 53:2 75:2 94:2 96:2 100:1 106:1 110:3 121:1 151:1 161:2 162:2 172:1 183:2 187:1 194:1 212:1 216:2 221:1 226:1 243:2 248:1 290:1 297:1 318:1 340:1 367:1 376:1 406:1 427:1 474:1 492:1 503:2 505:3 519:1 521:2 531:1 612:1 645:3 687:2 712:1 726:2 766:1 971:1 979:1 1010:1 1115:1 1118:2 1151:1 1195:2 1314:1 1323:1 1460:1 1555:1 1570:1 1644:2 2082:1 2096:1 2277:1 2320:1 2348:1 2814:1 2958:1 3181:2 3205:1 3317:1 3346:1 3490:1 3687:1 4124:4 4179:1 4412:2 4510:1 5793:1 6254:1 6486:1 6518:1 6630:1 6669:1 6965:3 8515:1 8630:1 8654:1 8658:1 8659:1 8660:2 8661:2 8662:1 8663:1 8664:1 8665:1 8666:1 8667:1 
1 25:1 46:1 49:1 58:1 95:1 135:1 318:1 373:2 434:1 492:2 541:1 591:1 1010:2 1690:1 2931:1 4082:1 8568:2 8668:1 8669:1 8670:1 
1 9:1 13:1 25:1 28:1 46:2 94:3 95:1 100:1 166:1 280:1 281:1 358:1 380:1 570:1 645:1 724:1 947:1 1010:1 1013:1 1063:1 1182:1 1195:1 1644:1 2148:1 2630:1 2655:1 3246:1 3278:1 4474:2 4980:1 4981:1 8671:1 8672:1 8673:1 8674:1 8675:1 8676:1 
1 5:1 16:1 25:1 68:2 120:1 129:2 162:1 183:1 197:1 318:1 326:1 328:1 373:2 425:1 539:1 591:1 653:1 695:2 701:1 712:1 759:1 1772:1 2186:2 2931:1 4443:1 5345:1 8472:1 8677:1 8678:1 
1 5:1 8:1 25:1 100:1 108:1 110:1 118:2 145:1 171:2 197:1 214:1 221:1 226:2 248:1 334:2 406:1 463:1 505:1 521:1 536:2 695:1 705:1 713:1 912:1 2050:2 2074:1 2294:1 2411:2 2933:1 2943:1 4332:1 
1 5:1 25:1 29:1 42:1 49:1 68:2 75:1 95:1 110:1 129:1 133:1 183:1 219:1 318:1 373:3 530:1 560:1 588:1 695:3 710:1 712:2 916:1 1010:1 2186:2 2857:2 4127:1 7755:2 8679:2 8680:1 
1 16:1 25:1 46:1 49:1 100:1 128:1 135:1 162:1 183:2 187:1 194:1 216:1 258:1 297:1 318:1 373:2 537:1 695:2 830:1 837:1 1115:1 1604:2 1747:1 2348:1 6012:1 7755:1 8581:1 8678:1 8679:1 8681:1 
1 4:2 11:2 15:1 22:1 25:1 49:1 68:1 120:1 153:2 161:2 162:2 492:1 594:2 694:1 837:1 916:1 979:2 1159:1 1284:1 1323:1 1555:1 2117:2 2969:1 3346:2 5097:1 7760:2 8507:2 8682:2 
1 25:1 42:1 46:1 58:1 77:1 112:1 113:1 114:1 115:1 118:1 120:1 157:1 161:1 219:1 257:1 258:1 287:1 288:3 296:1 304:2 305:1 308:2 325:1 326:1 358:1 371:1 373:2 420:1 503:1 596:1 611:1 653:1 707:1 895:1 908:1 1104:1 1842:1 2082:1 2186:1 2771:1 5345:1 8504:2 8505:1 
1 17:1 22:1 23:1 25:1 46:2 55:2 100:1 106:2 110:1 120:1 121:1 161:1 167:2 172:1 194:1 249:2 318:1 387:1 474:1 579:1 713:1 965:2 1013:1 1077:1 1124:1 1402:1 1433:1 1500:1 1554:1 1623:1 1761:1 2139:1 2249:1 2317:1 2737:1 3490:1 4050:1 5010:1 5103:1 5227:1 5649:1 6200:1 6288:2 6289:2 6298:1 6424:1 7678:1 8683:1 8684:1 8685:1 8686:1 8687:1 8688:1 
1 5:2 25:1 33:2 39:2 40:1 44:1 58:1 68:1 75:1 112:1 115:1 117:1 118:1 338:1 410:1 579:1 591:1 651:2 694:1 775:1 808:1 831:1 865:2 1480:1 2086:1 2294:1 3477:1 4639:1 5615:2 6547:1 8689:1 
1 5:1 25:1 34:1 55:1 57:1 153:1 249:1 334:1 380:1 531:1 655:1 693:1 971:1 1477:2 1949:1 3046:1 4834:1 8384:1 8474:1 8690:1 
1 25:1 35:2 46:2 110:2 131:1 140:1 196:1 197:1 212:1 249:2 290:1 328:1 418:2 474:1 873:1 1163:1 1452:2 1759:1 1795:2 1866:1 1946:1 2194:2 2325:1 2334:1 2383:2 2523:1 2553:1 2591:2 3412:1 3872:1 4685:1 5664:1 8691:1 
1 25:1 46:1 57:1 58:1 68:1 75:1 95:1 106:1 121:1 152:1 153:1 226:1 284:1 307:1 533:1 570:1 575:1 598:1 935:1 1098:1 1536:1 1623:1 1772:1 1791:1 1792:1 2022:1 2295:1 2372:1 2458:1 3202:1 3367:1 3822:1 3864:1 5109:1 5113:1 8054:1 8692:1 8693:1 8694:1 
1 5:2 22:1 25:1 70:2 120:1 135:1 153:1 168:1 171:1 205:1 219:2 222:1 500:2 693:1 695:1 1428:1 1752:1 2399:1 2735:1 3441:1 4331:1 4467:1 6254:1 8237:1 8695:1 8696:1 
1 8:1 13:1 23:1 25:1 44:1 45:1 58:1 75:1 100:1 112:1 113:2 114:1 115:1 118:1 151:1 152:1 153:1 187:1 197:1 214:2 304:2 315:1 326:1 339:1 362:1 380:1 505:1 602:1 651:1 653:1 693:2 721:1 755:1 775:1 935:1 1077:1 1102:1 1433:1 2327:1 2330:3 3262:1 3447:1 3512:1 4131:1 4856:1 5346:2 5358:1 5783:1 
1 17:1 22:1 23:1 25:1 99:2 154:1 161:2 166:1 243:2 290:1 318:2 429:1 593:2 645:1 686:2 822:1 830:1 965:3 1010:1 1151:1 1573:3 2630:2 4715:1 6285:1 8697:1 8698:1 
1 25:1 29:1 49:1 58:2 72:2 86:2 89:1 113:2 114:2 118:1 157:1 418:1 436:1 564:2 766:2 808:1 1032:1 1159:2 1216:1 1353:1 1373:1 1607:1 1628:1 2087:2 2090:1 2183:1 3778:1 
1 25:1 46:1 49:2 95:1 162:1 175:1 183:1 194:1 212:1 219:1 290:1 355:1 373:1 418:1 471:1 474:1 502:1 503:1 531:1 539:1 547:1 591:1 766:1 799:1 943:1 1013:1 1085:1 1450:1 2234:2 2264:1 3346:1 4139:1 5100:1 8637:1 8699:1 8700:1 
1 5:1 8:1 22:1 25:1 44:1 53:1 58:1 97:1 100:1 110:1 120:1 125:1 136:1 152:1 168:1 171:1 172:2 194:1 219:1 226:1 304:1 314:1 328:1 367:1 373:3 380:1 389:1 435:1 436:1 439:1 503:1 539:1 554:1 647:1 712:1 761:1 775:1 908:1 973:1 1078:1 1124:2 1231:1 1460:1 1555:1 1665:1 1699:1 1747:1 2138:1 2187:3 2194:1 2317:1 2529:1 2734:1 3619:1 5377:1 7740:1 8701:1 8702:1 
1 25:1 46:1 49:2 70:1 72:2 73:2 74:2 94:1 110:1 118:1 120:1 126:1 157:1 172:1 214:1 281:1 307:1 500:1 503:1 531:1 570:1 822:1 912:1 1660:1 1679:1 1764:1 1822:1 1845:1 2006:1 2234:2 2702:1 2733:1 2778:1 3655:1 5365:1 6299:1 7044:1 8703:1 8704:1 8705:1 8706:1 8707:1 8708:1 8709:1 
1 13:2 25:1 32:2 73:1 74:1 75:1 76:1 100:1 112:1 115:1 118:1 133:1 136:1 197:2 304:1 653:1 1711:1 2203:1 2686:1 3801:2 5506:1 5871:1 8710:1 
1 23:1 25:1 29:1 38:1 44:1 49:1 58:1 75:1 133:1 290:1 358:1 509:1 564:1 598:1 632:1 695:2 830:1 935:1 1241:1 1457:2 1623:1 1766:1 1945:2 3058:1 3407:1 4541:1 4715:1 8711:1 8712:1 8713:1 
1 5:1 25:1 46:1 406:1 539:1 549:1 1074:1 6541:1 6630:1 
1 25:1 30:1 36:1 40:2 42:1 43:1 44:1 46:2 49:1 57:1 64:2 95:1 106:1 113:1 114:1 115:1 118:1 121:1 157:1 249:3 296:1 760:1 902:1 947:1 1221:1 1480:1 1495:1 1763:1 1774:1 2511:1 2512:1 2655:1 3046:1 5565:1 6880:1 8676:2 8714:1 8715:1 
1 16:1 25:1 30:2 32:2 40:1 46:3 58:1 75:1 77:1 95:1 117:1 118:2 128:1 171:1 273:1 280:1 305:1 306:1 532:1 556:2 1135:1 1985:1 2167:1 5687:1 6354:2 8716:1 8717:1 8718:1 8719:1 
1 5:1 25:1 43:1 338:1 503:1 539:1 701:1 935:1 1456:1 7023:1 8720:1 
1 5:1 25:1 58:1 318:1 1264:1 1747:1 1868:1 2034:1 2280:1 2507:1 2686:1 7396:1 
1 16:1 17:1 22:1 25:1 73:1 74:1 75:2 76:1 95:1 106:1 112:2 113:2 114:2 121:1 140:1 161:1 197:1 247:1 326:1 328:1 367:1 373:2 380:1 541:1 547:1 560:1 613:1 645:1 687:1 913:1 1192:1 1225:1 1274:2 1570:1 1573:2 1606:1 1748:2 1815:1 1974:1 2264:1 2296:1 2301:2 2399:1 2749:1 4591:2 4836:1 5293:1 7167:1 8721:1 8722:1 8723:1 8724:1 
1 12:1 25:1 58:2 131:1 194:1 271:2 304:1 334:2 358:1 380:1 556:2 567:1 674:2 687:1 3185:2 3342:1 3897:1 4430:2 4808:2 5347:1 6733:1 8725:1 
1 13:1 25:1 49:1 58:1 157:1 171:2 194:2 246:1 290:1 318:1 373:2 503:1 583:1 674:1 825:1 1125:1 3185:1 3342:2 4430:2 4808:1 4836:1 5642:2 
1 25:1 29:1 58:2 68:1 153:2 172:1 219:2 373:2 380:1 531:2 591:1 653:1 655:1 694:1 2097:1 3196:1 4731:1 8726:1 8727:2 
1 16:2 25:1 34:1 40:1 42:1 55:1 77:1 93:1 100:1 113:1 114:1 115:1 147:2 257:1 258:1 273:1 373:2 439:1 455:2 695:2 760:1 902:1 1115:1 1605:1 3236:1 3275:1 3539:1 3540:1 5860:1 6480:1 7755:2 7761:1 
1 8:1 25:1 68:1 133:1 219:1 246:1 288:3 373:1 492:1 539:1 588:2 712:1 765:1 1039:2 1151:1 1728:1 2426:1 2636:1 3122:1 3277:1 8728:1 
1 5:1 25:1 187:1 213:1 318:1 373:1 916:1 3181:1 5384:1 8729:1 8730:1 8731:1 
1 25:1 38:2 44:1 46:2 58:1 68:1 95:1 97:2 106:1 117:1 118:1 119:1 121:1 219:2 290:1 328:2 340:2 355:1 373:1 380:1 492:1 497:1 547:1 583:1 611:1 632:1 651:2 694:1 902:1 1097:1 1102:1 1103:1 1536:1 1555:1 3040:1 4849:1 8359:1 8732:1 8733:1 
1 3:1 17:1 25:1 29:1 30:2 32:2 34:1 42:1 46:1 55:1 77:1 83:1 91:1 95:1 112:1 120:1 131:1 273:1 284:1 380:1 592:1 888:1 1292:1 1433:1 1674:2 1675:2 1945:3 3801:1 8096:1 8734:1 
1 5:1 14:2 25:1 82:2 120:1 151:1 175:1 187:1 194:1 214:1 358:1 373:1 455:1 474:1 521:1 539:1 695:2 697:1 1195:1 2234:1 2320:1 3541:1 5571:1 8735:1 
1 2:1 4:1 5:3 11:2 12:1 23:1 25:1 36:1 49:1 53:1 151:1 152:1 158:2 161:3 172:1 183:1 187:1 231:1 467:1 492:1 503:2 908:1 1098:1 1307:1 1493:1 1736:1 1885:1 1894:1 2290:1 2469:1 3246:2 7338:2 8550:2 8736:1 8737:1 
1 2:2 4:1 5:1 8:1 11:2 12:1 13:1 25:1 36:1 77:1 108:1 157:2 161:2 171:1 172:2 175:1 231:1 503:1 547:1 645:2 908:1 978:2 1078:1 1461:2 1716:2 1736:1 2216:1 2300:2 3412:1 4981:1 7338:2 7427:1 8737:1 8738:2 8739:1 8740:1 8741:1 8742:1 
1 8:1 25:1 106:1 121:1 157:1 171:1 189:1 194:1 205:1 219:1 226:1 278:1 335:1 354:1 373:1 379:1 488:1 492:1 531:1 547:1 591:1 724:1 808:1 916:1 947:1 1018:1 1045:1 1077:1 1700:1 3082:1 3468:1 4430:2 4696:1 6674:1 8743:1 8744:1 
1 5:1 16:1 25:1 42:1 43:1 46:1 47:1 49:2 55:2 61:1 63:2 67:1 68:1 75:1 95:1 100:2 112:1 118:1 161:1 197:1 203:1 204:1 301:1 314:1 315:1 323:1 358:1 387:1 474:1 564:1 653:1 701:1 751:1 908:1 1055:1 1077:1 1137:1 1377:1 1404:1 1434:1 1493:1 1623:1 1945:2 2260:1 2569:1 3486:1 3802:1 4818:1 8067:1 8745:1 8746:1 8747:1 8748:2 
1 13:1 25:1 34:1 38:1 40:1 42:1 51:1 55:1 100:1 113:1 114:1 157:1 171:2 226:2 318:1 335:2 354:2 364:1 373:2 690:1 710:1 724:1 753:1 808:1 908:1 1018:1 1128:1 1306:1 1885:1 2125:1 2469:1 3468:1 4430:2 6674:2 6934:2 8744:1 8749:1 
1 5:1 8:1 25:1 35:1 40:1 42:1 58:1 117:1 157:1 171:1 226:1 318:1 335:1 354:1 373:2 387:1 685:1 727:1 751:1 808:1 832:1 947:1 1282:1 1306:1 1395:1 1431:1 1433:1 1885:1 4430:1 4616:1 4836:1 4873:1 6674:1 6934:1 8744:1 8750:1 8751:1 8752:1 
1 8:1 25:2 35:2 40:1 42:1 68:1 100:1 113:1 114:1 129:1 133:1 171:1 226:1 318:1 335:2 354:1 358:1 373:2 523:2 556:1 724:2 824:1 939:1 947:1 1080:1 1480:1 2533:1 2931:1 3468:1 3531:1 4430:1 5417:2 6674:1 6934:1 8744:1 
1 8:1 25:1 29:1 106:1 121:1 337:1 1976:1 2193:1 2737:1 3040:1 4230:1 4878:1 5161:1 6422:1 8155:1 8753:1 
1 5:1 17:1 23:1 25:1 29:1 40:1 44:1 48:1 117:1 231:1 290:1 337:2 469:1 533:1 538:1 648:1 692:1 694:1 713:1 724:1 1660:1 1822:1 2973:1 3040:3 3181:1 3899:1 4336:1 4878:2 8730:1 8753:2 8754:1 8755:1 
1 13:1 25:1 72:2 73:1 74:1 75:1 95:1 100:1 113:1 114:1 325:1 328:2 587:1 598:2 613:1 935:1 1159:1 1395:1 1559:1 2250:2 4370:1 5730:1 7253:1 8446:1 
1 25:1 30:1 162:1 389:1 676:1 1130:1 3283:1 3606:1 8250:1 
1 25:1 40:1 49:1 109:1 157:1 161:2 171:2 226:1 246:1 318:1 335:2 354:2 808:1 947:1 1010:2 1013:1 1334:1 3278:2 3468:1 4430:1 6674:2 6934:1 8744:1 8756:1 
1 15:1 25:1 243:1 503:1 916:1 6965:1 8193:1 8194:1 
1 13:2 25:1 48:3 49:2 131:1 226:1 328:1 389:1 503:3 648:1 699:2 702:1 721:1 1284:1 1856:1 2046:1 2310:1 2320:1 2344:1 2692:1 3286:1 4123:1 6723:1 7118:2 7136:1 8014:3 8757:3 8758:1 8759:1 8760:1 
1 8:1 9:1 13:1 15:1 25:1 49:1 53:1 162:1 172:1 226:1 243:2 418:1 477:1 503:2 519:1 695:2 916:1 1195:1 1555:1 1665:1 2320:1 2457:1 2476:1 4179:1 4184:1 7004:2 8193:2 8194:2 8761:1 
1 25:1 29:2 45:1 49:2 68:1 72:1 83:2 92:2 100:1 104:1 112:1 131:1 196:1 226:2 290:1 307:1 588:1 632:1 694:1 780:1 837:1 908:1 911:1 1055:1 1182:1 1395:1 1396:1 1696:2 2018:1 2431:1 3103:1 3819:1 
1 13:1 15:1 23:1 25:1 42:1 49:1 58:1 68:1 120:1 161:1 162:1 187:1 226:1 243:3 358:1 488:1 503:1 539:2 694:1 695:2 721:1 760:1 837:1 2118:1 2218:2 2630:1 3237:1 3619:1 4133:1 8193:2 8194:2 8631:1 8762:1 
1 25:1 157:1 214:1 219:1 297:1 5571:2 6577:1 8250:1 8763:1 
1 9:1 25:1 30:2 40:2 46:2 49:2 51:1 52:1 74:1 75:2 76:1 97:1 100:1 131:1 140:1 152:1 161:1 171:1 194:1 278:1 281:1 314:1 318:2 327:1 363:1 429:1 492:2 501:1 531:1 539:1 593:1 822:1 908:1 1013:1 1139:1 1284:2 1292:1 1402:1 1433:1 1493:1 1612:1 1715:1 2426:1 2478:2 3040:1 5237:1 5501:2 6095:1 8764:1 8765:1 
1 13:1 25:1 58:1 63:1 64:1 172:1 173:1 330:1 380:1 503:1 928:1 941:1 962:2 990:1 1469:1 1679:1 1693:1 2680:1 3237:1 3347:1 3606:1 7694:1 7723:1 8766:2 8767:2 8768:1 8769:1 8770:1 8771:1 
1 13:1 17:1 25:1 44:2 49:1 55:1 58:1 73:1 74:1 76:1 95:1 99:1 100:2 106:2 112:2 113:1 114:1 120:2 121:2 146:1 152:1 166:1 173:1 194:1 226:2 275:1 278:1 297:1 307:1 358:1 367:1 373:1 380:1 393:1 406:1 533:2 549:1 565:1 570:1 575:1 771:1 931:1 935:2 1244:1 1823:1 2344:1 2502:1 2628:1 3103:1 4276:1 5111:1 5374:1 5669:1 6356:3 7638:1 8772:1 8773:1 8774:1 8775:1 8776:1 
1 25:1 73:1 74:1 100:2 157:1 330:1 539:1 771:1 1307:1 1336:1 2208:1 2469:1 4118:1 
1 9:1 15:1 25:1 77:1 91:1 100:2 157:1 162:2 243:1 373:1 695:1 701:1 939:1 1323:2 1866:1 3154:1 3346:1 6012:2 8450:1 8777:2 8778:1 
1 13:1 16:1 25:1 33:2 34:1 39:2 47:1 91:1 94:1 112:1 288:2 328:2 418:1 501:1 714:1 766:2 789:1 902:1 1039:2 1054:1 1055:1 1077:1 1296:1 1402:1 1419:1 1555:1 1594:2 1897:2 2681:2 6287:1 8779:1 8780:1 8781:1 8782:1 
1 5:2 8:1 16:2 25:1 29:1 42:1 46:1 57:2 58:1 95:1 106:1 118:1 120:1 121:1 187:1 273:2 509:1 564:2 689:1 865:1 965:2 1005:3 1128:1 1278:1 1353:1 1419:1 1628:1 1651:2 1652:1 1747:1 1819:1 2006:1 2517:1 2847:1 3103:1 3804:2 6518:1 6709:1 8783:1 8784:2 8785:1 8786:1 8787:1 8788:1 
1 5:1 22:1 23:1 25:1 35:3 38:1 40:1 42:1 46:1 49:1 75:2 76:1 77:1 133:1 145:1 172:1 194:1 197:1 204:4 212:1 213:1 216:1 241:1 318:1 328:1 387:1 402:1 404:1 418:1 422:1 455:4 493:1 539:1 591:1 594:1 653:1 695:4 706:1 721:1 724:2 736:1 773:1 935:1 1077:1 1177:1 1555:1 1891:1 2092:1 2194:1 2655:1 2927:1 3020:1 3262:1 3541:1 4204:1 4234:1 4241:1 5244:1 7012:1 7796:1 8124:1 8789:1 8790:1 8791:1 8792:1 8793:1 8794:1 8795:1 8796:1 
1 25:1 94:1 95:1 97:1 100:1 106:1 110:2 120:1 121:1 196:1 216:1 290:1 371:1 406:1 503:1 525:1 588:2 920:3 921:2 1790:1 1847:1 2006:1 6132:1 7053:1 7805:2 8797:2 8798:1 8799:1 
1 5:1 25:1 51:1 57:1 58:1 59:1 75:2 87:1 135:1 183:1 194:1 214:2 476:1 503:1 504:1 505:1 611:1 693:2 1013:1 1118:1 1951:1 2173:1 3122:1 3342:1 5643:1 8800:1 8801:1 8802:1 8803:1 8804:1 8805:1 
1 16:1 17:1 25:1 28:2 29:1 30:2 49:1 52:1 75:1 106:1 112:2 113:2 114:2 119:1 121:1 157:1 161:1 166:1 187:1 271:1 338:1 409:1 539:1 645:1 724:2 751:1 822:1 1148:1 1241:1 1276:2 1433:1 1747:1 2569:1 2655:2 3260:1 3262:2 3333:2 5042:1 8488:1 8806:1 8807:1 8808:1 8809:1 8810:1 
1 17:1 22:1 25:1 42:1 46:1 58:1 64:1 72:3 75:2 99:2 113:1 114:1 131:1 226:1 295:2 314:1 373:1 404:1 653:1 720:1 724:1 760:1 1010:1 1098:1 1524:1 2260:1 2372:1 2627:1 3182:1 3277:1 3875:1 4193:1 5921:2 8190:1 8273:1 
1 16:1 25:1 42:1 44:1 46:1 58:2 72:2 75:1 99:1 120:1 226:1 247:1 295:2 296:1 314:2 318:1 547:1 564:1 598:1 611:2 648:1 714:1 752:1 895:1 1087:1 1433:1 1567:1 1771:1 1789:1 1842:1 2198:2 2372:1 4055:1 4419:2 4745:1 5502:1 6300:1 6960:2 8190:1 
1 17:2 22:1 23:2 25:1 26:1 29:1 44:1 46:2 94:1 97:1 106:3 118:1 121:2 155:1 162:2 183:1 187:1 197:1 198:1 314:1 427:1 686:1 762:1 827:1 828:1 838:1 916:1 1064:1 1161:2 1540:1 1572:1 2249:1 2405:1 2478:2 2645:1 2736:1 2737:1 2903:1 3174:1 3455:1 4485:1 4966:1 6063:1 7616:1 8811:2 8812:1 8813:1 8814:1 8815:1 
1 8:1 25:1 49:1 58:1 115:1 172:1 187:1 198:1 231:1 260:1 288:2 348:1 349:1 541:1 808:2 1013:1 1018:1 1536:1 1696:2 1747:1 1749:1 2234:1 2760:2 3055:2 3365:1 4246:1 4286:2 4460:1 5796:1 6182:1 8816:1 
1 5:1 12:1 25:1 44:1 58:2 94:1 95:1 157:1 161:1 198:1 231:1 259:1 287:1 288:1 318:1 960:1 982:1 1010:2 1013:1 1434:1 1620:1 1696:2 3055:2 3365:1 3809:1 4286:2 8817:1 8818:1 
1 16:1 25:1 49:1 75:2 100:1 106:2 118:1 121:2 173:1 434:1 477:1 562:1 1120:2 1216:1 1219:1 1419:1 1457:1 1572:1 1573:1 2131:1 2808:1 2862:2 3103:1 3104:1 3796:1 4222:1 4647:1 6064:1 6948:1 8405:1 8819:1 8820:1 8821:1 8822:2 8823:2 8824:1 8825:1 8826:1 
1 17:2 25:1 45:1 46:2 49:1 58:2 72:1 73:1 74:1 75:5 76:1 86:2 94:2 99:1 100:2 119:1 120:1 125:1 161:1 187:1 197:2 248:2 327:1 371:1 393:1 401:1 418:1 547:1 598:1 692:1 766:1 799:1 901:1 1075:1 1102:1 1119:1 1171:1 1236:1 1312:1 1373:2 1379:1 1450:1 1617:1 1837:1 2087:1 2954:1 3081:1 3496:1 3498:1 3927:1 4636:1 4802:1 5724:1 7843:1 8470:1 8790:1 8827:1 8828:1 
1 8:1 17:1 25:1 43:1 44:1 49:1 58:1 64:1 75:1 94:1 95:1 118:1 131:1 171:2 173:1 187:1 197:1 267:1 288:2 327:1 367:1 525:1 578:1 634:1 666:2 713:1 716:1 731:1 752:1 780:1 912:1 1199:1 1276:1 1747:1 2099:1 2127:1 2200:1 2518:2 3550:1 4249:1 7013:1 8208:1 8829:1 8830:1 8831:1 8832:1 
1 12:1 17:1 23:1 25:1 49:3 53:1 64:3 68:1 72:1 85:1 94:1 97:1 99:1 109:1 113:1 114:1 120:1 131:1 152:1 153:2 161:1 168:1 169:1 187:1 232:2 247:3 288:2 294:2 303:1 313:1 314:1 318:1 364:1 398:1 409:1 427:1 460:2 687:1 760:1 771:1 895:1 1032:1 1102:2 1103:2 1233:1 1458:1 1633:1 1747:1 2137:1 2254:1 2546:1 3071:1 3277:1 3447:1 4729:1 5893:1 6055:1 6589:1 6861:1 8833:1 8834:1 8835:2 8836:1 
1 25:1 28:1 49:1 51:1 72:1 100:1 113:1 114:1 145:1 161:1 194:1 219:1 243:1 248:1 271:1 326:1 373:1 418:1 427:1 531:1 566:1 594:1 822:1 1263:1 1395:1 1556:1 1573:2 1606:1 2194:1 2623:1 4818:1 5345:1 5853:1 
1 25:1 51:1 66:1 194:1 439:1 1010:1 1114:1 1433:1 2623:1 3142:1 5550:1 
1 3:2 8:1 13:1 16:1 25:1 34:1 44:3 46:3 48:1 49:1 51:1 68:3 75:2 100:2 115:1 120:1 131:1 135:1 151:2 157:1 166:1 173:2 187:1 205:1 216:1 281:1 288:4 289:1 290:3 304:1 307:1 318:1 330:1 337:1 380:1 386:3 492:1 500:1 527:1 528:1 529:1 548:1 549:2 554:1 570:2 593:1 639:1 648:1 682:1 799:1 822:1 901:2 902:1 947:1 1084:1 1116:1 1468:1 1657:1 1666:1 1710:1 1931:1 2072:1 2327:1 2330:3 2644:1 2666:1 2756:1 2907:1 3455:1 3501:1 3630:6 3769:2 4283:1 4409:1 4412:1 4560:1 4671:2 4681:1 4873:1 5169:2 5577:1 5710:4 6182:1 6452:1 6565:1 7037:1 7038:1 7039:1 7040:1 7041:1 7240:2 7514:1 8837:1 8838:1 
1 25:1 51:1 77:1 172:1 194:2 243:1 248:1 261:2 317:2 318:2 326:1 354:1 373:1 520:2 740:1 859:2 1044:1 1340:1 2099:1 2623:2 3328:2 3746:1 4319:1 4320:1 4983:1 8137:1 8839:1 
1 25:1 39:1 51:2 53:1 72:2 100:1 127:2 194:2 244:2 271:1 326:2 328:1 822:2 913:1 935:1 1395:1 1572:2 1573:2 1606:1 2206:1 2623:2 3574:1 4016:1 4814:1 4818:1 8840:1 
1 5:1 25:1 49:1 51:2 73:1 94:1 108:1 110:1 145:1 194:2 243:2 271:1 307:1 822:1 833:1 1128:1 1556:2 1568:1 1573:1 1748:1 2206:1 2623:2 3536:1 4484:1 6766:1 8841:1 8842:1 
1 23:1 25:1 44:1 51:1 100:1 108:1 146:1 187:1 205:1 222:2 266:1 375:1 500:1 960:2 1696:1 2395:2 2782:1 3010:1 3328:1 3769:1 4311:1 6254:1 8333:1 8813:1 8843:1 
1 14:1 17:1 25:1 58:2 75:1 94:1 115:1 178:1 231:1 373:1 380:1 547:1 591:1 931:1 971:1 1080:1 1130:1 1163:1 1412:1 2943:2 3445:1 3737:1 6842:1 7941:1 8844:1 8845:1 8846:2 8847:1 8848:1 8849:1 
1 16:1 25:1 49:1 51:1 67:1 75:1 128:1 135:2 152:1 171:1 194:1 204:1 205:1 216:1 221:2 500:1 533:1 537:1 695:1 700:1 710:1 751:1 913:1 1128:1 1831:1 1911:1 2327:1 2736:1 3054:1 3342:2 3683:1 3792:1 4409:1 5247:1 5707:1 6766:1 
1 25:1 46:1 49:1 94:1 95:1 110:2 118:1 152:1 155:1 167:1 194:1 197:1 207:1 212:1 248:1 367:1 427:1 434:1 449:2 474:1 510:1 632:1 1010:1 1121:1 1195:1 1556:2 1563:1 1573:3 1898:1 1976:2 2321:1 2569:1 3223:2 4339:1 4918:2 5341:1 8532:2 8644:1 
1 16:1 23:2 25:1 49:1 131:1 173:2 270:1 380:1 426:1 509:1 523:2 543:1 564:1 653:1 666:2 687:1 689:1 726:1 796:2 1085:1 1752:1 3069:1 3848:2 3897:1 4616:1 6733:1 8850:2 
1 5:1 8:1 13:1 25:1 40:1 46:1 68:2 75:2 110:1 152:3 157:1 164:1 187:2 197:1 220:2 255:1 306:1 406:1 460:1 539:2 547:2 548:1 768:1 1077:1 1091:1 1092:1 1458:2 2208:1 2655:2 3746:2 5031:1 5034:1 5668:1 6192:2 8637:1 8851:2 8852:1 
1 5:1 23:1 25:1 51:1 66:1 75:1 97:1 100:1 106:2 121:2 148:1 194:2 243:1 290:1 318:1 1304:1 1913:1 2311:1 2501:1 2623:2 2735:1 3081:1 3141:1 5103:1 5105:1 6540:1 6607:1 8853:1 8854:1 8855:1 
1 8:1 13:1 25:1 35:1 75:1 100:1 110:1 145:1 157:1 161:1 226:1 380:1 425:1 427:1 433:1 539:1 570:1 587:1 785:1 887:1 1002:1 1090:1 1215:1 1353:1 1700:1 1756:1 2050:1 2208:1 2257:1 3216:1 3641:1 5506:1 6942:2 8856:1 
1 10:1 25:1 44:1 51:1 53:1 131:1 161:2 194:1 219:2 271:2 290:1 373:1 418:1 433:1 503:1 531:2 594:1 785:1 1010:1 1263:2 1568:1 1572:1 1573:1 2010:1 2623:1 3431:1 3683:1 6482:1 
1 12:1 25:1 40:1 58:1 75:1 113:1 115:1 157:1 161:1 171:1 216:1 231:3 362:1 541:1 542:1 808:1 947:1 1010:1 1151:2 1158:1 1303:1 1493:1 2167:1 3055:1 3879:1 4696:2 5637:1 7258:1 8857:2 8858:1 8859:1 8860:1 
1 20:2 23:1 25:1 48:1 51:2 95:2 198:1 328:1 487:1 554:1 612:1 1751:1 2372:2 2757:1 3579:2 3769:2 4026:1 6181:1 6418:1 6421:1 6581:1 8293:1 8645:2 8807:2 
1 5:1 23:1 25:1 58:1 94:1 110:2 118:1 174:2 194:1 196:3 265:1 290:1 328:1 432:1 448:1 499:1 503:1 787:1 911:1 985:1 1057:1 1662:1 2364:1 2832:1 3007:1 3746:1 6448:1 8071:1 8861:1 8862:1 
1 16:1 25:1 72:2 100:2 290:1 380:1 439:1 579:2 612:2 1353:2 1605:2 1790:1 1971:1 2122:2 2352:1 2526:1 2780:1 4253:1 6279:2 6455:2 8330:1 8863:1 8864:1 8865:1 
1 25:2 44:1 110:1 171:1 290:1 503:1 756:1 2723:1 3152:1 8450:1 
1 5:1 25:1 42:1 58:1 73:1 74:1 75:1 76:1 112:3 113:1 114:1 118:1 157:1 171:1 290:2 373:1 503:2 756:2 757:2 1007:1 1010:1 1077:1 1700:1 1716:2 2211:1 2422:2 8463:2 8468:1 8866:2 
1 25:1 58:1 171:1 503:1 3696:1 8867:1 
1 8:1 25:1 44:1 57:1 58:1 75:1 87:1 94:1 97:1 99:2 100:1 110:1 120:1 161:1 219:2 314:1 392:1 418:1 475:2 481:1 547:1 684:1 700:1 713:1 872:1 1010:1 1067:1 1128:1 1325:1 1414:1 2904:1 3262:1 3455:1 5712:1 6232:1 7030:1 7258:1 7679:1 8868:1 
1 4:1 5:1 11:1 25:1 118:1 612:1 831:1 865:1 1077:1 1605:1 5539:1 6965:1 
1 2:2 8:1 11:2 25:1 51:2 58:2 75:1 95:1 140:1 161:2 171:2 172:1 183:1 214:1 469:1 475:1 607:1 629:1 630:1 753:1 755:2 1362:1 1554:2 2539:1 3152:1 3266:1 3468:1 4126:1 5552:1 8869:1 8870:1 
1 5:1 8:1 13:1 22:1 25:1 49:1 58:1 135:1 172:1 219:2 290:1 373:2 471:1 492:1 531:1 533:1 539:1 766:1 770:1 943:1 1010:1 1080:1 1085:1 1158:1 1175:1 1323:1 2234:1 3346:1 4139:1 4836:1 5097:1 7196:1 7479:1 8637:1 8871:1 
1 8:1 17:1 25:1 40:1 44:2 49:1 53:1 95:1 99:2 115:2 140:1 152:1 166:2 171:1 198:1 246:1 290:2 301:1 307:1 326:1 338:2 358:1 556:1 613:1 720:1 724:1 895:1 947:1 1010:2 1053:1 1258:1 1395:1 1644:1 1721:1 2122:3 2253:1 2511:2 2512:2 2687:1 3805:1 4460:2 5457:1 5716:2 7638:1 8872:1 8873:2 8874:1 8875:2 
1 16:1 25:1 95:1 613:1 1710:1 2122:1 8876:1 
1 5:1 12:1 20:1 25:1 35:1 51:1 53:1 58:2 66:1 82:1 95:1 108:1 109:1 135:1 171:1 172:1 214:2 371:1 373:1 492:1 505:2 507:2 780:2 1128:1 1162:1 1195:1 2320:1 2723:1 2860:2 3328:1 3455:1 4390:1 8476:2 8877:1 
1 16:1 25:1 42:1 49:1 55:1 57:1 91:1 152:1 214:1 288:1 296:1 304:1 429:1 455:2 531:1 592:1 653:1 691:1 701:1 702:1 712:1 760:1 1039:1 2218:2 2859:1 3296:1 3671:1 6110:1 8878:1 8879:1 
1 5:1 17:2 25:1 29:1 40:2 45:1 46:1 49:1 68:1 75:1 83:1 100:1 112:1 117:1 157:1 208:1 326:1 327:2 512:1 539:2 676:1 694:1 773:1 935:1 1077:1 1092:1 1395:1 1712:1 2022:2 2039:1 2655:1 2816:1 3338:1 4859:1 5906:1 6192:3 8851:2 8880:1 
1 5:1 13:1 25:1 35:1 38:2 39:2 46:1 49:1 58:1 75:2 95:1 112:2 145:1 171:1 226:3 290:1 302:1 318:3 334:1 335:1 354:1 373:2 523:1 543:1 727:1 837:1 947:1 1334:1 2666:1 3262:1 3407:1 3468:1 4430:1 5951:1 6674:1 6934:1 7087:1 8744:1 8776:1 8881:1 8882:1 
1 5:2 25:1 44:1 57:1 58:1 68:1 100:1 108:1 110:1 152:1 166:1 188:2 197:1 216:1 226:1 248:1 290:2 373:1 448:1 459:1 463:1 618:1 682:1 908:1 1010:1 1045:1 1169:2 1433:2 2018:1 2050:1 2232:1 3196:1 3283:1 3606:1 4836:1 5783:1 5881:1 8883:1 8884:1 8885:1 
1 16:1 25:2 46:1 64:2 75:1 94:1 152:1 169:1 180:1 287:1 295:1 549:1 626:1 840:1 911:1 1268:1 1458:1 1880:1 1928:1 3277:1 4681:1 5530:1 6482:1 8637:1 8886:1 
1 3:1 5:1 25:1 93:1 108:1 112:1 113:1 114:1 196:1 247:1 1077:1 1891:1 2943:1 3040:1 3606:1 6047:1 6430:1 8887:1 
1 3:1 5:1 13:1 25:1 42:1 46:1 49:1 58:2 87:1 91:1 94:1 95:1 100:1 108:1 118:1 120:3 131:1 133:1 135:2 152:2 153:4 172:1 204:1 219:2 231:1 304:1 318:1 328:1 367:1 373:4 378:1 428:1 492:1 503:2 594:2 602:1 653:1 689:2 693:1 695:1 701:1 706:1 708:1 709:1 712:1 753:1 760:1 799:2 842:2 908:1 1116:1 1195:1 1258:1 1433:1 1524:1 1527:1 1604:1 2006:1 2173:1 3292:1 3293:2 3295:1 3296:1 4443:1 4478:1 4610:1 8359:1 8472:1 8888:1 
1 13:1 25:1 29:1 46:2 55:1 72:1 95:2 106:1 110:1 118:1 121:1 243:1 269:1 534:1 562:1 632:1 792:1 1543:1 1622:1 2024:1 2713:1 3949:1 3950:1 4124:2 4125:1 8889:1 8890:1 
1 5:1 25:1 29:2 59:1 77:1 95:1 100:1 113:1 114:1 135:1 204:1 219:1 325:1 338:1 373:2 380:1 653:1 695:2 1199:1 1282:1 1395:1 1480:1 1536:1 2020:1 3448:1 3484:1 3669:1 6880:1 8208:1 8426:1 8891:1 8892:1 8893:1 
1 16:1 25:1 46:1 49:1 75:1 85:1 95:1 97:1 131:2 133:1 166:1 211:1 232:1 243:3 245:1 249:1 273:1 290:1 538:2 614:1 674:1 1013:1 1077:1 1129:1 1292:1 1297:1 1513:1 1666:1 2024:1 2086:1 2258:1 2545:1 3666:1 4143:1 4173:1 4639:1 4690:1 5072:1 5906:2 6965:1 7389:1 8894:1 8895:1 8896:1 
1 25:1 51:1 66:1 95:1 100:2 106:2 120:1 121:2 135:1 157:1 166:1 206:1 219:1 271:1 273:1 280:1 290:2 334:1 358:1 386:1 402:1 406:1 551:1 593:1 649:1 686:1 830:1 1000:2 1128:2 1415:1 1450:1 1660:1 1891:1 1929:1 3103:1 3688:1 4585:1 5892:1 6429:1 8897:1 
1 25:1 29:1 72:1 73:1 74:1 75:1 76:1 150:1 219:1 290:1 373:1 386:1 593:1 711:1 
1 13:1 25:1 28:1 44:1 49:1 72:2 75:2 113:2 114:1 150:2 161:1 166:1 212:1 219:1 246:1 247:1 290:2 373:2 386:1 418:1 510:1 549:1 560:1 591:1 593:2 711:2 1013:1 1450:1 1790:1 2189:1 2248:1 2258:1 3260:1 3277:1 
1 16:1 25:1 58:1 64:1 106:2 120:1 121:2 178:1 284:1 288:3 290:1 354:1 380:1 402:1 457:1 1331:1 1534:3 1666:1 2177:1 2180:1 2422:1 2499:1 3007:1 4192:2 4419:2 4539:1 6880:1 7848:1 8234:1 8526:1 8866:1 8898:1 8899:1 8900:1 
1 5:2 25:1 46:2 58:1 70:1 75:2 77:1 120:1 151:1 172:1 175:2 187:1 196:1 219:1 221:1 290:1 371:1 373:2 474:1 502:2 503:1 525:1 539:2 906:1 1013:1 1139:1 1461:1 2448:1 2642:1 3563:2 4037:1 8901:2 8902:1 8903:1 
1 5:1 16:1 25:1 699:1 1160:1 1451:1 2120:1 6381:1 7433:1 8904:1 
1 25:1 42:1 49:1 151:1 161:2 183:1 187:2 194:1 196:1 197:2 372:1 373:1 474:2 477:2 578:1 916:2 980:1 1417:1 1457:2 1555:1 1759:1 1987:1 2128:1 2296:1 3181:1 3455:1 5384:1 6066:1 6424:1 8154:1 8729:1 8730:1 8905:1 
1 25:1 125:1 261:1 715:1 716:1 1084:1 2092:1 
1 25:1 35:1 46:1 49:2 53:1 58:1 75:1 108:1 135:2 150:1 219:1 288:1 373:2 503:1 531:1 539:1 588:1 686:1 695:2 916:1 1130:1 1325:1 2277:2 4206:1 6012:1 7074:1 7760:1 8777:1 8906:1 8907:1 
1 17:1 22:1 23:1 25:1 46:1 49:1 58:1 150:1 162:2 373:2 503:1 588:1 591:1 3934:1 5100:1 6965:2 8500:1 8908:1 8909:1 
1 5:1 25:1 51:1 58:1 373:1 503:1 576:1 1352:1 1460:1 2188:1 3307:1 3547:1 4390:1 8910:1 8911:1 
1 5:1 25:1 49:1 58:1 59:1 91:1 100:1 151:1 171:1 187:1 247:1 367:1 500:1 516:1 531:1 693:2 701:1 751:1 759:1 761:1 1048:1 1115:1 2559:1 3154:1 4385:1 8912:1 8913:1 8914:1 
1 5:1 25:1 307:1 356:1 532:1 1076:1 1182:1 1334:1 2538:1 4123:1 4277:1 6513:1 8915:1 
1 8:1 25:2 51:1 58:1 75:1 118:1 155:1 170:1 197:1 204:1 228:1 328:1 367:1 373:1 380:1 505:2 591:2 752:1 799:1 1904:1 1975:1 4867:2 4892:1 5373:1 5428:1 7262:1 8916:2 8917:1 8918:1 8919:1 8920:1 
1 3:2 25:1 30:2 43:1 44:1 46:1 75:1 95:1 108:1 131:1 194:1 216:1 219:2 232:1 373:2 591:1 653:1 726:1 765:1 902:1 1059:1 1077:2 1122:1 1447:1 1906:1 1926:1 2200:1 2666:1 2736:1 4333:1 4867:2 5097:1 5970:1 8916:2 8919:1 8921:1 
1 3:2 25:1 30:2 108:1 131:1 194:1 219:2 373:2 488:2 502:1 593:1 726:1 765:1 1258:2 1906:1 2666:1 2736:1 3262:1 4036:1 4867:2 5970:1 8304:1 8916:2 8922:1 
1 8:1 25:1 30:1 44:1 58:1 67:2 128:2 172:1 189:2 358:2 373:2 380:1 504:1 505:2 591:2 947:1 1010:1 1926:1 2666:1 4867:2 5428:1 8916:2 8919:2 8923:1 8924:1 
1 3:1 5:1 11:1 25:1 57:1 67:1 95:1 100:1 110:1 118:1 120:1 135:1 172:1 219:1 373:1 387:1 418:1 502:1 587:1 588:1 714:1 765:1 1077:1 1362:1 1880:1 1926:1 2279:1 2318:1 2666:1 2954:1 3236:1 4867:2 8916:2 8924:1 8925:1 8926:1 
1 25:1 153:1 912:1 1333:1 1451:1 4275:1 
1 5:1 25:1 49:1 58:2 70:1 97:1 106:2 118:1 121:2 172:1 211:1 265:1 363:1 373:1 576:1 591:1 602:1 772:1 971:1 1010:1 1128:1 1276:1 1448:1 1460:1 1536:1 1987:1 2254:1 2327:1 2330:1 2951:2 3237:1 3278:1 3431:1 5338:1 8927:1 
1 16:1 25:1 32:2 46:1 55:1 70:1 72:1 94:2 100:1 118:1 161:1 197:1 296:1 306:2 389:1 390:1 531:1 538:2 632:1 739:2 837:1 1278:1 1628:1 1791:2 1849:1 3455:1 8928:1 8929:1 8930:1 8931:1 
1 8:1 25:1 28:2 58:1 68:1 75:1 77:1 151:1 162:1 172:3 287:1 315:1 323:1 473:1 474:1 503:1 504:1 519:1 521:1 539:1 563:1 1202:1 1461:2 2183:1 2215:1 2216:1 2320:2 2903:2 3237:2 3431:1 4003:1 4674:1 4715:2 4788:1 5790:2 8932:2 8933:1 
1 25:1 46:1 51:1 55:1 59:1 110:1 120:1 214:1 219:1 297:1 306:1 516:1 611:1 653:1 701:1 751:1 755:1 993:1 1010:1 1402:1 1510:1 1733:1 1772:1 1791:1 2943:1 3350:1 3392:1 4133:1 4741:1 8934:1 8935:1 
1 5:1 25:1 68:1 100:1 125:2 173:1 183:1 194:2 198:1 202:2 219:1 222:1 231:1 290:2 330:1 355:1 367:1 389:1 472:1 503:1 539:2 556:1 593:1 648:1 723:2 799:1 990:1 1044:1 1130:1 1210:1 1225:1 1495:1 2177:1 2345:1 2499:1 2680:2 2682:1 2905:1 5953:1 7827:1 8184:1 8936:1 
1 13:1 25:1 94:1 112:1 113:1 114:1 157:1 187:1 194:1 271:2 281:1 304:1 318:1 373:1 503:2 556:2 592:1 653:2 721:1 1642:1 1747:1 2587:1 3262:1 3342:1 3897:1 4123:2 4141:1 4372:1 4430:1 8725:1 
1 25:1 49:1 58:1 68:2 100:1 110:1 120:1 151:1 161:1 171:1 334:1 338:1 533:1 931:1 1315:1 1686:1 1721:1 1868:1 2028:1 3239:1 3277:1 3278:1 5294:1 7167:1 7658:1 8227:1 8937:1 8938:1 
1 13:1 25:1 66:1 68:1 97:1 290:1 314:1 326:1 373:2 503:1 539:2 541:1 784:2 939:1 1052:1 1258:2 1362:1 2529:1 2980:1 8939:2 8940:1 
1 25:1 43:1 49:1 58:1 99:1 118:1 187:1 226:1 301:1 435:1 475:2 481:1 591:1 686:1 1010:1 1075:1 1195:1 1319:2 1320:1 1323:2 1594:1 1747:1 1763:1 2681:1 2954:1 3103:1 3455:1 5494:1 6066:1 8941:1 8942:1 8943:1 8944:1 
1 25:1 75:1 118:1 475:1 1010:1 1323:1 1763:1 1819:1 2186:1 5494:1 
1 5:1 25:1 28:1 77:1 112:1 214:1 356:1 380:1 427:1 576:1 813:1 903:1 935:1 1395:1 1606:1 1775:1 2368:1 2495:1 2853:1 4221:1 5256:1 6948:1 7768:1 8945:1 
1 8:1 16:1 25:1 43:2 46:1 59:1 106:1 118:1 121:1 152:1 167:1 290:1 295:1 304:1 373:2 380:1 406:1 439:1 503:1 548:1 653:1 730:1 822:1 973:1 1191:1 1236:1 1274:1 1362:1 1623:1 1660:1 1792:1 2058:1 7044:2 8946:1 8947:1 8948:1 
1 25:1 373:1 825:1 1791:1 2131:1 3498:1 7044:1 8949:1 
1 5:1 25:1 44:2 46:1 49:1 72:1 106:1 115:1 121:1 166:1 171:1 198:1 216:1 290:2 314:2 418:1 492:1 500:1 547:1 587:1 720:1 724:1 924:1 1007:1 1118:1 1128:1 1159:1 1216:1 1225:1 1353:2 2330:1 2422:1 2553:1 2569:1 2778:1 3416:1 3864:3 4132:1 4214:1 5220:1 5665:1 6870:1 8950:1 
1 17:1 25:1 29:1 44:1 46:1 71:2 94:1 108:1 166:1 288:1 367:1 389:1 547:1 653:1 712:2 800:2 847:2 901:5 911:2 1781:1 2138:1 2139:1 2330:1 3870:1 5005:1 6422:1 6561:1 8951:1 8952:1 8953:1 8954:1 8955:1 
1 17:1 25:1 29:1 44:1 46:1 71:2 94:1 108:1 166:1 288:1 367:1 389:1 547:1 653:1 712:2 800:2 847:2 901:5 911:2 2138:1 2139:1 2330:1 5005:1 6422:1 6561:2 8953:1 8954:1 8955:1 
1 23:2 25:1 42:1 52:1 58:2 63:2 64:1 68:1 75:2 82:1 100:1 106:2 110:3 121:2 171:1 172:1 194:1 290:1 312:1 328:1 339:1 358:2 509:2 547:1 598:1 694:1 714:1 965:1 1077:1 1402:1 1623:1 2107:1 2132:1 2145:1 2146:1 2187:2 2290:1 2736:2 4309:2 4591:1 7675:1 7919:1 8956:1 8957:2 8958:1 8959:1 8960:1 
1 25:1 28:1 44:1 46:1 49:1 53:1 70:1 71:2 135:1 173:1 196:1 288:1 406:1 420:1 503:2 560:1 598:1 712:2 724:1 800:3 847:2 848:1 901:5 911:1 1396:1 1460:1 1696:1 2327:1 4348:1 6561:2 8954:1 
1 8:1 25:1 118:1 131:1 197:1 428:1 503:1 821:1 1054:1 1055:1 1151:2 1159:1 1555:1 1623:2 1657:1 2617:1 2919:1 8961:1 8962:2 
1 13:1 23:1 25:1 63:1 100:1 106:1 120:1 121:1 126:1 172:1 298:1 310:1 318:1 409:1 418:1 422:1 499:1 554:1 557:1 620:1 724:1 753:1 912:1 1285:1 1885:1 2185:1 2296:1 2364:1 2469:1 3431:1 8963:1 8964:1 8965:1 8966:1 
1 16:1 17:2 25:1 49:1 67:2 166:1 208:2 214:2 439:1 455:3 1433:2 2065:1 2277:1 2851:2 3240:1 3342:2 5309:1 8763:2 8967:1 
1 5:3 25:1 46:2 94:1 232:2 246:1 334:1 373:1 503:2 539:2 541:1 766:1 1154:1 1164:1 1274:2 1565:1 3414:1 6271:2 8968:1 
1 5:1 16:1 17:1 25:1 35:1 49:2 67:2 95:1 100:2 151:1 154:1 166:1 171:1 208:2 214:1 247:1 290:1 335:1 373:1 455:1 476:1 698:1 822:1 1395:1 1493:1 1623:1 2499:1 3240:1 3342:2 4127:1 5571:2 8208:1 8763:1 8969:2 8970:1 
1 5:1 25:1 42:1 49:1 72:2 73:1 74:1 113:1 114:1 167:1 281:1 288:2 290:1 315:1 576:1 578:1 587:1 632:1 1039:3 1623:1 1786:1 1921:1 1953:1 2010:1 2139:1 2904:1 3265:1 6633:2 6636:1 
1 5:1 25:1 48:2 68:2 166:1 173:2 216:2 262:2 288:3 290:1 473:1 492:1 625:1 724:2 979:1 1043:2 1054:1 1078:2 1736:1 2622:1 2667:1 3328:1 4387:1 6254:2 8540:2 8971:2 8972:1 8973:1 
1 8:1 11:2 16:1 25:1 99:1 106:2 110:1 115:1 121:2 135:2 194:1 220:1 278:1 339:1 380:2 632:1 721:1 970:2 1055:1 1433:1 1448:1 1790:1 1822:1 3671:3 3830:1 4253:1 6549:1 7184:1 7833:1 8765:1 8974:1 8975:1 8976:1 8977:1 
1 25:1 75:1 108:1 110:1 367:1 1402:1 1573:1 1878:1 2230:1 2234:1 3142:1 3270:1 5663:1 6264:1 6589:1 7763:1 8708:2 8709:1 8978:1 8979:1 8980:1 
1 5:1 8:1 17:1 25:1 40:1 58:1 67:2 172:1 175:1 208:2 214:2 455:1 475:1 777:1 872:1 1135:1 1565:1 2065:1 2736:2 3342:2 4562:1 8763:2 8969:2 
1 5:3 8:1 25:1 29:2 30:1 57:1 58:1 59:1 67:1 68:1 75:1 214:2 315:1 474:1 505:1 695:2 705:2 1563:1 1733:2 2851:1 3863:2 4831:1 4833:1 8384:1 
1 8:1 25:1 30:1 94:1 127:1 172:1 1457:1 1461:1 1495:1 2221:1 2469:1 2470:1 3563:1 
1 17:1 25:1 44:1 97:2 118:1 172:1 175:1 318:1 354:1 373:1 727:1 1138:2 1285:1 1554:1 1585:1 1666:1 2587:1 3486:1 3541:2 4074:2 4122:1 8359:1 
1 23:1 25:1 44:1 68:1 71:1 100:1 153:1 288:1 712:2 847:1 901:3 911:1 1077:1 1480:1 3870:2 
