svm_type c_svc
kernel_type rbf
gamma 1e-07
nr_class 2
total_sv 3651
rho 1
label 1 0
nr_sv 1217 2434
SV
1e-05 1:1 2:2 3:1 4:1 5:2 6:3 7:1 8:1 9:1 10:1 11:1 12:1 13:1 14:1 15:1 16:1 17:2 18:1 19:1 20:1 21:1 22:1 23:1 24:1 25:1 26:1 27:1 28:1 29:2 30:1 31:1 32:1 33:1 34:1 35:1 36:1 37:1 38:1 39:1 40:1 41:1 42:1 43:1 44:1 45:1 46:1 47:1 48:1 49:1 50:1 51:1 52:1 53:1 54:1 55:1 56:1 57:1 58:1 59:1 60:1 61:1 62:1 63:1 64:1 65:1 66:1 67:1 68:1 69:1 70:1 71:1 72:1 73:1 74:1 75:1 76:1 77:1 78:1 79:1 80:1 81:1 82:1 83:1 84:1 85:1 86:1 87:1 88:1 89:1 90:1 91:1 92:1 93:1 94:1 95:1 96:1 97:1 98:1 99:1 100:1 101:1 102:1 103:1 104:1 105:1 106:1 107:1 108:1 109:1 110:1 111:1 112:1 113:1 114:1 115:1 116:1 117:1 118:1 119:1 120:1 121:1 122:1 123:1 124:1 125:1 126:1 127:1 128:1 129:1 130:1 
1e-05 3:1 13:1 130:1 131:1 132:2 133:2 134:1 135:1 136:1 137:2 138:1 139:1 140:1 141:1 142:1 143:1 144:2 145:1 146:1 147:1 148:1 149:1 150:1 151:2 152:1 153:1 154:1 155:1 156:1 157:1 158:1 159:1 160:1 161:1 162:1 163:1 164:1 165:1 166:1 167:1 168:2 169:1 170:1 171:1 172:1 173:1 174:1 175:1 176:1 177:1 178:1 179:1 180:1 181:1 182:1 183:1 184:1 185:1 186:1 187:1 188:1 189:1 190:1 191:1 192:1 193:1 194:1 195:1 196:1 197:1 198:1 199:1 200:1 201:1 202:1 203:1 204:1 205:1 206:1 207:1 208:1 209:1 210:1 211:1 212:1 213:1 214:1 215:1 216:1 217:1 218:1 219:1 220:1 221:1 222:1 223:1 224:1 225:1 226:1 227:1 228:1 229:1 230:1 231:1 232:1 233:1 234:1 235:1 236:1 237:1 238:1 239:1 240:1 241:1 242:1 243:1 244:1 245:1 246:1 247:1 248:1 249:1 250:1 251:1 252:1 253:1 254:1 255:1 256:1 257:1 258:1 259:1 260:1 261:1 262:1 263:1 264:1 265:1 266:1 267:1 268:1 269:1 270:1 271:1 272:1 273:1 274:1 275:1 276:1 277:1 278:1 279:1 280:1 281:1 282:1 283:1 284:1 285:1 286:1 287:1 288:1 289:1 290:1 291:1 292:1 293:1 294:1 295:1 296:1 297:1 298:1 299:1 300:1 301:1 302:1 303:1 304:1 305:1 306:1 307:1 308:1 309:1 310:1 311:1 312:1 313:1 314:1 315:1 316:1 317:1 318:1 319:1 320:1 321:1 322:1 323:1 324:1 325:1 326:1 327:1 
1e-05 130:1 839:1 2015:1 2201:1 2202:1 2203:1 2204:1 2205:1 2206:1 2207:1 2208:1 2209:1 2210:1 2211:1 2212:1 2213:1 2214:1 2215:1 2216:1 2217:1 2218:1 2219:1 2220:1 2221:1 2222:1 2223:1 2224:1 2225:1 2226:1 2227:1 2228:1 2229:1 2230:1 2231:1 2232:1 2233:1 2234:1 2235:1 2236:1 2237:1 2238:1 
1e-05 4:2 5:2 12:1 28:1 130:1 154:1 163:2 330:1 334:1 341:2 360:2 366:1 537:1 557:1 819:1 840:1 1001:1 1009:2 1013:1 1020:1 1032:1 1630:1 1771:1 3140:1 3160:1 3363:1 3364:2 3365:1 3366:2 3367:2 3368:2 3369:2 3370:2 3371:2 3372:1 3373:1 3374:1 3375:1 3376:1 3377:1 3378:1 3379:1 3380:1 3381:1 3382:1 3383:1 3384:1 3385:1 3386:1 3387:1 3388:1 3389:2 3390:1 3391:1 3392:1 3393:1 3394:1 3395:2 3396:1 3397:2 3398:2 3399:1 3400:1 3401:1 3402:1 3403:1 3404:1 3405:1 3406:1 3407:1 3408:1 3409:1 3410:1 3411:1 3412:1 3413:1 3414:1 3415:1 3416:1 3417:1 3418:1 3419:1 3420:1 3421:1 3422:1 3423:1 3424:1 3425:1 3426:1 3427:1 3428:1 3429:1 3430:1 3431:1 3432:1 3433:1 3434:1 3435:1 3436:1 3437:1 3438:1 3439:1 3440:1 3441:1 3442:1 3443:1 3444:1 3445:1 3446:1 3447:1 3448:1 3449:1 3450:1 3451:2 3452:1 3453:1 3454:1 3455:1 3456:1 3457:1 3458:1 3459:1 3460:1 3461:1 3462:1 3463:1 3464:1 3465:1 3466:1 3467:1 3468:1 3469:1 3470:1 3471:1 3472:1 3473:1 3474:1 3475:1 3476:1 3477:1 3478:1 3479:1 3480:1 3481:1 3482:1 3483:1 3484:1 3485:1 3486:1 3487:1 3488:1 3489:1 3490:1 3491:1 3492:1 3493:1 3494:1 3495:1 3496:1 3497:1 3498:1 3499:1 3500:1 3501:1 3502:1 3503:1 3504:1 3505:1 3506:1 3507:1 3508:1 3509:1 3510:1 3511:1 3512:1 3513:1 3514:1 3515:1 3516:1 3517:1 3518:1 3519:1 3520:1 3521:1 3522:1 3523:1 3524:1 3525:1 3526:1 3527:1 3528:1 3529:1 3530:1 3531:1 3532:1 3533:1 3534:1 3535:1 3536:1 3537:1 3538:1 3539:1 3540:1 3541:1 3542:1 3543:1 3544:1 3545:1 3546:1 3547:1 3548:1 3549:1 3550:1 3551:1 3552:1 3553:1 3554:1 3555:1 3556:1 3557:1 3558:1 3559:1 3560:1 3561:1 3562:1 3563:1 3564:1 3565:1 3566:1 3567:1 3568:1 3569:1 3570:1 3571:1 3572:1 3573:1 3574:1 3575:1 3576:1 3577:1 3578:1 3579:1 3580:1 3581:1 3582:1 3583:1 3584:1 3585:1 3586:1 3587:1 3588:1 3589:1 3590:1 3591:1 3592:1 3593:1 3594:1 3595:1 3596:1 3597:1 3598:1 3599:1 3600:1 3601:1 3602:1 3603:1 3604:1 3605:1 3606:1 3607:1 3608:1 3609:1 3610:1 
1e-05 8:1 130:1 148:1 334:1 341:1 839:2 840:2 878:2 1030:1 1261:2 2202:1 2210:1 2761:1 3367:2 3368:2 3393:1 3534:1 5342:1 5343:2 5344:1 5345:1 5346:1 5347:1 5348:1 5349:1 5350:1 5351:1 5352:1 5353:1 5354:1 5355:1 5356:2 5357:1 5358:2 5359:1 5360:1 5361:1 5362:1 5363:1 5364:1 5365:1 5366:1 5367:1 5368:1 5369:1 5370:1 5371:1 5372:1 5373:1 5374:1 5375:1 5376:1 5377:1 5378:1 5379:1 5380:1 5381:2 5382:1 5383:1 5384:1 5385:1 5386:1 5387:1 5388:1 5389:1 5390:1 5391:1 5392:1 5393:1 5394:1 5395:1 5396:1 5397:1 5398:1 5399:1 5400:1 5401:1 5402:1 5403:1 5404:1 5405:1 5406:1 5407:1 5408:1 5409:1 5410:1 5411:1 5412:1 5413:1 5414:1 5415:1 5416:1 5417:1 5418:1 5419:1 5420:1 5421:1 5422:1 5423:1 5424:1 5425:1 5426:1 5427:1 5428:1 5429:1 5430:1 5431:1 5432:1 5433:1 5434:1 5435:1 5436:1 5437:1 5438:1 5439:1 5440:1 5441:1 5442:1 5443:1 5444:1 5445:1 5446:1 5447:1 5448:1 5449:1 5450:1 5451:1 5452:1 5453:1 5454:1 5455:1 5456:1 5457:1 5458:1 5459:1 5460:1 
1e-05 5:2 130:1 537:1 552:1 821:1 1266:1 1801:2 1847:1 2015:2 3616:1 3794:1 5346:2 5461:1 5462:2 5463:2 5464:1 5465:1 5466:1 5467:1 5468:1 5469:1 5470:1 5471:1 5472:2 5473:2 5474:2 5475:2 5476:1 5477:1 5478:1 5479:1 5480:1 5481:1 5482:1 5483:1 5484:1 5485:1 5486:1 5487:1 5488:1 5489:1 5490:1 5491:1 5492:1 5493:2 5494:2 5495:2 5496:1 5497:1 5498:1 5499:1 5500:1 5501:1 5502:1 5503:1 5504:1 5505:1 5506:1 5507:1 5508:1 5509:1 5510:1 5511:1 5512:1 5513:1 5514:2 5515:2 5516:1 5517:1 5518:1 5519:1 5520:1 5521:1 5522:1 5523:1 5524:1 5525:1 5526:1 5527:1 5528:1 5529:1 5530:1 5531:1 5532:1 5533:1 5534:1 5535:2 5536:1 5537:1 5538:1 5539:1 5540:1 5541:1 5542:1 5543:1 5544:1 5545:1 5546:1 5547:1 5548:1 5549:1 5550:1 5551:1 5552:1 5553:1 
1e-05 5:1 130:1 158:1 357:1 839:2 840:1 878:1 1031:1 1261:2 1266:1 2206:1 3366:2 5343:1 5344:2 5356:1 5381:1 5952:1 5953:2 5954:1 5955:1 5956:1 5957:1 5958:1 5959:1 5960:1 5961:1 5962:1 5963:1 5964:1 5965:1 5966:1 5967:1 5968:2 5969:2 5970:1 5971:1 5972:1 5973:1 5974:1 5975:1 5976:1 5977:1 5978:1 5979:1 5980:1 5981:1 5982:1 5983:1 5984:1 5985:1 5986:1 5987:1 5988:1 5989:1 5990:1 5991:1 5992:1 5993:1 5994:2 5995:1 5996:1 5997:1 5998:1 5999:1 6000:1 6001:1 6002:1 6003:1 6004:1 6005:1 6006:1 6007:1 6008:1 6009:1 6010:1 6011:1 6012:1 6013:1 6014:1 6015:1 6016:1 6017:1 6018:1 6019:1 6020:1 6021:1 6022:1 6023:1 6024:1 6025:1 6026:1 6027:1 6028:1 6029:1 6030:1 6031:1 6032:1 6033:1 6034:1 6035:1 6036:1 6037:1 6038:1 6039:1 6040:1 6041:1 6042:1 6043:1 6044:1 6045:1 6046:1 6047:1 6048:1 6049:1 6050:1 6051:1 6052:1 6053:1 6054:1 6055:1 6056:1 6057:1 6058:1 6059:1 6060:1 6061:1 6062:1 6063:1 6064:1 6065:1 6066:1 6067:1 6068:1 6069:1 6070:1 6071:1 6072:1 6073:1 
1e-05 5:3 130:1 145:1 162:2 163:1 164:1 204:1 205:1 246:1 552:1 1031:1 1261:1 3363:1 3625:1 5346:2 5472:2 6209:2 6210:1 6211:1 6212:1 6213:1 6214:1 6215:1 6216:1 6217:1 6218:1 6219:1 6220:1 6221:1 6222:1 6223:1 6224:1 6225:1 6226:1 6227:1 6228:1 6229:1 6230:1 6231:1 6232:1 6233:1 6234:1 6235:1 6236:1 6237:1 6238:1 6239:1 6240:1 6241:1 6242:1 6243:1 6244:1 6245:1 6246:1 6247:1 6248:1 6249:1 6250:1 6251:1 6252:1 6253:1 6254:1 6255:1 6256:1 6257:1 6258:1 6259:1 6260:1 6261:1 6262:1 6263:1 6264:1 6265:1 6266:1 6267:1 6268:1 6269:1 6270:1 6271:1 6272:1 6273:1 6274:1 6275:1 6276:1 6277:1 6278:1 6279:1 6280:1 6281:1 6282:1 6283:1 6284:1 6285:1 6286:1 6287:1 6288:1 6289:1 6290:1 6291:1 6292:1 6293:1 6294:1 6295:1 6296:1 6297:1 
1e-05 130:1 1801:1 3625:1 6303:1 6643:1 9295:1 9296:1 9297:1 9298:1 9299:1 9300:1 9301:1 9302:1 9303:1 9304:1 9305:1 9306:1 9307:1 9308:1 9309:1 9310:1 9311:1 9312:1 9313:1 9314:1 9315:1 9316:1 9317:1 9318:1 9319:1 9320:1 9321:1 9322:1 9323:1 9324:1 9325:1 9326:1 9327:1 9328:1 9329:1 9330:1 
1e-05 16:2 130:1 134:1 153:1 154:1 336:1 341:1 537:1 543:2 549:1 550:2 551:2 558:2 578:1 579:2 611:1 702:1 825:1 830:2 1229:1 1273:2 1839:1 2251:1 2340:1 3130:1 3160:1 3617:1 3623:1 3624:1 3647:1 3648:1 3649:1 3687:1 3688:1 3729:1 3761:1 5038:1 5133:1 5561:1 6650:1 6997:1 7018:1 7684:1 8187:1 8198:1 9928:1 10017:1 10018:1 10019:2 10020:2 10021:1 10022:2 10023:1 10024:1 10025:1 10026:1 10027:1 10028:1 10029:1 10030:1 10031:1 10032:2 10033:1 10034:1 10035:2 10036:1 10037:1 10038:1 10039:1 10040:1 10041:1 10042:1 10043:1 10044:1 10045:1 10046:1 10047:1 10048:1 10049:1 10050:1 10051:1 10052:1 10053:1 10054:1 10055:1 10056:1 10057:1 10058:1 10059:1 10060:1 10061:1 10062:1 10063:1 10064:1 10065:1 10066:1 10067:1 10068:2 10069:1 10070:1 10071:1 10072:1 10073:1 10074:2 10075:1 10076:1 10077:1 10078:1 10079:1 10080:1 10081:1 10082:1 10083:1 10084:1 10085:1 10086:1 10087:1 10088:1 10089:1 10090:1 10091:1 10092:1 10093:1 10094:1 10095:1 10096:1 10097:1 10098:1 10099:1 10100:1 10101:1 10102:1 10103:1 10104:1 10105:1 10106:1 10107:1 10108:1 10109:2 10110:1 10111:1 10112:1 10113:1 10114:2 10115:1 10116:1 10117:1 10118:1 10119:1 10120:1 10121:1 10122:1 10123:1 10124:1 10125:1 10126:1 10127:1 10128:1 10129:1 10130:1 10131:1 10132:1 10133:1 10134:1 10135:1 10136:1 10137:1 10138:1 10139:1 10140:1 10141:1 10142:1 10143:1 10144:1 10145:1 10146:1 10147:1 10148:1 10149:1 10150:1 10151:1 10152:1 10153:1 10154:1 10155:1 10156:1 10157:1 10158:1 10159:1 10160:1 10161:1 10162:1 10163:1 10164:1 10165:1 10166:1 10167:1 10168:1 10169:1 10170:1 10171:1 10172:1 10173:1 10174:1 10175:1 10176:1 10177:1 10178:1 10179:1 10180:1 10181:1 10182:1 10183:1 10184:1 
1e-05 12:1 22:2 130:1 134:1 151:1 829:1 840:1 999:1 1020:1 1801:1 2206:1 2245:1 2246:1 2259:1 3032:1 3140:2 3625:1 5332:1 7159:1 10234:1 10275:1 10276:2 10277:2 10278:2 10279:1 10280:1 10281:1 10282:1 10283:1 10284:1 10285:1 10286:1 10287:1 10288:1 10289:1 10290:1 10291:2 10292:1 10293:1 10294:1 10295:1 10296:1 10297:1 10298:1 10299:1 10300:1 10301:1 10302:1 10303:1 10304:1 10305:1 10306:1 10307:1 10308:1 10309:1 10310:1 10311:1 10312:1 10313:1 10314:1 10315:1 10316:1 10317:1 10318:1 10319:1 10320:1 10321:1 10322:1 10323:1 10324:1 10325:1 10326:1 10327:1 10328:1 10329:1 10330:1 10331:1 10332:1 10333:1 10334:1 10335:1 10336:1 10337:1 10338:1 10339:1 10340:1 10341:1 10342:1 10343:1 10344:1 10345:1 10346:1 10347:1 10348:1 10349:1 10350:1 10351:1 10352:1 10353:1 10354:1 10355:1 10356:1 10357:1 10358:1 10359:1 10360:1 10361:1 10362:1 10363:1 10364:1 10365:1 10366:1 10367:1 10368:1 10369:1 10370:1 10371:1 10372:1 10373:1 10374:1 10375:1 10376:1 10377:1 10378:1 10379:1 10380:1 10381:1 10382:1 10383:1 10384:1 10385:1 10386:1 10387:1 10388:1 10389:1 
1e-05 130:1 336:1 360:1 1261:1 1266:1 9273:1 9746:1 10660:1 10661:1 10662:1 10663:1 10664:1 10665:1 10666:1 10667:1 10668:1 10669:1 10670:1 10671:1 10672:1 10673:1 10674:1 10675:1 10676:1 10677:1 10678:1 10679:1 10680:1 10681:1 10682:1 10683:1 10684:1 10685:1 10686:1 10687:1 10688:1 10689:1 10690:1 10691:1 10692:1 10693:1 
1e-05 2:2 4:1 11:2 23:3 35:2 53:1 130:1 151:1 156:2 158:1 333:1 341:1 541:1 553:1 817:1 819:1 838:1 1017:2 1020:1 1033:1 1267:1 1268:1 1279:2 1800:2 2005:1 3372:1 3617:2 3893:1 3898:3 4306:1 6649:1 8536:1 8598:1 9333:1 10698:2 12910:1 13237:1 13714:2 13715:2 13716:2 13717:2 13718:1 13719:2 13720:2 13721:1 13722:1 13723:1 13724:1 13725:1 13726:1 13727:1 13728:1 13729:1 13730:1 13731:1 13732:1 13733:1 13734:2 13735:1 13736:1 13737:2 13738:2 13739:1 13740:1 13741:1 13742:1 13743:2 13744:1 13745:1 13746:1 13747:2 13748:2 13749:2 13750:2 13751:1 13752:1 13753:1 13754:1 13755:1 13756:1 13757:1 13758:1 13759:1 13760:1 13761:1 13762:1 13763:1 13764:1 13765:1 13766:1 13767:1 13768:1 13769:1 13770:1 13771:1 13772:1 13773:1 13774:1 13775:1 13776:1 13777:1 13778:1 13779:1 13780:1 13781:1 13782:1 13783:1 13784:1 13785:1 13786:1 13787:1 13788:2 13789:1 13790:1 13791:1 13792:1 13793:2 13794:1 13795:1 13796:1 13797:1 13798:1 13799:1 13800:1 13801:1 13802:1 13803:1 13804:2 13805:2 13806:2 13807:1 13808:1 13809:1 13810:1 13811:1 13812:1 13813:1 13814:1 13815:1 13816:1 13817:1 13818:1 13819:1 13820:1 13821:1 13822:1 13823:1 13824:1 13825:1 13826:1 13827:1 13828:1 13829:1 13830:1 13831:1 13832:1 13833:1 13834:1 13835:1 13836:1 13837:1 13838:1 13839:1 13840:1 13841:1 13842:1 13843:1 13844:1 13845:1 13846:1 13847:1 13848:2 13849:1 13850:1 13851:1 13852:1 13853:1 13854:1 13855:1 13856:1 13857:1 13858:1 13859:1 13860:1 13861:1 13862:1 13863:1 13864:2 13865:2 13866:1 13867:1 13868:1 13869:1 13870:1 13871:1 13872:1 13873:1 13874:1 13875:1 13876:1 13877:1 13878:1 13879:1 13880:1 13881:1 13882:1 13883:1 13884:1 13885:1 13886:1 13887:1 13888:1 13889:1 13890:1 13891:1 13892:1 13893:1 13894:1 13895:1 13896:1 13897:1 13898:1 13899:1 13900:1 13901:1 13902:1 13903:1 13904:1 13905:1 13906:1 13907:1 13908:1 13909:1 13910:1 13911:1 13912:1 13913:1 13914:1 13915:1 13916:1 13917:1 13918:1 13919:1 13920:1 13921:1 13922:1 13923:1 13924:1 13925:1 13926:2 13927:1 13928:1 13929:1 13930:1 13931:1 13932:1 13933:1 13934:1 13935:1 13936:1 13937:1 13938:1 13939:1 13940:1 13941:1 13942:1 13943:1 13944:1 13945:1 13946:1 13947:1 13948:1 13949:1 13950:1 13951:1 13952:1 13953:1 13954:1 13955:1 13956:1 13957:1 13958:1 13959:1 13960:1 13961:1 13962:1 13963:1 13964:1 13965:1 13966:1 13967:1 13968:1 13969:1 13970:1 13971:1 
1e-05 23:2 130:1 154:1 156:1 553:1 1020:2 1263:1 1268:1 3372:2 3893:1 6649:1 9333:2 10698:2 12046:1 12741:1 13714:2 13715:2 13716:2 13717:2 13722:1 13734:1 13735:2 13736:2 13737:2 13738:2 13754:1 13755:2 13756:1 13759:1 13763:1 13770:2 13771:1 13788:1 13790:1 13791:2 13792:2 13793:2 13811:1 13812:1 13814:1 13820:1 13829:1 13848:1 13850:1 13851:2 13852:2 13871:1 13873:1 13874:1 13880:1 13910:1 13912:1 13913:2 13934:1 13935:1 14136:1 14462:3 14463:1 14464:1 14465:1 14466:1 14467:1 14468:1 14469:2 14470:1 14471:1 14472:1 14473:1 14474:1 14475:1 14476:1 14477:1 14478:1 14479:1 14480:1 14481:1 14482:1 14483:1 14484:1 14485:2 14486:1 14487:1 14488:1 14489:1 14490:1 14491:1 14492:1 14493:1 14494:1 14495:1 14496:1 14497:1 14498:1 14499:1 14500:1 14501:1 14502:1 14503:1 14504:1 14505:1 14506:1 14507:1 14508:1 14509:1 14510:1 14511:1 14512:1 14513:1 14514:1 14515:1 14516:1 14517:1 14518:1 14519:1 14520:1 14521:1 14522:1 14523:1 14524:1 14525:1 14526:1 14527:1 14528:1 14529:1 14530:1 14531:1 14532:1 14533:1 14534:1 14535:1 14536:1 14537:1 14538:1 14539:1 14540:1 14541:1 14542:1 14543:1 14544:1 14545:1 14546:1 
1e-05 130:1 134:1 1428:1 2756:1 2923:1 9754:1 15086:1 15087:1 15088:1 15089:1 15090:1 15091:1 15092:1 15093:1 15094:1 15095:1 15096:1 15097:1 15098:1 15099:1 15100:1 15101:1 15102:1 15103:1 15104:1 15105:1 
1e-05 130:1 376:1 537:1 555:1 2922:1 6302:1 10390:1 15106:1 15107:1 15108:1 15109:1 15110:1 15111:1 15112:1 15113:1 15114:1 15115:1 15116:1 15117:1 15118:1 15119:1 15120:1 15121:1 15122:1 15123:1 15124:1 15125:1 15126:1 15127:1 15128:1 15129:1 15130:1 15131:1 15132:1 15133:1 15134:1 15135:1 15136:1 15137:1 15138:1 15139:1 15140:1 15141:1 15142:1 15143:1 15144:1 
1e-05 3:1 130:1 135:2 154:1 329:2 341:1 537:1 825:1 840:1 1858:1 2329:1 2333:1 3623:1 3647:1 3794:2 3795:3 3808:2 4315:1 4374:1 4681:1 4714:1 4751:1 5888:1 5934:1 9337:1 10054:1 10094:1 14128:1 16200:1 16917:1 16918:3 16919:1 16920:1 16921:1 16922:1 16923:1 16924:1 16925:1 16926:3 16927:1 16928:1 16929:1 16930:1 16931:1 16932:1 16933:1 16934:1 16935:1 16936:1 16937:1 16938:1 16939:1 16940:1 16941:1 16942:1 16943:1 16944:1 16945:1 16946:1 16947:1 16948:1 16949:1 16950:1 16951:1 16952:1 16953:1 16954:1 16955:1 16956:1 16957:1 16958:1 16959:1 16960:1 16961:1 16962:1 16963:2 16964:1 16965:1 16966:1 16967:1 16968:1 16969:1 16970:1 16971:1 16972:1 16973:1 16974:1 16975:1 16976:1 16977:1 16978:1 16979:1 16980:1 16981:1 16982:1 16983:1 16984:1 16985:1 16986:1 16987:1 16988:1 16989:1 16990:1 16991:1 16992:1 16993:1 16994:1 16995:1 16996:1 16997:1 16998:1 16999:1 17000:1 17001:1 17002:1 17003:1 17004:1 17005:1 17006:1 17007:1 17008:1 17009:1 17010:1 17011:1 17012:1 17013:1 17014:1 17015:1 17016:1 17017:1 17018:1 17019:1 17020:1 17021:1 17022:1 17023:1 17024:1 17025:1 17026:1 17027:1 17028:1 17029:1 17030:1 17031:1 17032:1 17033:1 17034:1 17035:1 17036:1 17037:1 
1e-05 3:1 17:1 130:1 135:3 137:1 154:2 160:1 329:2 341:2 537:2 555:2 825:1 1031:1 1626:2 2324:1 2329:1 2606:1 3623:1 3647:1 3794:2 3795:3 3808:2 4315:1 4374:1 6654:1 6683:1 9337:1 10054:2 10094:1 10169:1 12534:1 14128:1 14943:1 15998:1 16195:1 16200:2 16918:3 16919:2 16923:1 16926:3 16933:1 16934:1 16935:1 16936:1 16937:1 16938:1 16943:1 16946:2 16947:1 16948:1 16960:1 16961:1 16962:1 16963:2 16964:1 16965:1 16966:1 16968:1 16973:1 16975:1 16976:1 16988:1 16989:1 16990:1 16991:1 16992:1 16993:1 16994:1 16995:1 17003:1 17005:1 17018:1 17019:1 17020:1 17021:1 17022:1 17023:1 17024:1 17588:1 17589:1 17590:1 17591:1 17592:1 17593:2 17594:1 17595:1 17596:1 17597:2 17598:1 17599:1 17600:1 17601:1 17602:2 17603:1 17604:1 17605:1 17606:1 17607:1 17608:1 17609:1 17610:1 17611:1 17612:1 17613:1 17614:1 17615:1 17616:1 17617:1 17618:2 17619:1 17620:1 17621:1 17622:1 17623:1 17624:1 17625:1 17626:2 17627:1 17628:1 17629:1 17630:1 17631:1 17632:1 17633:1 17634:1 17635:1 17636:1 17637:1 17638:1 17639:1 17640:1 17641:1 17642:1 17643:1 17644:1 17645:1 17646:1 17647:1 17648:1 17649:1 17650:1 17651:1 17652:1 17653:1 17654:1 17655:1 17656:1 17657:1 17658:1 17659:1 17660:1 17661:1 17662:1 17663:1 17664:1 17665:1 17666:1 17667:1 17668:1 17669:1 17670:1 17671:1 17672:1 17673:1 17674:1 17675:1 17676:1 17677:1 17678:1 17679:1 17680:1 17681:1 17682:1 17683:1 17684:1 17685:1 17686:1 17687:1 17688:1 17689:1 17690:1 17691:1 17692:1 17693:1 17694:1 17695:1 17696:1 17697:1 17698:1 17699:1 17700:1 17701:1 17702:1 17703:1 17704:1 17705:1 17706:1 17707:1 17708:1 17709:1 17710:1 17711:1 17712:1 17713:1 17714:1 17715:1 17716:1 17717:1 17718:1 17719:1 
1e-05 130:1 151:1 547:1 2324:1 5559:1 9332:1 11072:1 21491:1 21492:1 21493:1 21494:1 21495:1 21496:1 21497:1 21498:1 21499:1 21500:1 21501:1 21502:1 21503:1 21504:1 21505:1 21506:1 21507:1 21508:1 21509:1 21510:1 21511:1 21512:1 21513:1 21514:1 
1e-05 17:2 130:1 149:1 360:1 543:1 557:1 558:1 840:1 1023:1 1229:1 1426:2 1638:1 1768:2 1769:3 1775:2 1848:1 1850:1 1883:1 2014:1 2463:1 2476:2 3159:1 4539:1 4868:1 5740:1 9078:1 9081:1 9082:1 9119:1 9121:1 9123:1 9163:1 9164:1 9205:1 9206:1 11315:1 11868:1 13239:1 14706:1 16499:1 17860:1 17879:1 19354:1 20795:1 20946:1 22063:2 22064:1 22065:2 22066:1 22067:1 22068:1 22069:1 22070:1 22071:1 22072:1 22073:1 22074:1 22075:1 22076:1 22077:1 22078:1 22079:1 22080:1 22081:1 22082:1 22083:1 22084:1 22085:1 22086:1 22087:1 22088:1 22089:1 22090:1 22091:1 22092:1 22093:1 22094:1 22095:1 22096:1 22097:1 22098:1 22099:1 22100:1 22101:1 22102:1 22103:1 22104:1 22105:1 22106:1 22107:1 22108:1 22109:1 22110:1 22111:1 22112:1 22113:1 22114:1 22115:1 22116:1 22117:1 22118:1 22119:1 22120:1 22121:1 22122:1 22123:1 22124:1 22125:1 22126:1 22127:1 22128:1 22129:1 22130:1 22131:1 22132:1 22133:1 22134:1 22135:1 22136:1 22137:1 22138:1 22139:1 22140:1 22141:1 22142:1 22143:1 22144:1 22145:1 22146:1 22147:1 22148:1 22149:1 22150:1 22151:1 22152:1 22153:1 22154:1 22155:1 22156:1 22157:1 22158:1 22159:1 22160:1 22161:1 22162:1 22163:1 22164:1 22165:1 22166:1 22167:1 22168:1 22169:1 22170:1 22171:1 22172:1 22173:1 22174:1 22175:1 22176:1 22177:1 22178:1 22179:1 
1e-05 130:1 147:1 151:1 166:1 355:2 543:1 547:2 558:1 674:1 1263:1 2592:1 3794:2 3795:1 3796:1 3807:1 3808:1 3809:1 3829:1 3830:1 3851:1 6078:1 10737:2 12531:1 12537:1 12838:1 14297:1 16004:1 16019:1 18100:1 23564:1 23565:1 23566:1 23567:1 23568:1 23569:1 23570:1 23571:1 23572:1 23573:1 23574:1 23575:1 23576:1 23577:1 23578:1 23579:1 23580:1 23581:1 23582:2 23583:1 23584:1 23585:1 23586:1 23587:1 23588:1 23589:1 23590:1 23591:1 23592:1 23593:1 23594:1 23595:1 23596:1 23597:1 23598:1 23599:1 23600:1 23601:1 23602:1 23603:1 23604:1 23605:1 23606:1 23607:1 23608:1 23609:1 23610:1 23611:1 23612:1 23613:1 23614:1 23615:1 23616:1 23617:1 23618:1 23619:1 23620:1 23621:1 23622:1 23623:1 23624:1 23625:1 23626:1 23627:1 23628:1 23629:1 23630:1 23631:1 23632:1 23633:1 23634:1 23635:1 23636:1 23637:1 23638:1 23639:1 23640:1 23641:1 23642:1 23643:1 23644:1 23645:1 23646:1 23647:1 23648:1 23649:1 23650:1 23651:1 23652:1 23653:1 23654:1 23655:1 23656:1 23657:1 23658:1 23659:1 23660:1 23661:1 23662:1 23663:1 23664:1 23665:1 23666:1 23667:1 23668:1 23669:1 23670:1 
1e-05 5:1 130:1 140:2 830:1 841:1 1266:1 1801:1 2602:1 4996:1 5488:1 5510:1 5530:1 10494:1 23446:1 24096:1 24097:1 24098:1 24099:1 24100:1 24101:1 24102:1 24103:1 24104:1 24105:1 24106:1 24107:1 24108:1 24109:1 24110:1 24111:1 24112:1 24113:1 24114:1 24115:1 24116:1 24117:1 24118:1 24119:1 24120:1 24121:1 24122:1 24123:1 24124:1 24125:1 24126:1 24127:1 24128:1 24129:1 24130:1 24131:1 24132:1 24133:1 24134:1 24135:1 24136:1 
1e-05 16:1 17:1 22:1 23:1 49:1 50:1 77:1 130:1 149:1 151:2 154:1 163:1 555:1 840:1 1020:1 1426:1 1799:1 1801:1 1806:1 2205:1 2337:1 2605:1 2762:1 3032:1 3140:1 3433:1 3617:1 4317:2 4499:1 4944:1 4998:1 7393:1 11308:1 11622:1 12340:1 14943:1 19174:1 24137:1 24138:2 24139:2 24140:1 24141:1 24142:1 24143:1 24144:1 24145:1 24146:1 24147:1 24148:1 24149:2 24150:1 24151:1 24152:1 24153:1 24154:1 24155:1 24156:1 24157:1 24158:1 24159:1 24160:1 24161:1 24162:1 24163:1 24164:1 24165:1 24166:1 24167:1 24168:1 24169:1 24170:1 24171:1 24172:1 24173:1 24174:1 24175:1 24176:1 24177:1 24178:1 24179:1 24180:1 24181:1 24182:1 24183:1 24184:1 24185:1 24186:1 24187:1 24188:1 24189:1 24190:1 24191:1 24192:1 24193:1 24194:1 24195:1 24196:1 24197:1 24198:1 24199:1 24200:1 24201:1 24202:1 24203:1 24204:1 24205:1 24206:1 24207:1 24208:1 24209:1 24210:1 24211:1 24212:1 24213:1 24214:1 24215:1 24216:1 24217:1 24218:1 24219:1 24220:1 24221:1 24222:1 24223:1 24224:1 24225:1 24226:1 24227:1 24228:1 24229:1 24230:1 24231:1 24232:1 24233:1 24234:1 24235:1 24236:1 24237:1 24238:1 24239:1 24240:1 24241:1 24242:1 24243:1 24244:1 24245:1 24246:1 24247:1 24248:1 24249:1 24250:1 24251:1 24252:1 24253:1 24254:1 24255:1 24256:1 24257:1 24258:1 24259:1 24260:1 24261:1 24262:1 24263:1 24264:1 24265:1 24266:1 24267:1 24268:1 24269:1 24270:1 
1e-05 130:1 154:1 363:1 829:2 2755:1 3366:1 3372:2 3794:1 3795:2 3808:1 5001:1 8203:1 8228:1 11862:1 21312:1 25070:1 25929:2 25930:2 25931:1 25932:1 25933:1 25934:1 25935:1 25936:1 25937:1 25938:1 25939:1 25940:1 25941:2 25942:1 25943:1 25944:1 25945:1 25946:1 25947:1 25948:1 25949:1 25950:1 25951:1 25952:1 25953:1 25954:1 25955:1 25956:1 25957:1 25958:1 25959:1 25960:1 25961:1 25962:1 25963:1 25964:1 25965:1 25966:1 25967:1 25968:1 25969:1 25970:1 25971:1 25972:1 25973:1 25974:1 25975:1 25976:1 25977:1 25978:1 25979:1 25980:1 25981:1 25982:1 25983:1 25984:1 25985:1 25986:1 25987:1 25988:1 25989:1 25990:1 25991:1 25992:1 25993:1 25994:1 25995:2 25996:1 25997:1 25998:1 25999:1 26000:1 26001:1 26002:1 26003:1 26004:1 26005:1 26006:1 26007:1 26008:1 26009:1 26010:1 26011:1 
1e-05 5:1 8:3 130:1 153:1 333:1 341:1 547:1 814:1 829:1 1020:1 1771:1 2338:1 2365:1 3366:1 3372:1 3888:1 4998:1 5352:1 12320:1 12337:1 19680:1 20295:1 25941:1 26013:1 26266:2 26267:2 26268:1 26269:1 26270:1 26271:1 26272:1 26273:1 26274:1 26275:1 26276:1 26277:1 26278:1 26279:1 26280:1 26281:1 26282:1 26283:2 26284:1 26285:1 26286:1 26287:1 26288:1 26289:1 26290:1 26291:1 26292:1 26293:1 26294:1 26295:1 26296:1 26297:1 26298:1 26299:1 26300:1 26301:1 26302:1 26303:1 26304:1 26305:1 26306:1 26307:1 26308:1 26309:1 26310:1 26311:1 26312:1 26313:1 26314:1 26315:1 26316:1 26317:1 26318:1 26319:1 26320:1 26321:1 26322:1 26323:1 26324:1 26325:1 26326:1 26327:1 26328:1 26329:1 26330:1 26331:1 26332:1 26333:1 26334:1 26335:1 26336:1 26337:1 26338:1 26339:1 26340:1 26341:1 26342:1 26343:1 26344:1 26345:1 26346:1 26347:1 26348:1 26349:1 26350:1 26351:1 26352:1 26353:1 26354:1 26355:1 26356:1 26357:1 26358:1 26359:1 26360:1 26361:1 26362:1 26363:1 26364:1 26365:1 26366:1 26367:1 26368:1 26369:1 26370:1 26371:1 26372:1 26373:1 26374:1 26375:1 26376:1 26377:1 26378:1 26379:1 26380:1 26381:1 26382:1 26383:1 26384:1 26385:1 26386:1 26387:1 26388:1 26389:1 26390:1 26391:1 26392:1 26393:1 26394:1 26395:1 26396:1 26397:1 26398:1 26399:1 26400:1 26401:1 26402:1 26403:1 26404:1 26405:1 26406:1 26407:1 26408:1 26409:1 26410:1 26411:1 26412:1 
1e-05 22:1 23:1 130:1 158:1 1023:1 1801:2 2206:1 2923:1 3368:2 3382:1 3423:1 3625:2 5346:2 6655:1 9745:1 20375:1 27458:1 27459:1 27460:1 27461:1 27462:1 27463:1 27464:1 27465:1 27466:1 27467:1 27468:1 27469:1 27470:1 27471:1 27472:1 27473:1 27474:1 27475:1 27476:1 27477:1 27478:1 27479:1 27480:1 27481:1 27482:1 27483:1 27484:1 27485:1 27486:1 27487:1 27488:1 27489:1 27490:1 27491:1 27492:1 27493:1 27494:1 27495:1 27496:1 27497:1 27498:1 27499:1 27500:1 27501:1 27502:1 27503:1 27504:1 27505:1 27506:1 27507:1 27508:1 27509:1 27510:1 27511:1 27512:1 27513:1 27514:1 27515:1 27516:1 27517:1 27518:1 27519:1 27520:1 27521:1 27522:1 27523:1 27524:1 27525:1 27526:1 27527:1 27528:1 27529:1 27530:1 27531:1 27532:1 27533:1 27534:1 27535:1 27536:1 27537:1 27538:1 27539:1 27540:1 27541:1 27542:1 27543:1 27544:1 27545:1 27546:1 27547:1 27548:1 27549:1 27550:1 27551:1 27552:1 27553:1 27554:1 27555:1 27556:1 27557:1 27558:1 
1e-05 5:1 130:1 154:1 338:1 339:1 340:1 375:1 376:1 417:1 2004:1 3150:1 3408:1 7392:1 28769:1 28770:1 28771:1 28772:1 28773:1 28774:1 28775:1 28776:1 28777:1 28778:1 28779:1 28780:1 28781:1 28782:1 28783:1 28784:1 28785:1 28786:1 28787:1 28788:1 28789:1 28790:1 28791:1 28792:1 28793:1 28794:1 28795:1 28796:1 28797:1 28798:1 28799:1 28800:1 28801:1 28802:1 28803:1 28804:1 28805:1 28806:1 28807:1 28808:1 28809:1 28810:1 28811:1 
1e-05 16:1 22:1 130:1 154:1 363:1 545:1 555:1 699:1 1440:1 1801:2 2245:1 2246:1 2259:1 2333:1 2755:1 2925:1 3367:1 4515:1 4707:1 6216:1 6317:1 6318:1 6355:1 9928:1 10661:1 12852:1 13982:1 15912:1 19356:1 27161:1 28746:1 28812:1 28813:1 28814:1 28815:1 28816:1 28817:1 28818:1 28819:1 28820:1 28821:1 28822:1 28823:1 28824:1 28825:1 28826:1 28827:1 28828:1 28829:1 28830:1 28831:1 28832:1 28833:1 28834:1 28835:1 28836:1 28837:1 28838:1 28839:1 28840:1 28841:1 28842:1 28843:1 28844:1 28845:1 28846:1 28847:1 28848:1 28849:1 28850:1 28851:1 28852:1 28853:1 28854:1 28855:1 28856:1 28857:1 28858:1 28859:1 28860:1 28861:1 28862:1 28863:1 28864:1 28865:1 28866:1 28867:1 28868:1 28869:1 28870:1 28871:1 28872:1 28873:1 28874:1 28875:1 28876:1 28877:1 28878:1 28879:1 28880:1 28881:1 28882:1 28883:1 28884:1 28885:1 28886:1 28887:1 28888:1 28889:1 28890:1 28891:1 28892:1 28893:1 28894:1 28895:1 28896:1 28897:1 28898:1 28899:1 28900:1 28901:1 28902:1 28903:1 28904:1 28905:1 28906:1 28907:1 28908:1 28909:1 28910:1 28911:1 28912:1 28913:1 28914:1 28915:1 
1e-05 5:1 16:1 130:1 151:1 154:1 164:1 343:1 361:2 547:1 555:1 709:1 819:1 829:2 830:1 836:1 840:1 841:2 1013:1 1261:1 1266:1 1422:2 1430:1 1626:1 1771:2 2208:1 2468:1 2470:2 3366:1 3420:1 3625:4 3794:1 4275:1 4315:1 5185:1 5203:1 5292:1 5602:1 5963:1 7036:2 7159:1 7269:1 8209:1 8605:1 9295:1 9745:1 10666:1 11189:1 12320:1 12355:1 13681:1 14011:1 14113:1 14557:1 14589:1 16935:1 17042:1 17079:1 17674:1 18351:1 18367:1 18698:1 19040:1 19214:1 23251:1 24104:1 24863:1 24892:1 25741:1 25818:1 25852:1 30061:1 30062:1 30063:1 30064:1 30065:1 30066:1 30067:1 30068:1 30069:1 30070:1 30071:1 30072:1 30073:1 30074:1 30075:1 30076:1 30077:1 30078:1 30079:1 30080:1 30081:1 30082:1 30083:1 30084:2 30085:2 30086:1 30087:1 30088:1 30089:1 30090:1 30091:1 30092:1 30093:1 30094:1 30095:1 30096:1 30097:1 30098:1 30099:1 30100:1 30101:1 30102:1 30103:1 30104:1 30105:2 30106:2 30107:1 30108:1 30109:1 30110:1 30111:1 30112:1 30113:1 30114:1 30115:1 30116:1 30117:1 30118:1 30119:1 30120:1 30121:1 30122:1 30123:1 30124:1 30125:1 30126:1 30127:1 30128:1 30129:1 30130:1 30131:1 30132:1 30133:1 30134:2 30135:1 30136:1 30137:1 30138:1 30139:1 30140:1 30141:1 30142:1 30143:1 30144:1 30145:1 30146:1 30147:1 30148:1 30149:1 30150:1 30151:1 30152:1 30153:1 30154:1 30155:1 30156:1 30157:1 30158:1 30159:1 30160:1 30161:2 30162:1 30163:1 30164:1 30165:1 30166:1 30167:1 30168:1 30169:1 30170:1 30171:1 30172:1 30173:1 30174:1 30175:1 30176:1 30177:1 30178:1 30179:1 30180:1 30181:1 30182:1 30183:1 30184:1 30185:1 30186:1 30187:1 30188:1 30189:1 30190:1 30191:1 30192:1 30193:1 30194:1 30195:1 30196:1 30197:1 30198:1 30199:1 30200:1 30201:1 30202:1 30203:1 30204:1 30205:1 30206:1 30207:1 30208:1 30209:1 30210:1 30211:1 30212:1 30213:1 30214:1 30215:1 30216:1 30217:1 30218:1 30219:1 30220:1 30221:1 30222:1 30223:1 30224:1 30225:1 30226:1 30227:1 30228:1 30229:1 30230:1 30231:1 30232:1 30233:1 30234:1 30235:1 30236:1 30237:1 30238:1 30239:1 30240:1 30241:1 30242:1 30243:1 30244:1 30245:1 30246:1 30247:1 30248:1 30249:1 30250:1 30251:1 30252:1 30253:1 30254:1 30255:1 30256:1 30257:1 30258:1 30259:1 30260:1 30261:1 30262:1 30263:1 30264:1 30265:1 30266:1 30267:1 30268:1 30269:1 30270:1 30271:1 30272:1 30273:1 30274:1 30275:1 30276:1 30277:1 30278:1 30279:1 30280:1 30281:1 30282:1 30283:1 30284:1 30285:1 30286:1 30287:1 30288:1 30289:1 30290:1 30291:1 30292:1 30293:1 30294:1 30295:1 30296:1 30297:1 30298:1 30299:1 30300:1 
1e-05 16:1 17:1 130:1 140:1 144:1 145:1 149:1 151:1 163:1 230:1 341:2 543:2 547:1 549:1 558:2 577:1 835:1 872:1 1013:1 1425:1 1801:1 2005:1 2333:1 3067:2 3895:1 4317:1 5776:1 5810:1 6316:1 7036:1 7403:1 8001:3 8027:1 9053:1 11034:1 11895:1 12188:1 12321:1 12343:1 13715:1 17063:1 17158:2 19191:1 19197:1 22926:1 23074:1 23099:1 24139:1 24149:1 27710:1 27736:1 30490:1 30491:1 30492:1 30493:2 30494:1 30495:1 30496:1 30497:1 30498:1 30499:1 30500:1 30501:1 30502:1 30503:1 30504:1 30505:1 30506:1 30507:1 30508:1 30509:1 30510:1 30511:1 30512:1 30513:1 30514:2 30515:1 30516:1 30517:1 30518:1 30519:1 30520:1 30521:1 30522:1 30523:1 30524:1 30525:1 30526:1 30527:1 30528:1 30529:1 30530:1 30531:1 30532:1 30533:1 30534:1 30535:1 30536:1 30537:1 30538:1 30539:1 30540:1 30541:1 30542:1 30543:1 30544:1 30545:1 30546:1 30547:1 30548:1 30549:1 30550:1 30551:1 30552:1 30553:1 30554:1 30555:1 30556:1 30557:1 30558:1 30559:1 30560:1 30561:1 30562:1 30563:1 30564:1 30565:1 30566:1 30567:1 30568:1 30569:1 30570:1 30571:1 30572:1 30573:1 30574:1 30575:1 30576:1 30577:1 30578:1 30579:1 30580:1 30581:1 30582:1 30583:1 30584:1 30585:1 30586:1 30587:1 30588:1 30589:1 30590:1 30591:1 30592:1 30593:1 30594:1 30595:1 30596:1 30597:1 30598:1 30599:1 30600:1 30601:1 30602:1 30603:1 30604:1 30605:1 30606:1 30607:1 30608:1 30609:1 30610:1 30611:1 30612:1 30613:1 30614:1 30615:1 30616:1 30617:1 30618:1 30619:1 30620:1 30621:1 30622:1 30623:1 30624:1 30625:1 30626:1 30627:1 30628:1 30629:1 30630:1 30631:1 30632:1 30633:1 30634:1 30635:1 30636:1 30637:1 30638:1 30639:1 30640:1 30641:1 30642:1 30643:1 30644:1 30645:1 30646:1 30647:1 30648:1 30649:1 30650:1 30651:1 30652:1 30653:1 30654:1 30655:1 30656:1 30657:1 30658:1 30659:1 30660:1 30661:1 30662:1 30663:1 30664:1 30665:1 30666:1 30667:1 30668:1 30669:1 30670:1 30671:1 30672:1 30673:1 30674:1 30675:1 
1e-05 8:2 130:1 147:1 152:1 153:1 158:1 163:1 330:2 361:2 535:1 537:1 543:1 547:1 552:2 554:1 555:1 557:1 558:1 583:1 628:1 663:1 703:1 825:1 834:1 839:1 1428:2 1630:1 1653:1 1771:1 1855:1 2005:1 2337:1 2469:1 2592:1 3067:1 3141:1 4306:2 7036:1 7268:1 7981:1 8237:1 8343:1 9345:1 9644:1 10536:1 10537:1 10564:1 10577:1 10787:1 11669:1 15860:1 17308:2 24705:1 26411:1 29791:1 31201:1 31202:1 31203:1 31204:1 31205:1 31206:1 31207:1 31208:1 31209:1 31210:1 31211:1 31212:1 31213:1 31214:1 31215:2 31216:1 31217:1 31218:1 31219:1 31220:1 31221:1 31222:1 31223:1 31224:1 31225:1 31226:1 31227:1 31228:1 31229:1 31230:1 31231:1 31232:1 31233:1 31234:1 31235:1 31236:1 31237:1 31238:1 31239:1 31240:1 31241:1 31242:1 31243:1 31244:1 31245:1 31246:1 31247:1 31248:1 31249:1 31250:1 31251:1 31252:1 31253:1 31254:1 31255:1 31256:1 31257:1 31258:1 31259:1 31260:1 31261:1 31262:1 31263:1 31264:1 31265:1 31266:1 31267:1 31268:1 31269:1 31270:1 31271:1 31272:1 31273:1 31274:1 31275:1 31276:1 31277:1 31278:1 31279:1 31280:1 31281:1 31282:1 31283:1 31284:1 31285:1 31286:1 31287:1 31288:1 31289:1 31290:1 31291:1 31292:1 31293:1 31294:1 31295:1 31296:1 31297:1 31298:1 31299:1 31300:1 31301:1 31302:1 31303:1 31304:1 31305:1 31306:1 31307:1 31308:1 31309:1 31310:1 31311:1 31312:1 31313:1 31314:1 31315:1 31316:1 31317:1 31318:1 31319:1 31320:1 31321:1 31322:1 31323:1 31324:1 31325:1 31326:1 31327:1 31328:1 31329:1 31330:1 31331:1 31332:1 31333:1 31334:1 31335:1 31336:1 31337:1 31338:1 31339:1 31340:1 31341:1 31342:1 31343:1 31344:1 31345:1 31346:1 31347:1 31348:1 31349:1 31350:1 31351:1 31352:1 31353:1 31354:1 31355:1 31356:1 31357:1 31358:1 31359:1 31360:1 31361:1 31362:1 31363:1 31364:1 31365:1 31366:1 31367:1 31368:1 
1e-05 5:2 12:1 13:1 130:1 154:1 360:2 819:1 1001:1 1013:1 1266:4 1800:1 1801:1 1840:2 2245:1 2246:1 2259:1 3008:2 3365:2 3390:2 3408:1 3420:1 3430:1 5488:1 5510:1 5703:1 9928:1 13654:1 13664:1 14008:2 14042:1 14740:1 14752:1 25814:1 25880:1 25912:1 25913:1 26594:1 27178:1 28485:1 28827:1 28851:1 32709:1 32710:1 32711:1 32712:1 32713:1 32714:2 32715:1 32716:1 32717:1 32718:1 32719:1 32720:1 32721:1 32722:1 32723:1 32724:1 32725:1 32726:1 32727:1 32728:1 32729:1 32730:1 32731:1 32732:1 32733:1 32734:1 32735:1 32736:1 32737:1 32738:1 32739:1 32740:1 32741:1 32742:1 32743:1 32744:1 32745:1 32746:1 32747:1 32748:1 32749:1 32750:1 32751:1 32752:1 32753:1 32754:1 32755:1 32756:1 32757:1 32758:1 32759:1 32760:1 32761:1 32762:1 32763:1 32764:1 32765:1 32766:1 32767:1 32768:1 32769:1 32770:1 32771:1 32772:1 32773:1 32774:1 32775:1 32776:1 32777:1 32778:1 32779:1 32780:1 32781:1 32782:1 32783:1 32784:1 32785:1 32786:1 32787:1 32788:1 32789:1 32790:1 32791:1 32792:1 32793:1 32794:1 32795:1 32796:1 32797:1 
1e-05 3:1 130:1 139:1 160:1 162:1 244:1 1261:1 1269:1 1847:1 3159:1 3617:1 3676:1 3794:1 4681:1 5346:1 5462:1 5473:1 5478:1 5776:1 9926:1 13990:1 17008:1 17309:1 20930:1 33295:1 33296:1 33297:1 33298:1 33299:1 33300:1 33301:1 33302:1 33303:1 33304:1 33305:1 33306:1 33307:1 33308:1 33309:1 33310:1 33311:1 33312:1 33313:1 33314:1 33315:1 33316:1 33317:1 33318:1 33319:1 33320:1 33321:1 33322:1 33323:1 33324:1 33325:1 33326:1 33327:1 33328:1 33329:1 33330:1 33331:1 33332:1 33333:1 33334:1 33335:1 33336:1 33337:1 33338:1 33339:1 33340:1 33341:1 33342:1 33343:1 33344:1 33345:1 33346:1 33347:1 33348:1 33349:1 33350:1 33351:1 33352:1 33353:1 33354:1 33355:1 33356:1 
1e-05 5:1 22:1 130:1 151:1 709:1 1266:1 1801:1 3159:1 3363:1 3366:1 3625:1 5346:1 5971:1 8754:1 9585:1 10285:1 10534:1 12191:1 19017:1 22738:1 27459:1 27485:1 33880:1 33881:1 33882:1 33883:1 33884:1 33885:1 33886:1 33887:1 33888:1 33889:1 33890:1 33891:1 33892:1 33893:1 33894:1 33895:1 33896:1 33897:1 33898:1 33899:1 33900:1 33901:1 33902:1 33903:1 33904:1 33905:1 33906:1 33907:1 33908:1 33909:1 33910:1 33911:1 33912:1 33913:1 33914:1 33915:1 33916:1 33917:1 33918:1 33919:1 33920:1 33921:1 33922:1 33923:1 33924:1 33925:1 33926:1 33927:1 33928:1 33929:1 33930:1 33931:1 33932:1 33933:1 33934:1 33935:1 33936:1 33937:1 33938:1 33939:1 33940:1 33941:1 33942:1 33943:1 33944:1 33945:1 33946:1 33947:1 33948:1 33949:1 33950:1 33951:1 33952:1 33953:1 33954:1 33955:1 33956:1 33957:1 33958:1 
1e-05 130:1 139:1 1001:1 1801:1 3625:1 4678:1 4998:1 5346:1 5469:1 5787:1 30073:1 30307:1 32718:1 34413:1 34414:1 34415:1 34416:1 34417:1 34418:1 34419:1 34420:1 34421:1 34422:1 34423:1 34424:1 34425:1 34426:1 34427:1 34428:1 34429:1 34430:1 34431:1 34432:1 34433:1 34434:1 34435:1 34436:1 34437:1 34438:1 34439:1 34440:1 34441:1 34442:1 34443:1 34444:1 34445:1 34446:1 34447:1 34448:1 34449:1 34450:1 34451:1 34452:1 34453:1 34454:1 34455:1 
1e-05 3:1 5:1 130:1 163:1 166:1 537:2 543:1 555:1 558:1 703:1 819:1 835:1 839:1 1007:1 1013:1 1020:1 1024:1 1266:2 1269:1 1292:1 2468:1 3153:1 3420:1 6316:1 8204:1 10744:1 12320:1 12337:1 12641:1 13665:1 20117:1 21139:1 26759:1 26978:1 31243:1 32430:1 32455:1 36155:1 37163:1 37164:2 37165:2 37166:1 37167:1 37168:1 37169:1 37170:1 37171:1 37172:1 37173:1 37174:1 37175:1 37176:1 37177:1 37178:1 37179:1 37180:1 37181:1 37182:1 37183:1 37184:1 37185:1 37186:1 37187:1 37188:1 37189:1 37190:1 37191:1 37192:1 37193:1 37194:1 37195:1 37196:1 37197:1 37198:1 37199:1 37200:1 37201:1 37202:1 37203:1 37204:1 37205:1 37206:1 37207:1 37208:1 37209:1 37210:1 37211:1 37212:1 37213:1 37214:1 37215:1 37216:1 37217:1 37218:1 37219:1 37220:1 37221:1 37222:1 37223:1 37224:1 37225:1 37226:1 37227:1 37228:1 37229:1 37230:1 37231:1 37232:1 37233:1 37234:1 37235:1 37236:1 37237:1 37238:1 37239:1 37240:1 37241:1 37242:1 37243:1 37244:1 37245:1 37246:1 37247:1 37248:1 37249:1 37250:1 37251:1 37252:1 37253:1 37254:1 37255:1 37256:1 37257:1 37258:1 37259:1 37260:1 37261:1 37262:1 37263:1 37264:1 37265:1 37266:1 37267:1 37268:1 37269:1 37270:1 37271:1 37272:1 37273:1 37274:1 37275:1 37276:1 37277:1 37278:1 37279:1 37280:1 37281:1 37282:1 37283:1 37284:1 37285:1 37286:1 37287:1 37288:1 37289:1 37290:1 37291:1 37292:1 37293:1 37294:1 37295:1 37296:1 37297:1 37298:1 37299:1 37300:1 37301:1 37302:1 37303:1 37304:1 37305:1 37306:1 
1e-05 8:1 16:1 130:1 154:1 160:1 334:1 537:1 549:2 550:2 551:2 552:2 555:1 578:2 579:2 580:2 611:2 612:2 646:2 821:1 934:1 1030:2 1434:1 1801:1 2010:1 3363:1 3368:1 3698:1 3729:1 5268:1 5346:2 5347:3 5348:1 5350:2 5364:2 5561:1 7262:1 8187:1 10054:1 10390:1 12857:1 12859:1 12939:1 12940:1 12941:1 13030:1 13032:1 13033:1 13034:1 13124:1 13126:1 13219:1 22187:1 27492:1 31409:2 33594:1 34416:1 37307:1 37308:1 37309:1 37310:1 37311:1 37312:1 37313:1 37314:2 37315:2 37316:1 37317:1 37318:1 37319:1 37320:1 37321:1 37322:1 37323:1 37324:1 37325:1 37326:1 37327:1 37328:1 37329:1 37330:1 37331:1 37332:1 37333:1 37334:1 37335:1 37336:1 37337:1 37338:1 37339:1 37340:1 37341:1 37342:2 37343:2 37344:1 37345:1 37346:1 37347:1 37348:1 37349:1 37350:1 37351:1 37352:1 37353:1 37354:1 37355:1 37356:1 37357:1 37358:1 37359:1 37360:1 37361:1 37362:1 37363:1 37364:1 37365:1 37366:1 37367:1 37368:1 37369:1 37370:1 37371:2 37372:2 37373:1 37374:1 37375:1 37376:1 37377:1 37378:1 37379:1 37380:1 37381:1 37382:1 37383:1 37384:1 37385:1 37386:1 37387:1 37388:1 37389:1 37390:1 37391:1 37392:1 37393:1 37394:1 37395:1 37396:1 37397:1 37398:1 37399:1 37400:1 37401:2 37402:2 37403:1 37404:1 37405:1 37406:1 37407:1 37408:1 37409:1 37410:1 37411:1 37412:1 37413:1 37414:1 37415:1 37416:1 37417:1 37418:1 37419:1 37420:1 37421:1 37422:1 37423:1 37424:1 37425:1 37426:1 37427:1 37428:1 37429:1 37430:1 37431:1 
1e-05 17:1 130:1 151:1 547:1 839:1 1029:1 1030:1 1263:1 1268:1 1269:1 1630:1 2727:1 3156:1 3159:1 3368:1 3384:1 3900:1 5334:1 10394:1 10698:2 11072:1 13654:2 13722:1 13814:1 14479:1 14480:1 17041:1 17159:1 26034:1 34491:1 38004:1 38005:1 38006:1 38007:1 38008:1 38009:1 38010:1 38011:1 38012:1 38013:1 38014:2 38015:1 38016:1 38017:1 38018:1 38019:1 38020:1 38021:1 38022:1 38023:1 38024:1 38025:1 38026:1 38027:1 38028:1 38029:1 38030:1 38031:1 38032:1 38033:1 38034:1 38035:1 38036:1 38037:1 38038:1 38039:1 38040:1 38041:1 38042:1 38043:1 38044:1 38045:1 38046:1 38047:1 38048:1 38049:1 38050:1 38051:1 38052:1 38053:1 38054:1 38055:1 38056:1 38057:1 38058:1 38059:1 38060:1 38061:1 38062:1 38063:1 38064:1 38065:1 38066:1 38067:1 38068:1 38069:1 38070:1 38071:1 38072:1 38073:1 38074:1 38075:1 38076:1 38077:1 38078:1 38079:1 38080:1 38081:1 38082:1 38083:1 38084:1 38085:1 38086:1 38087:1 38088:1 38089:1 38090:1 38091:1 38092:1 38093:1 38094:1 38095:1 38096:1 38097:1 38098:1 38099:1 38100:1 38101:1 38102:1 38103:1 38104:1 38105:1 38106:1 38107:1 38108:1 38109:1 38110:1 38111:1 
1e-05 5:1 16:1 130:1 154:1 334:1 543:3 555:1 558:3 829:1 1009:1 1266:1 1771:1 2005:1 2013:2 2097:1 2204:2 2205:2 2214:1 2605:1 2959:1 3067:3 3900:1 5510:1 8370:1 8595:2 9298:1 9335:1 12321:1 12666:2 17318:1 17386:1 17874:1 18907:1 20998:1 21016:1 22064:1 23225:1 24860:1 27065:1 31049:1 32619:1 33714:1 36771:1 38116:1 38124:1 38180:1 43146:1 43147:2 43148:1 43149:1 43150:1 43151:1 43152:1 43153:1 43154:2 43155:2 43156:2 43157:1 43158:1 43159:1 43160:1 43161:1 43162:1 43163:1 43164:1 43165:1 43166:1 43167:1 43168:1 43169:1 43170:1 43171:1 43172:1 43173:1 43174:1 43175:1 43176:1 43177:1 43178:1 43179:1 43180:1 43181:1 43182:1 43183:1 43184:1 43185:1 43186:1 43187:1 43188:2 43189:1 43190:1 43191:1 43192:1 43193:1 43194:1 43195:1 43196:1 43197:1 43198:1 43199:1 43200:1 43201:1 43202:1 43203:1 43204:1 43205:1 43206:1 43207:1 43208:1 43209:1 43210:1 43211:1 43212:1 43213:1 43214:1 43215:1 43216:1 43217:1 43218:1 43219:1 43220:2 43221:1 43222:1 43223:1 43224:1 43225:1 43226:1 43227:1 43228:1 43229:1 43230:1 43231:1 43232:1 43233:1 43234:1 43235:1 43236:1 43237:1 43238:1 43239:1 43240:1 43241:1 43242:1 43243:1 43244:1 43245:1 43246:1 43247:1 43248:1 43249:1 43250:1 43251:1 43252:1 43253:1 43254:1 43255:1 43256:1 43257:1 43258:1 43259:1 43260:1 43261:1 43262:1 43263:1 43264:1 43265:1 43266:1 43267:1 43268:1 43269:1 43270:1 43271:1 43272:1 43273:1 43274:1 43275:1 43276:1 43277:1 43278:1 43279:1 43280:1 43281:1 43282:1 43283:1 43284:1 43285:1 43286:1 43287:1 43288:1 43289:1 43290:1 43291:1 43292:1 43293:1 
1e-05 130:1 145:1 334:1 709:1 821:2 1266:1 1801:2 1847:1 3366:1 3794:1 4275:1 5000:1 5345:1 5346:2 5361:1 5462:2 5465:1 5466:1 5473:2 5478:1 5479:1 5488:1 5499:1 6814:1 7262:1 9619:1 9663:1 9706:1 13681:1 24833:1 34416:1 37377:1 45850:1 45851:1 45852:1 45853:1 45854:1 45855:1 45856:2 45857:1 45858:1 45859:1 45860:1 45861:1 45862:1 45863:1 45864:1 45865:1 45866:1 45867:1 45868:1 45869:1 45870:1 45871:1 45872:1 45873:1 45874:1 45875:1 45876:1 45877:1 45878:1 45879:1 45880:1 45881:1 45882:1 45883:1 45884:1 45885:1 45886:1 45887:1 45888:1 45889:1 45890:1 45891:1 45892:1 45893:1 45894:1 45895:1 45896:1 45897:1 45898:1 45899:1 45900:1 45901:1 45902:1 45903:1 45904:1 45905:1 45906:1 45907:1 45908:1 45909:1 45910:1 45911:1 45912:1 45913:1 45914:1 45915:1 45916:1 45917:1 45918:1 45919:1 45920:1 45921:1 45922:1 45923:1 45924:1 45925:1 45926:1 45927:1 45928:1 45929:1 45930:1 45931:1 45932:1 45933:1 45934:1 45935:1 45936:1 45937:1 
1e-05 5:1 8:1 23:1 130:1 154:1 357:1 555:1 825:1 840:1 1009:1 1013:1 1020:2 1054:1 1261:1 3372:2 3625:1 4301:1 6648:1 9296:1 9340:1 10261:1 10736:2 12531:1 17313:1 22188:1 25270:1 26408:1 26552:1 41819:1 46845:1 46846:1 46847:1 46848:1 46849:1 46850:1 46851:1 46852:1 46853:1 46854:1 46855:1 46856:1 46857:1 46858:1 46859:1 46860:1 46861:1 46862:1 46863:1 46864:1 46865:1 46866:1 46867:1 46868:1 46869:1 46870:1 46871:1 46872:1 46873:1 46874:1 46875:1 46876:1 46877:1 46878:1 46879:1 46880:1 46881:1 46882:1 46883:1 46884:1 46885:1 46886:1 46887:1 46888:1 46889:1 46890:1 46891:1 46892:1 46893:1 46894:1 46895:1 46896:1 46897:1 46898:1 46899:1 46900:1 46901:1 46902:1 46903:1 46904:1 46905:1 46906:1 46907:1 46908:1 46909:1 46910:1 46911:1 46912:1 46913:1 46914:1 46915:1 46916:1 46917:1 46918:1 46919:1 46920:1 46921:1 46922:1 46923:1 46924:1 46925:1 46926:1 46927:1 46928:1 46929:1 46930:1 46931:1 46932:1 46933:1 46934:1 46935:1 46936:1 46937:1 46938:1 46939:1 46940:1 46941:1 46942:1 46943:1 46944:1 46945:1 46946:1 46947:1 46948:1 46949:1 46950:1 46951:1 46952:1 46953:1 46954:1 46955:1 46956:1 46957:1 46958:1 46959:1 46960:1 46961:1 46962:1 46963:1 46964:1 46965:1 46966:1 46967:1 46968:1 
1e-05 12:1 14:2 16:1 66:1 130:1 149:1 158:1 360:2 361:1 543:1 558:1 819:1 830:2 840:1 1001:1 1013:1 1278:1 1801:3 2468:1 2755:1 3067:1 3368:1 3382:1 3420:1 3423:1 3430:1 5038:1 5346:2 7268:1 7339:1 9296:1 10301:1 12191:1 13270:1 14758:1 15087:1 17313:2 20437:1 25081:1 25142:1 25143:1 25238:1 27459:1 27460:1 27474:1 27475:1 27484:1 27498:1 27499:1 27522:1 27794:1 28521:1 42130:1 42243:1 42299:1 42313:1 46427:1 46960:1 46998:1 46999:1 47000:1 47001:1 47002:1 47003:1 47004:1 47005:1 47006:2 47007:1 47008:2 47009:1 47010:1 47011:1 47012:1 47013:1 47014:1 47015:1 47016:1 47017:1 47018:1 47019:1 47020:1 47021:1 47022:1 47023:1 47024:1 47025:1 47026:1 47027:1 47028:1 47029:1 47030:1 47031:1 47032:1 47033:1 47034:1 47035:2 47036:1 47037:1 47038:1 47039:1 47040:1 47041:1 47042:1 47043:1 47044:1 47045:1 47046:1 47047:1 47048:1 47049:1 47050:1 47051:1 47052:1 47053:1 47054:1 47055:1 47056:1 47057:1 47058:1 47059:1 47060:1 47061:1 47062:1 47063:1 47064:1 47065:1 47066:1 47067:1 47068:1 47069:2 47070:1 47071:1 47072:1 47073:1 47074:1 47075:1 47076:1 47077:1 47078:1 47079:1 47080:1 47081:1 47082:1 47083:1 47084:1 47085:1 47086:1 47087:1 47088:1 47089:1 47090:1 47091:1 47092:1 47093:1 47094:1 47095:1 47096:1 47097:1 47098:1 47099:1 47100:1 47101:1 47102:1 47103:1 47104:1 47105:1 47106:1 47107:1 47108:1 47109:1 47110:1 47111:1 47112:1 47113:1 47114:1 47115:1 47116:1 47117:1 47118:1 47119:1 47120:1 47121:1 47122:1 47123:1 47124:1 47125:1 47126:1 47127:1 47128:1 47129:1 47130:1 47131:1 47132:1 47133:1 47134:1 
1e-05 130:1 151:1 158:1 333:1 357:1 363:1 830:1 840:1 1023:1 1261:1 1801:1 2468:1 2755:1 3032:1 3785:1 5980:1 6005:1 6033:1 7660:1 10278:1 15110:1 17156:1 21008:1 23315:1 27459:1 27475:1 27543:1 29620:1 38856:1 39304:1 42243:1 47000:1 47135:1 47136:1 47137:1 47138:1 47139:1 47140:1 47141:1 47142:1 47143:1 47144:1 47145:1 47146:1 47147:1 47148:1 47149:1 47150:1 47151:1 47152:1 47153:1 47154:1 47155:1 47156:1 47157:1 47158:1 47159:1 47160:1 47161:1 47162:1 47163:1 47164:1 47165:1 47166:1 47167:1 47168:1 47169:1 47170:1 47171:1 47172:1 47173:1 47174:1 47175:1 47176:1 47177:1 47178:1 47179:1 47180:1 47181:1 47182:1 47183:1 47184:1 47185:1 47186:1 47187:1 47188:1 47189:1 47190:1 47191:1 47192:1 47193:1 47194:1 47195:1 47196:1 47197:1 47198:1 47199:1 47200:1 47201:1 47202:1 47203:1 47204:1 47205:1 47206:1 47207:1 47208:1 47209:1 47210:1 47211:1 47212:1 47213:1 
1e-05 13:1 130:1 2207:1 8595:1 12841:1 47423:1 47424:1 47425:1 47426:1 47427:1 47428:1 47429:1 47430:1 47431:1 47432:1 47433:1 47434:1 47435:1 47436:1 47437:1 47438:1 47439:1 47440:1 47441:1 47442:1 47443:1 
1e-05 130:1 138:3 139:1 145:1 147:1 154:2 160:2 162:1 163:3 164:1 204:1 334:1 547:1 552:1 707:1 821:1 829:1 1426:1 1428:1 1432:1 1467:1 1850:1 2333:1 2337:1 2468:1 3366:1 5195:1 5828:1 5958:1 8001:1 8027:1 8751:1 8789:1 9745:2 13565:1 13982:1 14012:1 15086:2 16091:1 16138:1 16205:1 20922:1 22522:1 22648:1 23088:1 23906:1 24303:2 26262:1 27665:1 29120:1 32967:1 38699:1 43973:1 47857:1 47858:2 47859:1 47860:1 47861:1 47862:1 47863:1 47864:1 47865:1 47866:1 47867:1 47868:1 47869:1 47870:1 47871:1 47872:1 47873:1 47874:1 47875:1 47876:1 47877:2 47878:2 47879:2 47880:1 47881:1 47882:1 47883:1 47884:1 47885:1 47886:1 47887:1 47888:1 47889:1 47890:1 47891:1 47892:1 47893:1 47894:1 47895:1 47896:1 47897:1 47898:1 47899:1 47900:1 47901:1 47902:1 47903:1 47904:1 47905:1 47906:1 47907:1 47908:1 47909:1 47910:1 47911:1 47912:1 47913:1 47914:1 47915:1 47916:1 47917:1 47918:1 47919:1 47920:1 47921:1 47922:1 47923:1 47924:1 47925:1 47926:1 47927:1 47928:2 47929:2 47930:1 47931:1 47932:1 47933:1 47934:1 47935:1 47936:1 47937:1 47938:1 47939:1 47940:1 47941:1 47942:1 47943:1 47944:1 47945:1 47946:1 47947:1 47948:1 47949:1 47950:1 47951:1 47952:1 47953:1 47954:1 47955:1 47956:1 47957:1 47958:1 47959:1 47960:1 47961:1 47962:1 47963:1 47964:1 47965:1 47966:1 47967:1 47968:1 47969:1 47970:1 47971:1 47972:1 47973:1 47974:2 47975:1 47976:1 47977:2 47978:1 47979:1 47980:1 47981:1 47982:1 47983:1 47984:1 47985:1 47986:1 47987:1 47988:1 47989:1 47990:1 47991:1 47992:1 47993:1 47994:1 47995:1 47996:1 47997:1 47998:1 47999:1 48000:1 48001:1 48002:1 48003:1 48004:1 48005:1 48006:1 48007:1 48008:1 48009:1 48010:1 48011:1 48012:1 48013:1 48014:1 48015:1 48016:1 48017:1 48018:1 48019:1 48020:1 48021:1 48022:1 48023:1 48024:1 48025:2 48026:1 48027:1 48028:1 48029:1 48030:1 48031:1 48032:1 48033:1 48034:1 48035:1 48036:1 48037:1 48038:1 48039:1 48040:1 48041:1 48042:1 48043:1 48044:1 48045:1 48046:1 48047:1 48048:1 48049:1 48050:1 48051:1 48052:1 48053:1 48054:1 48055:1 48056:1 48057:1 48058:1 48059:1 48060:1 48061:1 48062:1 48063:1 48064:1 48065:1 48066:1 48067:1 48068:1 48069:1 48070:1 48071:1 48072:1 48073:1 48074:1 48075:1 48076:1 
1e-05 5:2 130:1 139:1 147:1 148:2 163:1 341:1 360:1 361:1 363:1 712:1 821:1 829:1 1261:2 1266:3 1269:1 3146:1 4306:2 5346:2 5472:1 5510:2 5531:1 5665:1 5828:1 7043:1 8203:1 8228:1 10529:1 10666:2 16516:1 17891:2 21005:1 21171:1 24274:1 32714:1 33331:1 36304:1 37300:1 42973:1 43422:1 46113:1 48077:1 48078:1 48079:1 48080:1 48081:1 48082:1 48083:1 48084:1 48085:1 48086:1 48087:2 48088:1 48089:1 48090:1 48091:1 48092:1 48093:1 48094:1 48095:1 48096:1 48097:1 48098:1 48099:1 48100:1 48101:1 48102:1 48103:1 48104:1 48105:1 48106:1 48107:1 48108:1 48109:1 48110:2 48111:1 48112:1 48113:1 48114:1 48115:1 48116:1 48117:1 48118:1 48119:1 48120:1 48121:1 48122:1 48123:1 48124:1 48125:1 48126:1 48127:1 48128:1 48129:1 48130:1 48131:1 48132:1 48133:1 48134:1 48135:1 48136:2 48137:1 48138:1 48139:1 48140:1 48141:1 48142:1 48143:1 48144:1 48145:1 48146:1 48147:1 48148:1 48149:1 48150:1 48151:1 48152:1 48153:1 48154:1 48155:1 48156:1 48157:1 48158:1 48159:1 48160:1 48161:1 48162:1 48163:1 48164:1 48165:1 48166:1 48167:1 48168:1 48169:1 48170:1 48171:1 48172:1 48173:1 48174:1 48175:1 48176:1 48177:1 48178:1 48179:1 48180:1 48181:1 48182:1 48183:1 48184:1 48185:1 48186:1 48187:1 48188:1 
1e-05 5:2 130:1 154:1 341:1 360:2 537:1 555:1 816:1 819:1 839:1 1013:1 1023:1 1039:1 1278:1 1771:1 1801:1 1858:1 2468:1 2755:1 3155:1 3382:2 3420:1 3585:1 4748:2 4761:1 4764:1 5601:1 6074:1 6211:1 6316:1 6350:1 9296:1 10390:2 11616:1 12241:1 12841:1 14743:1 15113:1 17312:1 17313:1 20425:1 25081:1 25142:1 25818:1 25852:1 35453:2 36144:2 36229:1 41592:1 42243:1 44974:2 45431:1 46860:1 47061:1 47446:1 48745:2 48746:2 48747:2 48748:2 48749:1 48750:1 48751:1 48752:1 48753:1 48754:1 48755:1 48756:1 48757:1 48758:2 48759:2 48760:2 48761:2 48762:2 48763:1 48764:1 48765:1 48766:1 48767:1 48768:1 48769:1 48770:1 48771:1 48772:2 48773:1 48774:1 48775:1 48776:1 48777:1 48778:1 48779:1 48780:1 48781:1 48782:1 48783:1 48784:1 48785:1 48786:1 48787:1 48788:1 48789:1 48790:1 48791:1 48792:1 48793:1 48794:1 48795:2 48796:2 48797:2 48798:2 48799:1 48800:1 48801:1 48802:1 48803:1 48804:1 48805:1 48806:1 48807:1 48808:1 48809:1 48810:1 48811:1 48812:1 48813:1 48814:1 48815:1 48816:1 48817:1 48818:1 48819:1 48820:1 48821:1 48822:1 48823:1 48824:1 48825:1 48826:1 48827:1 48828:1 48829:1 48830:1 48831:1 48832:1 48833:1 48834:1 48835:1 48836:1 48837:1 48838:1 48839:1 48840:1 48841:1 48842:1 48843:2 48844:2 48845:2 48846:1 48847:1 48848:1 48849:1 48850:1 48851:1 48852:1 48853:1 48854:1 48855:1 48856:1 48857:1 48858:1 48859:1 48860:1 48861:1 48862:1 48863:1 48864:1 48865:1 48866:1 48867:1 48868:1 48869:1 48870:1 48871:1 48872:1 48873:1 48874:1 48875:1 48876:1 48877:1 48878:1 48879:1 48880:1 48881:1 48882:1 48883:1 48884:1 48885:1 48886:1 48887:1 48888:1 48889:1 48890:1 48891:1 48892:1 48893:2 48894:2 48895:1 48896:1 48897:1 48898:1 48899:1 48900:1 48901:1 48902:1 48903:1 48904:1 48905:1 48906:1 48907:1 48908:1 48909:1 48910:1 48911:1 48912:1 48913:1 48914:1 48915:1 48916:1 48917:1 48918:1 48919:1 48920:1 48921:1 48922:1 48923:1 48924:1 48925:1 48926:1 48927:1 48928:1 48929:1 48930:1 48931:1 48932:1 48933:1 48934:1 48935:1 48936:1 48937:1 48938:1 
1e-05 130:1 151:1 154:2 351:1 360:2 555:1 1013:1 1801:2 2923:1 3368:1 5564:1 6075:1 11497:1 15291:2 24137:1 24146:1 27661:1 39218:1 44697:1 44974:2 46425:1 48751:1 49535:1 49604:1 49605:2 49606:1 49607:1 49608:1 49609:1 49610:1 49611:1 49612:1 49613:1 49614:1 49615:1 49616:1 49617:1 49618:1 49619:1 49620:1 49621:1 49622:1 49623:1 49624:1 49625:1 49626:1 49627:1 49628:1 49629:1 49630:1 49631:1 49632:1 49633:1 49634:1 49635:1 49636:1 49637:1 49638:1 49639:1 49640:1 49641:1 49642:1 49643:1 49644:1 49645:1 49646:1 49647:1 49648:1 49649:1 49650:1 49651:1 49652:1 49653:1 49654:1 49655:1 49656:1 49657:1 49658:1 49659:1 49660:1 49661:1 49662:1 49663:1 49664:1 49665:1 49666:1 49667:1 49668:1 49669:1 49670:1 49671:1 49672:1 49673:1 49674:1 49675:1 49676:1 49677:1 49678:1 49679:1 49680:1 49681:1 49682:1 49683:1 49684:1 49685:1 49686:1 49687:1 49688:1 49689:1 49690:1 49691:1 49692:1 49693:1 49694:1 49695:1 
1e-05 130:1 154:1 156:1 334:1 360:1 361:1 536:1 1023:1 1029:1 1565:1 1801:2 1858:1 2008:1 4033:1 4748:1 5777:1 6654:1 9053:1 9054:1 9074:1 9075:1 9115:1 10390:1 10401:1 10491:1 10522:1 12845:1 13243:1 35453:1 36144:1 40214:1 44215:1 44264:1 44974:2 46582:1 47035:1 48746:1 48747:1 48748:1 48749:1 48751:1 48758:1 48759:1 48761:1 48762:1 48773:1 48774:1 48787:1 48795:1 48798:1 48814:1 48815:1 48863:1 48864:1 49604:1 49611:1 49612:1 49635:1 49696:1 49697:1 49698:1 49699:1 49700:1 49701:1 49702:1 49703:1 49704:1 49705:1 49706:1 49707:1 49708:1 49709:1 49710:1 49711:1 49712:1 49713:1 49714:1 49715:1 49716:1 49717:1 49718:1 49719:1 49720:1 49721:1 49722:1 49723:1 49724:1 49725:1 49726:1 49727:1 49728:1 49729:1 49730:1 49731:1 49732:1 49733:1 49734:1 49735:1 49736:1 49737:1 49738:1 49739:1 49740:1 49741:1 49742:1 49743:1 49744:1 49745:1 49746:1 49747:1 49748:1 49749:1 49750:1 49751:1 49752:1 49753:1 49754:1 49755:1 49756:1 49757:1 49758:1 49759:1 49760:1 49761:1 49762:1 49763:1 49764:1 49765:1 49766:1 49767:1 49768:1 49769:1 49770:1 49771:1 49772:1 49773:1 49774:1 49775:1 49776:1 49777:1 49778:1 49779:1 49780:1 49781:1 49782:1 49783:1 49784:1 49785:1 49786:1 49787:1 49788:1 49789:1 49790:1 49791:1 49792:1 49793:1 49794:1 49795:1 49796:1 49797:1 49798:1 49799:1 49800:1 49801:1 49802:1 49803:1 49804:1 49805:1 49806:1 
1e-05 5:1 8:1 13:1 16:1 130:1 163:2 164:1 166:1 205:1 547:1 1001:1 1266:1 1638:1 1663:1 1771:1 1801:1 1840:1 2010:1 3375:1 3385:1 4681:1 5488:1 5777:1 6316:1 6443:1 9035:1 14008:1 14042:1 19725:1 30984:1 31279:1 42578:1 43181:1 49961:1 49962:1 49963:1 49964:1 49965:1 49966:1 49967:1 49968:1 49969:1 49970:1 49971:1 49972:1 49973:1 49974:1 49975:1 49976:1 49977:1 49978:1 49979:1 49980:1 49981:1 49982:1 49983:1 49984:1 49985:1 49986:1 49987:1 49988:1 49989:1 49990:1 49991:1 49992:1 49993:1 49994:1 49995:1 49996:1 49997:1 49998:1 49999:1 50000:1 50001:1 50002:1 50003:1 50004:1 50005:1 50006:1 50007:1 50008:1 50009:1 50010:1 50011:1 50012:1 50013:1 50014:1 50015:1 50016:1 50017:1 50018:1 50019:1 50020:1 50021:1 50022:1 50023:1 50024:1 50025:1 50026:1 50027:1 50028:1 50029:1 50030:1 50031:1 50032:1 50033:1 50034:1 50035:1 50036:1 50037:1 50038:1 50039:1 50040:1 50041:1 50042:1 
1e-05 4:2 23:1 130:1 139:1 143:1 145:2 147:1 154:2 163:1 341:2 342:1 357:1 376:1 378:1 550:1 551:1 821:1 830:1 1031:1 1436:1 1437:1 1473:1 1799:1 2333:1 3617:1 3625:3 3794:1 5346:2 5828:1 5958:1 8001:1 8027:1 8387:1 9296:1 9302:1 12074:1 13274:1 13667:1 14218:1 23500:1 23530:1 24022:1 24068:1 24093:1 24142:1 24331:1 25663:1 27469:1 28084:1 30316:1 31426:1 32178:1 32706:1 33320:1 33431:1 40561:1 40562:1 40563:1 40616:1 40617:1 40680:1 40681:1 46153:1 46509:1 47895:1 49205:1 49231:1 49263:1 49297:1 50136:1 50137:2 50138:2 50139:2 50140:1 50141:1 50142:1 50143:2 50144:1 50145:1 50146:1 50147:1 50148:2 50149:1 50150:1 50151:1 50152:1 50153:2 50154:1 50155:1 50156:1 50157:1 50158:1 50159:1 50160:1 50161:1 50162:1 50163:1 50164:1 50165:1 50166:2 50167:1 50168:1 50169:1 50170:1 50171:1 50172:1 50173:1 50174:1 50175:1 50176:1 50177:1 50178:1 50179:1 50180:1 50181:1 50182:1 50183:1 50184:1 50185:1 50186:1 50187:1 50188:1 50189:1 50190:1 50191:1 50192:1 50193:1 50194:1 50195:1 50196:1 50197:1 50198:1 50199:1 50200:1 50201:1 50202:1 50203:1 50204:1 50205:1 50206:1 50207:1 50208:1 50209:1 50210:1 50211:1 50212:1 50213:1 50214:1 50215:1 50216:1 50217:1 50218:1 50219:1 50220:1 50221:1 50222:1 50223:1 50224:1 50225:1 50226:1 50227:1 50228:1 50229:1 50230:1 50231:1 50232:1 50233:1 50234:1 50235:1 50236:1 50237:1 50238:1 50239:1 50240:1 50241:1 50242:1 50243:1 50244:1 50245:1 50246:1 50247:1 50248:1 50249:1 50250:1 50251:1 50252:1 50253:1 50254:1 50255:1 50256:1 50257:1 50258:1 50259:1 50260:1 50261:1 50262:1 50263:1 50264:1 50265:1 50266:1 50267:1 50268:1 50269:1 50270:1 50271:1 50272:1 50273:1 50274:1 50275:1 50276:1 50277:1 50278:1 50279:1 50280:1 50281:1 50282:1 50283:1 50284:1 50285:1 50286:1 50287:1 50288:1 50289:1 50290:1 50291:1 50292:1 50293:1 50294:1 50295:1 50296:1 50297:1 50298:1 
1e-05 5:1 130:1 151:1 2729:1 4748:1 7159:1 19195:1 20377:1 50461:1 50462:1 50463:1 50464:1 50465:1 50466:1 50467:1 50468:1 50469:1 50470:1 50471:1 50472:1 50473:1 50474:1 50475:1 50476:1 50477:1 50478:1 50479:1 50480:1 50481:1 50482:1 50483:1 
1e-05 3:1 5:1 13:1 16:1 23:1 130:1 134:2 135:1 140:1 149:1 151:1 154:1 163:2 164:1 341:2 360:1 547:2 555:1 557:1 820:1 821:1 829:1 892:1 1006:1 1023:1 1031:1 1071:1 1273:1 1278:1 1303:1 1801:4 2324:1 2333:2 2755:1 3001:1 3156:1 3164:1 3794:1 3904:1 4258:1 4680:1 4707:1 5352:3 5469:1 5600:1 5776:1 5809:1 5810:1 6286:1 7446:1 8198:1 8531:1 9058:1 9295:1 9821:1 12530:1 13264:1 14011:1 14759:1 15676:1 16946:1 19301:1 19338:1 20196:1 20452:1 22186:1 24089:1 24784:1 26277:1 26303:1 27296:1 27316:1 27967:1 28746:1 32949:1 37059:1 42267:1 43636:1 44492:1 44505:1 44593:1 49996:1 50654:3 50655:2 50656:1 50657:1 50658:1 50659:1 50660:1 50661:1 50662:1 50663:1 50664:1 50665:1 50666:1 50667:1 50668:1 50669:1 50670:1 50671:1 50672:1 50673:1 50674:1 50675:1 50676:1 50677:1 50678:1 50679:1 50680:2 50681:1 50682:1 50683:1 50684:1 50685:1 50686:1 50687:1 50688:1 50689:1 50690:1 50691:1 50692:1 50693:1 50694:1 50695:1 50696:1 50697:1 50698:1 50699:1 50700:1 50701:1 50702:1 50703:1 50704:1 50705:1 50706:1 50707:1 50708:1 50709:1 50710:1 50711:1 50712:1 50713:1 50714:1 50715:1 50716:1 50717:1 50718:1 50719:1 50720:1 50721:1 50722:1 50723:1 50724:1 50725:1 50726:1 50727:1 50728:1 50729:1 50730:1 50731:1 50732:1 50733:1 50734:1 50735:1 50736:1 50737:1 50738:1 50739:1 50740:1 50741:1 50742:1 50743:1 50744:1 50745:1 50746:1 50747:1 50748:1 50749:1 50750:1 50751:1 50752:1 50753:1 50754:1 50755:1 50756:1 50757:1 50758:1 50759:1 50760:1 50761:1 50762:1 50763:1 50764:1 50765:1 50766:1 50767:1 50768:1 50769:1 50770:1 50771:1 50772:1 50773:1 50774:1 50775:1 50776:1 50777:1 50778:1 50779:1 50780:1 50781:1 50782:1 50783:1 50784:1 50785:1 50786:1 50787:1 50788:1 50789:1 50790:1 50791:1 50792:1 50793:1 50794:1 50795:1 50796:1 50797:1 50798:1 50799:1 50800:1 50801:1 50802:1 50803:1 50804:1 50805:1 50806:1 50807:1 50808:1 50809:1 50810:1 50811:1 50812:1 50813:1 50814:1 50815:1 50816:1 50817:1 50818:1 50819:1 50820:1 50821:1 50822:1 50823:1 50824:1 50825:1 50826:1 50827:1 50828:1 50829:1 50830:1 50831:1 50832:1 50833:1 50834:1 50835:1 50836:1 50837:1 50838:1 50839:1 50840:1 50841:1 50842:1 50843:1 50844:1 50845:1 50846:1 50847:1 50848:1 50849:1 50850:1 50851:1 50852:1 50853:1 50854:1 50855:1 50856:1 50857:1 50858:1 50859:1 50860:1 50861:1 50862:1 50863:1 50864:1 50865:1 50866:1 50867:1 50868:1 50869:1 50870:1 50871:1 50872:1 50873:1 50874:1 50875:1 50876:1 50877:1 50878:1 50879:1 50880:1 50881:1 50882:1 50883:1 
1e-05 4:1 23:1 130:1 139:1 143:1 145:1 147:1 154:1 160:1 357:1 550:1 551:1 557:1 579:1 821:1 830:1 839:1 1009:1 1278:1 1436:1 1437:1 1473:1 1628:1 1641:1 1801:1 3513:1 3617:2 3625:1 5343:1 5346:1 5828:1 5952:1 5958:1 8386:1 8387:1 8424:1 8425:1 8466:1 12191:1 14622:1 21539:1 24142:1 30827:1 33336:1 34794:1 34814:1 41501:1 46509:1 46927:1 47024:1 50137:1 50138:2 50139:1 50140:1 50141:1 50142:1 50143:1 50148:1 50150:1 50153:1 50154:1 50161:1 50164:1 50165:1 50166:1 50168:1 50183:1 50184:1 50185:1 50194:1 50196:1 50197:1 50225:1 50226:1 50236:1 50237:1 50239:1 50241:1 50268:1 50279:1 50280:1 50284:1 50285:1 51018:1 51019:1 51020:1 51021:1 51022:1 51023:1 51024:1 51025:1 51026:1 51027:1 51028:1 51029:1 51030:1 51031:1 51032:1 51033:1 51034:1 51035:1 51036:1 51037:1 51038:1 51039:1 51040:1 51041:1 51042:1 51043:1 51044:1 51045:1 51046:1 51047:1 51048:1 51049:1 51050:1 51051:1 51052:1 51053:1 51054:1 51055:1 51056:1 51057:1 51058:1 51059:1 51060:1 51061:1 51062:1 51063:1 51064:1 51065:1 51066:1 51067:1 51068:1 51069:1 51070:1 51071:1 51072:1 51073:1 51074:1 51075:1 51076:1 51077:1 51078:1 51079:1 51080:1 51081:1 51082:1 51083:1 51084:1 51085:1 51086:1 51087:1 51088:1 51089:1 51090:1 51091:1 51092:1 51093:1 51094:1 51095:1 51096:1 51097:1 51098:1 51099:1 51100:1 51101:1 51102:1 51103:1 51104:1 51105:1 51106:1 51107:1 51108:1 51109:1 51110:1 51111:1 51112:1 51113:1 51114:1 51115:1 51116:1 51117:1 51118:1 51119:1 51120:1 51121:1 51122:1 51123:1 51124:1 51125:1 51126:1 51127:1 51128:1 51129:1 51130:1 51131:1 51132:1 51133:1 
1e-05 5:1 130:1 134:1 151:1 338:1 550:1 551:1 579:1 825:1 841:1 1426:1 2013:1 2036:1 2076:1 4761:1 6209:1 8537:1 9754:1 10737:1 10802:1 13497:1 13516:1 17216:1 22188:1 47867:1 49606:1 52451:1 52452:1 52453:1 52454:1 52455:1 52456:1 52457:1 52458:1 52459:1 52460:1 52461:1 52462:1 52463:1 52464:1 52465:1 52466:1 52467:1 52468:1 52469:1 52470:1 52471:1 52472:1 52473:1 52474:1 52475:1 52476:1 52477:1 52478:1 52479:1 52480:1 52481:1 52482:1 52483:1 52484:1 52485:1 52486:1 52487:1 52488:1 52489:1 52490:1 52491:1 52492:1 52493:1 52494:1 52495:1 52496:1 52497:1 52498:1 52499:1 52500:1 52501:1 52502:1 52503:1 52504:1 52505:1 52506:1 52507:1 52508:1 52509:1 52510:1 52511:1 52512:1 52513:1 52514:1 52515:1 52516:1 52517:1 52518:1 52519:1 52520:1 52521:1 52522:1 52523:1 52524:1 52525:1 52526:1 52527:1 52528:1 52529:1 52530:1 52531:1 52532:1 52533:1 52534:1 52535:1 52536:1 52537:1 52538:1 52539:1 52540:1 52541:1 52542:1 52543:1 52544:1 52545:1 
1e-05 5:1 130:1 149:2 151:1 160:1 163:1 164:1 205:1 343:1 354:1 360:1 537:1 543:1 547:1 555:1 557:1 558:1 622:1 825:1 841:1 997:1 1009:2 1034:1 1116:1 2746:2 2762:2 3426:1 4021:2 4258:1 4944:2 5351:1 7159:1 10531:1 11862:2 12340:2 12845:1 13397:1 13646:1 14127:1 14550:1 16842:1 17598:1 17869:1 18835:1 19817:2 19859:1 24777:1 29584:2 29787:2 33149:1 34415:1 43173:1 49606:1 52139:1 52452:1 53769:2 53770:1 53771:1 53772:1 53773:1 53774:1 53775:1 53776:1 53777:1 53778:1 53779:1 53780:1 53781:1 53782:1 53783:1 53784:1 53785:1 53786:2 53787:2 53788:2 53789:2 53790:1 53791:1 53792:1 53793:1 53794:1 53795:1 53796:1 53797:1 53798:1 53799:1 53800:1 53801:1 53802:1 53803:1 53804:1 53805:1 53806:1 53807:1 53808:1 53809:1 53810:1 53811:1 53812:1 53813:1 53814:1 53815:1 53816:1 53817:1 53818:1 53819:1 53820:1 53821:1 53822:1 53823:1 53824:1 53825:1 53826:1 53827:1 53828:1 53829:1 53830:2 53831:2 53832:2 53833:2 53834:2 53835:1 53836:1 53837:1 53838:1 53839:1 53840:1 53841:1 53842:1 53843:1 53844:1 53845:1 53846:1 53847:1 53848:1 53849:1 53850:1 53851:1 53852:1 53853:1 53854:1 53855:1 53856:1 53857:1 53858:1 53859:1 53860:1 53861:1 53862:1 53863:1 53864:1 53865:1 53866:1 53867:1 53868:1 53869:1 53870:1 53871:1 53872:1 53873:1 53874:1 53875:1 53876:1 53877:1 53878:1 53879:1 53880:2 53881:2 53882:2 53883:2 53884:1 53885:1 53886:1 53887:1 53888:1 53889:1 53890:1 53891:1 53892:1 53893:1 53894:1 53895:1 53896:1 53897:1 53898:1 53899:1 53900:1 53901:1 53902:1 53903:1 53904:1 53905:1 53906:1 53907:1 53908:1 53909:1 53910:1 53911:1 53912:1 53913:1 53914:1 53915:1 53916:1 53917:1 53918:1 53919:1 53920:1 53921:1 53922:1 53923:1 53924:1 53925:1 53926:1 53927:1 53928:1 53929:1 53930:1 53931:2 53932:2 53933:2 53934:1 53935:1 53936:1 53937:1 53938:1 53939:1 53940:1 53941:1 53942:1 53943:1 53944:1 53945:1 53946:1 53947:1 53948:1 53949:1 53950:1 53951:1 53952:1 53953:1 53954:1 53955:1 53956:1 53957:1 53958:1 53959:1 53960:1 53961:1 53962:1 53963:1 53964:1 53965:1 53966:1 53967:1 53968:1 53969:1 53970:1 53971:1 
1e-05 130:1 840:1 1801:1 47014:1 56197:1 56198:1 56199:1 56200:1 56201:1 56202:1 56203:1 56204:1 56205:1 56206:1 56207:1 56208:1 
1e-05 5:1 130:1 1278:1 1799:1 2005:1 3625:1 5346:1 7660:1 9296:1 9302:1 9746:1 14671:1 27469:1 31426:1 45583:1 50136:1 50137:2 50138:2 50146:1 50147:1 50148:1 50160:1 50175:1 50176:1 50177:1 50178:1 50214:1 50215:1 50216:1 50256:1 50257:1 51018:1 51039:1 51040:1 51070:1 58803:1 58804:1 58805:1 58806:1 58807:1 58808:1 58809:1 58810:1 58811:1 58812:1 58813:1 58814:1 58815:1 58816:1 58817:1 58818:1 58819:1 58820:1 58821:1 58822:1 58823:1 58824:1 58825:1 58826:1 58827:1 58828:1 58829:1 58830:1 58831:1 58832:1 58833:1 58834:1 58835:1 58836:1 58837:1 58838:1 58839:1 58840:1 58841:1 58842:1 58843:1 58844:1 58845:1 58846:1 58847:1 58848:1 58849:1 58850:1 58851:1 
1e-05 23:1 130:1 140:1 163:1 829:1 1847:1 2205:1 2324:2 2463:1 3624:1 7698:1 7881:2 8828:1 9295:1 9746:1 16195:1 16200:1 29477:1 30496:1 38115:1 49606:1 50300:1 56836:1 63153:1 63154:1 63155:2 63156:1 63157:1 63158:1 63159:1 63160:1 63161:1 63162:1 63163:1 63164:1 63165:1 63166:1 63167:1 63168:1 63169:1 63170:1 63171:1 63172:1 63173:1 63174:1 63175:1 63176:1 63177:1 63178:1 63179:1 63180:1 63181:1 63182:1 63183:1 63184:1 63185:1 63186:1 63187:1 63188:1 63189:1 63190:1 63191:1 63192:1 63193:1 63194:1 63195:1 63196:1 63197:1 63198:1 63199:1 63200:1 63201:1 63202:1 63203:1 63204:1 63205:1 63206:1 63207:1 63208:1 63209:1 63210:1 63211:1 63212:1 63213:1 63214:1 63215:1 63216:1 63217:1 63218:1 63219:1 63220:1 63221:1 63222:1 63223:1 63224:1 63225:1 63226:1 63227:1 63228:1 63229:1 63230:1 63231:1 63232:1 63233:1 63234:1 63235:1 63236:1 63237:1 63238:1 63239:1 63240:1 63241:1 63242:1 63243:1 63244:1 63245:1 63246:1 63247:1 
1e-05 3:1 13:1 22:1 130:1 151:1 163:1 330:1 360:1 362:1 703:1 840:1 1800:2 3032:1 3164:1 3372:1 3893:1 4315:3 4751:1 5297:1 8536:1 9295:1 13242:1 16921:1 16986:1 21465:1 23675:1 29932:1 37168:1 40952:1 44937:1 53591:1 57253:1 57672:1 62972:1 64204:1 64509:1 64510:2 64511:1 64512:1 64513:1 64514:1 64515:1 64516:1 64517:1 64518:1 64519:1 64520:1 64521:1 64522:1 64523:1 64524:1 64525:1 64526:1 64527:1 64528:1 64529:1 64530:1 64531:1 64532:1 64533:1 64534:1 64535:1 64536:1 64537:1 64538:1 64539:1 64540:1 64541:1 64542:1 64543:1 64544:1 64545:1 64546:1 64547:1 64548:1 64549:1 64550:1 64551:1 64552:1 64553:1 64554:1 64555:1 64556:1 64557:1 64558:1 64559:1 64560:1 64561:1 64562:1 64563:1 64564:1 64565:1 64566:1 64567:1 64568:1 64569:1 64570:1 64571:1 64572:1 64573:1 64574:1 64575:1 64576:1 64577:1 64578:1 64579:1 64580:1 64581:1 64582:1 64583:1 64584:1 64585:1 64586:1 64587:1 64588:1 64589:1 64590:1 64591:1 64592:1 64593:1 64594:1 64595:1 64596:1 64597:1 64598:1 64599:1 64600:1 64601:1 64602:1 64603:1 64604:1 64605:1 64606:1 64607:1 64608:1 64609:1 64610:1 64611:1 64612:1 64613:1 64614:1 64615:1 64616:1 64617:1 64618:1 64619:1 64620:1 64621:1 64622:1 64623:1 64624:1 64625:1 64626:1 64627:1 64628:1 64629:1 64630:1 64631:1 64632:1 64633:1 64634:1 64635:1 64636:1 64637:1 64638:1 64639:1 64640:1 64641:1 64642:1 64643:1 64644:1 64645:1 
1e-05 8:1 130:1 148:1 149:1 154:1 186:1 338:2 343:1 344:1 380:1 705:1 840:1 1422:2 1427:1 2013:1 3368:1 4759:1 5956:1 9295:1 12469:1 12536:1 14866:2 17436:1 18356:1 19858:2 20913:1 21533:1 22342:2 22361:2 25040:2 25041:1 25049:1 41747:1 44978:2 48697:1 50300:1 55575:1 65797:2 65798:1 65799:1 65800:1 65801:1 65802:2 65803:2 65804:1 65805:1 65806:1 65807:1 65808:1 65809:1 65810:1 65811:1 65812:1 65813:1 65814:1 65815:1 65816:1 65817:1 65818:1 65819:1 65820:1 65821:1 65822:1 65823:1 65824:2 65825:1 65826:1 65827:1 65828:1 65829:1 65830:1 65831:1 65832:1 65833:1 65834:1 65835:1 65836:1 65837:1 65838:1 65839:1 65840:1 65841:1 65842:1 65843:1 65844:1 65845:1 65846:1 65847:1 65848:1 65849:2 65850:1 65851:1 65852:1 65853:1 65854:1 65855:1 65856:1 65857:1 65858:1 65859:1 65860:1 65861:1 65862:1 65863:1 65864:1 65865:1 65866:1 65867:1 65868:1 65869:1 65870:1 65871:1 65872:1 65873:1 65874:1 65875:1 65876:1 65877:1 65878:1 65879:1 65880:1 65881:1 65882:1 65883:1 65884:1 65885:1 65886:1 65887:1 65888:1 65889:1 65890:1 65891:1 65892:1 65893:1 65894:1 65895:1 65896:1 65897:1 65898:1 65899:1 65900:1 65901:1 65902:1 
1e-05 5:1 8:1 130:1 154:1 163:1 338:1 716:1 840:1 1013:1 1020:1 1261:2 1266:1 2005:1 2493:1 2755:1 2758:1 2824:1 2918:1 3155:1 3365:1 3390:1 3625:2 5555:2 8598:1 9339:1 9747:2 12839:1 12854:1 13718:1 17069:1 17365:1 17720:1 21415:1 21995:1 25818:1 25913:1 35661:1 36188:1 47136:1 47862:1 56659:1 65903:1 65904:1 65905:1 65906:1 65907:1 65908:1 65909:1 65910:1 65911:1 65912:2 65913:1 65914:1 65915:1 65916:1 65917:1 65918:1 65919:1 65920:1 65921:1 65922:1 65923:1 65924:1 65925:1 65926:1 65927:1 65928:1 65929:1 65930:1 65931:1 65932:1 65933:1 65934:1 65935:1 65936:1 65937:1 65938:1 65939:1 65940:1 65941:1 65942:1 65943:1 65944:1 65945:1 65946:1 65947:1 65948:1 65949:1 65950:1 65951:1 65952:1 65953:1 65954:1 65955:1 65956:1 65957:1 65958:1 65959:1 65960:1 65961:1 65962:1 65963:1 65964:1 65965:1 65966:1 65967:1 65968:1 65969:1 65970:1 65971:1 65972:1 65973:1 65974:1 65975:1 65976:1 65977:1 65978:1 65979:1 65980:1 65981:1 65982:1 65983:1 65984:1 65985:1 65986:1 65987:1 65988:1 65989:1 65990:1 65991:1 65992:1 65993:1 65994:1 65995:1 65996:1 65997:1 65998:1 65999:1 66000:1 66001:1 66002:1 66003:1 66004:1 66005:1 66006:1 66007:1 66008:1 66009:1 66010:1 66011:1 66012:1 66013:1 66014:1 66015:1 66016:1 66017:1 66018:1 66019:1 66020:1 66021:1 66022:1 66023:1 66024:1 66025:1 66026:1 66027:1 66028:1 66029:1 66030:1 66031:1 66032:1 
1e-05 130:1 134:1 148:1 334:1 543:1 701:1 1422:2 1855:1 5345:1 5361:1 7262:1 8766:1 16784:2 22342:1 45863:1 45882:1 51540:1 58696:1 65797:2 65799:1 65811:1 65849:1 66185:1 66186:2 66187:2 66188:1 66189:1 66190:1 66191:1 66192:2 66193:2 66194:1 66195:1 66196:2 66197:1 66198:1 66199:1 66200:1 66201:1 66202:1 66203:1 66204:1 66205:1 66206:1 66207:1 66208:1 66209:1 66210:2 66211:1 66212:1 66213:1 66214:1 66215:1 66216:1 66217:1 66218:1 66219:1 66220:1 66221:1 66222:1 66223:1 66224:1 66225:1 66226:1 66227:1 66228:1 66229:1 66230:1 66231:1 66232:1 66233:1 66234:1 66235:1 66236:1 66237:1 66238:1 66239:1 66240:1 66241:1 66242:1 66243:1 66244:1 66245:1 66246:1 66247:1 66248:1 66249:1 66250:1 66251:1 66252:1 66253:1 66254:1 66255:1 66256:1 66257:1 66258:1 66259:1 66260:1 66261:1 66262:1 66263:1 66264:1 66265:1 66266:1 66267:1 66268:1 66269:1 66270:1 66271:1 66272:1 66273:1 66274:1 
1e-05 3:2 130:1 154:1 334:1 341:2 360:1 361:1 543:1 558:1 709:1 731:1 1229:1 1801:2 1850:1 1858:1 3261:1 3797:1 3904:1 4748:1 5959:1 7403:1 10759:1 10882:1 12034:1 12849:1 13237:1 15893:1 17212:1 18259:1 19017:1 20115:1 20765:1 21885:1 22758:1 25073:2 26420:1 27786:1 30717:1 35453:1 36144:2 36846:1 36870:1 36896:1 44974:2 45820:1 47035:1 48747:1 48748:2 48751:2 48758:1 48759:1 48761:1 48762:1 48773:1 48774:1 48795:1 48798:1 48814:1 48815:1 48863:2 48864:1 49605:2 49710:1 49711:1 49731:1 49733:1 49734:1 49759:1 49761:1 49762:1 49763:1 49764:1 49787:1 49789:1 49790:1 49791:1 49792:1 49793:1 51735:1 52869:1 53426:1 53453:1 53480:1 53505:1 66275:1 66276:1 66277:1 66278:1 66279:1 66280:1 66281:1 66282:1 66283:1 66284:1 66285:1 66286:1 66287:1 66288:1 66289:1 66290:1 66291:1 66292:1 66293:1 66294:1 66295:1 66296:1 66297:1 66298:1 66299:1 66300:1 66301:1 66302:1 66303:1 66304:1 66305:1 66306:1 66307:1 66308:1 66309:1 66310:1 66311:1 66312:1 66313:1 66314:1 66315:1 66316:1 66317:1 66318:1 66319:1 66320:1 66321:1 66322:1 66323:1 66324:1 66325:1 66326:1 66327:1 66328:1 66329:1 66330:1 66331:1 66332:1 66333:1 66334:1 66335:1 66336:1 66337:1 66338:1 66339:1 66340:1 66341:1 66342:1 66343:1 66344:1 66345:1 66346:1 66347:1 66348:1 66349:1 66350:1 66351:1 66352:1 66353:1 66354:1 66355:1 66356:1 66357:1 66358:1 66359:1 66360:1 66361:1 66362:1 66363:2 66364:1 66365:1 66366:1 66367:1 66368:1 66369:1 66370:1 66371:1 66372:1 66373:1 66374:1 66375:1 66376:1 66377:1 66378:1 66379:1 66380:1 66381:1 66382:1 66383:1 66384:1 66385:1 66386:1 66387:1 66388:1 66389:1 66390:1 
1e-05 9:2 16:1 130:1 134:1 141:1 147:1 150:1 154:1 341:1 360:1 536:1 537:1 1268:2 1850:1 2925:1 4024:1 5958:1 7036:1 7216:1 7268:1 8196:1 8198:2 9947:1 10054:1 15893:1 17493:1 20068:1 22431:1 22432:1 22453:1 27661:1 37442:1 55653:1 65241:1 68222:1 68223:1 68224:1 68225:2 68226:1 68227:1 68228:1 68229:1 68230:1 68231:1 68232:1 68233:1 68234:1 68235:1 68236:1 68237:1 68238:1 68239:1 68240:1 68241:1 68242:2 68243:2 68244:1 68245:1 68246:1 68247:1 68248:1 68249:1 68250:1 68251:1 68252:1 68253:1 68254:1 68255:1 68256:1 68257:1 68258:1 68259:1 68260:1 68261:1 68262:1 68263:1 68264:1 68265:1 68266:1 68267:1 68268:1 68269:1 68270:1 68271:1 68272:1 68273:1 68274:1 68275:1 68276:1 68277:2 68278:1 68279:1 68280:1 68281:1 68282:1 68283:1 68284:1 68285:1 68286:1 68287:1 68288:1 68289:1 68290:1 68291:1 68292:1 68293:1 68294:1 68295:1 68296:1 68297:1 68298:1 68299:1 68300:1 68301:1 68302:1 68303:1 68304:1 68305:1 68306:1 68307:1 68308:1 68309:1 68310:1 68311:1 68312:1 68313:1 68314:1 68315:1 68316:1 68317:1 68318:1 68319:1 68320:1 68321:1 68322:1 68323:1 68324:1 68325:1 68326:1 68327:1 68328:1 68329:1 68330:1 68331:1 68332:1 68333:1 68334:1 68335:1 68336:1 68337:1 68338:1 68339:1 68340:1 68341:1 68342:1 68343:1 68344:1 68345:1 68346:1 68347:1 68348:1 68349:1 68350:1 68351:1 68352:1 68353:1 68354:1 68355:1 68356:1 68357:1 68358:1 68359:1 68360:1 68361:1 68362:1 68363:1 68364:1 68365:1 68366:1 68367:1 68368:1 68369:1 68370:1 68371:1 68372:1 68373:1 68374:1 68375:1 68376:1 68377:1 68378:1 68379:1 68380:1 68381:1 68382:1 68383:1 68384:1 68385:1 68386:1 68387:1 68388:1 68389:1 68390:1 68391:1 
1e-05 22:1 23:1 130:1 151:1 158:1 557:1 1261:1 1771:1 1801:1 3368:2 3617:1 4985:2 4998:1 5005:1 5346:2 5384:1 5446:1 5462:1 5473:1 5953:1 10393:1 10409:1 13654:1 20375:1 24831:1 27459:1 27474:1 27475:1 27486:1 27487:1 27499:1 27511:1 29743:1 29968:1 33917:1 36318:1 38037:1 44491:1 44607:1 53621:1 53647:1 53724:1 53760:1 69787:1 69788:1 69789:1 69790:1 69791:1 69792:1 69793:1 69794:1 69795:1 69796:1 69797:1 69798:1 69799:1 69800:1 69801:1 69802:1 69803:1 69804:1 69805:1 69806:1 69807:1 69808:1 69809:1 69810:1 69811:1 69812:1 69813:1 69814:1 69815:1 69816:1 69817:1 69818:1 69819:1 69820:1 69821:1 69822:1 69823:1 69824:1 69825:1 69826:1 69827:1 69828:1 69829:1 69830:1 69831:1 69832:1 69833:1 69834:1 69835:1 69836:1 69837:1 69838:1 69839:1 69840:1 69841:1 69842:1 69843:1 69844:1 69845:1 69846:1 69847:1 69848:1 69849:1 69850:1 69851:1 69852:1 69853:1 69854:1 69855:1 69856:1 69857:1 69858:1 69859:1 69860:1 69861:1 69862:1 69863:1 69864:1 69865:1 69866:1 
1e-05 3:1 5:1 130:1 149:1 151:1 333:1 348:2 709:1 814:1 830:1 1038:1 1279:1 1345:1 1630:1 1801:1 2201:1 2252:1 2270:1 3140:1 3174:1 9236:1 12320:1 15087:1 19017:1 20377:1 24104:1 24144:1 24169:1 24203:1 24235:1 24808:1 24809:1 24869:1 24870:1 24900:1 26013:1 26269:2 26382:1 26476:1 28518:1 30103:1 30157:1 33081:1 36142:1 36185:1 37164:2 37199:1 70582:2 70583:1 70584:1 70585:1 70586:1 70587:1 70588:2 70589:2 70590:1 70591:1 70592:1 70593:1 70594:1 70595:1 70596:1 70597:1 70598:1 70599:1 70600:1 70601:1 70602:1 70603:1 70604:1 70605:1 70606:1 70607:1 70608:1 70609:2 70610:1 70611:1 70612:1 70613:1 70614:1 70615:1 70616:1 70617:1 70618:1 70619:1 70620:1 70621:1 70622:1 70623:1 70624:1 70625:1 70626:1 70627:1 70628:1 70629:1 70630:1 70631:1 70632:1 70633:1 70634:1 70635:1 70636:1 70637:1 70638:1 70639:1 70640:1 70641:1 70642:1 70643:1 70644:1 70645:1 70646:1 70647:1 70648:1 70649:1 70650:1 70651:1 70652:1 70653:1 70654:1 70655:1 70656:1 70657:1 70658:1 70659:1 70660:1 70661:1 70662:1 70663:1 70664:1 70665:1 70666:1 70667:1 70668:1 70669:1 70670:1 70671:1 70672:1 70673:1 70674:1 70675:1 70676:1 70677:1 70678:1 70679:1 70680:1 70681:1 70682:1 70683:1 
1e-05 5:1 16:1 17:1 130:1 135:1 147:1 151:1 163:3 361:1 537:1 549:1 550:1 551:1 557:1 577:1 578:1 579:1 610:1 611:1 645:1 823:1 1013:1 1020:1 1028:1 1273:1 1653:1 1755:1 1771:2 1801:1 1855:1 2005:1 2015:1 2207:1 2917:1 3379:1 3625:1 4033:1 4761:1 5182:1 5487:1 6479:1 7213:1 9339:1 9369:1 10044:1 10082:1 10123:1 12237:1 12321:2 12343:1 12850:1 13560:1 14125:2 18928:1 18961:1 20262:1 21046:1 22709:1 23570:1 26980:1 29223:1 30296:1 30307:1 30524:1 30563:1 34414:1 34418:1 38116:1 38224:1 43148:1 44922:1 45333:1 48942:1 55564:1 56671:1 61156:1 69674:1 69760:1 70018:1 70350:1 71613:1 71614:1 71615:2 71616:1 71617:1 71618:1 71619:1 71620:1 71621:1 71622:1 71623:1 71624:1 71625:1 71626:2 71627:2 71628:1 71629:1 71630:1 71631:1 71632:1 71633:1 71634:1 71635:1 71636:1 71637:1 71638:1 71639:1 71640:1 71641:1 71642:1 71643:1 71644:1 71645:1 71646:1 71647:1 71648:1 71649:1 71650:1 71651:1 71652:1 71653:1 71654:1 71655:1 71656:1 71657:1 71658:1 71659:1 71660:1 71661:1 71662:1 71663:2 71664:1 71665:1 71666:1 71667:1 71668:1 71669:1 71670:1 71671:1 71672:1 71673:1 71674:1 71675:1 71676:1 71677:1 71678:1 71679:1 71680:1 71681:1 71682:1 71683:1 71684:1 71685:1 71686:1 71687:1 71688:1 71689:1 71690:1 71691:1 71692:1 71693:1 71694:1 71695:1 71696:1 71697:1 71698:1 71699:1 71700:1 71701:1 71702:1 71703:1 71704:1 71705:1 71706:1 71707:1 71708:1 71709:1 71710:1 71711:1 71712:1 71713:1 71714:1 71715:1 71716:1 71717:1 71718:1 71719:1 71720:1 71721:1 71722:1 71723:1 71724:1 71725:1 71726:1 71727:1 71728:1 71729:1 71730:1 71731:1 71732:1 71733:1 71734:1 71735:1 71736:1 71737:1 71738:1 71739:1 71740:1 71741:1 71742:1 71743:1 71744:1 71745:1 71746:1 71747:1 71748:1 71749:1 71750:1 71751:1 71752:1 71753:1 71754:1 71755:1 71756:1 71757:1 71758:1 71759:1 71760:1 71761:1 71762:1 71763:1 71764:1 71765:1 71766:1 71767:1 71768:1 71769:1 71770:1 71771:1 71772:1 71773:1 71774:1 71775:1 71776:1 71777:1 71778:1 71779:1 71780:1 71781:1 71782:1 71783:1 71784:1 71785:1 71786:1 71787:1 71788:1 71789:1 
1e-05 130:1 151:1 156:1 360:1 543:1 558:1 820:1 821:1 839:1 892:1 1447:1 1638:1 1801:2 1850:1 2324:1 3368:1 4021:1 4748:1 5963:1 6646:2 13237:1 15423:1 16348:1 17040:1 17043:2 17064:1 21187:1 25929:1 30676:1 30687:1 35453:2 36144:1 37330:1 44974:1 45316:1 47883:1 48747:1 48748:1 48751:3 48758:1 48759:1 48761:1 48762:1 48774:1 48795:1 48798:1 48815:1 48864:1 49604:2 49605:1 49612:1 49613:2 49615:1 49636:1 49710:1 49733:1 49761:1 52440:1 56844:1 56884:1 61412:1 62398:1 66283:1 66287:1 70894:1 70914:1 70915:1 70918:1 70940:1 70941:1 70944:1 70973:1 70976:1 71790:1 71791:1 71792:1 71793:1 71794:1 71795:1 71796:1 71797:1 71798:1 71799:1 71800:1 71801:1 71802:1 71803:1 71804:1 71805:1 71806:1 71807:1 71808:1 71809:1 71810:1 71811:1 71812:1 71813:1 71814:1 71815:1 71816:1 71817:1 71818:1 71819:1 71820:1 71821:1 71822:1 71823:1 71824:1 71825:1 71826:1 71827:1 71828:1 71829:1 71830:1 71831:1 71832:1 71833:1 71834:1 71835:1 71836:1 71837:1 71838:1 71839:1 71840:1 71841:1 71842:1 71843:1 71844:1 71845:1 71846:1 71847:1 71848:1 71849:1 71850:1 71851:1 71852:1 71853:1 71854:1 71855:1 71856:1 71857:1 71858:1 71859:1 71860:1 71861:1 71862:1 71863:1 71864:1 71865:1 71866:1 71867:1 71868:1 71869:1 71870:1 71871:1 71872:1 71873:1 71874:1 71875:1 71876:1 71877:1 71878:1 71879:1 71880:1 71881:1 71882:1 71883:1 71884:1 71885:1 71886:1 71887:1 71888:1 71889:1 71890:1 71891:1 71892:1 71893:1 71894:1 71895:1 71896:1 71897:1 71898:1 71899:1 71900:1 71901:1 71902:1 71903:1 71904:1 71905:1 71906:1 71907:1 71908:1 71909:1 71910:1 71911:1 71912:1 71913:1 71914:1 71915:1 71916:1 71917:1 71918:1 71919:1 
1e-05 2:1 4:1 5:1 6:1 11:1 28:1 29:1 35:1 53:1 55:1 80:1 106:1 130:1 154:1 360:1 821:1 1266:1 9273:1 13899:1 32714:1 44104:1 60174:1 71920:1 71921:1 71922:1 71923:1 71924:1 71925:1 71926:1 71927:1 71928:1 71929:1 71930:1 71931:1 71932:1 71933:1 71934:1 71935:1 71936:1 71937:1 71938:1 71939:1 71940:1 71941:1 71942:1 71943:1 71944:1 71945:1 71946:1 71947:1 71948:1 71949:1 71950:1 71951:1 71952:1 71953:1 
1e-05 3:1 5:1 130:1 360:1 361:1 547:1 819:1 820:1 821:1 829:1 839:1 1006:1 1013:1 1263:1 1801:2 2005:1 2202:1 2210:1 3420:1 4748:1 5471:1 6211:1 6641:1 6646:1 6668:1 7159:1 7931:1 8595:1 8598:1 12047:1 12064:1 14758:1 17961:1 18994:1 21005:1 21992:1 31529:1 35453:1 36144:1 40084:1 44974:1 45200:1 45253:1 46248:1 46755:1 48747:1 48748:1 48751:2 48758:1 48759:1 48761:1 48762:1 48773:1 48774:1 48795:1 48798:1 48814:1 48815:1 48863:1 48864:1 49604:1 49613:1 49682:1 49734:1 49762:1 49763:1 49790:1 49791:1 49792:1 49793:1 51852:1 63476:1 65314:1 66488:1 66938:1 70895:1 70896:1 70898:1 70905:1 70916:1 70917:1 70921:1 70942:1 70943:1 70975:1 71954:1 71955:1 71956:1 71957:1 71958:1 71959:1 71960:1 71961:1 71962:1 71963:1 71964:1 71965:1 71966:1 71967:1 71968:1 71969:1 71970:1 71971:1 71972:1 71973:1 71974:1 71975:1 71976:1 71977:1 71978:1 71979:1 71980:1 71981:1 71982:1 71983:1 71984:1 71985:1 71986:1 71987:1 71988:1 71989:1 71990:1 71991:1 71992:1 71993:1 71994:1 71995:1 71996:1 71997:1 71998:1 71999:1 72000:1 72001:1 72002:1 72003:1 72004:1 72005:1 72006:1 72007:1 72008:1 72009:1 72010:1 72011:1 72012:1 72013:1 72014:1 72015:1 72016:1 72017:1 72018:1 72019:1 72020:1 72021:1 72022:1 72023:1 72024:1 72025:1 72026:1 72027:1 72028:1 72029:1 72030:1 72031:1 72032:1 72033:1 72034:1 72035:1 72036:1 72037:1 72038:1 72039:1 72040:1 72041:1 72042:1 72043:1 72044:1 72045:1 72046:1 72047:1 72048:1 72049:1 72050:1 72051:1 72052:1 72053:1 72054:1 72055:1 72056:1 72057:1 72058:1 72059:1 72060:1 72061:1 72062:1 
1e-05 130:1 154:1 334:1 341:2 537:1 819:1 1268:1 1801:2 1997:1 2005:1 2340:1 3382:1 3611:1 3623:1 4751:1 7036:1 7996:1 9925:1 10093:1 12056:1 12057:1 12086:1 12291:1 14136:1 16111:1 24017:1 26072:1 27496:1 33381:1 38917:1 46105:1 56197:1 59310:1 75152:2 75153:1 75154:1 75155:1 75156:1 75157:2 75158:1 75159:1 75160:1 75161:1 75162:1 75163:1 75164:1 75165:1 75166:1 75167:1 75168:1 75169:1 75170:1 75171:1 75172:1 75173:1 75174:1 75175:1 75176:1 75177:1 75178:1 75179:1 75180:1 75181:1 75182:1 75183:1 75184:1 75185:1 75186:1 75187:1 75188:1 75189:1 75190:1 75191:1 75192:1 75193:1 75194:1 75195:1 75196:1 75197:1 75198:1 75199:1 75200:1 75201:1 75202:1 75203:1 75204:1 75205:1 75206:1 75207:1 75208:1 75209:1 75210:1 75211:1 75212:1 75213:1 75214:1 75215:1 75216:1 75217:1 75218:1 75219:1 75220:1 75221:1 75222:1 75223:1 75224:1 75225:1 75226:1 75227:1 75228:1 75229:1 75230:1 75231:1 75232:1 75233:1 75234:1 75235:1 75236:1 75237:1 75238:1 75239:1 75240:1 75241:1 75242:1 75243:1 75244:1 75245:1 75246:1 75247:1 75248:1 75249:1 75250:1 75251:1 75252:1 75253:1 75254:1 75255:1 75256:1 75257:1 75258:1 75259:1 75260:1 75261:1 75262:1 75263:1 75264:1 75265:1 75266:1 75267:1 75268:1 75269:1 75270:1 75271:1 75272:1 75273:1 75274:1 75275:1 75276:1 75277:1 75278:1 75279:1 75280:1 75281:1 75282:1 75283:1 75284:1 75285:1 
1e-05 13:1 23:1 130:2 147:1 151:1 156:1 343:1 555:1 707:2 825:1 1022:1 1641:1 1769:2 1771:1 1784:1 1850:1 1983:1 2335:1 2606:1 6948:1 8574:1 12188:1 12320:2 17598:1 17863:2 18099:1 19351:1 20378:2 24752:1 30827:1 42495:1 54145:1 54629:1 67210:1 68977:1 69146:1 69200:1 75286:2 75287:2 75288:2 75289:1 75290:1 75291:1 75292:1 75293:1 75294:1 75295:1 75296:1 75297:2 75298:1 75299:1 75300:1 75301:2 75302:1 75303:1 75304:2 75305:1 75306:1 75307:1 75308:1 75309:1 75310:1 75311:1 75312:1 75313:1 75314:1 75315:1 75316:1 75317:1 75318:1 75319:1 75320:1 75321:1 75322:1 75323:1 75324:1 75325:1 75326:1 75327:1 75328:1 75329:1 75330:1 75331:1 75332:1 75333:1 75334:1 75335:1 75336:1 75337:1 75338:2 75339:1 75340:1 75341:1 75342:1 75343:1 75344:1 75345:1 75346:1 75347:1 75348:1 75349:1 75350:1 75351:1 75352:1 75353:1 75354:1 75355:1 75356:1 75357:1 75358:1 75359:1 75360:1 75361:1 75362:1 75363:1 75364:1 75365:1 75366:1 75367:1 75368:1 75369:1 75370:1 75371:1 75372:1 75373:1 75374:1 75375:1 75376:1 75377:2 75378:2 75379:1 75380:1 75381:1 75382:1 75383:1 75384:1 75385:1 75386:1 75387:1 75388:1 75389:1 75390:1 75391:1 75392:1 75393:1 75394:1 75395:1 75396:1 75397:1 75398:1 75399:1 75400:1 75401:1 75402:1 75403:1 75404:1 75405:1 75406:1 75407:1 75408:1 75409:1 75410:1 75411:1 75412:1 75413:2 75414:1 75415:1 75416:1 75417:1 75418:1 75419:1 75420:1 75421:1 75422:1 75423:1 75424:1 75425:1 75426:1 75427:1 75428:1 75429:1 75430:1 75431:1 75432:1 75433:1 75434:1 75435:1 75436:1 75437:1 75438:1 75439:1 75440:1 75441:1 75442:1 75443:1 
1e-05 5:1 9:3 11:1 130:2 143:1 151:2 154:1 160:1 201:1 334:1 342:1 376:1 537:4 545:1 547:1 556:1 699:1 820:1 821:1 829:4 830:1 840:2 892:1 1009:1 1013:1 1263:1 1422:1 1626:1 1630:2 1771:3 1801:3 1809:3 2015:1 2206:1 2597:1 2921:1 2924:1 2925:1 2940:1 3147:1 3364:1 4027:1 4764:1 5189:1 5216:1 5354:1 5776:1 5809:1 6654:1 7265:1 7269:1 8198:2 8204:1 8595:2 9535:1 9748:1 10899:1 11657:2 12324:2 12852:1 12857:1 13237:1 15625:1 16662:2 19106:1 19543:1 20181:1 22346:1 23214:1 24407:1 25475:1 26910:1 27658:1 32974:2 41626:1 43383:1 44630:1 46228:1 47152:1 49606:1 50152:1 51052:1 55216:1 57549:1 58544:1 59519:1 62583:1 67102:1 71675:1 75661:3 75662:2 75663:2 75664:1 75665:1 75666:1 75667:2 75668:1 75669:1 75670:1 75671:1 75672:1 75673:1 75674:1 75675:1 75676:2 75677:2 75678:2 75679:2 75680:2 75681:2 75682:1 75683:1 75684:1 75685:1 75686:1 75687:1 75688:1 75689:1 75690:1 75691:1 75692:1 75693:1 75694:1 75695:1 75696:1 75697:1 75698:1 75699:1 75700:1 75701:1 75702:1 75703:1 75704:1 75705:1 75706:1 75707:1 75708:1 75709:1 75710:1 75711:1 75712:1 75713:1 75714:2 75715:1 75716:1 75717:1 75718:1 75719:1 75720:1 75721:1 75722:1 75723:1 75724:1 75725:1 75726:1 75727:1 75728:1 75729:1 75730:1 75731:1 75732:1 75733:1 75734:1 75735:1 75736:1 75737:1 75738:1 75739:1 75740:1 75741:1 75742:1 75743:1 75744:1 75745:1 75746:1 75747:1 75748:1 75749:1 75750:2 75751:2 75752:2 75753:2 75754:2 75755:2 75756:1 75757:1 75758:1 75759:1 75760:2 75761:1 75762:1 75763:1 75764:1 75765:1 75766:1 75767:1 75768:1 75769:1 75770:1 75771:1 75772:1 75773:1 75774:1 75775:1 75776:1 75777:1 75778:1 75779:1 75780:1 75781:1 75782:1 75783:1 75784:1 75785:1 75786:1 75787:1 75788:1 75789:1 75790:1 75791:1 75792:1 75793:1 75794:1 75795:1 75796:1 75797:1 75798:1 75799:1 75800:1 75801:1 75802:1 75803:1 75804:1 75805:1 75806:1 75807:1 75808:1 75809:1 75810:1 75811:1 75812:1 75813:1 75814:1 75815:1 75816:1 75817:1 75818:1 75819:1 75820:1 75821:1 75822:1 75823:1 75824:1 75825:1 75826:1 75827:1 75828:1 75829:1 75830:1 75831:1 75832:1 75833:2 75834:2 75835:2 75836:2 75837:1 75838:1 75839:1 75840:1 75841:1 75842:1 75843:1 75844:1 75845:1 75846:1 75847:1 75848:1 75849:1 75850:1 75851:1 75852:1 75853:1 75854:1 75855:1 75856:1 75857:1 75858:1 75859:1 75860:1 75861:1 75862:1 75863:1 75864:1 75865:1 75866:1 75867:1 75868:1 75869:1 75870:1 75871:1 75872:1 75873:1 75874:1 75875:1 75876:1 75877:1 75878:1 75879:1 75880:1 75881:1 75882:1 75883:1 75884:1 75885:1 75886:1 75887:1 75888:1 75889:1 75890:1 75891:1 75892:1 75893:1 75894:1 75895:1 75896:1 75897:1 75898:1 75899:1 75900:1 75901:1 75902:1 75903:1 75904:1 75905:1 75906:1 75907:1 75908:1 75909:1 75910:1 75911:1 75912:1 75913:1 75914:1 75915:1 75916:1 75917:2 75918:2 75919:2 75920:1 75921:1 75922:1 75923:1 75924:1 75925:1 75926:1 75927:1 75928:1 75929:1 75930:1 75931:1 75932:1 75933:1 75934:1 75935:1 75936:1 75937:1 75938:1 75939:1 75940:1 75941:1 75942:1 75943:1 75944:1 75945:1 75946:1 75947:1 75948:1 75949:1 75950:1 75951:1 75952:1 75953:1 75954:1 75955:1 75956:1 75957:1 75958:1 75959:1 75960:1 75961:1 75962:1 75963:1 75964:1 75965:1 75966:1 75967:1 75968:1 75969:1 75970:1 75971:1 75972:1 75973:1 75974:1 75975:1 75976:1 75977:1 75978:1 75979:1 75980:1 75981:1 75982:1 75983:1 75984:1 75985:1 75986:1 75987:1 75988:1 75989:1 75990:1 75991:1 75992:1 75993:1 75994:1 75995:1 75996:1 75997:1 
1e-05 3:1 130:1 330:1 822:1 834:1 1024:1 2005:1 2477:1 2760:1 3364:1 3795:1 4032:1 5555:1 5964:1 6813:1 7392:1 8204:1 11535:1 12845:1 16770:1 17810:1 18851:1 18852:1 18858:1 25046:1 29013:1 31430:1 31636:1 76789:1 76790:1 76791:1 76792:1 76793:1 76794:1 76795:1 76796:1 76797:1 76798:1 76799:1 76800:1 76801:1 76802:1 76803:1 76804:1 76805:1 76806:1 76807:1 76808:1 76809:1 76810:1 76811:1 76812:1 76813:1 76814:1 76815:1 76816:1 76817:1 76818:1 76819:1 76820:1 76821:1 76822:1 76823:1 76824:1 76825:1 76826:1 76827:1 76828:1 76829:1 76830:1 76831:1 76832:1 76833:1 76834:1 76835:1 76836:1 76837:1 76838:1 76839:1 76840:1 76841:1 76842:1 76843:1 76844:1 76845:1 76846:1 76847:1 76848:1 76849:1 76850:1 76851:1 76852:1 76853:1 76854:1 76855:1 76856:1 76857:1 76858:1 76859:1 76860:1 76861:1 76862:1 76863:1 76864:1 76865:1 76866:1 
1e-05 130:1 4945:1 4969:1 81428:1 81429:1 81430:1 81431:1 81432:1 81433:1 81434:1 81435:1 81436:1 81437:1 81438:1 81439:1 81440:1 
1e-05 130:1 163:1 2761:1 3795:1 7030:1 10275:1 12321:1 21807:1 24139:1 32400:1 81693:1 81694:1 81695:1 81696:1 81697:1 81698:1 81699:1 81700:1 81701:1 81702:1 81703:1 81704:1 81705:1 81706:1 81707:1 81708:1 81709:1 81710:1 81711:1 81712:1 81713:1 81714:1 81715:1 81716:1 81717:1 81718:1 
1e-05 3:1 130:1 134:1 150:1 154:1 338:1 341:1 360:1 387:1 543:1 549:1 550:2 551:2 554:1 555:1 558:1 578:1 579:2 611:1 707:1 820:1 821:1 825:1 1273:2 1801:2 1839:1 1904:1 2012:1 2036:1 2076:1 4748:1 5777:1 5833:1 5876:1 7698:1 7886:1 9346:1 11479:1 14740:1 16197:1 16198:1 16224:1 16225:1 16259:1 17212:1 17598:1 20041:1 22241:1 22278:1 22315:1 33431:1 35453:1 36144:1 37514:1 38243:1 42983:1 43036:1 43093:1 44974:2 45139:1 45200:1 45253:1 46252:1 47035:1 48747:1 48748:1 48751:2 48758:1 48759:1 48761:1 48762:1 48774:1 48795:1 48798:1 48815:1 48864:1 49264:1 49604:1 49605:1 49611:1 49612:1 49613:1 49635:1 49636:1 49659:1 49710:1 49711:1 49733:1 49734:1 49761:1 49762:1 49763:1 49764:1 49790:1 49791:1 49792:1 49793:1 66283:1 66287:1 67344:1 68295:1 70894:1 70905:1 70914:1 70915:1 70918:1 70940:1 70941:1 70944:1 70973:1 70976:1 71900:1 78372:1 81163:1 81625:1 81900:1 81953:1 81982:1 81983:1 82014:1 82252:1 82712:1 82713:1 82714:1 82715:1 82716:1 82717:1 82718:1 82719:1 82720:1 82721:1 82722:1 82723:1 82724:1 82725:1 82726:1 82727:1 82728:1 82729:1 82730:1 82731:1 82732:1 82733:1 82734:1 82735:1 82736:1 82737:1 82738:1 82739:1 82740:1 82741:1 82742:1 82743:1 82744:1 82745:1 82746:1 82747:1 82748:1 82749:1 82750:1 82751:1 82752:1 82753:1 82754:1 82755:1 82756:1 82757:1 82758:1 82759:1 82760:1 82761:1 82762:1 82763:1 82764:1 82765:1 82766:1 82767:1 82768:1 82769:1 82770:1 82771:1 82772:1 82773:1 82774:1 82775:1 82776:1 82777:1 82778:1 82779:1 82780:1 82781:1 82782:1 82783:1 82784:1 82785:1 82786:1 82787:1 82788:1 82789:1 82790:1 82791:1 82792:1 82793:1 82794:1 82795:1 82796:1 82797:1 82798:1 82799:1 82800:1 82801:1 82802:1 82803:1 82804:1 82805:1 82806:1 82807:1 82808:1 82809:1 82810:1 82811:1 82812:1 82813:1 82814:1 
1e-05 4:1 130:1 543:1 558:1 1030:3 1771:1 2201:1 2342:1 2476:1 2923:1 2993:1 3067:1 7159:2 12845:2 17741:1 43304:1 48942:1 53911:1 66935:1 67537:1 70346:1 80762:1 80774:1 82815:3 82816:1 82817:1 82818:1 82819:1 82820:1 82821:3 82822:1 82823:1 82824:1 82825:1 82826:1 82827:1 82828:1 82829:1 82830:1 82831:1 82832:1 82833:1 82834:1 82835:1 82836:1 82837:1 82838:1 82839:1 82840:1 82841:1 82842:1 82843:1 82844:1 82845:1 82846:1 82847:1 82848:1 82849:1 82850:1 82851:1 82852:1 82853:1 82854:1 82855:1 82856:1 82857:1 82858:1 82859:1 82860:1 82861:1 82862:1 82863:1 82864:1 82865:1 82866:1 82867:1 82868:1 82869:1 82870:1 82871:1 82872:1 82873:1 82874:1 82875:1 82876:1 82877:1 82878:1 82879:1 82880:1 82881:1 82882:1 82883:1 82884:1 82885:1 82886:1 82887:1 82888:1 82889:1 82890:1 82891:1 82892:1 82893:1 82894:1 82895:1 82896:1 82897:1 82898:1 82899:1 82900:1 82901:1 82902:1 82903:1 82904:1 
1e-05 16:1 130:1 341:1 360:1 699:1 716:1 829:1 830:1 834:1 839:2 1009:1 1261:2 1771:1 2918:1 3155:1 3365:1 3625:1 3904:1 3963:1 5354:1 5378:1 5555:1 5967:1 8598:1 9339:1 9416:1 9746:1 9747:2 10670:1 12195:1 12839:1 12878:1 13718:1 17720:1 17770:1 21005:1 21520:1 22188:1 23757:1 27015:1 27458:1 33995:1 34732:1 36499:1 47763:1 57181:1 63764:1 65910:1 65911:1 65912:1 65917:1 65918:1 65933:1 65940:1 65941:1 65945:1 65947:1 65973:1 65978:1 65982:1 66010:1 66013:1 78576:1 82545:1 83175:1 83176:1 83177:1 83178:1 83179:1 83180:1 83181:1 83182:1 83183:1 83184:1 83185:1 83186:1 83187:1 83188:1 83189:1 83190:1 83191:1 83192:1 83193:1 83194:1 83195:1 83196:1 83197:1 83198:1 83199:1 83200:1 83201:1 83202:1 83203:1 83204:1 83205:1 83206:1 83207:1 83208:1 83209:1 83210:1 83211:1 83212:1 83213:1 83214:1 83215:1 83216:1 83217:1 83218:1 83219:1 83220:1 83221:1 83222:1 83223:1 83224:1 83225:1 83226:1 83227:1 83228:1 83229:1 83230:1 83231:1 83232:1 83233:1 83234:1 83235:1 83236:1 83237:1 83238:1 83239:1 83240:1 83241:1 83242:1 83243:1 83244:1 83245:1 83246:1 83247:1 83248:1 83249:1 83250:1 83251:1 83252:1 83253:1 83254:1 83255:1 83256:1 83257:1 83258:1 83259:1 83260:1 83261:1 83262:1 83263:1 83264:1 83265:1 83266:1 83267:1 83268:1 83269:1 83270:1 83271:1 83272:1 83273:1 
1e-05 3:1 130:1 134:1 139:1 140:2 145:1 151:1 154:1 163:1 164:1 217:1 334:1 1030:2 1261:2 1630:2 1801:2 1840:2 1858:1 2541:1 3617:1 3794:1 3900:1 4315:1 5346:2 5364:2 5551:1 5786:1 5957:1 7698:1 11663:1 13237:1 14011:1 17159:1 21518:1 24045:1 24068:1 24113:1 27794:1 32964:1 44486:1 45912:1 47026:1 51077:1 52841:1 53281:1 56018:1 65164:1 66200:1 66302:1 69990:1 70038:1 70076:1 70123:1 70639:1 76752:1 79044:1 82346:1 82372:1 82759:1 83297:1 83298:1 83299:1 83300:1 83301:1 83302:2 83303:1 83304:1 83305:2 83306:1 83307:1 83308:1 83309:1 83310:1 83311:1 83312:1 83313:1 83314:1 83315:1 83316:1 83317:1 83318:1 83319:1 83320:1 83321:1 83322:1 83323:1 83324:1 83325:1 83326:1 83327:1 83328:1 83329:1 83330:1 83331:1 83332:1 83333:1 83334:1 83335:1 83336:1 83337:1 83338:1 83339:1 83340:1 83341:1 83342:1 83343:1 83344:1 83345:1 83346:1 83347:1 83348:1 83349:1 83350:1 83351:1 83352:1 83353:1 83354:1 83355:1 83356:1 83357:1 83358:1 83359:1 83360:1 83361:1 83362:1 83363:1 83364:1 83365:1 83366:1 83367:1 83368:1 83369:1 83370:1 83371:1 83372:1 83373:1 83374:1 83375:1 83376:1 83377:1 83378:1 83379:1 83380:1 83381:1 83382:1 83383:1 83384:1 83385:1 83386:1 83387:1 83388:1 83389:1 83390:1 83391:1 83392:1 83393:1 83394:1 83395:1 83396:1 83397:1 83398:1 83399:1 83400:1 83401:1 83402:1 83403:1 83404:1 83405:1 83406:1 83407:1 83408:1 83409:1 83410:1 83411:1 83412:1 83413:1 83414:1 83415:1 83416:1 83417:1 83418:1 
1e-05 3:1 130:1 134:1 135:1 145:1 147:1 154:1 163:1 164:1 709:1 820:1 821:1 1030:3 1031:1 1268:1 1801:2 1839:1 1844:1 3366:1 3617:1 3794:1 4751:1 5346:2 5352:1 5364:2 5467:1 7698:1 14011:1 16949:1 16961:1 19017:1 24833:1 34416:2 37359:2 38102:1 45896:1 46245:1 49253:1 50732:1 51116:1 53281:1 70038:1 70905:1 81134:1 81201:1 81751:1 82759:1 83298:1 83299:1 83318:1 83319:1 83323:1 83377:1 83393:1 83406:1 83407:1 83419:1 83420:1 83421:1 83422:1 83423:1 83424:1 83425:1 83426:1 83427:1 83428:1 83429:1 83430:1 83431:1 83432:1 83433:1 83434:1 83435:1 83436:1 83437:1 83438:1 83439:1 83440:1 83441:1 83442:1 83443:1 83444:1 83445:1 83446:1 83447:1 83448:1 83449:1 83450:1 83451:1 83452:1 83453:1 83454:1 83455:1 83456:1 83457:1 83458:1 83459:1 83460:1 83461:1 83462:1 83463:1 83464:1 83465:1 83466:1 83467:1 83468:1 83469:1 83470:1 83471:1 83472:1 83473:1 83474:1 83475:1 83476:1 83477:1 83478:1 83479:1 83480:1 83481:1 83482:1 83483:1 83484:1 83485:1 83486:1 83487:1 83488:1 83489:1 83490:1 83491:1 83492:1 83493:1 83494:1 83495:1 83496:1 83497:1 83498:1 83499:1 83500:1 83501:1 83502:1 83503:1 83504:1 83505:1 83506:1 83507:1 83508:1 83509:1 83510:1 83511:1 83512:1 83513:1 83514:1 83515:1 83516:1 83517:1 83518:1 83519:1 83520:1 83521:1 83522:1 83523:1 83524:1 83525:1 83526:1 83527:1 83528:1 83529:1 83530:1 83531:1 83532:1 83533:1 83534:1 83535:1 83536:1 
1e-05 5:1 130:1 1266:1 4998:1 5346:1 5462:1 5473:1 5510:1 27665:1 83799:1 83800:1 83801:1 83802:1 83803:1 83804:1 83805:1 83806:1 83807:1 83808:1 83809:1 83810:1 83811:1 83812:1 83813:1 83814:1 83815:1 83816:1 83817:1 83818:1 83819:1 83820:1 
1e-05 5:2 12:1 14:1 66:1 130:1 149:1 154:1 360:3 821:1 840:2 1020:1 1038:1 1261:2 1266:1 1771:1 1801:1 2337:1 2339:1 2468:1 2755:1 2819:1 3140:1 3174:1 3368:1 3430:1 3433:1 4912:1 5346:1 5462:1 5472:1 5473:1 5493:1 5548:1 6223:1 6243:1 9296:1 10382:1 10453:1 15087:1 15904:1 23004:1 24144:1 24169:1 24170:1 24202:1 24203:1 24235:1 28812:1 32714:1 33938:1 35411:1 36188:1 38855:1 45856:1 47008:1 47015:1 47016:1 47034:1 47035:1 47068:1 47105:1 48136:1 50660:1 60176:1 69789:1 69825:1 70652:1 70678:1 81062:1 82371:1 85138:1 89996:1 89997:1 89998:1 89999:1 90000:1 90001:1 90002:1 90003:1 90004:1 90005:1 90006:1 90007:1 90008:1 90009:1 90010:1 90011:1 90012:1 90013:1 90014:1 90015:1 90016:1 90017:1 90018:1 90019:1 90020:1 90021:1 90022:1 90023:1 90024:1 90025:1 90026:1 90027:1 90028:1 90029:1 90030:1 90031:1 90032:1 90033:1 90034:1 90035:1 90036:1 90037:1 90038:1 90039:1 90040:1 90041:1 90042:1 90043:1 90044:1 90045:1 90046:1 90047:1 90048:1 90049:1 90050:1 90051:1 90052:1 90053:1 90054:1 90055:1 90056:1 90057:1 90058:1 90059:1 90060:1 90061:1 90062:1 90063:1 90064:1 90065:1 90066:1 90067:1 90068:1 90069:1 90070:1 90071:1 90072:1 90073:1 90074:1 90075:1 90076:1 90077:1 90078:1 90079:1 90080:1 90081:1 90082:1 90083:1 90084:1 90085:1 90086:1 90087:1 90088:1 90089:1 90090:1 90091:1 90092:1 90093:1 90094:1 90095:1 90096:1 90097:1 90098:1 90099:1 90100:1 
1e-05 130:1 341:1 555:1 2470:1 8206:1 8602:1 15087:1 19664:1 25081:1 25143:1 30112:1 50765:1 84178:1 90101:1 90102:1 90103:1 90104:1 90105:1 90106:1 90107:1 90108:1 90109:1 90110:1 90111:1 90112:1 90113:1 90114:1 90115:1 90116:1 90117:1 90118:1 90119:1 90120:1 90121:1 90122:1 90123:1 90124:1 90125:1 90126:1 90127:1 90128:1 
1e-05 5:2 130:1 149:1 151:2 154:1 156:1 158:1 332:1 334:1 341:1 537:1 703:1 709:1 822:1 834:1 855:1 1023:1 1266:2 1269:2 1771:1 1801:2 2206:1 2727:1 2746:1 5350:2 5398:1 5488:2 5510:2 5530:2 7393:2 7742:1 8102:1 8595:1 9057:1 9131:1 11243:1 15015:1 19017:1 21263:2 26033:2 36337:1 37332:1 38345:1 42691:1 44474:1 51018:2 51711:1 54699:1 56642:1 60826:1 66829:1 67453:1 69647:2 71166:2 71176:2 72070:1 75735:1 87605:1 88499:1 90129:1 90130:1 90131:1 90132:1 90133:2 90134:1 90135:1 90136:2 90137:1 90138:1 90139:1 90140:1 90141:1 90142:1 90143:1 90144:1 90145:1 90146:1 90147:1 90148:1 90149:1 90150:1 90151:1 90152:1 90153:1 90154:1 90155:1 90156:1 90157:1 90158:1 90159:1 90160:2 90161:1 90162:2 90163:1 90164:1 90165:1 90166:1 90167:1 90168:1 90169:1 90170:1 90171:1 90172:1 90173:1 90174:1 90175:1 90176:1 90177:1 90178:1 90179:1 90180:1 90181:1 90182:1 90183:1 90184:1 90185:1 90186:1 90187:1 90188:1 90189:1 90190:1 90191:2 90192:1 90193:1 90194:1 90195:1 90196:1 90197:1 90198:1 90199:1 90200:1 90201:1 90202:1 90203:1 90204:1 90205:1 90206:1 90207:1 90208:1 90209:1 90210:1 90211:1 90212:1 90213:1 90214:1 90215:1 90216:1 90217:1 90218:1 90219:1 90220:1 90221:1 90222:2 90223:2 90224:1 90225:1 90226:1 90227:1 90228:1 90229:1 90230:1 90231:1 90232:1 90233:1 90234:1 90235:1 90236:1 90237:1 90238:1 90239:1 90240:1 90241:1 90242:1 90243:1 90244:1 90245:1 90246:1 90247:1 90248:1 90249:1 90250:1 90251:1 90252:1 
1e-05 23:1 130:1 150:4 151:2 153:1 334:1 360:1 537:1 547:1 839:1 1273:1 1858:1 3619:1 3795:1 3801:1 3821:1 6650:1 7268:1 7698:1 8195:1 9778:1 11072:1 12841:1 17216:1 25023:1 25497:1 30934:1 43780:1 45333:1 46250:1 51393:2 51414:2 56730:1 58634:1 66128:1 66302:1 74077:1 87427:1 90529:1 90530:2 90531:1 90532:1 90533:1 90534:1 90535:1 90536:1 90537:1 90538:1 90539:1 90540:1 90541:1 90542:1 90543:1 90544:1 90545:1 90546:1 90547:1 90548:1 90549:1 90550:1 90551:1 90552:1 90553:1 90554:1 90555:1 90556:1 90557:1 90558:1 90559:1 90560:1 90561:1 90562:1 90563:1 90564:1 90565:1 90566:1 90567:1 90568:1 90569:1 90570:1 90571:1 90572:1 90573:1 90574:1 90575:1 90576:1 90577:1 90578:1 90579:1 90580:1 90581:1 90582:1 90583:1 90584:1 90585:1 90586:1 90587:1 90588:1 90589:1 90590:1 90591:1 90592:1 90593:1 90594:1 90595:1 90596:1 90597:1 90598:1 90599:1 90600:1 90601:1 90602:1 90603:1 90604:1 90605:1 90606:1 90607:1 90608:1 90609:1 90610:1 90611:1 90612:1 90613:1 90614:1 90615:1 90616:1 90617:1 90618:1 90619:1 90620:1 90621:1 90622:1 90623:1 90624:1 90625:1 90626:1 90627:1 90628:1 90629:1 90630:1 90631:1 90632:1 90633:1 90634:1 90635:1 90636:1 90637:1 90638:1 90639:1 90640:1 90641:1 90642:1 90643:1 90644:1 90645:1 90646:1 90647:1 90648:1 90649:1 90650:1 90651:1 90652:1 90653:1 90654:1 90655:1 90656:1 90657:1 90658:1 90659:1 
1e-05 15:1 130:1 154:1 829:2 830:1 1273:1 1303:1 1422:1 3159:1 3625:1 7881:1 8755:1 11395:1 15893:1 17225:1 26589:1 30491:1 30492:1 30512:1 33784:1 36846:1 37092:1 46619:1 47952:1 54696:1 54969:1 56583:1 56584:1 56590:1 56596:1 56597:1 56623:1 90759:2 90760:1 90761:1 90762:2 90763:1 90764:1 90765:1 90766:1 90767:1 90768:1 90769:1 90770:1 90771:1 90772:1 90773:1 90774:1 90775:1 90776:1 90777:1 90778:1 90779:1 90780:1 90781:1 90782:1 90783:1 90784:1 90785:1 90786:1 90787:1 90788:1 90789:1 90790:1 90791:1 90792:1 90793:1 90794:1 90795:1 90796:1 90797:1 90798:1 90799:1 90800:1 90801:1 90802:1 90803:1 90804:1 90805:1 90806:1 90807:1 90808:1 90809:1 90810:1 90811:1 90812:1 90813:1 90814:1 90815:1 90816:1 90817:1 90818:1 90819:1 90820:1 90821:1 90822:1 90823:1 90824:1 90825:1 90826:1 90827:1 90828:1 90829:1 
