svm_type c_svc
kernel_type rbf
gamma 5.95912e-05
nr_class 2
total_sv 2542
rho 0.961627
label 1 0
nr_sv 1205 1337
SV
1 1:0.5 2:0.5 3:0.333333 4:0.166667 5:0.5 6:1 7:1 8:0.25 9:0.333333 10:0.5 11:0.166667 12:0.5 13:0.2 14:0.333333 15:0.25 16:0.25 17:0.666667 18:1 19:1 20:0.5 21:0.5 22:0.5 23:0.166667 24:1 
1 3:0.333333 13:0.2 26:1 27:0.666667 28:0.666667 29:0.333333 30:0.333333 31:0.5 32:0.666667 33:0.333333 34:0.333333 35:0.25 36:0.25 37:1 38:0.5 39:0.666667 40:0.25 41:1 42:1 43:0.333333 44:0.125 45:0.25 46:0.285714 47:0.5 48:0.25 49:0.2 50:0.5 51:0.25 52:0.5 53:0.25 54:1 55:0.25 56:1 57:0.333333 58:0.166667 59:0.333333 60:1 61:0.5 
1 171:0.125 328:0.25 334:0.5 335:0.333333 336:0.333333 337:0.333333 338:0.333333 339:0.333333 340:0.5 341:1 
1 4:0.333333 5:0.5 12:0.5 49:0.2 58:0.333333 64:0.333333 68:0.25 75:0.333333 94:0.4 100:0.2 120:0.25 151:0.333333 172:0.166667 175:0.333333 183:0.4 187:0.333333 194:0.2 206:0.5 273:0.333333 290:0.2 474:0.25 493:0.333333 500:0.5 501:1 502:0.333333 503:0.5 504:1 505:0.4 506:1 507:1 508:0.5 509:0.2 510:0.333333 511:1 512:1 513:0.5 514:1 515:0.5 516:0.5 517:0.5 518:1 519:0.5 520:0.5 521:0.5 522:1 523:0.25 524:0.333333 
1 8:0.25 43:0.333333 68:0.25 75:0.166667 171:0.25 172:0.333333 204:0.25 214:0.5 335:0.333333 425:0.333333 504:1 505:0.4 691:1 692:1 693:0.5 694:1 695:0.25 696:0.25 697:0.5 698:1 699:0.5 700:0.5 701:0.5 702:0.333333 703:0.333333 
1 5:0.5 100:0.2 115:0.166667 153:0.25 219:0.2 304:0.25 328:0.5 373:0.285714 530:0.5 653:0.2 695:0.5 704:1 705:1 706:1 707:0.5 708:1 709:0.5 710:0.5 711:0.5 712:0.166667 
1 29:0.666667 49:0.2 58:0.166667 68:0.25 75:0.166667 100:0.2 118:0.25 151:0.333333 166:0.5 187:0.333333 196:0.25 204:0.5 246:0.5 290:0.4 334:0.5 358:0.333333 373:0.142857 539:0.166667 570:0.166667 593:1 612:0.5 655:1 695:0.5 713:0.333333 714:0.666667 715:1 716:0.2 717:1 718:1 719:1 720:0.5 721:0.5 722:0.5 723:0.5 724:0.333333 
1 5:0.25 53:0.25 91:0.333333 171:0.25 172:0.166667 205:0.333333 214:0.5 219:0.2 339:0.333333 503:0.5 692:0.5 693:1 754:1 755:1 756:0.25 757:0.333333 758:1 759:0.5 760:0.5 761:0.5 762:0.333333 763:1 764:1 765:0.333333 766:0.25 767:0.5 
1 5:0.75 40:0.25 57:0.666667 58:0.166667 59:0.333333 115:0.166667 205:0.333333 214:0.25 500:0.5 539:0.166667 695:0.5 773:1 774:1 775:0.5 776:1 777:1 778:0.5 779:0.5 780:0.5 
1 373:0.142857 539:0.166667 786:0.5 827:0.5 1077:0.5 1078:0.333333 1079:1 1080:0.333333 1081:1 1082:1 
1 12:0.5 22:1 29:0.333333 46:0.142857 161:0.142857 172:0.166667 194:0.2 339:0.333333 348:0.333333 349:0.333333 373:0.142857 474:0.5 539:0.166667 872:0.333333 1148:1 1149:1 1150:1 1151:0.666667 1152:1 1153:1 1154:0.5 1155:1 1156:0.5 1157:1 1158:0.5 
1 70:0.333333 94:0.2 214:0.25 219:0.2 1076:1 1116:0.25 1199:1 1200:1 1201:1 1202:0.5 
1 2:0.5 4:0.166667 11:0.333333 23:0.5 46:0.142857 51:0.5 53:0.25 67:0.333333 75:0.166667 104:0.333333 116:0.333333 149:0.5 151:0.333333 170:0.25 191:1 194:0.2 207:0.5 220:0.2 221:0.25 232:0.666667 318:0.25 386:0.333333 509:0.2 531:0.4 548:0.333333 554:0.75 832:0.5 1002:0.2 1013:0.333333 1085:0.333333 1185:0.666667 1266:0.666667 1267:1 1433:0.5 1458:0.4 1459:1 1460:0.333333 1461:1 1462:1 1463:1 1464:1 1465:0.5 1466:0.333333 1467:0.5 1468:0.5 1469:1 1470:0.5 1471:0.5 1472:0.5 1473:0.5 
1 23:0.333333 49:0.2 51:0.25 116:0.333333 194:0.4 216:0.25 221:0.25 509:0.4 548:0.333333 832:0.5 1085:0.666667 1185:0.666667 1266:0.666667 1267:1 1401:1 1458:0.4 1459:1 1465:0.5 1500:0.5 1512:1 1513:0.5 1514:0.333333 1515:1 1516:1 
1 29:0.333333 249:0.2 419:1 434:0.333333 1124:0.2 1554:0.25 1555:0.5 
1 100:0.2 118:0.25 145:0.5 433:0.333333 785:0.333333 1159:0.5 1556:0.5 1557:0.5 1558:0.25 1559:1 1560:0.5 
1 3:0.333333 30:0.666667 49:0.2 63:0.285714 75:0.166667 100:0.2 157:0.25 172:0.166667 315:0.5 363:0.5 367:0.166667 380:0.333333 385:1 537:0.333333 564:0.5 611:0.2 653:0.4 1089:1 1495:0.333333 1628:0.333333 1677:1 1678:1 1679:0.5 1680:0.5 1681:1 1682:1 1683:1 
1 3:0.333333 17:0.333333 30:1 32:0.333333 49:0.4 55:0.25 63:0.285714 75:0.333333 100:0.4 118:0.5 157:0.25 205:0.333333 269:0.666667 358:0.333333 363:0.5 402:0.333333 537:0.333333 564:0.5 611:0.2 653:0.4 837:0.5 1089:1 1376:0.333333 1495:0.333333 1623:0.25 1628:0.666667 1678:1 1679:1 1683:1 1731:0.5 1732:1 1733:0.333333 1734:1 1735:0.5 
1 30:0.333333 33:0.333333 34:0.333333 38:0.5 42:1 46:0.142857 49:0.2 55:0.25 57:0.333333 70:0.333333 76:0.333333 91:0.333333 100:0.4 115:0.166667 118:0.25 152:0.2 157:0.25 249:0.4 290:0.2 307:0.25 408:0.5 420:0.5 527:1 528:1 529:1 570:0.166667 611:0.4 659:0.5 902:0.125 1760:1 1761:0.5 1762:0.5 1763:1 1764:1 1765:1 1766:0.333333 1767:1 1768:1 1769:0.5 1770:0.5 1771:1 1772:0.5 1773:1 1774:0.5 1775:0.5 1776:1 1777:0.25 1778:1 
1 46:0.142857 110:0.125 358:0.333333 715:1 716:0.2 1084:0.333333 1966:0.5 1967:0.5 
1 17:0.666667 44:0.125 94:0.2 106:0.166667 120:0.25 121:0.166667 172:0.166667 197:0.166667 247:0.4 281:0.333333 287:0.5 288:0.272727 305:0.333333 307:0.25 327:0.333333 392:1 492:0.166667 549:0.666667 1247:0.5 1312:1 1434:1 1519:0.25 1747:0.5 2009:1 2010:0.25 2011:1 2012:1 2013:1 
1 42:1 46:0.142857 61:0.5 89:0.5 106:0.166667 110:0.25 121:0.166667 216:0.25 387:0.5 564:0.166667 653:0.4 771:0.333333 1216:0.5 1373:0.2 1379:0.25 1400:0.333333 1611:0.5 1791:0.5 2083:1 2084:1 2085:1 2086:1 2087:0.5 2088:1 2089:0.333333 2090:0.333333 
1 5:0.25 35:0.5 162:0.2 173:0.25 219:0.2 373:0.142857 398:0.333333 685:0.333333 2082:1 2117:0.5 2118:0.333333 2119:0.5 
1 16:0.25 17:0.333333 22:0.5 23:0.166667 44:0.125 46:0.285714 49:0.2 58:0.166667 118:0.25 172:0.166667 194:0.2 247:0.2 338:0.333333 371:0.2 373:0.142857 401:0.2 426:0.25 474:0.25 531:0.2 591:0.25 613:0.4 665:0.25 687:0.333333 902:0.125 2120:1 2121:1 2122:0.333333 2123:0.5 2124:1 2125:0.5 2126:1 2127:1 2128:0.5 
1 108:0.333333 184:0.2 380:0.333333 503:0.25 855:0.333333 1187:1 1606:0.5 2207:0.333333 2208:0.5 2209:0.333333 2210:0.5 
1 49:0.2 97:0.166667 161:0.285714 418:0.333333 503:0.25 509:0.4 564:0.333333 653:0.2 690:0.5 978:0.333333 1306:0.333333 2183:0.333333 2227:1 2228:1 2229:1 2230:0.5 2231:1 2232:1 
1 106:0.166667 121:0.166667 373:0.142857 502:0.333333 503:0.25 2294:0.333333 2295:1 2296:0.333333 2297:1 2298:0.5 2299:0.333333 2300:0.333333 
1 22:0.5 23:0.166667 53:0.25 197:0.166667 339:0.333333 373:0.285714 434:0.333333 505:0.4 519:0.5 539:0.333333 695:0.5 838:0.333333 1115:0.5 1195:0.5 1904:0.5 2208:0.5 2319:1 2320:0.5 2321:1 2322:1 2323:1 2324:1 
1 5:0.25 49:0.2 72:0.2 73:0.333333 74:0.333333 317:0.5 483:0.5 901:0.2 2400:1 2401:0.5 2402:1 2403:1 2404:0.5 
1 16:0.25 22:0.5 49:0.2 97:0.166667 108:0.333333 118:0.25 125:0.333333 261:0.5 348:0.333333 349:0.333333 367:0.166667 373:0.285714 418:0.333333 436:0.5 504:0.5 618:0.25 780:0.5 800:0.2 801:0.25 1139:0.2 1200:1 1414:0.5 1484:0.5 2405:0.5 2406:1 2407:1 2408:0.5 2409:1 
1 5:0.25 16:0.25 46:0.142857 49:0.2 59:0.333333 77:0.25 95:0.25 110:0.125 118:0.25 135:0.1 151:0.333333 161:0.285714 162:0.2 168:0.166667 172:0.166667 173:0.5 187:0.333333 214:0.25 219:0.2 243:0.222222 251:0.5 269:0.333333 290:0.4 341:1 503:0.25 539:0.666667 547:0.25 594:0.333333 611:0.2 653:0.2 765:0.333333 865:1 872:0.333333 985:0.333333 1020:0.5 1077:0.5 1115:0.5 1193:0.333333 1263:0.666667 1339:1 1346:1 1352:0.5 1699:0.5 1847:0.5 2092:0.5 2496:1 2497:1 2498:0.333333 2499:0.5 2500:0.5 2501:0.25 2502:1 2503:1 2504:1 2505:1 2506:0.333333 2507:0.333333 
1 16:0.25 17:0.333333 35:0.25 39:0.333333 40:0.25 44:0.125 46:0.142857 58:0.166667 75:0.333333 106:0.333333 110:0.125 112:0.333333 121:0.333333 167:0.5 187:0.333333 246:0.5 318:0.25 367:0.166667 373:0.142857 551:0.2 613:0.2 751:0.333333 799:0.333333 865:0.5 913:0.5 947:0.75 1054:0.333333 1131:0.5 1266:0.333333 1320:0.125 1353:0.25 1839:0.25 1985:0.25 2122:0.166667 2510:1 2511:0.5 2512:0.5 2513:1 2514:1 2515:1 2516:1 2517:0.5 2518:0.333333 2519:0.5 
1 8:0.5 42:1 47:0.5 48:0.25 53:0.25 58:0.166667 64:0.666667 95:0.25 98:1 100:0.2 106:0.166667 110:0.125 115:0.333333 117:0.333333 118:0.25 120:0.25 121:0.166667 129:0.25 157:0.25 166:0.5 171:0.125 249:0.4 273:0.333333 290:0.2 312:0.333333 318:0.25 371:0.2 386:0.666667 387:0.5 475:0.333333 865:0.5 1097:1 1128:0.25 1274:0.25 1298:0.5 1711:1 1861:1 2550:0.5 2551:1 2552:1 2553:0.5 
1 5:0.5 12:0.5 13:0.2 49:0.2 94:0.4 151:0.333333 175:0.333333 187:0.333333 219:0.8 297:0.666667 348:0.333333 349:0.333333 373:0.142857 455:0.5 502:0.666667 1139:0.2 1451:0.333333 1461:0.5 1536:0.333333 2640:1 2641:1 2642:1 
1 34:0.333333 35:0.5 46:0.142857 58:0.166667 59:0.333333 100:0.2 109:0.25 151:0.333333 204:0.5 205:0.333333 255:0.5 290:0.2 297:0.333333 367:0.166667 373:0.428571 502:0.333333 531:0.2 799:0.333333 865:0.5 866:0.333333 882:0.666667 912:0.25 1137:0.5 1437:1 1536:0.333333 1707:1 2066:0.5 2659:1 2660:1 2661:1 2662:0.5 2663:0.5 2664:0.5 2665:1 2666:0.5 2667:0.333333 
1 3:0.333333 34:0.333333 55:0.25 57:0.333333 214:0.25 222:0.25 304:0.25 380:0.333333 492:0.166667 531:0.2 653:0.2 695:0.25 705:0.5 751:0.333333 1137:0.5 1712:1 2674:0.5 2675:1 2676:0.5 
1 5:0.25 22:0.5 46:0.142857 135:0.1 219:0.2 373:0.142857 492:0.166667 500:0.5 503:0.25 539:0.166667 695:0.25 713:0.333333 1158:0.5 1182:0.5 1195:0.5 1323:0.333333 2709:0.5 2710:0.5 2711:0.5 2712:1 2713:0.5 2714:1 
1 34:0.333333 175:0.333333 373:0.142857 539:0.166667 635:0.5 687:0.333333 695:0.25 712:0.166667 1346:1 2734:0.5 2735:1 2736:0.125 2737:1 
1 3:0.333333 5:0.25 58:0.166667 61:0.5 100:0.4 106:0.166667 118:0.25 121:0.166667 129:0.25 151:0.333333 167:0.5 171:0.125 181:0.333333 187:0.333333 194:0.2 198:0.166667 219:0.4 222:0.25 486:0.333333 547:0.25 722:0.5 799:0.333333 824:0.5 979:0.333333 1223:0.5 1352:0.5 2279:0.333333 2450:0.5 2864:0.333333 2901:1 2902:1 2903:0.666667 2904:1 2905:1 2906:1 
1 8:0.25 16:0.25 49:0.2 55:0.25 68:0.25 100:0.2 112:0.666667 113:0.285714 114:0.666667 115:0.333333 118:0.25 153:0.25 204:0.5 255:0.5 323:0.5 373:0.142857 500:0.5 505:0.2 655:1 695:0.5 696:0.75 697:0.5 699:1 721:0.5 1159:0.5 1278:0.5 1419:1 2021:0.333333 2569:1 2907:1 2908:1 2909:1 2910:1 
1 17:0.333333 46:0.142857 110:0.125 171:0.125 203:0.25 204:0.25 216:0.25 221:0.25 222:0.25 273:0.333333 404:0.25 489:0.5 492:0.166667 505:0.2 521:0.5 556:0.111111 1163:0.166667 1451:0.666667 1458:0.4 1465:0.5 1698:1 2933:1 2934:0.5 2935:1 2936:1 2937:0.5 2938:1 2939:0.5 
1 5:0.25 12:0.5 13:0.2 40:0.25 44:0.125 49:0.2 68:0.25 72:0.2 73:0.333333 74:0.333333 75:0.333333 76:0.333333 112:0.333333 113:0.285714 114:0.666667 157:0.25 161:0.142857 194:0.2 202:0.333333 219:0.2 290:0.2 326:0.333333 358:0.333333 373:0.285714 593:0.5 686:0.25 694:1 724:0.333333 779:1 931:0.5 1357:0.333333 1401:1 2248:0.5 3260:1 3261:0.333333 3262:0.5 3263:0.5 
1 40:0.25 68:0.25 135:0.1 153:0.5 219:0.2 304:0.25 373:0.285714 503:0.25 594:0.333333 653:0.2 655:1 689:0.5 694:1 695:0.5 705:1 708:1 709:0.5 842:0.5 3292:1 3293:0.5 3294:1 3295:1 3296:1 
1 5:0.25 8:0.25 23:0.166667 49:0.2 91:0.333333 118:0.25 157:0.25 172:0.166667 183:0.2 187:0.333333 194:0.4 214:0.25 509:0.4 539:0.166667 588:0.333333 598:0.2 1078:0.333333 1092:0.5 1215:0.666667 1373:0.2 1716:0.142857 2022:0.333333 3335:1 3336:1 3337:1 3338:1 3339:0.5 3340:0.5 3341:1 3342:0.5 
1 46:0.142857 53:0.25 67:0.333333 91:0.333333 97:0.166667 162:0.2 172:0.166667 197:0.166667 214:0.25 373:0.142857 418:0.333333 547:0.25 916:0.5 1151:0.333333 1195:0.5 1560:0.5 1866:0.5 1949:0.5 2066:0.5 3019:0.5 3346:0.5 3347:0.5 3348:1 3349:1 
1 13:0.2 340:0.5 1010:0.333333 1404:0.333333 3365:0.5 3366:0.5 3367:1 
1 33:1 34:0.333333 40:0.25 42:1 49:0.4 55:0.5 57:0.333333 58:0.5 59:0.333333 68:0.25 110:0.125 115:0.166667 133:0.333333 153:0.25 161:0.142857 247:0.2 249:0.2 253:0.333333 307:0.25 367:0.166667 371:0.2 503:0.25 547:0.25 760:0.5 947:0.25 1034:0.5 1115:1 1484:0.5 1554:0.5 1633:0.5 1761:1 1762:1 1764:0.5 1766:0.166667 1768:1 1774:0.5 1778:1 2213:0.333333 2352:0.333333 3388:1 3389:0.5 3390:0.5 3391:1 3392:1 3393:1 3394:0.5 3395:0.333333 3396:0.25 3397:1 3398:0.5 
1 5:0.5 34:0.333333 42:1 43:0.666667 58:0.166667 75:0.166667 94:0.2 95:0.125 97:0.166667 138:0.333333 153:0.25 161:0.142857 214:0.5 219:0.6 222:0.25 378:0.5 386:0.666667 480:0.166667 695:0.5 978:0.333333 1177:0.2 1946:0.5 2132:0.333333 3399:1 3400:0.333333 3401:1 3402:1 3403:1 
1 5:0.5 49:0.2 75:0.166667 94:0.4 100:0.2 118:0.25 148:0.333333 151:0.333333 171:0.125 187:0.333333 197:0.166667 213:0.333333 231:0.333333 290:0.2 315:0.5 373:0.142857 418:0.333333 488:0.333333 519:1 547:0.25 639:1 651:0.333333 768:1 775:0.5 799:0.333333 1078:0.333333 1159:1 1336:0.5 1404:0.333333 1715:0.5 1716:0.142857 2194:0.5 2814:1 2854:1 3256:1 3442:1 3443:1 3444:1 3445:1 3446:1 3447:1 3448:0.333333 3449:1 3450:1 3451:1 
1 46:0.142857 49:0.4 85:0.333333 94:0.4 118:0.25 187:0.333333 373:0.285714 434:0.333333 505:0.2 587:0.25 714:0.333333 2120:1 2348:1 3256:1 3448:0.333333 3484:0.5 3485:0.666667 3486:0.333333 3487:0.5 3488:0.333333 3489:0.5 
1 49:0.2 51:0.25 68:0.25 94:0.2 95:0.125 99:0.25 197:0.166667 203:0.25 315:0.5 321:1 373:0.285714 576:0.333333 639:0.5 724:0.333333 752:0.25 837:0.5 1054:0.333333 1055:0.333333 1159:0.5 1171:1 1438:1 2814:0.5 2854:0.5 3230:0.5 3256:1 3443:0.5 3444:0.5 3445:0.5 3446:1 3448:0.333333 3484:0.5 3490:1 3491:1 3492:1 
1 5:0.25 8:0.25 13:0.2 16:0.25 58:0.333333 59:0.333333 61:0.5 110:0.125 175:0.333333 219:0.2 281:0.333333 290:0.2 297:0.333333 323:0.5 373:0.142857 380:0.333333 512:1 522:1 752:0.25 799:0.333333 3501:1 3502:1 3503:1 3504:1 
1 5:0.25 46:0.142857 406:0.333333 639:0.5 872:0.333333 1906:0.5 3519:0.5 3520:0.5 
1 34:0.333333 49:0.2 72:0.2 94:0.2 95:0.25 112:0.333333 113:0.285714 114:0.666667 153:0.25 180:1 204:0.25 326:0.333333 373:0.142857 541:0.333333 607:0.5 695:0.25 729:0.25 931:1 1137:0.5 2597:0.5 3529:1 3530:1 3531:0.5 
1 4:0.166667 23:0.166667 34:0.333333 38:0.5 40:0.25 42:1 49:0.2 55:0.25 91:0.333333 113:0.142857 114:0.333333 120:0.25 153:0.25 162:0.2 171:0.125 183:0.2 231:0.333333 257:0.333333 258:0.25 271:0.166667 284:0.5 373:0.142857 531:0.4 539:0.166667 692:0.5 695:0.25 754:1 760:0.5 884:1 1323:0.333333 1331:1 2125:0.5 2167:0.5 3538:1 3539:1 3540:1 3541:0.5 3542:1 3543:1 3544:0.5 
1 5:0.25 29:0.333333 46:0.142857 72:0.2 113:0.142857 114:0.333333 157:0.25 173:0.25 247:0.2 326:0.333333 651:0.333333 773:0.5 822:0.333333 1003:0.5 1124:0.2 1216:0.25 2022:0.333333 2680:0.5 3392:1 3486:0.333333 3605:1 3606:0.5 3607:0.5 3608:0.5 3609:1 3610:1 
1 17:0.333333 29:0.333333 58:0.166667 315:0.5 538:0.5 947:0.25 3694:1 3695:0.5 3696:0.5 
1 172:0.166667 373:0.142857 1686:0.166667 3768:1 3769:0.5 
1 5:0.25 13:0.2 17:0.333333 46:0.142857 48:0.25 58:0.166667 64:0.333333 67:0.333333 70:0.333333 95:0.125 106:0.333333 118:0.25 120:0.25 121:0.333333 161:0.142857 167:0.5 187:0.333333 216:0.25 249:1 269:0.333333 280:1 371:0.2 420:0.25 421:0.333333 509:0.2 523:0.25 547:0.25 548:0.333333 551:0.4 564:0.166667 581:0.25 920:0.333333 921:0.333333 931:0.5 966:0.666667 1002:0.2 1115:0.5 1438:1 1554:1 1761:0.5 1910:0.5 2548:0.333333 3229:1 3513:1 3772:1 3773:0.5 3774:0.5 3775:1 3776:1 3777:1 
1 23:0.166667 35:0.25 58:0.166667 161:0.142857 304:0.25 338:0.333333 358:0.666667 392:1 538:0.5 935:0.333333 939:1 1077:0.5 1116:0.25 1623:0.25 1628:0.333333 2458:0.333333 2516:1 2943:0.25 3486:0.333333 3512:0.5 4019:1 4020:0.5 4021:1 
1 3:0.333333 13:0.2 22:0.5 46:0.142857 58:0.166667 64:0.333333 94:0.2 96:0.2 129:0.25 172:0.166667 385:1 497:0.25 509:0.2 548:0.333333 611:0.6 1002:0.2 1077:0.5 1332:0.333333 1437:0.5 1461:1 1681:1 2096:0.333333 2905:1 3616:0.5 4059:1 4060:1 4061:1 4062:0.5 4063:0.5 4064:1 4065:1 4066:0.5 4067:1 
1 5:0.25 13:0.2 49:0.2 153:0.25 216:0.25 243:0.111111 306:0.25 380:0.333333 381:0.5 467:0.5 486:0.333333 648:0.5 713:0.333333 832:0.5 935:0.333333 1607:0.5 2024:0.5 2587:0.5 4122:1 4123:0.4 4124:0.5 4125:0.5 4126:1 4127:1 
1 8:0.25 43:0.333333 44:0.125 49:0.2 72:0.4 77:0.25 78:0.333333 131:0.25 172:0.166667 243:0.222222 248:0.25 326:0.333333 505:0.2 649:0.5 758:1 1077:0.5 1364:0.5 1378:0.333333 1543:1 2024:1 2200:0.5 3255:0.666667 3512:0.5 4124:0.25 4125:1 4130:0.5 4131:1 
1 5:0.25 8:0.25 49:0.2 58:0.166667 72:0.2 142:1 172:0.166667 187:0.333333 194:0.2 214:0.5 219:0.2 318:0.25 418:0.333333 422:0.2 429:0.333333 488:0.333333 502:0.333333 539:0.333333 726:1 888:0.5 1013:0.333333 1091:0.333333 1117:1 1402:0.5 1416:0.5 1460:0.333333 1736:1 1764:0.5 3348:1 4132:1 4133:0.333333 4134:1 4135:1 
1 29:0.333333 43:0.333333 68:0.25 106:0.166667 127:0.125 243:0.222222 312:0.333333 655:1 694:1 1048:0.142857 1666:0.666667 2024:0.5 3575:0.5 4124:0.25 4125:1 4138:1 4139:1 4140:1 4141:0.5 4142:1 4143:0.5 
1 3:0.666667 49:0.2 68:0.25 75:0.333333 94:0.2 95:0.125 106:0.166667 121:0.166667 135:0.1 307:0.25 315:0.5 373:0.285714 560:0.333333 639:0.5 761:0.5 913:0.5 1239:0.333333 1411:0.5 1433:0.5 1604:0.5 1607:0.5 1706:1 1891:0.5 1999:0.333333 2186:0.666667 2264:0.333333 2814:0.5 2854:1 3256:1 3444:0.5 3445:1 3448:0.666667 3485:0.666667 4144:1 4145:1 
1 9:0.666667 16:0.25 29:0.333333 36:0.25 42:1 45:0.25 49:0.2 75:0.166667 94:0.2 99:0.25 100:0.2 221:0.5 307:0.25 436:0.5 567:0.25 760:0.5 865:0.5 895:0.25 971:0.333333 973:0.666667 1128:0.25 1607:0.5 1863:1 2030:0.5 2031:0.333333 2348:1 4250:1 4251:1 4252:1 4253:1 4254:1 4255:1 4256:1 4257:1 4258:0.5 4259:0.5 4260:1 4261:1 4262:1 4263:1 
1 5:0.25 16:0.25 17:0.333333 30:0.333333 42:1 46:0.142857 58:0.5 95:0.125 100:0.2 112:0.333333 113:0.142857 114:0.333333 120:0.25 155:0.25 187:0.333333 194:0.2 202:0.333333 226:0.2 290:0.4 312:0.333333 318:0.25 328:0.25 340:0.5 373:0.142857 428:0.5 516:0.5 539:0.166667 576:0.333333 651:0.333333 860:0.333333 892:0.333333 1091:0.333333 1225:0.25 1353:0.5 1412:0.25 1491:0.333333 2090:0.333333 2209:0.333333 2734:0.5 2736:0.125 3455:0.333333 3749:1 4383:0.5 4384:1 4385:0.5 4386:1 4387:0.5 4388:0.333333 4389:1 
1 8:0.25 17:0.333333 22:0.5 35:0.5 44:0.125 46:0.142857 53:0.25 110:0.125 161:0.142857 175:0.333333 194:0.4 204:0.5 213:0.333333 214:0.5 219:0.2 231:0.333333 232:0.333333 373:0.142857 465:1 474:0.25 504:0.5 505:0.4 519:0.5 531:0.2 611:0.2 695:0.5 1331:1 1786:0.5 1854:0.333333 2194:0.5 2320:0.5 2364:0.5 2939:0.5 3033:0.5 3671:0.333333 4390:1 4391:1 
1 46:0.142857 51:0.25 94:0.2 106:0.166667 121:0.166667 152:0.2 153:0.25 171:0.125 268:0.333333 281:0.333333 307:0.25 358:0.333333 373:0.285714 505:0.2 563:0.5 639:0.5 765:0.333333 830:0.4 1433:0.5 1570:0.333333 1638:1 1697:1 1700:0.333333 2227:0.5 2520:1 2723:0.333333 2814:1 2854:0.5 3046:0.333333 3256:0.5 3444:0.5 3445:0.5 3448:1 3484:1 3485:0.333333 4392:1 4393:1 
1 2:0.25 4:0.166667 5:0.25 6:0.333333 11:0.166667 49:0.2 94:0.2 153:0.25 219:0.2 1076:1 4394:1 4395:0.25 4396:0.5 
1 3:0.333333 5:0.25 94:0.2 95:0.125 110:0.125 151:0.333333 152:0.2 153:0.25 161:0.142857 171:0.125 180:1 187:0.333333 216:0.25 318:0.25 335:0.333333 373:0.285714 639:0.5 775:0.5 825:1 830:0.2 872:0.333333 1010:0.333333 1013:0.333333 1835:0.5 1946:0.5 2814:0.5 2854:0.5 3256:0.5 3278:0.5 3444:0.5 3445:0.5 3448:0.666667 3484:0.5 4397:1 4398:1 4399:0.5 4400:1 4401:1 4402:1 
1 49:0.2 68:0.25 75:0.333333 100:0.2 151:0.333333 221:0.25 318:0.25 373:0.285714 375:0.5 385:1 519:0.5 525:0.25 537:0.333333 804:1 865:0.5 1136:0.5 1500:0.5 2660:1 2681:0.5 3768:1 4523:1 4524:0.333333 4525:1 4526:1 4527:1 4528:0.5 4529:0.5 4530:1 4531:1 4532:1 4533:0.5 4534:1 
1 13:0.2 23:0.166667 25:1 42:1 46:0.142857 51:0.25 77:0.25 118:0.25 133:0.666667 157:0.25 196:0.25 284:0.5 288:0.181818 290:0.2 307:0.25 369:0.2 402:0.333333 856:0.333333 1320:0.125 1331:1 1352:1 1750:0.666667 1790:0.333333 1907:0.666667 4538:1 4539:0.5 4540:1 4541:0.5 4542:1 4543:1 4544:1 4545:1 4546:1 4547:1 4548:1 4549:1 
1 5:0.25 9:1 11:0.166667 25:1 38:0.5 46:0.285714 49:0.2 55:0.25 68:0.25 76:0.333333 100:0.8 108:0.333333 110:0.125 119:0.5 125:0.333333 145:0.5 152:0.2 153:0.25 161:0.571429 162:0.2 172:0.333333 183:0.2 187:0.333333 216:0.25 243:0.111111 269:0.333333 273:0.666667 290:0.6 328:0.25 339:0.333333 373:0.428571 393:0.5 432:0.5 435:0.5 436:0.5 481:0.5 501:0.5 570:0.166667 703:0.333333 751:0.333333 816:0.5 837:0.5 973:0.666667 979:0.333333 982:0.166667 1010:0.666667 1118:0.333333 1356:0.4 1414:0.5 1419:1 1433:0.5 1622:0.5 1648:1 1856:0.5 2062:0.333333 2299:0.666667 2345:0.5 2499:0.5 3486:0.333333 3822:0.5 4188:1 4559:1 4560:1 4561:1 4562:1 4563:1 4564:1 4565:1 4566:1 4567:0.5 4568:1 4569:0.5 4570:1 
1 3:0.333333 64:0.333333 154:1 166:0.5 198:0.166667 318:0.25 424:1 501:0.5 564:0.166667 575:0.5 724:0.333333 726:0.5 766:0.25 841:1 901:0.2 979:0.333333 1075:0.2 1819:0.5 1820:0.5 2426:0.5 2591:0.5 4598:1 4599:0.5 
1 49:0.2 97:0.166667 100:0.2 138:0.333333 249:0.2 427:0.25 732:0.5 984:1 1044:0.5 1128:0.25 1376:0.333333 1558:0.25 1887:1 2100:0.5 2227:0.5 2322:1 2614:0.333333 2957:0.5 4613:0.5 4614:1 4615:1 
1 666:0.5 668:0.5 4806:1 4807:1 4808:0.5 
1 58:0.166667 425:0.333333 564:0.166667 859:0.333333 1148:1 1353:0.25 2122:0.166667 2620:0.142857 4811:1 
1 3:0.333333 29:0.333333 45:0.25 49:0.2 72:0.2 75:0.166667 94:0.2 106:0.166667 112:0.333333 113:0.285714 114:0.666667 117:0.333333 118:0.25 121:0.166667 133:0.333333 152:0.2 153:0.25 157:0.25 226:0.4 296:1 325:0.5 373:0.285714 639:0.5 752:0.25 935:0.333333 1098:0.25 1284:0.333333 1536:0.333333 1625:0.5 1626:0.5 1706:1 2814:0.5 2854:0.5 3256:1 3262:0.5 3444:0.5 3445:0.5 3448:0.666667 3484:0.5 3485:0.333333 4840:1 4841:0.5 
1 5:0.25 49:0.2 68:0.25 151:0.333333 171:0.25 172:0.166667 187:0.333333 214:0.25 315:0.5 335:0.333333 385:1 409:0.5 500:0.5 503:0.25 505:0.2 533:0.333333 693:1 697:0.5 701:1 1736:1 2277:0.333333 3863:0.333333 4842:1 
1 4:0.166667 106:0.166667 121:0.166667 204:0.75 290:0.2 334:0.5 377:0.5 434:0.333333 440:0.5 549:0.333333 724:0.666667 872:0.666667 3182:0.333333 3455:0.333333 4200:1 4775:1 4843:1 4844:1 4845:1 4846:1 
1 3:0.333333 29:0.333333 34:0.333333 35:0.5 40:0.25 46:0.142857 49:0.2 58:0.166667 59:0.333333 68:0.25 204:0.5 214:0.5 273:0.666667 297:0.666667 315:0.5 373:0.285714 531:0.2 556:0.111111 611:0.2 653:0.2 695:0.5 759:0.5 935:0.333333 1292:0.333333 1433:0.5 1971:1 2364:0.5 2939:0.5 3671:0.333333 4856:1 4857:0.5 4858:1 4859:0.5 
1 3:0.333333 29:0.333333 30:0.333333 40:0.25 42:1 49:0.2 58:0.166667 59:0.333333 135:0.1 152:0.2 153:0.25 204:0.75 205:0.333333 221:0.25 296:1 301:0.333333 373:0.285714 385:1 503:0.25 531:0.2 653:0.2 695:0.5 701:0.5 710:0.5 935:0.333333 3531:0.5 3671:0.333333 4857:0.5 4858:1 4860:1 4861:1 4862:1 4863:1 4864:0.5 
1 5:0.25 219:0.2 687:0.333333 695:0.25 705:0.5 2352:0.333333 4870:1 4871:1 
1 5:0.5 12:0.5 14:0.333333 44:0.125 49:0.2 94:0.6 153:0.25 172:0.333333 194:0.2 212:0.166667 214:0.5 219:0.2 290:0.2 371:0.2 373:0.142857 374:0.5 418:0.333333 474:0.25 505:0.2 547:0.25 695:0.25 705:0.5 1078:0.333333 1555:0.5 2127:1 2405:0.5 3546:0.5 4390:1 5093:1 5094:1 5095:1 5096:1 5097:0.5 
1 75:0.166667 118:0.25 981:0.5 1017:1 1263:0.333333 1555:0.5 2194:0.5 4894:0.5 5098:1 5099:1 
1 5:0.5 44:0.125 46:0.285714 49:0.2 51:0.25 53:0.25 66:0.5 68:0.25 75:0.166667 100:0.2 129:0.25 135:0.1 154:1 166:0.5 197:0.166667 219:0.4 222:0.5 290:0.2 339:0.333333 373:0.285714 404:0.25 409:0.5 699:1 902:0.25 1010:0.333333 1058:0.5 3544:1 3579:0.333333 3728:1 4011:1 4409:0.5 5051:0.5 5100:1 5101:1 5102:1 
1 23:0.166667 45:1 46:0.285714 48:0.25 68:0.25 94:0.2 100:0.2 110:0.125 171:0.125 226:0.2 315:0.5 533:0.333333 564:0.166667 638:0.25 822:0.333333 833:0.5 935:0.333333 970:0.333333 1128:0.25 1404:0.333333 1772:0.5 2203:0.5 3202:0.5 3562:1 4311:1 5108:1 5109:1 5110:0.333333 5111:1 5112:1 5113:1 
1 15:0.25 49:0.2 161:0.285714 162:0.2 226:0.2 243:0.111111 492:0.166667 539:0.166667 939:0.5 1037:0.5 1607:0.5 2277:0.333333 2511:0.5 2512:0.5 3328:0.333333 3725:1 3782:0.5 3783:0.5 3789:1 5116:1 5117:1 
1 15:0.5 49:0.2 58:0.166667 91:0.333333 161:0.142857 162:0.4 243:0.222222 277:0.333333 428:0.5 429:0.333333 492:0.333333 707:0.5 1115:0.5 1327:1 1607:0.5 1866:0.5 3328:0.666667 3782:1 3783:1 3786:1 4133:0.333333 5116:1 5118:1 
1 5:0.25 29:0.333333 34:0.333333 35:0.25 55:0.25 57:0.333333 72:0.2 100:0.2 113:0.142857 114:0.333333 118:0.25 153:0.25 226:0.2 564:0.333333 653:0.2 822:0.333333 1003:0.5 1683:1 2352:0.333333 2839:1 3332:1 3486:0.333333 3605:1 3606:0.5 3607:0.5 3801:0.5 3834:0.5 5184:0.5 5185:1 
1 5:0.25 8:0.25 17:0.333333 23:0.166667 34:0.333333 35:0.25 45:0.25 46:0.142857 49:0.2 55:0.5 64:0.666667 72:0.2 73:0.333333 74:0.333333 75:0.5 76:0.333333 91:0.333333 94:0.4 100:0.2 113:0.142857 114:0.333333 119:0.5 153:0.25 226:0.4 247:0.6 270:1 428:0.5 497:0.25 653:0.4 750:0.333333 799:0.333333 822:1 892:0.333333 954:0.5 1003:1 1168:0.5 1353:0.25 1377:0.333333 2352:0.666667 2364:0.5 3003:0.5 3486:1 3605:1 3607:1 3608:0.5 3610:1 3801:0.5 3834:1 4814:0.5 5184:1 5185:1 5186:1 5187:1 5188:1 5189:1 5190:1 5191:1 5192:1 5193:1 5194:0.5 
1 5:0.25 23:0.166667 46:0.142857 82:0.333333 106:0.5 121:0.5 172:0.166667 197:0.166667 212:0.166667 231:0.666667 261:0.5 262:0.5 290:0.2 547:0.25 578:0.5 721:0.5 1157:1 1305:0.5 1548:0.333333 2364:0.5 2422:0.5 2934:0.5 3132:0.5 3481:1 4054:0.5 4205:1 4266:1 5097:0.5 5319:1 5320:1 5321:1 5322:1 5323:1 5324:0.5 5325:1 5326:1 5327:1 5328:0.333333 
1 23:0.166667 29:0.333333 49:0.2 100:0.4 112:0.333333 113:0.142857 114:0.333333 197:0.333333 214:0.5 304:0.25 315:1 325:0.5 326:0.333333 373:0.142857 529:1 538:0.5 539:0.166667 653:0.2 695:0.5 701:1 707:0.5 775:0.5 1052:0.5 1077:0.5 1451:0.666667 2330:0.333333 3832:1 4443:1 4818:0.5 5345:1 5346:0.5 5347:1 
1 5:0.25 8:0.25 12:0.5 46:0.142857 94:0.2 106:0.5 121:0.5 194:0.2 214:0.5 219:0.4 222:0.5 447:0.5 477:0.5 492:0.166667 693:0.5 695:0.25 755:1 756:0.5 757:0.333333 763:1 1364:0.5 1416:0.5 1457:0.25 1736:1 3342:0.5 4139:0.5 5322:1 5366:1 5367:1 
1 5:0.5 46:0.142857 58:0.333333 68:0.5 108:0.333333 132:0.666667 155:0.25 172:0.166667 175:0.333333 197:0.166667 214:0.25 219:0.4 222:0.25 304:0.25 348:0.333333 349:0.333333 373:0.142857 503:0.25 674:0.333333 695:0.5 705:1 712:0.333333 1078:0.333333 1134:0.333333 1315:0.5 1814:0.5 2364:0.5 3240:1 5368:1 5369:1 5370:1 5371:1 
1 5:0.5 29:0.333333 45:0.25 68:0.5 77:0.25 100:0.2 112:0.666667 113:0.285714 114:0.666667 115:0.166667 151:0.333333 203:0.25 214:0.5 216:0.5 219:0.2 222:0.25 273:0.333333 304:0.25 315:0.5 318:0.25 373:0.142857 576:0.333333 651:0.333333 653:0.2 694:1 695:0.5 705:0.5 799:0.333333 830:0.4 837:0.5 1134:1 3262:1 5402:1 5403:1 5404:1 5405:1 
1 34:0.333333 36:0.25 42:1 47:0.5 49:0.2 94:0.2 95:0.125 96:0.2 97:0.166667 100:0.2 106:0.166667 112:0.333333 113:0.142857 114:0.333333 115:0.5 121:0.166667 150:0.285714 151:0.333333 161:0.142857 171:0.125 173:0.25 187:0.333333 219:0.4 290:0.4 302:0.5 334:0.5 386:0.666667 476:0.5 510:0.666667 576:0.333333 602:0.5 611:0.2 618:0.25 637:0.666667 731:1 740:0.5 1013:0.666667 1077:0.5 1625:0.5 1626:0.5 1700:0.166667 2248:0.166667 2258:0.5 3262:0.5 4648:0.5 4727:0.5 5642:0.5 5643:1 5644:1 5645:1 
1 44:0.25 95:0.125 118:0.25 127:0.125 198:0.166667 206:1 505:0.2 547:0.25 618:0.5 771:0.333333 1007:0.2 1160:0.333333 1162:0.5 1593:0.5 1885:0.25 2405:0.5 2733:0.5 3081:0.5 3270:1 3286:1 3687:0.5 5663:0.5 5664:0.5 
1 49:0.2 75:0.166667 196:0.25 243:0.333333 290:0.2 515:1 1122:0.333333 1303:0.5 1573:0.2 1775:0.5 1834:1 1845:0.333333 2088:1 2480:0.5 3185:0.5 3671:0.333333 3879:0.5 3982:1 5684:0.5 5685:1 5686:1 5687:1 5688:0.333333 
1 4:0.166667 13:0.2 14:0.666667 29:0.333333 35:0.25 44:0.125 68:0.25 94:0.6 110:0.125 152:0.2 153:0.25 161:0.142857 162:0.4 167:0.5 172:0.333333 175:0.666667 187:0.333333 219:0.2 280:0.5 373:0.142857 374:0.5 492:0.166667 635:0.5 653:0.2 655:1 1128:0.25 1332:0.666667 1402:0.5 1461:1 2216:0.5 4064:1 4214:0.333333 5757:1 5758:1 5759:1 5760:1 5761:0.5 
1 5:0.25 14:0.333333 35:0.25 58:0.166667 135:0.1 219:0.2 226:0.2 305:0.333333 328:0.25 358:0.333333 373:0.285714 473:1 492:0.166667 591:0.25 653:0.2 706:0.5 758:1 979:0.333333 1194:1 1985:0.25 2492:0.5 3328:0.666667 4063:1 5762:1 5763:1 5764:1 5765:1 5766:1 
1 49:0.2 68:0.25 75:0.166667 125:0.333333 135:0.1 161:0.142857 171:0.125 221:0.25 373:0.285714 492:0.333333 687:0.666667 695:0.5 800:0.2 913:0.5 1115:1 1116:0.25 1315:0.5 1323:0.333333 1402:0.5 1446:1 2260:0.2 2736:0.125 5437:1 5571:0.5 5860:1 5861:1 5862:1 
1 17:0.333333 49:0.2 99:0.25 100:0.2 106:0.333333 110:0.125 121:0.333333 131:0.25 151:0.333333 154:1 157:0.25 166:0.5 173:0.25 247:0.2 271:0.166667 358:0.333333 406:0.333333 539:0.166667 549:0.333333 732:0.5 993:0.333333 1013:0.333333 1080:0.333333 1242:1 1276:0.25 1320:0.125 1416:1 1417:0.5 1512:0.333333 1540:0.5 2364:0.5 2517:0.5 3103:0.5 3220:0.5 3333:0.5 3822:0.5 3985:0.5 5872:1 5873:0.5 5874:1 5875:1 5876:1 5877:0.5 
1 35:0.5 49:0.2 58:0.166667 75:0.166667 82:0.333333 99:0.5 100:0.2 110:0.125 113:0.142857 114:0.333333 131:0.25 133:0.333333 166:0.5 187:0.333333 221:0.25 240:0.5 295:0.333333 380:0.333333 406:0.333333 549:0.333333 587:0.25 593:0.5 634:1 653:0.2 711:0.5 973:1 1088:1 1124:0.2 1536:0.333333 1790:0.333333 3126:0.333333 3468:0.333333 4118:1 4931:1 5615:0.5 
1 334:0.5 371:0.2 486:0.333333 492:0.166667 4806:1 4807:1 4808:0.5 5881:0.5 
1 5:0.25 8:0.25 17:0.666667 25:1 44:0.125 58:0.666667 67:0.333333 75:0.333333 106:0.666667 121:0.666667 131:0.25 161:0.142857 171:0.125 197:0.166667 249:0.2 339:0.333333 418:0.333333 497:0.25 533:0.333333 547:0.25 549:0.333333 551:0.4 554:0.25 641:0.333333 765:0.333333 771:0.333333 1084:0.333333 1129:0.25 1200:1 3158:0.5 3455:0.333333 4176:0.5 4811:1 5265:1 5810:0.5 5892:1 5893:0.5 5894:1 5895:0.5 5896:1 5897:1 5898:1 5899:0.5 
1 5:0.25 49:0.2 135:0.1 153:0.25 334:0.5 503:0.25 594:0.333333 602:0.5 655:1 689:0.5 695:0.25 705:0.5 710:0.5 842:0.5 1623:0.25 3293:0.5 3296:1 5368:1 5957:1 
1 4:0.333333 46:0.142857 49:0.2 68:0.25 118:0.75 129:0.5 131:0.25 175:0.333333 183:0.2 187:0.333333 189:0.25 214:0.25 220:0.4 334:0.5 358:0.333333 386:0.333333 503:0.25 721:0.5 1010:0.333333 1117:1 1278:0.5 1450:1 1460:0.333333 1906:0.5 2066:1 2666:0.5 3616:0.5 4060:0.5 4432:0.666667 5970:0.5 
1 13:0.2 44:0.125 75:0.166667 110:0.125 112:0.333333 247:0.2 367:0.166667 380:0.333333 500:0.5 533:0.333333 592:0.333333 618:0.25 746:0.5 751:0.333333 795:0.25 819:0.333333 1126:0.25 1436:0.5 1622:0.5 1856:0.5 1885:0.25 2161:1 2368:0.333333 2441:0.5 2951:0.333333 3219:0.5 3255:0.333333 5971:1 5972:1 5973:0.5 5974:1 5975:0.25 5976:1 5977:1 
1 5:0.25 8:0.5 30:0.666667 49:0.2 67:0.333333 75:0.166667 100:0.2 157:0.25 171:0.125 175:0.333333 249:0.2 373:0.142857 474:0.25 476:1 503:0.5 726:0.5 1457:0.5 1716:0.142857 1736:1 2710:1 3054:0.333333 3340:0.5 3502:1 5793:0.5 5848:0.333333 6010:1 6011:1 6012:0.25 
1 8:0.25 16:0.25 28:0.333333 29:0.666667 40:0.5 42:1 44:0.125 46:0.142857 48:0.25 53:0.25 55:0.25 58:0.166667 75:0.333333 76:0.333333 95:0.25 100:0.2 115:0.166667 135:0.1 145:0.5 152:0.2 153:0.25 157:0.25 161:0.285714 172:0.166667 280:0.5 290:0.4 326:0.666667 328:0.25 373:0.142857 475:0.333333 492:0.166667 541:0.666667 547:0.25 549:0.333333 591:0.25 645:1 653:0.2 712:0.166667 830:0.2 882:0.333333 947:0.25 1010:0.333333 1075:0.2 1092:0.5 1125:0.5 1292:0.333333 1415:1 1638:1 1871:0.5 1954:0.333333 2020:0.333333 2041:0.333333 2364:0.5 2458:1 2588:0.5 2601:0.5 3395:0.666667 3530:0.5 3624:0.5 4283:0.4 4389:1 4447:1 4983:1 5870:1 6034:1 6035:0.5 6036:1 6037:1 6038:1 6039:1 6040:1 6041:1 6042:1 6043:1 6044:0.5 6045:1 
1 5:0.5 12:0.5 13:0.2 14:0.333333 58:0.166667 59:0.333333 94:0.6 95:0.125 172:0.166667 214:0.25 219:0.8 222:0.25 348:0.333333 349:0.333333 380:0.333333 386:0.666667 500:0.5 695:0.5 705:1 1115:0.5 1489:1 1949:0.5 2405:0.5 3345:1 3863:0.333333 4139:0.5 4833:0.5 
1 75:0.166667 108:0.333333 155:0.25 172:0.166667 187:0.666667 194:0.2 206:0.5 232:0.333333 249:0.4 321:1 363:0.5 364:0.5 373:0.285714 418:0.333333 477:0.5 503:0.25 505:0.4 547:0.25 693:1 1139:0.2 1555:0.5 1904:1 1949:1 2022:0.333333 2192:0.5 2194:0.5 2634:0.5 3033:0.5 5097:0.5 6048:1 6049:1 6050:1 6051:0.5 6052:0.5 6053:1 
1 16:0.5 21:0.5 44:0.125 49:0.2 75:0.166667 94:0.4 110:0.25 120:0.25 170:0.5 172:0.166667 197:0.333333 204:0.25 313:0.333333 358:0.333333 401:0.4 460:0.333333 475:0.333333 500:0.5 503:0.25 505:0.4 594:0.333333 695:0.25 860:0.333333 966:1 1162:0.5 1433:0.5 1790:0.333333 2215:0.5 2220:0.5 2614:0.333333 2980:0.333333 3412:0.5 4548:1 6050:1 6054:1 6055:1 6056:1 6057:1 6058:1 6059:1 6060:1 6061:1 
1 16:0.25 51:0.25 106:0.333333 121:0.333333 288:0.0909091 314:0.25 503:0.25 714:0.333333 807:0.5 947:0.25 1013:0.333333 1946:0.5 1991:0.5 2946:0.5 4623:0.5 4921:1 6094:0.5 6095:1 6096:1 
1 197:0.166667 304:0.25 305:0.333333 813:1 911:0.111111 1779:0.5 6098:1 6099:1 
1 5:0.5 13:0.2 17:0.333333 28:0.333333 40:0.5 43:0.333333 44:0.125 46:0.142857 49:0.2 67:0.333333 94:0.2 95:0.125 106:0.333333 118:0.25 121:0.333333 187:0.666667 273:0.333333 280:0.5 281:0.333333 290:0.2 312:0.333333 313:0.666667 330:0.5 338:0.333333 503:0.25 538:0.5 547:0.25 574:0.5 578:0.5 639:0.5 724:0.333333 947:0.5 1052:0.5 1353:0.25 1747:0.5 2028:0.666667 2469:0.5 2470:0.5 2546:0.4 3040:0.666667 3237:0.333333 3389:0.5 4304:0.5 4306:0.5 4307:0.5 6104:1 6105:0.5 6106:1 6107:1 6108:1 
1 95:0.125 97:0.166667 639:0.5 765:0.333333 786:0.5 2227:0.5 2736:0.125 2798:0.5 3608:0.5 3697:0.5 4953:1 6140:1 
1 3:0.333333 34:0.333333 63:0.142857 86:0.333333 380:0.333333 564:0.166667 588:0.333333 611:0.2 653:0.2 707:0.5 1331:1 1677:1 1678:0.333333 1679:0.5 1680:0.5 
1 5:0.75 13:0.2 46:0.142857 49:0.2 115:0.166667 157:0.25 172:0.166667 183:0.2 194:0.2 306:0.25 418:0.333333 539:0.166667 547:0.25 612:0.25 702:0.666667 713:0.333333 902:0.125 912:0.25 1080:0.333333 1130:0.5 1236:0.333333 1298:0.5 1450:1 1716:0.142857 1946:0.5 2234:1 3283:0.333333 5097:0.5 5116:0.5 5973:1 6172:1 6173:1 6174:1 6175:1 6176:1 
1 58:0.333333 75:0.166667 146:0.333333 187:0.333333 194:0.2 246:0.5 334:0.5 373:0.142857 488:0.333333 567:0.25 1654:0.5 2234:1 2860:1 4674:1 5497:1 5530:0.5 6178:1 6179:1 
1 16:0.25 23:0.166667 44:0.125 49:0.2 58:0.333333 231:0.666667 246:0.5 288:0.0909091 373:0.285714 446:0.333333 533:0.666667 1158:0.5 1654:1 2392:1 2393:1 2584:1 2648:1 2851:0.5 2854:0.5 2860:1 3412:0.5 3431:1 5497:1 5498:1 5500:1 
1 5:0.25 23:0.166667 35:0.25 44:0.125 46:0.142857 51:0.25 68:0.5 70:0.666667 75:0.333333 95:0.375 100:0.2 110:0.125 125:0.666667 133:0.333333 135:0.1 152:0.2 153:0.25 171:0.125 172:0.166667 197:0.166667 219:0.2 287:0.25 290:0.4 327:0.333333 334:0.5 373:0.428571 492:0.166667 493:0.333333 527:1 528:1 529:1 530:0.5 547:0.25 570:0.166667 593:0.5 611:0.2 625:1 641:0.333333 674:0.333333 789:0.333333 912:0.75 1010:0.333333 1013:0.333333 1059:0.25 1116:0.25 1258:0.5 1328:0.333333 1362:0.5 1644:0.5 1698:1 1787:1 1914:0.333333 1969:0.25 2072:0.25 2167:0.5 2395:0.5 2506:0.666667 2660:1 3062:0.5 3205:1 3278:0.5 4267:0.2 4275:0.666667 4443:1 4529:0.5 5804:1 6219:1 6220:1 6221:1 6222:1 6223:0.5 6224:1 6225:1 
1 3:0.333333 13:0.2 29:0.333333 43:0.333333 46:0.142857 48:0.5 49:0.2 67:0.333333 94:0.2 187:0.666667 198:0.166667 363:0.5 492:0.166667 509:0.4 531:0.2 908:0.333333 1010:0.333333 1013:0.333333 1332:0.333333 1417:0.5 1743:0.333333 2344:1 2722:0.5 2897:0.5 3181:0.5 3278:0.5 3491:1 4100:1 4671:0.5 4917:1 6250:1 6251:1 6252:1 6253:1 6254:0.5 6255:1 6256:0.5 
1 3:0.333333 13:0.2 46:0.142857 72:0.2 75:0.333333 79:0.5 95:0.125 100:0.2 106:0.166667 113:0.142857 114:0.333333 121:0.166667 140:0.25 153:0.25 172:0.166667 196:0.25 219:0.2 287:0.25 288:0.181818 295:0.333333 304:0.5 305:0.333333 307:0.25 327:0.333333 336:0.333333 367:0.166667 420:0.25 421:0.333333 489:0.5 498:1 551:0.2 564:0.166667 751:0.333333 765:0.333333 766:0.25 800:0.8 901:0.6 908:0.333333 911:0.111111 913:0.5 1102:0.25 1379:0.25 1697:1 1823:0.5 2436:1 4168:1 5332:1 6261:1 6262:0.5 6263:1 6264:1 
1 3:0.333333 8:0.25 17:0.333333 22:1 44:0.25 46:0.142857 49:0.2 53:0.75 67:0.333333 75:0.333333 95:0.125 99:0.25 106:0.166667 120:0.25 121:0.166667 131:0.25 157:0.75 161:1 194:0.2 197:0.166667 211:0.166667 246:0.5 247:0.2 281:0.333333 312:0.333333 314:0.25 318:0.75 328:0.25 330:0.5 338:0.666667 358:1 364:0.5 373:0.857143 380:0.333333 386:0.666667 401:0.2 427:0.25 497:0.25 509:0.4 539:0.166667 541:0.333333 556:0.111111 570:0.166667 612:0.25 687:0.333333 765:0.333333 830:0.2 894:0.333333 913:0.5 1010:0.666667 1059:0.25 1066:1 1067:1 1069:0.5 1087:0.333333 1118:0.333333 1122:0.333333 1126:0.5 1150:0.5 1151:0.666667 1225:0.5 1308:0.666667 1401:1 1402:0.5 1419:1 1605:0.5 1721:0.333333 2122:0.333333 2132:0.333333 2264:0.333333 2317:0.5 2958:0.5 2974:1 3026:0.666667 3202:1 3651:1 4163:1 5183:1 5878:0.333333 6100:0.5 6278:1 6279:0.8 6280:1 6281:1 6282:0.5 6283:0.5 6284:1 6285:1 6286:1 6287:1 
1 8:0.5 13:0.2 17:0.333333 43:0.333333 44:0.125 58:0.333333 94:0.4 100:0.2 110:0.125 115:0.333333 120:0.25 166:0.5 171:0.125 172:0.166667 178:0.333333 290:0.4 304:0.25 373:0.428571 418:0.333333 457:0.5 492:0.5 510:0.333333 541:0.333333 653:0.2 713:0.333333 724:0.333333 751:0.333333 909:0.428571 1075:0.2 1151:0.333333 1286:1 1303:0.5 1555:0.5 1617:0.5 2121:0.5 2426:0.5 2431:0.5 2943:0.5 6311:1 6312:1 
1 32:0.333333 40:0.5 44:0.125 46:0.142857 49:0.2 57:0.333333 75:0.166667 86:0.333333 97:0.166667 115:0.166667 118:0.25 131:0.25 152:0.2 297:0.333333 306:0.25 418:0.333333 492:0.166667 501:0.5 581:0.25 724:0.333333 1098:0.25 1118:0.333333 1151:0.333333 1480:0.5 1623:0.25 1991:0.5 2203:0.5 2276:0.5 2511:0.5 2512:0.5 2778:0.5 3671:0.333333 3785:1 3801:0.5 3865:0.5 4372:0.333333 6352:1 6353:1 6354:0.5 
1 16:0.25 46:0.142857 58:0.166667 172:0.166667 197:0.166667 613:0.2 3431:1 6356:0.333333 
1 5:0.5 17:0.333333 40:0.25 49:0.2 304:0.25 334:0.5 367:0.333333 373:0.142857 539:0.166667 639:0.5 653:0.2 762:1 912:0.75 1362:0.5 1604:0.5 1911:0.666667 2655:0.333333 2782:0.5 2937:1 3300:0.666667 3455:0.333333 3741:1 4530:1 4531:1 6182:0.5 6366:1 6367:1 6368:0.333333 6369:1 
1 5:0.5 8:0.25 46:0.142857 48:0.25 49:0.2 82:0.666667 175:0.333333 194:0.2 211:0.166667 290:0.2 503:0.5 509:0.2 543:0.5 596:0.5 674:0.333333 1352:1 2020:0.333333 2148:0.666667 2234:1 2299:0.333333 2606:1 3222:0.5 3250:1 3352:0.666667 3697:0.5 6373:1 6374:0.333333 6375:1 
1 8:0.25 28:0.333333 40:0.25 49:0.2 58:0.166667 64:0.666667 67:0.333333 75:0.166667 95:0.125 115:0.166667 172:0.166667 231:0.333333 287:0.5 288:0.181818 334:0.5 373:0.142857 374:0.5 959:0.5 1654:1 1819:0.5 1880:0.5 2234:0.5 2851:0.5 4932:1 5497:1 6409:1 6410:1 6411:1 6412:1 
1 5:0.25 8:0.25 17:0.333333 28:0.333333 29:0.333333 49:0.2 64:0.333333 95:0.125 151:0.333333 152:0.2 155:0.25 169:0.5 187:0.333333 194:0.2 288:0.181818 317:1 326:0.333333 328:0.25 492:0.166667 655:1 705:0.5 713:0.333333 911:0.111111 912:0.25 2234:1 2372:0.5 5153:0.666667 6413:1 6414:0.5 6415:1 6416:1 6417:1 6418:0.5 6419:1 
1 22:0.5 94:0.2 110:0.25 118:0.25 121:0.166667 194:0.2 288:0.181818 307:0.25 434:0.666667 474:0.25 492:0.333333 547:0.25 584:0.2 647:0.5 714:0.333333 1039:0.5 1057:0.333333 1555:0.5 1623:0.25 1710:0.333333 2090:0.333333 2194:0.5 3633:1 4147:1 4148:1 6424:1 
1 8:0.25 13:0.2 32:0.666667 46:0.142857 58:0.166667 61:0.5 75:0.166667 77:0.25 94:0.2 112:0.333333 118:0.25 172:0.166667 197:0.166667 246:0.5 247:0.2 304:0.5 572:0.25 579:0.5 653:0.2 1040:0.5 2301:1 3801:0.5 4371:0.5 6354:0.5 6455:0.5 6456:1 
1 23:0.166667 49:0.2 99:0.25 100:0.2 133:0.333333 157:0.25 367:0.166667 387:0.5 587:1 982:0.166667 1087:0.333333 1158:0.5 2186:0.666667 2227:0.5 2264:0.333333 2352:0.333333 2368:0.333333 2825:0.333333 2918:0.5 3903:1 5417:0.5 6467:1 
1 8:0.25 17:0.333333 35:0.25 49:0.2 58:0.166667 145:0.5 157:0.25 206:0.5 219:0.4 290:0.2 327:0.333333 336:0.333333 348:0.333333 349:0.333333 371:0.2 389:0.5 492:0.166667 611:0.2 739:0.666667 745:0.5 909:0.142857 1139:0.2 1282:0.333333 1620:0.25 1623:0.25 5669:1 
1 17:0.333333 97:0.166667 118:0.25 1020:0.5 1291:0.333333 1554:0.25 1573:0.2 
1 12:0.5 16:0.5 17:0.333333 46:0.285714 49:0.2 120:0.25 153:0.5 162:0.4 194:0.4 213:0.333333 214:0.75 232:0.333333 290:0.2 371:0.4 472:1 474:0.5 547:0.25 549:0.333333 695:0.5 752:0.25 771:0.333333 985:0.333333 1071:0.333333 1139:0.2 1549:0.5 1555:0.5 2634:0.5 2680:1 2709:1 2710:1 4331:1 5097:0.5 5322:1 5645:1 6508:1 
1 5:0.25 29:0.333333 36:0.25 46:0.142857 49:0.2 57:0.666667 58:0.333333 91:0.333333 108:0.333333 110:0.125 118:0.25 120:0.25 135:0.1 171:0.25 214:0.25 219:0.2 220:0.2 276:1 290:0.2 304:0.25 373:0.142857 503:0.25 760:1 761:1 1118:0.333333 1334:0.5 2843:1 3154:0.25 3847:0.5 5162:0.5 5816:1 6509:1 6510:1 6511:1 6512:1 
1 5:0.25 57:0.666667 108:0.333333 135:0.1 161:0.142857 171:0.25 214:0.25 348:0.333333 349:0.333333 366:0.5 702:0.333333 703:0.333333 760:0.5 761:0.5 1139:0.2 1298:0.5 1299:0.5 1402:0.5 1648:0.5 3154:0.25 3847:0.5 6509:1 6518:1 6519:1 
1 5:0.25 36:0.25 42:1 97:0.166667 100:0.2 106:0.166667 108:0.333333 110:0.125 121:0.166667 140:0.25 149:0.5 290:0.4 318:0.25 334:0.5 373:0.142857 503:0.25 659:0.5 761:1 1334:0.5 1554:0.5 1710:0.333333 2553:0.5 3081:0.5 3847:0.5 4604:0.5 6509:1 6520:1 
1 5:0.25 29:0.333333 58:0.166667 91:0.333333 97:0.166667 135:0.3 151:0.333333 157:0.25 171:0.25 172:0.166667 290:0.2 367:0.166667 373:0.142857 376:0.5 392:1 409:0.5 503:0.25 607:0.5 703:0.333333 760:0.5 1118:0.333333 1334:0.5 1716:0.142857 2120:1 2352:0.333333 2363:0.5 3847:1 6509:1 6519:1 6528:0.5 6529:1 
1 16:0.25 30:0.333333 46:0.142857 94:0.2 95:0.125 107:1 110:0.25 129:0.25 135:0.1 141:0.333333 170:0.25 206:0.5 290:0.2 318:0.25 366:0.5 373:0.142857 409:0.5 471:0.333333 497:0.25 503:0.25 529:1 659:0.5 743:1 761:0.5 982:0.166667 1856:0.5 2020:0.333333 2022:0.333333 2088:1 2107:0.5 2283:0.5 2352:0.333333 3367:1 3832:1 3847:0.5 4478:0.5 6530:1 
1 3:0.666667 4:0.166667 8:0.25 13:0.2 16:0.25 23:0.166667 46:0.142857 51:0.25 58:0.166667 75:0.166667 95:0.125 128:0.5 172:0.166667 178:0.333333 249:0.4 328:0.25 380:0.333333 389:0.5 576:0.333333 720:0.5 724:0.333333 1139:0.2 1164:0.2 1256:1 1372:0.5 1563:1 1750:0.333333 1871:0.5 1966:0.5 2760:1 3307:1 4319:0.5 4320:0.5 4588:0.4 5161:0.666667 6554:1 6555:1 6556:1 6557:1 6558:1 6559:1 
1 46:0.142857 72:0.2 95:0.125 99:0.25 100:0.2 113:0.142857 114:0.333333 118:0.25 166:0.5 288:0.181818 587:0.25 647:0.5 799:0.333333 1039:0.25 1087:0.333333 1118:0.333333 1203:0.2 1323:0.333333 1608:0.5 3081:0.5 3854:0.5 6560:0.5 6561:1 6562:1 6563:0.25 6564:0.5 
1 8:0.25 44:0.25 49:0.2 110:0.125 115:0.166667 151:0.666667 152:0.2 153:0.25 161:0.142857 214:0.5 287:0.5 288:0.181818 304:0.5 305:0.666667 307:0.25 554:0.5 560:0.333333 1037:0.5 1185:0.333333 1433:0.5 1512:0.333333 1747:0.5 2757:0.5 3123:0.333333 3124:0.25 3455:0.666667 3769:1 5322:1 6565:1 6566:1 
1 13:0.2 16:0.25 34:0.333333 42:1 49:0.2 94:0.2 100:0.2 110:0.125 131:0.25 151:0.333333 152:0.4 153:0.25 221:0.5 281:0.333333 287:0.25 288:0.272727 300:0.333333 304:0.25 305:0.333333 366:0.5 367:0.166667 371:0.2 386:0.333333 401:0.4 533:0.333333 598:0.2 706:1 899:1 911:0.222222 1128:0.25 1190:0.333333 1428:0.333333 1433:0.5 1660:0.333333 1994:0.333333 2021:0.666667 2355:0.333333 3546:0.5 5617:1 6585:1 6586:1 6587:1 6588:1 6589:0.5 6590:1 6591:1 6592:1 
1 46:0.428571 72:0.4 113:0.285714 114:0.666667 288:0.0909091 428:0.5 439:1 588:1 632:1 800:0.2 1124:0.2 1623:0.25 1859:0.333333 1897:0.5 5183:0.666667 5280:0.333333 6614:1 6615:1 6617:0.5 6621:0.666667 6622:0.5 
1 55:0.25 73:0.333333 74:0.333333 76:0.333333 100:0.2 112:0.333333 115:0.166667 152:0.2 318:0.25 406:0.333333 427:0.5 455:0.25 533:0.333333 570:0.166667 727:0.5 837:0.5 895:0.25 1077:0.5 1098:0.25 1104:0.5 1159:0.5 1254:1 1405:0.5 1493:0.5 1510:1 1545:0.166667 1772:0.5 1963:0.333333 1969:0.5 2617:0.333333 2688:1 2946:0.5 3272:0.5 3834:0.5 4430:0.5 5166:1 6639:0.333333 6640:1 6641:1 6642:1 6643:1 6644:1 6645:1 6646:1 6647:0.5 
1 94:0.2 100:0.4 120:0.25 133:0.333333 197:0.166667 219:0.4 373:0.285714 386:0.666667 529:1 693:0.5 701:0.5 705:0.5 713:0.333333 799:0.333333 837:0.5 1334:0.5 2349:0.333333 2352:0.333333 3284:1 3863:0.333333 
1 5:0.25 8:0.25 23:0.166667 94:0.2 99:0.25 100:0.4 106:0.166667 110:0.125 120:0.25 121:0.166667 166:0.5 172:0.166667 187:0.333333 204:0.25 214:0.25 222:0.25 246:0.5 273:0.333333 290:0.2 328:0.25 404:0.25 406:0.333333 413:1 505:0.2 549:0.333333 582:1 674:0.333333 695:0.5 705:0.5 716:0.2 729:0.25 1403:0.333333 1460:0.333333 1790:0.333333 1904:0.5 2065:0.5 2131:0.5 2264:0.333333 2757:0.5 3813:0.5 3863:0.333333 6685:1 6686:1 6687:1 6688:1 6689:1 6690:1 6691:0.5 6692:1 6693:1 
1 100:0.2 216:1 281:0.333333 334:0.5 373:0.142857 693:0.5 717:1 987:1 1118:0.333333 1750:0.333333 2090:0.333333 2478:0.25 3269:1 4037:1 4139:0.5 4383:0.5 6695:1 6696:1 
1 5:0.25 13:0.4 22:0.5 52:0.5 75:0.166667 94:0.2 172:0.166667 213:0.333333 214:0.25 219:0.2 253:0.333333 290:0.2 373:0.142857 474:0.25 492:0.166667 674:0.333333 695:0.25 705:0.5 959:1 1037:0.5 1323:0.333333 1949:1 2405:0.5 3863:0.666667 4139:0.5 5096:1 5097:0.5 6424:1 6697:1 6698:1 6699:1 6700:1 
1 5:0.5 8:0.25 43:0.333333 44:0.125 70:0.333333 108:0.333333 128:0.5 161:0.142857 187:0.333333 246:0.5 283:0.5 509:0.2 547:0.5 617:1 795:0.25 1116:0.25 1854:0.333333 3432:0.666667 4792:1 6727:1 6728:1 6729:1 
1 46:0.142857 49:0.2 53:0.25 59:0.333333 77:0.25 100:0.2 152:0.2 161:0.142857 205:0.666667 371:0.4 373:0.428571 380:0.333333 503:0.25 523:0.5 531:0.2 539:0.166667 548:0.333333 653:0.2 1077:0.5 1963:0.333333 2186:0.333333 2310:0.5 2525:1 2526:0.5 4062:1 4870:1 6279:0.2 6302:1 6733:1 
1 30:0.666667 40:0.25 46:0.285714 47:1 48:0.5 58:0.166667 73:0.333333 74:0.333333 75:0.333333 76:0.333333 82:0.333333 95:0.5 97:0.333333 100:0.4 106:0.166667 109:0.25 112:0.666667 121:0.166667 152:0.2 155:0.25 168:0.333333 169:1 172:0.166667 175:0.333333 187:0.333333 194:0.2 202:0.333333 226:0.4 232:0.333333 278:0.333333 312:0.333333 327:0.333333 406:0.333333 531:0.2 538:0.5 591:0.5 747:1 888:0.5 901:0.4 939:0.5 973:0.333333 1024:1 1059:0.25 1104:0.5 1128:0.25 1151:0.333333 1255:0.5 1334:0.5 1536:0.333333 1854:0.333333 2046:0.5 2740:1 2768:1 2961:0.5 3154:0.25 3798:0.666667 5959:0.5 6779:1 6780:1 
1 5:0.25 43:0.333333 46:0.285714 49:0.2 51:0.5 53:0.25 120:0.25 157:0.25 171:0.25 205:0.333333 214:0.25 216:0.25 232:0.333333 358:0.333333 409:0.5 433:0.333333 500:1 503:0.25 673:0.333333 760:0.5 785:0.333333 837:0.5 1139:0.2 1404:0.333333 1716:0.142857 1774:0.5 2092:0.5 3412:0.5 3749:1 3847:0.5 4409:0.5 6511:1 6806:1 
1 12:0.5 13:0.2 23:0.166667 44:0.125 46:0.142857 49:0.2 50:0.5 58:0.5 94:0.2 120:0.25 148:0.333333 155:0.25 164:0.333333 175:0.333333 247:0.2 271:0.166667 304:0.25 451:1 455:0.25 904:0.25 909:0.142857 1182:0.5 1527:1 1605:0.5 1866:0.5 1969:0.25 2048:0.333333 2667:0.333333 2686:0.333333 3106:1 4590:0.5 5042:0.5 5571:0.5 5761:1 6819:0.5 6820:1 
1 3:0.333333 5:0.75 8:0.25 17:0.333333 22:0.5 23:0.166667 49:0.2 53:0.25 58:0.333333 59:0.333333 67:0.333333 75:0.166667 142:1 152:0.2 153:0.25 172:0.333333 194:0.2 205:0.333333 212:0.166667 214:0.75 248:0.25 258:0.25 380:0.333333 434:0.333333 474:0.5 505:0.4 521:0.5 695:0.25 705:0.5 1155:1 1195:0.5 1270:1 1786:0.5 1904:0.5 2320:0.5 2710:0.5 2851:0.5 3033:0.5 3342:0.5 4323:0.5 5097:0.5 5368:1 6549:1 6906:1 6907:1 
1 5:0.25 16:0.25 46:0.142857 49:0.2 172:0.166667 197:0.166667 214:0.5 503:0.25 860:0.333333 987:1 1067:0.5 1148:1 1157:1 1272:0.5 1274:0.25 1285:0.5 1555:0.5 1560:0.5 1866:0.5 2392:0.5 3152:0.5 3431:1 5922:1 6917:0.5 6918:1 6919:1 
1 4:0.166667 8:1 16:0.25 23:0.166667 40:0.25 44:0.25 49:0.4 51:0.25 58:0.166667 70:0.333333 75:0.166667 77:0.25 82:0.333333 100:0.2 106:0.333333 107:1 108:0.333333 110:0.5 120:0.25 121:0.333333 129:0.25 131:0.25 157:0.75 161:0.285714 166:0.5 168:0.166667 169:0.5 170:1 171:0.25 172:0.333333 181:1 197:0.166667 198:0.166667 206:0.5 219:0.2 226:0.2 231:0.333333 243:0.111111 247:0.2 253:0.333333 290:0.4 307:0.25 318:0.5 328:0.5 330:0.5 331:0.333333 365:0.5 367:0.166667 375:0.5 409:0.5 418:0.333333 420:0.25 447:0.5 467:0.5 507:0.5 510:0.333333 533:0.666667 549:0.333333 560:0.333333 598:0.2 611:0.2 618:0.25 686:0.25 700:0.5 762:0.333333 789:0.666667 906:0.333333 924:0.666667 947:0.25 965:0.333333 979:0.666667 1032:0.5 1103:0.25 1118:0.333333 1274:0.25 1284:1 1285:0.5 1306:0.333333 1440:1 1463:0.5 1555:0.5 1622:0.5 1623:0.25 1628:0.333333 1657:0.5 1686:0.5 1690:0.666667 1761:0.5 1850:1 1960:0.5 2125:0.5 2194:0.5 2349:0.333333 2383:1 2648:1 2702:0.5 2715:1 2902:1 2969:0.5 2970:0.5 3055:0.5 3152:0.5 3579:0.333333 3754:0.333333 4348:0.5 4452:0.5 4511:1 4587:0.333333 4588:0.2 4590:1 4591:0.25 4592:0.2 4684:1 5275:0.5 5906:0.333333 6060:1 6334:0.333333 6931:1 6932:1 6933:1 6934:0.5 6935:1 6936:1 6937:1 
1 8:0.75 36:0.25 40:0.25 46:0.285714 49:0.4 51:0.25 57:0.333333 58:0.166667 68:0.25 75:0.166667 110:0.125 115:0.166667 118:0.25 120:0.25 166:0.5 171:0.125 172:0.166667 178:0.333333 187:0.333333 190:0.25 197:0.166667 232:0.333333 307:0.25 324:0.5 358:0.333333 531:0.4 547:0.25 549:0.333333 550:0.5 567:0.25 570:0.166667 721:0.5 895:0.25 1084:0.333333 1139:0.2 1285:0.5 2028:0.333333 2167:0.5 2248:0.166667 2953:1 3196:1 3261:0.333333 3389:0.5 3865:0.5 3937:0.5 5530:0.5 5959:0.5 6943:1 6944:1 6945:1 6946:1 6947:1 
1 15:0.25 44:0.125 100:0.2 125:0.333333 162:0.2 243:0.111111 475:0.333333 753:0.5 1175:0.5 3333:0.5 6965:0.333333 
1 8:0.25 14:0.333333 95:0.125 108:0.333333 120:0.25 175:0.333333 187:0.333333 194:0.2 222:0.25 373:0.428571 429:0.333333 455:0.5 472:0.5 492:0.166667 503:0.25 597:1 702:0.666667 912:0.5 1880:0.5 1969:0.25 2148:0.333333 2218:0.333333 2399:0.5 2680:0.5 3366:0.5 4286:1 5727:1 6977:1 6978:0.5 6979:1 6980:1 
1 4:0.166667 5:0.5 11:0.333333 12:0.5 49:0.2 82:0.666667 151:0.333333 162:0.2 175:0.333333 187:0.333333 219:0.4 290:0.2 340:1 439:0.5 611:0.2 906:0.333333 2299:0.666667 2300:0.666667 2457:0.666667 5278:1 7004:1 
1 17:0.333333 23:0.166667 44:0.125 46:0.142857 94:0.2 110:0.25 150:0.142857 167:0.5 172:0.166667 173:0.25 197:0.166667 288:0.0909091 307:0.25 446:0.333333 487:0.5 509:0.2 579:0.5 755:0.5 1032:0.5 1564:0.333333 1622:0.5 1656:0.25 1830:1 1904:0.5 1961:0.25 2876:1 3455:0.333333 4625:1 7026:1 7027:1 7028:0.5 7029:1 7030:1 7031:1 7032:1 
1 5:0.5 8:0.25 44:0.125 46:0.142857 72:0.2 73:0.333333 74:0.333333 110:0.125 118:0.25 161:0.142857 172:0.166667 198:0.166667 216:0.25 288:0.181818 418:0.333333 503:0.25 761:1 784:0.333333 892:0.333333 911:0.111111 969:1 1555:0.5 2194:0.5 3142:0.5 3363:0.5 4347:1 5050:0.5 5175:1 5816:1 
1 5:0.25 40:0.25 49:0.2 68:0.25 135:0.1 151:0.666667 155:0.25 157:0.25 175:0.333333 187:0.666667 214:0.25 288:0.181818 304:0.25 305:0.333333 307:0.25 363:0.5 364:0.5 380:0.333333 386:0.333333 420:0.5 503:0.25 547:0.25 560:0.333333 902:0.125 947:0.25 970:0.333333 971:0.333333 2327:0.333333 2330:0.666667 3277:0.5 3769:1 5577:1 5710:0.25 6565:1 7037:0.5 7038:1 7039:1 7040:1 7041:1 
1 5:0.25 8:0.25 9:0.666667 13:0.2 46:0.142857 49:0.2 94:0.2 96:0.2 100:0.4 110:0.125 118:0.25 119:0.5 153:0.25 171:0.125 175:0.333333 198:0.333333 211:0.166667 226:0.2 281:0.333333 358:0.333333 480:0.166667 503:0.25 547:0.25 576:0.333333 674:0.333333 716:0.2 729:0.25 751:0.333333 799:0.333333 931:0.5 1010:0.333333 1128:0.25 1493:1 1566:0.25 1894:1 1926:0.5 2252:0.5 3619:1 7195:1 7196:1 7197:1 7198:1 7199:0.5 
1 2:0.25 23:0.166667 46:0.285714 53:0.25 97:0.166667 99:0.25 110:0.25 125:0.333333 157:0.25 172:0.166667 222:0.25 258:0.75 406:0.333333 500:0.5 579:0.5 629:0.5 695:0.25 705:0.5 732:0.5 799:0.666667 966:0.333333 996:0.5 1129:0.25 1209:1 1564:0.333333 1880:0.5 2027:0.5 2266:0.5 2903:0.333333 3159:1 3384:1 4743:1 6583:1 6679:1 7208:1 7209:1 7210:1 7211:1 7212:1 7213:1 
1 8:0.25 13:0.2 15:0.25 17:0.333333 22:0.5 58:0.333333 118:0.25 161:0.142857 198:0.333333 226:0.2 280:0.5 290:0.6 386:0.333333 492:0.166667 541:0.333333 591:0.25 645:0.4 682:0.5 753:0.5 830:0.4 1010:0.333333 1077:0.5 1124:0.2 1450:1 1926:0.5 2300:0.666667 3561:0.666667 4476:1 5341:0.5 7220:1 
1 35:0.25 67:0.333333 68:0.25 75:0.166667 95:0.125 171:0.25 226:0.4 246:0.5 338:0.333333 386:0.333333 410:0.666667 426:0.5 537:0.333333 613:0.2 653:0.2 887:0.2 1010:0.333333 1306:0.666667 1926:0.5 2167:0.5 2545:0.333333 3103:0.5 3396:0.25 3606:0.5 6356:0.666667 7238:1 7239:1 
1 5:0.25 30:0.666667 46:0.142857 58:0.166667 68:0.25 100:0.2 161:0.142857 166:0.5 338:0.333333 373:0.285714 556:0.111111 873:1 1131:0.5 1266:0.333333 1839:0.25 2545:0.666667 2669:0.5 3395:0.333333 6541:1 7248:1 7249:1 
1 16:0.25 44:0.125 46:0.142857 106:0.166667 121:0.166667 162:0.2 206:0.5 225:0.25 232:0.333333 354:0.333333 355:0.5 418:0.333333 434:0.333333 474:0.25 521:0.5 547:0.25 762:0.333333 828:0.5 838:0.333333 1164:0.2 2613:0.5 3872:1 4612:0.5 5219:0.5 5408:0.5 7266:1 7267:0.5 7268:1 
1 151:0.333333 1871:0.5 2186:0.333333 2348:1 3378:0.333333 4074:0.5 7288:0.5 7289:1 7290:1 
1 16:0.25 23:0.166667 43:0.333333 49:0.2 68:0.5 106:0.166667 121:0.166667 315:1 387:0.5 714:0.333333 1159:0.5 1163:0.166667 1404:0.333333 2186:0.333333 2499:1 3202:0.5 7291:1 7292:1 7293:1 7294:1 7295:1 
1 5:0.25 172:0.166667 247:0.2 288:0.0909091 420:0.25 509:0.2 888:0.5 6723:0.5 7343:0.5 
1 4:0.166667 35:0.5 46:0.142857 51:0.25 75:0.166667 99:0.25 115:0.166667 120:0.25 135:0.2 151:0.333333 175:0.333333 187:0.666667 219:0.4 373:0.142857 380:0.333333 386:0.666667 492:0.166667 554:0.25 560:0.333333 611:0.2 710:0.5 724:0.333333 902:0.125 971:0.333333 1055:0.333333 1331:1 1513:0.5 1633:0.5 1686:0.333333 1700:0.166667 1969:0.25 2660:1 3455:0.333333 3501:1 3769:0.5 4153:0.5 5646:1 7350:1 7351:1 7352:1 7353:1 
1 5:0.25 8:0.25 220:0.2 373:0.142857 1076:1 3122:0.333333 5870:0.25 7380:1 
1 5:0.25 34:0.333333 35:0.25 42:1 43:0.333333 44:0.125 45:0.25 46:0.285714 55:0.25 68:0.25 75:0.333333 94:0.2 99:0.25 106:0.166667 115:0.666667 117:0.666667 118:0.25 121:0.166667 152:0.2 220:0.2 247:0.2 315:0.5 325:1 503:0.25 533:0.333333 572:0.5 575:0.5 714:0.333333 727:0.5 830:0.2 908:0.333333 1097:1 1098:0.25 1480:0.5 1538:0.5 1608:1 1987:0.5 2210:0.5 2301:1 2426:0.5 3486:0.333333 4371:1 4372:0.333333 5988:1 7435:1 7436:0.5 7437:0.5 7438:1 
1 13:0.2 17:0.333333 22:1 57:0.333333 58:0.333333 94:0.4 135:0.1 152:0.2 219:0.2 220:0.2 226:0.4 304:0.25 324:0.5 373:0.285714 539:0.166667 659:0.5 760:0.5 903:0.333333 909:0.428571 1139:0.4 1182:1 1936:1 2734:0.5 6482:1 7441:0.5 7442:0.5 
1 1:0.5 5:0.5 11:0.166667 12:0.5 67:0.333333 75:0.166667 125:0.333333 151:0.333333 161:0.142857 290:0.4 492:0.166667 503:0.25 593:0.5 597:0.5 799:0.333333 1142:0.5 1644:0.5 2292:1 2506:0.333333 2667:0.333333 4016:0.5 5278:0.5 6588:1 6799:1 7494:1 7495:1 7496:0.5 7497:1 7498:1 
1 15:0.5 17:0.333333 22:0.5 23:0.166667 44:0.125 46:0.285714 53:0.25 75:0.333333 172:0.166667 206:0.5 290:0.2 418:0.333333 539:0.333333 762:0.333333 822:0.333333 1010:0.333333 1078:0.666667 1414:1 1457:0.25 2852:0.333333 3683:0.5 3687:0.5 5097:0.5 7267:0.5 7518:1 7519:1 
1 13:0.2 46:0.142857 48:0.75 58:0.166667 61:0.5 94:0.2 100:0.2 171:0.25 172:0.166667 194:0.2 318:0.25 548:0.333333 653:0.2 714:0.333333 799:0.333333 901:0.2 1021:1 1209:1 1448:0.333333 2394:0.5 3055:0.5 4990:1 5535:1 5550:0.5 6453:0.666667 7246:1 7529:1 7530:0.25 7531:1 
1 53:0.25 67:0.333333 827:0.5 838:0.333333 916:0.5 1173:0.5 3342:0.5 4612:0.5 7564:1 
1 5:0.5 49:0.4 51:0.25 75:0.166667 87:0.25 97:0.166667 106:0.166667 120:0.25 121:0.166667 157:0.25 175:0.333333 216:0.25 271:0.166667 328:0.25 358:0.666667 373:0.428571 492:0.166667 533:0.333333 687:0.333333 947:0.25 1772:0.5 2006:0.333333 2352:0.333333 2452:0.333333 2610:0.333333 3252:1 3498:0.333333 3864:1 5101:1 7571:1 7572:0.5 
1 10:0.5 17:0.333333 22:0.5 23:0.166667 58:0.333333 68:0.5 188:0.5 203:0.25 221:0.25 308:0.25 401:0.2 591:0.5 645:0.2 751:0.333333 806:0.5 955:0.5 962:0.5 1151:0.333333 1307:0.5 1686:0.333333 2431:0.5 3055:0.5 4003:1 6602:0.5 7264:1 7580:1 7581:1 
1 35:0.25 44:0.125 46:0.285714 94:0.2 99:0.25 118:0.5 120:0.5 129:0.25 135:0.1 162:0.4 183:0.2 187:0.333333 216:0.25 260:0.5 328:0.25 373:0.285714 418:0.333333 503:0.25 505:0.2 519:0.5 588:0.333333 610:0.333333 692:0.5 941:0.5 1747:0.5 2405:0.5 3808:1 4432:0.666667 5097:0.5 5116:0.5 5497:1 7634:1 7635:1 
1 5:0.25 12:0.5 58:0.333333 172:0.166667 175:0.333333 214:0.75 231:0.666667 258:0.25 304:0.25 380:0.333333 674:0.333333 695:0.25 705:0.5 902:0.125 1014:0.5 2364:0.5 2709:0.5 2710:0.5 3055:1 3544:0.5 7651:0.333333 
1 5:0.25 8:0.25 23:0.166667 46:0.142857 58:0.333333 75:0.166667 94:0.2 100:0.4 110:0.125 120:0.25 151:0.333333 187:0.333333 216:0.25 253:0.333333 288:0.181818 295:0.666667 492:0.333333 498:1 503:0.25 1036:0.4 1039:0.5 1334:0.5 1519:0.25 2401:1 2627:0.5 2850:1 3579:0.333333 6633:1 7675:1 7676:1 7677:0.25 7678:0.5 7679:1 7680:1 
1 5:0.5 49:0.2 75:0.166667 94:0.4 152:0.4 288:0.272727 289:0.5 304:0.5 378:1 533:0.333333 687:0.666667 761:1 800:0.4 847:0.666667 911:0.222222 913:0.5 1124:0.2 1128:0.25 1298:0.5 5476:1 
1 5:0.25 35:0.25 39:0.333333 49:0.2 68:0.25 72:0.2 75:0.166667 77:0.25 100:0.4 118:0.25 119:0.5 152:0.2 157:0.25 161:0.142857 281:0.333333 288:0.363636 305:0.333333 315:0.5 386:0.333333 800:0.2 895:0.25 1039:0.5 1116:0.25 1239:0.333333 1402:0.5 1405:0.5 1458:0.2 1607:0.5 1608:1 1623:0.5 1953:0.666667 2200:0.5 2428:0.5 3103:0.5 3262:0.5 3451:1 5816:1 6633:0.5 7675:1 
1 72:0.2 73:0.333333 74:0.333333 76:0.333333 288:0.0909091 290:0.2 587:0.25 632:0.5 1039:0.25 5183:0.333333 6621:0.333333 6633:0.5 
1 8:0.25 9:0.333333 17:0.333333 46:0.142857 58:0.166667 67:0.333333 68:0.25 94:0.2 106:0.166667 121:0.166667 132:0.333333 140:0.25 171:0.125 183:0.2 197:0.166667 200:0.333333 208:0.333333 226:0.2 243:0.111111 260:0.5 273:0.333333 328:0.25 343:0.5 503:0.25 547:0.25 687:0.333333 765:0.666667 816:0.5 901:0.2 1021:0.5 1023:1 1154:0.5 1330:1 1362:0.5 1412:0.25 2138:0.5 2175:0.5 2630:0.5 5144:0.333333 5461:1 5764:0.5 5776:1 7703:1 7708:1 7709:1 7710:1 7711:1 7712:1 7713:1 
1 22:1 44:0.125 46:0.142857 49:0.2 67:0.333333 75:0.166667 125:0.333333 135:0.3 147:1 161:0.142857 172:0.166667 219:0.2 367:0.166667 373:0.142857 489:0.5 503:0.25 551:0.2 687:0.333333 695:0.25 1402:0.5 1403:0.333333 1446:0.5 2736:0.125 5571:0.5 5860:1 5861:1 5862:1 7754:1 7755:1 7756:1 7757:1 7758:1 7759:1 7760:0.5 
1 40:0.25 42:1 49:0.2 93:0.2 113:0.142857 114:0.333333 115:0.166667 147:0.5 172:0.166667 257:0.333333 258:0.25 373:0.285714 455:0.25 475:0.333333 503:0.25 516:0.5 695:0.5 1115:0.5 2587:0.5 3260:1 3275:0.333333 3540:1 3541:0.5 4036:1 4331:1 4467:0.5 5771:1 5860:0.5 7755:0.5 7761:0.5 
1 17:0.666667 44:0.125 46:0.142857 53:0.25 100:0.2 106:0.166667 110:0.125 121:0.166667 127:0.125 155:0.25 161:0.285714 166:0.5 175:0.333333 372:1 395:1 416:0.5 533:0.333333 729:0.5 818:0.333333 822:0.333333 937:0.5 1053:0.333333 1085:0.333333 1371:0.2 1556:0.5 1572:0.5 1573:0.6 1578:0.5 1623:0.25 1826:0.2 2006:0.333333 3210:0.333333 4116:0.2 4432:0.333333 5601:0.5 7762:1 7763:1 7764:1 7765:1 7766:1 
1 33:0.333333 46:0.142857 57:0.333333 115:0.166667 117:0.333333 216:0.25 338:0.333333 373:0.142857 830:0.2 1077:0.5 3262:0.5 3395:0.333333 6912:0.5 
1 5:0.25 13:0.2 16:0.25 17:0.333333 23:0.5 32:0.333333 49:0.2 53:0.25 88:0.2 94:0.2 95:0.125 100:0.2 110:0.125 120:0.25 128:0.5 133:0.333333 157:0.5 161:0.142857 167:0.5 172:0.5 196:0.25 197:0.166667 209:1 232:0.333333 243:0.333333 290:0.2 404:0.25 425:0.333333 467:1 473:1 549:0.666667 554:0.25 1077:0.5 1112:0.333333 1118:0.333333 1193:0.333333 1225:0.5 1263:0.333333 1274:0.25 1329:1 1404:0.333333 1543:0.5 1703:0.5 2024:1 2825:0.333333 2843:1 3026:1 3152:0.5 3800:1 3985:0.5 4124:0.25 5162:0.5 5417:0.5 5817:0.5 6189:1 7196:1 7844:1 7845:1 
1 222:0.25 531:0.2 715:1 716:0.2 872:0.333333 909:0.142857 1519:0.25 2715:1 7847:0.5 
1 5:0.25 8:0.25 16:0.25 35:0.25 46:0.142857 49:0.2 100:0.2 135:0.1 142:1 172:0.333333 204:0.25 205:0.333333 214:0.25 221:0.75 231:0.333333 232:0.333333 234:1 235:0.5 358:0.333333 371:0.4 492:0.166667 500:0.5 503:0.25 547:0.25 695:0.25 701:0.5 918:0.333333 1536:0.333333 1690:0.333333 1795:0.5 2937:0.5 2939:0.5 4037:0.5 4818:0.5 6237:1 7650:0.5 7849:0.5 
1 46:0.142857 68:0.25 97:0.166667 198:0.166667 314:0.25 549:0.333333 1341:1 4539:0.5 6002:0.5 7861:1 
1 49:0.2 55:0.25 68:0.25 97:0.166667 110:0.125 112:0.333333 113:0.142857 114:0.333333 118:0.25 161:0.285714 171:0.25 198:0.333333 226:0.4 248:0.25 290:0.2 301:0.333333 315:0.5 436:0.5 490:1 647:0.5 765:0.333333 913:0.5 1193:0.333333 1284:0.666667 1468:0.5 1536:0.333333 1611:0.5 1889:1 1890:0.5 2320:0.5 2569:0.5 2778:0.5 4033:1 5506:0.5 6381:0.5 6702:1 7872:1 
1 5:0.5 29:0.333333 42:1 75:0.166667 94:0.2 95:0.125 112:0.666667 114:0.666667 118:0.25 161:0.142857 203:0.25 226:0.4 288:0.181818 315:0.5 376:0.5 433:0.666667 547:0.25 564:0.166667 579:0.5 651:0.333333 653:0.2 785:0.666667 837:0.5 865:0.5 935:0.333333 947:0.5 1402:0.5 1991:1 2518:0.666667 2569:1 4356:0.5 4372:0.333333 4830:1 5816:1 6094:0.5 
1 44:0.125 97:0.166667 106:0.166667 120:0.25 121:0.166667 172:0.166667 214:0.25 216:0.25 288:0.0909091 318:0.25 429:0.333333 455:0.25 562:0.5 993:0.333333 1039:0.25 1077:0.5 1080:0.333333 1791:0.5 1868:0.333333 1971:1 2022:0.333333 2736:0.125 3152:1 4383:0.5 4429:1 4730:0.5 4741:0.2 5021:0.5 6653:1 7940:1 7941:1 
1 12:0.5 13:0.2 16:0.25 49:0.2 75:0.166667 95:0.125 100:0.2 358:0.333333 373:0.285714 428:0.5 541:0.333333 560:0.333333 931:1 1124:0.4 1303:0.5 3448:0.666667 3531:0.5 3879:0.5 4727:1 5042:0.5 7425:1 7942:0.5 7943:0.5 
1 214:0.25 288:0.0909091 386:0.333333 429:0.333333 455:0.25 1039:0.25 2218:0.333333 4133:0.333333 5021:0.5 6110:0.5 7940:1 
1 5:0.25 25:1 44:0.125 49:0.2 100:0.2 133:0.333333 157:0.25 197:0.166667 198:0.166667 247:0.2 301:0.333333 364:0.5 373:0.142857 645:0.2 720:0.5 842:0.5 855:0.333333 901:0.2 1010:0.333333 1181:0.5 1321:0.25 2208:0.5 2272:0.5 2973:1 3367:1 5530:0.5 6813:1 7949:1 7950:1 
1 3:0.666667 4:0.333333 5:0.25 22:0.5 49:0.4 51:0.25 58:0.333333 68:0.5 93:0.2 157:0.25 162:0.2 171:0.125 219:0.4 222:0.25 306:0.5 318:0.25 373:0.285714 409:1 539:0.166667 695:0.5 705:0.5 721:0.5 1431:0.333333 1510:0.5 1968:1 2088:1 2364:0.5 4443:1 8098:1 
1 12:0.5 35:0.5 46:0.142857 49:0.2 58:0.333333 82:0.666667 110:0.125 166:0.5 172:0.166667 204:0.25 214:0.5 226:0.2 232:0.333333 371:0.2 418:0.333333 714:0.333333 732:0.5 1010:0.333333 1059:0.25 1364:0.5 1434:1 1555:0.5 2194:0.5 2709:0.5 2710:0.5 3055:1 5100:1 5325:1 8099:1 
1 58:0.166667 59:0.333333 172:0.333333 194:0.2 214:0.5 380:0.333333 505:0.4 695:0.25 704:1 1451:0.333333 1747:0.5 2860:0.5 3729:0.5 4323:0.5 
1 5:0.25 17:0.333333 22:0.5 51:0.25 53:0.25 55:0.25 68:0.25 95:0.125 106:0.333333 118:0.25 121:0.333333 131:0.25 132:0.333333 135:0.2 157:0.25 161:0.142857 226:0.4 247:0.2 288:0.363636 290:0.2 313:0.333333 367:0.166667 418:0.333333 503:0.25 509:0.4 564:0.333333 572:0.25 588:0.333333 913:0.5 1003:1 1039:0.5 1316:0.5 1395:0.333333 1405:0.5 1420:1 1494:0.142857 1696:1 2188:0.25 2261:0.5 2469:0.5 2470:0.5 2501:0.25 2634:0.5 3277:0.5 3877:0.333333 6758:1 8106:1 8107:1 
1 42:1 53:0.25 58:0.166667 94:0.2 133:0.333333 172:0.5 187:0.666667 214:0.25 304:0.25 313:0.333333 338:0.333333 343:1 418:0.333333 426:0.25 523:0.25 539:0.166667 549:0.333333 615:0.5 1560:1 1703:1 1854:0.333333 2211:1 2364:0.5 2547:1 2667:0.333333 2853:1 3078:1 5477:1 8108:1 8109:1 
1 17:0.333333 94:0.2 171:0.125 176:0.5 197:0.166667 231:0.333333 261:0.5 373:0.285714 492:0.166667 503:0.25 715:1 716:0.4 729:0.25 832:0.5 1013:0.333333 1236:0.333333 1460:0.333333 3444:0.5 5166:1 5767:1 6766:1 7578:1 8137:1 8138:1 8139:1 8140:1 8141:1 8142:1 8143:1 
1 2:0.25 4:0.166667 8:0.5 11:0.166667 67:0.333333 94:0.2 118:0.5 131:0.25 172:0.166667 197:0.166667 290:0.2 340:0.5 393:0.5 503:0.25 533:0.333333 541:0.333333 547:0.25 716:0.4 718:1 729:0.5 753:0.5 908:0.333333 931:0.5 1117:0.5 1304:0.5 1438:1 1835:0.5 1910:0.5 2258:0.25 3158:0.5 3229:1 3777:1 4171:0.5 6965:0.333333 8171:1 8172:1 
1 4:0.166667 5:0.5 13:0.2 58:0.166667 94:0.2 106:0.166667 121:0.166667 129:0.25 150:0.285714 171:0.125 172:0.333333 175:0.333333 178:0.333333 187:0.333333 373:0.142857 503:0.5 513:0.5 547:0.25 588:0.333333 594:0.333333 712:0.166667 1013:0.333333 1118:0.333333 1357:0.333333 1402:0.5 1432:1 2099:0.333333 3923:0.5 3934:0.333333 5325:1 5996:0.333333 8176:1 8177:1 8178:1 8179:1 
1 5:0.75 46:0.285714 75:0.166667 108:0.333333 118:0.25 151:0.333333 187:0.333333 211:0.166667 280:1 379:0.666667 416:0.5 510:0.333333 1013:0.333333 1128:0.25 1181:0.5 1215:0.666667 1373:0.4 1500:1 1573:0.4 1860:0.666667 2364:0.5 2798:1 4814:0.5 8183:1 8184:0.5 8185:1 
1 16:0.25 42:1 72:0.8 75:0.5 76:0.333333 95:0.125 96:0.2 99:0.25 100:0.2 106:0.166667 113:0.142857 114:0.333333 121:0.166667 143:0.5 157:0.25 171:0.125 226:0.2 295:0.666667 564:0.166667 581:0.25 651:0.333333 1112:0.333333 1302:0.5 1894:1 1988:1 2260:0.4 2352:0.333333 2368:0.333333 2950:0.25 3255:1 3987:1 6129:0.5 8186:1 8187:1 8188:1 8189:1 8190:0.5 
1 1:0.5 5:0.25 8:0.25 9:0.333333 13:0.2 15:0.25 53:0.25 131:0.25 151:0.333333 162:0.4 172:0.166667 187:0.333333 226:0.2 243:0.111111 290:0.2 503:0.5 519:0.5 695:0.25 697:0.5 1151:0.333333 1155:1 1195:0.5 1904:0.5 2320:0.5 2457:0.333333 2476:0.5 3687:0.5 3784:1 4179:0.5 4184:1 5278:0.5 7004:1 8193:1 8194:1 
1 17:0.666667 31:1 32:0.666667 40:0.25 49:0.2 58:0.166667 67:0.333333 118:0.25 120:0.25 171:0.125 216:0.25 273:0.333333 281:0.333333 306:0.25 402:0.333333 406:0.333333 422:0.2 539:0.166667 935:0.333333 947:0.25 1080:0.333333 1402:0.5 1493:0.5 1630:0.5 1680:1 1969:0.25 2122:0.166667 2167:0.5 3486:0.333333 3606:0.5 4133:0.333333 4741:0.2 5975:0.25 6354:0.5 8206:1 8207:1 8208:1 
1 44:0.375 72:0.2 75:0.166667 77:0.25 95:0.125 113:0.142857 114:0.333333 118:0.5 120:0.25 168:0.166667 171:0.125 172:0.166667 226:0.2 246:0.5 295:0.333333 314:0.5 330:0.5 367:0.166667 512:1 547:0.25 564:0.166667 581:0.5 583:0.25 653:0.2 969:1 1112:0.333333 1159:0.5 1425:0.5 1549:0.5 1555:0.5 1699:0.5 2138:0.5 2260:0.2 3794:0.5 5921:0.5 7343:0.5 8190:0.5 8232:1 8233:1 
1 4:0.166667 5:0.25 8:0.25 15:0.5 97:0.166667 100:0.4 110:0.125 119:0.5 131:0.5 162:0.4 216:0.25 243:0.111111 318:0.25 328:0.25 408:0.5 503:0.25 539:0.166667 562:0.5 579:0.5 695:0.25 714:0.666667 771:0.333333 1077:0.5 1200:1 1225:0.25 1404:0.333333 1417:1 3225:0.5 3518:0.5 5472:0.5 8193:0.5 8194:0.5 8264:1 8265:1 8266:1 
1 1:0.5 4:0.166667 5:0.25 106:0.166667 121:0.166667 153:0.25 162:0.2 503:0.25 5278:0.5 6965:0.333333 8193:0.5 8194:0.5 
1 151:0.333333 162:0.2 187:0.333333 373:0.142857 695:0.25 2218:0.333333 4133:0.333333 8193:0.5 8194:0.5 
1 157:0.25 766:0.25 1525:0.25 2089:0.333333 4123:0.2 8310:1 
1 17:0.333333 35:0.25 131:0.25 133:0.333333 214:0.25 318:0.25 364:0.5 447:0.5 469:0.5 503:0.25 653:0.2 765:0.333333 771:0.333333 1225:0.5 1465:0.5 2183:0.333333 2529:0.333333 2936:1 3152:0.5 3293:0.5 3622:0.5 3705:0.5 4348:0.5 4921:1 5167:0.5 8311:1 8312:1 
1 16:0.5 30:0.333333 42:1 46:0.142857 49:0.6 57:0.333333 58:0.166667 72:0.2 75:0.333333 77:0.25 85:0.666667 86:0.666667 95:0.125 97:0.166667 99:0.5 100:0.2 110:0.125 113:0.142857 114:0.333333 120:0.25 143:0.5 157:0.25 166:0.5 168:0.166667 170:0.25 172:0.166667 181:0.333333 187:0.333333 216:0.25 231:0.333333 290:0.4 297:0.333333 328:0.25 339:0.333333 358:0.333333 380:0.333333 387:0.5 402:0.333333 436:0.5 525:0.25 533:0.333333 564:0.333333 653:0.2 663:1 686:0.25 710:0.5 768:1 808:0.25 810:1 822:0.333333 913:0.5 1087:0.333333 1115:0.5 1209:1 1225:0.5 1276:0.25 1278:1 1373:0.2 1457:0.25 1617:0.5 1623:0.25 1630:1 1900:1 2018:0.5 2087:1 2106:0.5 2200:0.5 2203:0.5 2254:0.5 2368:0.666667 2422:0.5 2553:0.5 3126:0.333333 3489:0.5 3498:0.333333 3511:1 3759:0.5 3819:1 4123:1 4161:0.5 5004:0.5 8313:1 8314:1 8315:1 8316:1 
1 44:0.125 46:0.142857 58:0.5 68:0.5 106:0.166667 121:0.166667 187:0.333333 290:0.2 304:0.25 334:0.5 500:0.5 1078:0.333333 2062:0.333333 2529:0.333333 2566:1 2567:0.333333 3293:1 3622:1 4037:0.5 8054:1 8323:1 
1 5:0.25 13:0.2 42:1 44:0.25 49:0.2 53:0.25 75:0.166667 94:0.2 95:0.25 106:0.166667 110:0.125 121:0.166667 135:0.1 151:0.333333 152:0.2 161:0.142857 167:0.5 171:0.25 187:0.666667 247:0.2 288:0.0909091 290:0.4 304:0.25 305:0.333333 307:0.25 327:0.333333 328:0.25 358:0.333333 380:0.333333 531:0.6 680:0.5 681:0.666667 834:0.333333 901:0.2 947:0.25 1031:0.333333 1088:1 1105:1 1121:0.5 1125:0.5 1126:0.5 1128:0.25 1165:1 1506:1 1521:1 1931:1 2010:0.25 2327:0.333333 2330:0.333333 2431:0.5 2441:0.5 3046:0.333333 3416:0.5 3455:0.333333 3461:0.5 3801:0.5 3803:0.5 4497:1 4510:1 4621:0.5 5133:1 5577:1 6345:0.333333 6355:1 8351:1 
1 161:0.142857 216:0.25 1554:0.25 1733:0.333333 4831:1 5710:0.25 8359:0.5 
1 1:0.5 2:0.25 3:0.666667 4:0.333333 5:0.75 8:0.25 11:0.166667 16:0.25 17:0.333333 22:0.5 43:0.333333 44:0.125 75:0.166667 187:0.333333 222:0.75 243:0.222222 271:0.166667 367:0.166667 547:0.25 789:0.333333 1010:0.333333 1263:0.333333 1274:0.25 1323:0.666667 1402:0.5 1833:1 3672:1 3981:0.5 4966:1 7847:1 8365:1 8366:1 8367:1 8368:1 
1 5:0.25 57:0.333333 72:0.2 547:0.25 2613:0.5 4605:0.333333 4606:0.333333 4878:0.333333 6420:1 
1 40:0.25 48:0.5 92:0.666667 106:0.166667 117:0.333333 121:0.166667 152:0.2 173:0.25 187:0.333333 307:0.25 312:0.333333 338:0.666667 476:0.5 530:0.5 551:0.4 731:1 908:0.333333 939:0.5 1276:0.25 1747:0.5 2072:0.25 3550:1 4831:1 8378:1 8379:1 
1 17:0.333333 30:0.666667 32:0.333333 46:0.142857 55:0.25 58:0.166667 68:0.25 77:0.25 91:0.333333 315:0.5 358:0.333333 380:0.333333 422:0.4 503:0.25 531:0.2 570:0.166667 653:0.2 760:0.5 1098:0.25 1991:0.5 2943:0.25 3045:1 3802:0.333333 4831:1 8383:1 8384:0.5 8385:1 
1 9:0.333333 23:0.166667 43:0.333333 46:0.142857 68:0.25 75:0.166667 97:0.166667 100:0.2 106:0.166667 110:0.125 121:0.166667 157:0.25 187:0.333333 290:0.2 314:0.25 389:0.5 482:0.5 499:1 547:0.25 557:0.666667 732:0.5 832:0.5 913:0.5 1103:0.25 1225:0.25 1564:0.333333 2090:0.333333 2630:0.5 3093:0.333333 3096:1 3278:1 3416:0.5 4630:0.5 5987:1 8437:1 8438:1 
1 46:0.142857 58:0.166667 67:0.333333 68:0.25 95:0.125 96:0.2 118:0.25 157:0.25 243:0.111111 426:0.25 523:0.25 613:0.4 615:0.5 687:0.333333 1067:0.5 1308:0.333333 2122:0.333333 2277:0.333333 3137:0.5 4724:0.333333 8054:1 8304:1 8439:1 
1 5:0.5 16:0.25 23:0.166667 46:0.142857 75:0.166667 120:0.25 155:0.25 161:0.142857 187:0.333333 327:0.333333 426:0.25 439:0.5 488:0.333333 495:1 503:0.25 516:0.5 665:0.25 687:0.333333 760:0.5 761:0.5 843:0.153846 1013:0.333333 1019:0.333333 1077:0.5 1352:0.5 1402:0.5 1414:0.5 1747:0.5 1866:0.5 2220:0.5 2498:0.333333 3152:0.5 4401:1 4539:0.5 6758:0.333333 7478:0.5 8208:1 8440:1 8441:1 8442:1 
1 5:0.25 9:0.333333 22:0.5 28:0.333333 29:0.333333 42:1 73:0.333333 74:0.333333 75:0.333333 76:0.333333 96:0.4 99:0.25 100:0.2 106:0.166667 108:0.333333 109:0.25 112:0.666667 113:0.142857 114:0.333333 118:0.25 120:0.25 121:0.166667 171:0.125 198:0.166667 226:0.2 359:0.333333 387:0.5 712:0.166667 1007:0.2 1159:0.5 1644:0.25 1716:0.142857 1830:1 1854:0.333333 2187:0.333333 2569:0.5 3185:0.5 3206:0.5 7206:1 7872:1 8270:1 8443:1 8444:1 
1 59:0.333333 100:0.2 171:0.25 198:0.166667 231:0.333333 246:0.5 247:0.4 290:0.2 338:0.333333 380:0.333333 613:0.2 653:0.4 687:0.666667 1010:0.333333 1087:0.333333 1151:0.333333 1306:0.333333 1307:0.5 1505:0.25 1721:0.333333 1926:0.5 2686:0.333333 3396:0.25 8445:1 8446:0.5 8447:1 
1 46:0.142857 100:0.4 106:0.166667 109:0.25 121:0.166667 171:0.125 318:0.5 341:1 373:0.428571 539:0.166667 695:0.25 807:0.5 1013:0.333333 1080:0.333333 1154:0.5 1352:0.5 1913:1 2291:0.5 2499:0.5 2719:0.2 2994:1 3367:1 3498:0.333333 3502:1 7634:1 8448:1 8449:1 
1 5:0.5 22:0.5 75:0.166667 125:0.333333 162:0.4 171:0.125 492:0.166667 689:0.5 701:0.5 912:0.25 959:0.5 1451:0.666667 2457:0.333333 2734:0.5 2735:1 2760:0.5 5712:0.5 8450:1 8451:1 8452:1 8453:1 8454:1 8455:1 
1 29:0.333333 38:0.5 40:0.25 46:0.142857 49:0.2 55:0.5 57:0.333333 75:0.166667 76:0.333333 109:0.25 145:0.5 160:0.142857 161:0.142857 188:0.5 312:0.333333 338:0.333333 392:1 434:0.333333 539:0.166667 632:0.5 1115:0.5 1302:0.5 1402:0.5 4335:0.5 4402:1 4591:0.25 6576:1 7441:0.5 7567:0.5 8456:1 8457:1 
1 16:0.25 29:0.333333 34:0.333333 40:0.25 46:0.142857 55:0.5 94:0.2 100:0.2 115:0.166667 117:0.333333 249:0.4 290:0.2 297:0.333333 632:0.5 1097:1 1115:0.5 1139:0.4 1277:0.5 1278:0.5 1494:0.142857 1495:0.333333 1554:0.25 2018:0.5 2283:0.5 2301:0.5 3040:0.333333 3045:0.5 3605:1 3606:0.5 4248:0.5 5139:0.5 6354:0.5 8238:1 8458:1 8459:1 8460:1 
1 13:0.2 95:0.125 96:0.2 97:0.166667 157:0.25 337:0.333333 2122:0.166667 2301:0.5 8461:1 
1 28:0.333333 45:0.25 77:0.25 91:0.333333 100:0.4 115:0.166667 117:0.333333 118:0.25 157:0.25 171:0.125 194:0.2 271:0.333333 325:0.5 469:0.5 539:0.166667 556:0.333333 701:0.5 751:0.333333 822:0.333333 918:0.333333 935:0.333333 1128:0.25 1433:0.5 3103:0.5 3154:0.25 3802:0.333333 4162:1 5506:0.5 8462:1 
1 5:0.25 11:0.166667 58:0.833333 75:0.166667 97:0.166667 110:0.125 135:0.1 157:0.25 161:0.142857 171:0.375 194:0.2 198:0.166667 219:0.2 290:0.2 328:0.25 373:0.285714 380:0.333333 386:0.333333 503:0.25 533:0.333333 700:0.5 756:0.5 757:1 789:0.333333 825:1 941:1 971:0.333333 973:0.333333 1007:0.4 1032:0.5 1402:0.5 1422:0.5 1716:0.428571 1736:1 2034:0.25 2072:0.25 2186:0.666667 2408:0.5 3342:0.5 5765:1 6461:1 6468:0.5 7691:0.5 8463:1 8464:1 8465:1 8466:1 8467:1 8468:1 
1 17:0.666667 25:1 49:0.2 73:0.333333 74:0.333333 75:0.166667 76:0.333333 100:0.4 108:0.333333 110:0.25 112:0.666667 118:0.25 120:0.25 226:0.4 296:1 297:0.666667 364:0.5 588:0.666667 632:0.5 801:0.25 1404:0.666667 1558:0.25 1568:1 1572:1 1573:0.8 1607:0.5 1623:0.25 2200:0.5 3934:1 4918:1 
1 46:0.285714 53:0.25 95:0.125 152:0.2 153:0.25 172:0.166667 213:0.333333 219:0.2 297:0.333333 373:0.285714 474:0.25 505:0.4 901:0.2 1195:0.5 1605:0.5 1664:1 1665:1 2127:1 2320:0.5 2934:1 3927:0.5 6451:1 8469:1 8470:1 
1 29:0.333333 68:0.25 118:0.25 204:0.25 214:0.5 249:0.2 315:0.5 659:0.5 695:0.25 701:0.5 760:0.5 1054:0.333333 1055:0.333333 1949:0.5 3749:1 3784:1 8250:1 8471:1 
1 51:0.25 100:0.2 108:0.333333 120:0.5 135:0.1 151:0.333333 168:0.166667 171:0.125 173:0.25 202:0.333333 214:0.5 219:0.2 318:0.25 358:0.333333 406:0.333333 455:0.5 531:0.2 548:0.333333 641:0.333333 726:0.5 753:0.5 766:0.25 773:0.5 799:0.333333 804:1 913:0.5 1239:0.333333 1395:0.333333 1712:1 2666:0.5 4715:0.5 6560:0.5 7760:0.5 8472:0.5 8473:1 8474:1 8475:1 8476:0.5 
1 115:0.166667 117:0.333333 216:0.25 325:0.5 830:0.2 3529:1 
1 13:0.4 40:0.5 44:0.125 77:0.25 95:0.125 145:1 392:1 587:0.25 613:0.2 1010:0.333333 1138:1 1148:1 1353:0.25 1666:0.666667 2122:0.166667 2943:0.25 7728:1 8348:1 8446:0.5 8477:0.666667 
1 3:0.333333 5:0.25 40:0.25 59:0.333333 77:0.25 115:0.166667 120:0.25 131:0.25 194:0.2 204:0.5 212:0.166667 214:0.5 221:0.5 363:0.5 364:0.5 386:0.333333 404:0.25 474:0.25 504:0.5 505:0.2 531:0.2 653:0.4 659:0.5 695:0.5 701:0.5 707:0.5 855:0.333333 1433:0.5 1604:0.5 1611:0.5 2215:0.25 3671:0.333333 3865:0.5 4338:0.5 4857:1 4858:1 4860:1 5537:1 
1 46:0.142857 57:0.333333 181:0.333333 598:0.2 695:0.25 826:0.5 1276:0.25 1750:0.333333 2225:1 4063:0.5 8478:0.5 
1 14:0.333333 16:0.5 58:0.166667 91:0.333333 94:0.2 100:0.4 120:0.25 152:0.2 153:0.25 157:0.25 171:0.25 187:0.333333 204:0.5 214:0.75 222:0.5 304:0.25 358:0.333333 371:0.2 428:1 533:0.333333 695:0.5 701:0.5 761:0.5 918:0.666667 1334:1 3769:1 4859:0.5 5239:1 8479:1 
1 13:0.2 16:0.25 29:0.333333 35:0.25 38:0.5 40:0.75 42:1 49:0.2 52:0.5 59:0.333333 97:0.166667 115:0.166667 118:0.25 151:0.333333 152:0.2 157:0.25 187:0.333333 216:0.25 284:0.5 363:0.5 364:0.5 373:0.285714 455:0.5 575:0.5 653:0.2 695:0.5 706:0.5 721:0.5 751:0.333333 830:0.2 837:0.5 947:0.25 970:0.333333 1278:0.5 1419:1 1433:0.5 1628:0.666667 1954:1 2943:0.25 3864:0.333333 8477:1 8480:0.5 
1 5:0.25 8:0.25 9:0.333333 30:0.333333 40:0.25 46:0.285714 49:0.2 57:0.333333 194:0.2 318:0.25 503:0.5 701:0.5 979:0.333333 1078:0.333333 1434:1 1683:1 1761:1 2283:0.5 3671:0.333333 4337:0.5 4339:0.333333 4831:1 5710:0.5 5965:1 8384:0.5 8481:1 8482:1 
1 249:0.2 314:0.25 492:0.166667 712:0.166667 1115:0.5 1554:0.25 2507:0.333333 4539:0.5 4856:1 5783:0.5 
1 51:0.25 95:0.125 96:0.2 99:0.25 100:0.2 108:0.333333 120:0.25 140:0.25 150:0.142857 171:0.125 318:0.25 326:0.333333 358:0.333333 373:0.428571 693:0.5 724:0.333333 761:0.5 1239:0.333333 1790:0.333333 2553:0.5 4127:1 4409:0.5 4525:1 5179:0.25 5370:0.5 8483:1 8484:1 
1 5:0.5 29:0.333333 34:0.333333 35:0.25 40:0.5 42:1 46:0.142857 49:0.2 55:0.25 57:0.333333 58:0.5 59:0.333333 75:0.166667 94:0.2 95:0.125 115:0.166667 153:0.25 161:0.142857 172:0.166667 175:0.333333 194:0.2 219:0.2 222:0.25 297:0.333333 373:0.428571 531:0.2 542:0.333333 695:0.5 705:1 970:0.333333 2099:0.333333 2505:1 3865:1 4431:0.5 5179:0.25 5370:0.5 8483:1 8485:1 8486:1 8487:1 8488:0.5 
1 40:0.25 46:0.142857 49:0.2 95:0.125 100:0.2 108:0.333333 112:0.333333 113:0.142857 114:0.333333 115:0.166667 120:0.25 125:0.333333 140:0.25 151:0.333333 165:0.5 171:0.25 221:0.5 331:0.333333 373:0.285714 409:1 548:0.333333 692:1 765:0.333333 1085:0.333333 1088:1 1128:0.25 1191:0.5 2248:0.333333 2731:0.5 2755:1 8489:1 8490:1 8491:1 
1 8:0.25 29:0.333333 35:0.25 38:1 49:0.2 67:0.333333 95:0.25 100:0.2 106:0.166667 108:0.333333 110:0.125 120:0.5 121:0.166667 135:0.1 146:0.333333 151:0.333333 170:0.25 171:0.125 187:0.333333 247:0.2 290:0.2 328:0.25 338:0.666667 436:0.5 439:0.5 488:0.333333 503:0.25 509:0.2 581:0.5 645:0.2 653:0.2 703:0.333333 714:0.333333 792:1 1130:0.5 1139:0.4 1159:0.5 1460:0.333333 1612:0.5 1695:0.333333 1721:0.666667 1880:0.5 2620:0.142857 3533:0.333333 8492:1 8493:1 8494:1 
1 30:0.333333 57:0.333333 110:0.125 131:0.25 161:0.142857 172:0.166667 197:0.166667 284:0.5 290:0.4 328:0.5 564:0.166667 598:0.2 865:0.5 1373:0.2 1402:0.5 1525:0.25 1790:0.333333 2087:1 2321:1 3778:0.333333 7013:1 8495:1 
1 46:0.142857 58:0.333333 68:0.25 214:0.25 304:0.25 639:0.5 724:0.333333 1353:0.25 2062:0.333333 2529:0.666667 3293:1 3622:1 4542:0.5 4837:1 8496:1 
1 12:0.5 58:0.166667 94:0.2 162:0.2 171:0.125 172:0.166667 187:0.333333 194:0.2 219:0.2 220:0.2 304:0.25 334:0.5 373:0.142857 380:0.333333 381:0.5 418:0.333333 472:0.5 1116:0.25 1736:1 1791:0.5 2208:0.5 2680:0.5 3544:0.5 4732:0.5 4829:1 8497:1 8498:0.5 8499:0.5 
1 5:0.25 8:0.25 110:0.125 151:0.333333 175:0.333333 187:0.333333 194:0.2 216:0.25 280:0.5 328:0.25 371:0.2 474:0.25 486:0.333333 539:0.166667 916:0.5 1078:0.333333 1461:0.5 2220:1 2221:1 5116:0.5 
1 28:0.333333 46:0.142857 94:0.2 99:0.25 106:0.166667 110:0.125 121:0.166667 125:0.333333 151:0.333333 172:0.166667 243:0.333333 318:0.25 505:0.4 519:1 587:0.25 645:0.2 714:0.333333 753:0.5 765:0.333333 830:0.2 935:0.333333 947:0.25 1460:0.333333 1691:0.5 2573:0.5 2760:0.5 3101:0.5 3115:0.5 3234:1 3434:1 3490:1 3899:0.5 4124:0.25 8500:1 
1 73:0.333333 74:0.333333 76:0.333333 108:0.333333 110:0.125 112:0.333333 118:0.25 152:0.2 197:0.166667 226:0.2 248:0.25 418:0.333333 449:0.5 588:0.666667 833:0.5 1118:0.333333 1225:0.25 1404:0.666667 1555:0.5 1558:0.5 1572:0.5 1573:0.6 2120:1 2194:0.5 3934:0.666667 4918:0.5 8501:1 
1 328:0.25 373:0.142857 426:0.25 567:0.25 665:0.25 687:0.333333 1306:0.333333 1721:0.333333 1926:0.5 
1 5:0.25 8:0.25 16:0.25 17:0.333333 49:0.2 53:0.25 58:0.166667 68:0.25 95:0.125 99:0.25 100:0.2 106:0.166667 121:0.166667 154:1 166:0.5 257:0.333333 258:0.25 287:0.25 288:0.272727 289:0.25 290:0.2 304:0.75 305:0.333333 308:0.25 337:0.666667 338:0.666667 373:0.285714 548:0.333333 613:0.2 724:0.333333 895:0.25 1087:1 1104:0.5 1139:0.2 1789:0.5 5716:0.333333 5899:0.5 8502:1 8503:1 8504:0.666667 8505:1 
1 4:0.333333 11:0.166667 13:0.2 15:0.5 40:0.25 46:0.142857 53:0.25 109:0.25 153:0.5 161:0.142857 162:0.2 172:0.166667 187:0.666667 226:0.2 243:0.111111 281:0.333333 473:1 492:0.333333 505:0.2 519:0.5 547:0.25 594:0.333333 645:0.2 916:0.5 947:0.25 1150:0.5 1195:0.5 1323:0.666667 1904:0.5 2194:0.5 2320:0.5 2399:0.5 2518:0.333333 3346:1 3349:1 3618:0.5 3789:1 3996:1 8506:1 8507:0.5 
1 5:0.25 8:0.25 64:0.333333 94:0.2 95:0.125 120:0.25 153:0.25 253:0.333333 287:0.25 317:0.5 353:0.5 355:0.5 373:0.142857 418:0.333333 434:0.333333 502:0.333333 503:0.25 547:0.25 912:0.25 986:1 1193:0.333333 1412:0.25 1589:0.333333 1620:0.25 1665:1 2198:0.5 2607:0.333333 3412:0.5 3956:0.25 5153:1 5649:1 8184:0.5 8508:0.5 
1 5:0.25 30:0.333333 46:0.142857 49:0.2 55:0.25 75:0.166667 151:0.333333 161:0.142857 187:0.333333 257:0.333333 258:0.25 281:0.333333 288:0.272727 296:1 304:0.5 305:0.333333 358:0.333333 373:0.285714 503:0.25 530:0.5 548:0.333333 596:0.5 611:0.2 653:0.4 711:0.5 883:0.333333 895:0.25 908:0.333333 1010:0.333333 1700:0.5 2096:0.333333 2186:0.333333 2227:0.5 2283:0.5 3103:0.5 8503:1 8504:1 8505:1 8509:1 
1 4:0.166667 11:0.5 15:0.25 75:0.166667 100:0.2 135:0.1 151:0.333333 153:0.25 162:0.2 183:0.2 492:0.666667 502:0.333333 597:0.5 639:0.5 645:0.4 695:0.25 765:0.333333 799:0.333333 916:0.5 1323:0.666667 1949:0.5 2399:1 2409:1 2733:0.5 2857:0.5 3346:1 4723:1 5100:1 5102:1 5278:1 5899:0.5 6176:1 8510:1 8511:1 8512:1 8513:1 8514:1 8515:1 
1 42:1 44:0.125 45:0.25 46:0.142857 49:0.2 72:0.2 75:0.333333 118:0.25 131:0.25 194:0.2 247:0.2 338:0.333333 366:0.5 367:0.166667 386:0.333333 410:0.333333 426:0.25 427:0.25 489:0.5 570:0.166667 572:0.25 579:0.5 834:0.333333 859:0.333333 935:0.333333 1353:0.25 1736:1 2122:0.166667 2569:0.5 2620:0.142857 3060:0.5 3583:1 3606:0.5 4811:1 6356:0.333333 6455:0.5 6518:1 
1 14:0.333333 33:0.666667 34:0.333333 35:0.5 39:0.333333 40:0.25 42:1 94:0.4 112:0.333333 157:0.25 204:0.5 214:0.5 219:0.2 221:0.5 304:0.25 325:1 326:0.333333 505:0.2 547:0.25 653:0.2 695:0.5 837:0.5 3046:0.333333 3865:0.5 5345:1 7737:0.5 8516:1 8517:1 
1 8:0.25 16:0.25 35:0.25 42:1 44:0.125 46:0.142857 51:0.25 66:0.5 115:0.166667 135:0.1 171:0.125 290:0.4 789:0.333333 804:1 1055:0.333333 1112:0.333333 1448:0.333333 2352:0.333333 2355:0.333333 2943:0.25 3046:0.333333 3078:0.5 4253:1 4409:0.5 4730:0.5 5370:0.5 5485:1 6585:1 8518:1 8519:1 8520:1 8521:1 8522:1 8523:1 8524:1 
1 17:0.333333 67:0.333333 171:0.125 204:0.5 205:0.333333 214:0.5 219:0.2 221:0.25 222:0.25 234:1 290:0.2 367:0.166667 429:0.333333 504:1 505:0.4 695:0.5 1024:1 1434:1 1880:0.5 2851:1 2939:1 3342:1 5169:0.5 8525:1 8526:1 8527:1 8528:1 
1 5:0.25 36:1 49:0.2 57:0.333333 67:0.333333 68:0.25 75:0.166667 82:0.333333 94:0.2 128:0.5 152:0.2 187:0.333333 492:0.166667 530:0.5 531:0.2 695:0.25 895:0.25 1116:0.25 1976:0.333333 3346:0.5 3606:0.5 5368:1 5906:0.333333 7739:1 8529:1 8530:1 8531:1 
1 5:0.25 43:0.333333 99:0.25 100:0.2 108:0.333333 110:0.125 133:0.333333 166:0.5 358:0.333333 439:0.5 509:0.4 523:0.5 533:0.333333 611:0.4 632:0.5 701:1 799:0.333333 1020:0.5 1460:0.333333 1721:0.333333 2372:0.5 6279:0.2 
1 5:0.25 100:0.2 171:0.125 334:0.5 335:0.333333 418:0.333333 1414:0.5 1656:0.25 1791:0.5 
1 5:0.75 13:0.2 68:0.25 94:0.2 100:0.2 109:0.25 115:0.166667 118:0.25 152:0.4 153:0.5 169:1 287:0.25 288:0.454545 304:0.5 305:0.666667 307:0.5 330:0.5 386:0.333333 448:0.25 531:0.2 761:1 911:0.333333 1118:0.333333 1299:0.5 1519:0.25 1623:0.25 1711:1 2688:1 3982:1 8472:0.5 
1 95:0.125 100:0.2 110:0.25 427:0.25 449:0.5 632:0.5 1556:1 1559:1 1560:0.5 1573:0.4 1976:0.666667 2569:0.5 3223:1 4918:1 8532:0.5 
1 5:0.5 22:0.5 58:0.166667 66:0.5 171:0.25 197:0.166667 204:0.25 373:0.285714 374:0.5 376:0.5 471:0.333333 503:0.25 703:0.333333 755:0.5 1088:1 1148:1 1461:1 1716:0.142857 6630:1 8533:1 8534:1 
1 5:1 42:1 49:0.2 118:0.25 121:0.333333 172:0.166667 187:0.333333 214:0.5 358:0.333333 367:0.166667 455:0.25 488:0.333333 503:0.25 695:0.5 705:1 837:0.5 1623:0.25 1747:0.5 2458:0.333333 3606:0.5 5571:0.5 8535:1 
1 5:0.75 30:0.666667 36:0.25 59:0.333333 75:0.166667 82:0.333333 154:1 166:0.5 187:0.333333 197:0.166667 216:0.5 318:0.25 378:0.5 406:0.333333 492:0.166667 539:0.166667 547:0.5 612:0.25 653:0.2 822:0.333333 830:0.2 1048:0.142857 1080:0.333333 1431:0.333333 1493:0.5 2020:0.333333 2210:0.5 2450:0.5 3171:1 3486:0.666667 4248:0.5 4372:0.333333 5783:0.5 6482:0.5 8474:1 8536:1 8537:1 
1 290:0.2 539:0.166667 715:1 716:0.2 8538:0.5 
1 16:0.25 49:0.2 64:0.333333 67:0.333333 75:0.166667 120:0.25 172:0.166667 196:0.25 206:0.5 476:0.5 492:0.166667 564:0.166667 703:0.333333 762:0.333333 1030:0.5 1451:0.666667 1665:1 1819:1 1820:1 1913:1 2022:0.333333 2192:0.5 2392:0.5 2591:1 3046:0.333333 3272:0.5 3431:1 
1 5:0.25 16:0.25 22:0.5 46:0.142857 49:0.4 55:0.25 75:0.166667 125:0.333333 157:0.25 161:0.142857 358:0.333333 373:0.142857 418:0.333333 477:0.5 533:0.333333 934:0.142857 1088:1 1118:0.333333 1194:1 1472:0.5 1644:0.25 1861:1 2331:0.25 2733:0.5 3250:0.5 3328:0.333333 3473:0.5 4063:0.5 4286:0.5 5763:0.5 6842:1 7988:1 8539:1 8540:0.5 8541:1 
1 53:0.25 64:0.333333 68:0.25 100:0.2 108:0.333333 110:0.125 118:0.25 133:0.333333 157:0.25 171:0.125 172:0.166667 194:0.4 197:0.333333 216:0.25 222:0.25 249:0.2 288:0.0909091 412:1 413:1 459:0.5 474:0.25 509:0.2 666:0.5 714:0.333333 716:0.2 789:0.333333 932:1 1323:0.333333 1554:0.5 1623:0.25 1848:0.5 1988:1 2459:0.5 2518:0.333333 2525:0.333333 3982:1 4031:1 5181:0.25 6749:1 7944:1 8542:1 
1 67:0.333333 249:0.2 966:0.333333 1554:0.25 4878:0.333333 8543:1 
1 58:0.166667 100:0.2 110:0.125 135:0.1 171:0.25 175:0.333333 373:0.285714 409:1 700:0.5 1175:0.5 2053:0.333333 3278:0.5 3591:0.25 4663:0.5 7478:0.5 7699:1 
1 17:0.333333 25:1 44:0.125 46:0.142857 64:0.333333 82:0.333333 95:0.125 170:0.25 175:0.333333 187:0.333333 197:0.166667 288:0.0909091 290:0.4 367:0.166667 381:0.5 483:0.5 547:0.25 629:0.5 901:0.4 911:0.111111 1013:0.333333 1119:0.5 1225:0.25 1249:1 1313:1 1409:0.5 1424:1 1425:0.5 2331:0.25 2332:0.25 2546:0.2 2634:0.5 2946:0.5 4452:0.5 5601:0.5 7532:0.5 8544:1 8545:1 8546:1 
1 58:0.166667 171:0.25 187:0.666667 231:0.333333 335:0.666667 373:0.285714 488:0.333333 702:0.666667 1010:0.333333 1434:1 1460:0.666667 1637:1 2404:1 3055:0.5 3109:1 
1 13:0.2 29:0.666667 40:0.5 46:0.142857 55:0.25 83:0.666667 100:0.2 110:0.125 112:0.666667 115:0.166667 117:0.333333 153:0.25 253:0.666667 318:0.25 486:0.333333 517:0.5 539:0.333333 701:0.5 727:0.5 832:0.5 1077:0.5 1772:1 1991:1 2330:0.666667 2569:1 2825:0.666667 4818:1 5783:1 8547:1 8548:0.5 8549:1 
1 63:0.142857 330:0.5 338:0.333333 380:0.333333 401:0.2 503:0.25 538:0.5 598:0.4 1085:0.333333 1133:1 8550:0.5 
1 3:1 4:0.166667 13:0.2 16:0.75 23:0.333333 25:1 29:0.333333 40:0.25 42:1 44:0.375 46:1 48:0.5 49:0.8 68:0.25 75:0.333333 77:0.25 100:0.4 106:0.333333 118:0.25 121:0.333333 131:0.25 135:0.1 151:1 173:0.25 187:0.666667 194:0.2 214:0.5 216:0.25 232:0.333333 281:0.666667 287:0.5 288:0.363636 290:0.4 296:1 304:0.5 305:0.666667 307:0.25 314:0.25 380:0.666667 386:1 420:0.25 428:0.5 492:0.5 509:0.2 554:0.5 560:0.666667 564:0.166667 570:0.5 751:0.333333 799:0.666667 800:0.4 822:0.666667 947:0.25 970:0.333333 971:0.666667 1029:0.333333 1121:0.5 1225:0.25 1247:0.5 1433:0.5 1468:0.5 1710:1 1752:0.333333 1822:0.25 1970:1 2021:0.333333 2208:0.5 2327:0.666667 2330:1 2461:0.5 3142:0.5 3356:1 3630:0.5 3769:1 3864:0.666667 3976:1 4283:0.4 4313:1 4412:1 4671:1 4681:0.5 4873:1 5169:1 5530:0.5 5577:1 6357:0.5 6452:0.666667 6565:1 6993:0.5 7037:1 7038:1 7039:1 7040:1 7041:1 7240:1 8551:1 8552:1 
1 4:0.166667 8:0.25 13:0.2 49:0.2 129:0.25 175:0.333333 219:0.2 296:1 373:0.142857 380:0.333333 531:0.2 560:0.333333 655:1 902:0.125 973:0.333333 1750:0.333333 1783:1 1940:1 2021:0.333333 2395:0.5 4267:0.2 4524:0.333333 4564:0.5 8537:1 8553:1 8554:1 
1 28:0.666667 29:1 42:1 44:0.125 68:0.25 72:0.6 83:1 92:0.333333 97:0.166667 99:0.25 118:0.75 120:0.25 131:0.25 133:0.333333 157:0.25 273:0.333333 315:0.5 325:0.5 539:0.166667 547:0.25 550:0.5 724:0.333333 837:0.5 924:0.333333 1239:0.333333 1524:1 1891:1 2838:1 3028:1 3152:0.5 3501:1 3799:0.333333 4600:1 4878:0.333333 5162:0.5 8555:1 8556:1 
1 5:0.25 118:0.25 141:0.333333 373:0.142857 401:0.2 509:0.2 3155:0.5 4105:0.5 4793:1 5477:1 8168:1 8557:1 
1 59:0.333333 106:0.166667 121:0.166667 135:0.1 171:0.125 219:0.2 276:1 304:0.25 406:0.333333 409:0.5 503:0.25 560:0.333333 653:0.2 761:0.5 1048:0.142857 1118:0.333333 1736:1 2495:1 3847:0.5 6510:1 6519:1 8558:1 
1 5:0.25 151:0.333333 187:0.333333 262:0.5 373:0.142857 1076:1 1356:0.2 1945:0.333333 3066:0.5 4592:0.2 6640:1 8559:1 8560:1 
1 5:0.25 15:0.25 243:0.111111 539:0.166667 1148:1 1215:0.333333 3606:0.5 6965:0.333333 
1 5:0.5 12:1 28:0.333333 29:0.666667 51:0.25 75:0.166667 83:0.666667 91:0.333333 112:0.666667 133:0.333333 196:0.25 226:0.6 288:0.181818 433:0.333333 469:0.5 751:0.333333 785:0.333333 935:0.666667 947:0.5 1077:0.5 1276:0.25 1433:0.5 1991:0.5 2437:1 2518:0.666667 2569:0.5 3103:0.5 3236:0.5 3899:0.5 6094:1 6902:1 
1 35:0.5 42:1 94:0.2 100:0.2 151:0.333333 152:0.4 153:0.25 248:0.25 288:0.181818 304:0.25 305:0.333333 307:0.25 308:0.25 378:0.5 386:0.333333 655:1 706:1 824:0.5 911:0.222222 1112:0.333333 1116:0.25 1190:0.666667 2021:0.666667 2355:0.333333 2569:0.5 4785:1 8273:0.5 8561:1 8562:1 
1 194:0.2 214:0.25 288:0.181818 409:0.5 503:0.5 800:0.2 2473:0.333333 4378:1 6561:0.5 8239:0.5 8563:1 8564:0.5 8565:1 
1 5:0.5 17:0.333333 38:0.5 44:0.125 58:0.166667 86:0.666667 94:0.2 100:0.2 120:0.25 157:0.25 166:0.5 216:0.25 249:0.2 273:0.333333 281:0.333333 304:0.25 371:0.4 406:0.333333 420:0.25 439:0.5 538:1 663:1 701:0.5 724:0.333333 865:0.5 2023:0.5 3606:0.5 4222:0.5 6494:0.666667 7427:1 8566:1 8567:1 
1 5:0.25 13:0.2 49:0.2 51:0.25 68:0.25 75:0.166667 152:0.2 172:0.166667 198:0.333333 287:0.25 288:0.272727 289:0.5 304:0.5 307:0.5 687:0.333333 751:0.333333 901:0.2 913:0.5 1010:0.666667 1197:0.5 1711:0.5 2506:0.666667 2750:1 
1 5:0.25 49:0.2 58:0.166667 59:0.333333 94:0.2 106:0.333333 121:0.333333 150:0.142857 152:0.2 172:0.166667 216:0.25 219:0.4 222:0.25 226:0.2 273:0.333333 334:0.5 338:0.333333 373:0.285714 428:0.5 492:0.166667 653:0.2 695:0.25 721:0.5 755:0.5 780:0.5 837:0.5 1010:0.333333 1013:0.333333 1493:1 3486:0.333333 3606:0.5 8568:1 8569:1 8570:1 8571:1 8572:1 8573:1 
1 3:0.333333 5:0.25 44:0.125 53:0.25 68:0.25 95:0.125 131:0.25 171:0.125 221:0.25 258:0.5 288:0.0909091 300:0.333333 304:0.25 305:0.333333 386:0.333333 533:0.666667 598:0.2 638:0.25 676:1 706:0.5 901:0.2 911:0.111111 1396:0.5 1510:0.5 1822:0.25 1994:0.333333 2313:1 2355:0.333333 2399:0.5 2492:0.5 2733:0.5 2907:1 3219:0.5 3830:0.333333 4378:0.5 6250:1 8274:0.5 
1 5:0.25 8:0.25 13:0.2 46:0.142857 58:0.333333 75:0.166667 110:0.125 151:0.666667 269:0.333333 281:0.333333 288:0.272727 519:0.5 598:0.2 800:0.4 801:0.5 979:0.333333 1116:0.25 1276:0.25 1277:0.5 1394:1 1622:0.5 2348:1 2854:0.5 3055:1 3328:0.333333 5256:1 5500:1 7548:0.5 8296:1 8574:1 8575:1 8576:1 8577:0.5 
1 8:0.25 32:0.333333 97:0.166667 258:0.25 564:0.166667 1376:0.333333 3013:0.5 
1 46:0.142857 49:0.2 53:0.25 58:0.166667 118:0.25 197:0.166667 338:0.333333 358:0.333333 428:0.5 588:0.333333 613:0.6 770:0.333333 902:0.25 1010:0.333333 1736:1 1987:0.5 2122:0.333333 2290:0.5 2655:0.666667 3606:0.5 6356:0.666667 8578:1 8579:1 8580:1 
1 5:0.5 35:0.5 42:1 153:0.25 270:1 373:0.428571 471:0.666667 492:0.333333 503:0.25 695:0.75 755:0.5 916:0.5 1078:0.333333 1115:0.5 1301:0.5 1623:0.25 2178:0.5 3328:0.666667 4052:0.5 8581:1 8582:0.5 
1 46:0.285714 68:0.25 75:0.166667 120:0.25 121:0.166667 168:0.333333 171:0.125 172:0.166667 181:0.333333 194:0.2 197:0.166667 198:0.166667 206:0.5 243:0.111111 358:0.333333 418:0.333333 487:0.5 503:0.25 560:0.333333 649:0.5 713:0.333333 775:0.5 991:0.5 1007:0.2 1305:0.5 1402:0.5 1699:0.5 1781:0.2 2187:0.333333 2636:0.5 3030:0.666667 3080:1 3185:0.5 3596:0.5 7980:1 8443:1 8450:1 8583:1 8584:1 8585:1 
1 16:0.25 373:0.142857 509:0.2 613:0.2 1013:0.333333 1076:1 1926:0.5 4596:1 6279:0.2 
1 5:0.5 11:0.333333 46:0.285714 58:0.333333 67:0.333333 171:0.25 194:0.2 219:0.2 334:0.5 373:0.142857 503:0.5 756:0.5 757:0.666667 1007:0.4 1032:0.5 1716:0.285714 2034:0.25 2072:0.25 3342:1 8463:0.666667 8464:0.5 8465:1 8466:1 8467:1 
1 29:0.333333 32:0.333333 40:0.25 46:0.142857 48:0.25 49:0.2 55:0.25 57:0.333333 75:0.166667 95:0.125 97:0.166667 109:0.25 145:0.5 327:0.333333 338:0.333333 392:1 427:0.25 502:0.333333 539:0.166667 581:0.25 587:0.25 711:0.5 939:0.5 1524:1 3103:0.5 4061:1 4162:1 5975:0.25 8457:1 8586:1 
1 5:0.25 49:0.2 172:0.166667 297:0.333333 509:0.4 612:0.25 632:0.5 676:1 959:0.5 1438:1 1880:1 2666:0.5 3769:0.5 3815:0.5 3854:1 4243:0.5 6256:1 8427:0.5 8587:1 8588:1 8589:1 8590:1 8591:1 8592:1 8593:1 
1 57:0.333333 172:0.166667 564:0.166667 939:0.5 1637:0.5 2172:0.5 2946:0.5 4151:0.333333 5817:0.5 
1 30:0.333333 503:0.25 1495:0.333333 1712:1 6356:0.333333 
1 10:0.5 17:0.333333 22:0.5 23:0.166667 44:0.125 46:0.142857 49:0.2 152:0.2 172:0.166667 206:0.5 213:0.333333 214:0.5 231:0.333333 373:0.142857 474:0.25 594:0.333333 674:0.333333 987:1 1182:0.5 2068:0.5 2392:0.5 3484:1 4390:1 4559:0.666667 5356:0.333333 
1 5:0.25 35:0.25 49:0.2 118:0.25 171:0.25 172:0.166667 194:0.2 196:0.25 219:0.2 358:0.666667 373:0.142857 436:0.5 503:0.5 702:0.333333 703:0.333333 722:0.5 756:0.25 757:0.333333 1007:0.2 1019:0.333333 1176:1 1716:0.142857 1736:1 1913:1 2022:0.333333 2187:0.333333 2723:0.666667 3416:0.5 
1 147:0.5 162:0.4 166:0.5 172:0.166667 290:0.4 293:1 318:0.25 326:0.333333 367:0.166667 372:0.5 426:0.25 503:0.25 548:0.333333 554:0.25 565:0.25 665:0.25 712:0.166667 714:0.333333 720:0.5 943:0.5 990:0.5 1209:1 1793:0.333333 1926:1 2006:0.333333 2177:0.5 3293:0.5 3746:0.333333 4485:1 5793:0.5 6281:1 8594:1 
1 22:0.5 36:0.25 46:0.142857 58:0.166667 161:0.142857 172:0.166667 318:0.25 503:0.5 509:0.2 547:0.25 598:0.2 965:0.666667 1014:0.5 1117:1 1306:0.333333 1679:1 2192:1 2903:0.666667 4591:0.25 6468:1 8595:1 8596:1 8597:1 
1 5:0.25 8:0.25 22:0.5 23:0.166667 29:0.333333 46:0.142857 58:0.166667 68:0.25 75:0.166667 110:0.125 118:0.25 120:0.25 182:0.333333 194:0.2 213:0.333333 373:0.285714 418:0.333333 474:0.25 529:1 547:0.5 682:0.5 757:0.333333 1010:0.666667 1433:0.5 1460:0.333333 1472:0.5 1555:0.5 1644:0.25 1656:0.25 2185:0.5 2194:0.5 2610:0.333333 2931:0.5 3490:1 3832:1 4681:0.5 4921:1 6095:1 6414:0.5 6482:0.5 7833:0.5 8368:1 8598:1 8599:1 8600:1 
1 30:0.333333 46:0.142857 171:0.25 194:0.2 296:1 304:0.25 318:0.25 373:0.142857 380:0.333333 474:0.25 531:0.2 634:1 653:0.2 760:0.5 761:0.5 825:1 973:0.333333 1457:0.25 1458:0.2 1554:0.25 1716:0.142857 3342:0.5 3683:0.25 6424:1 6510:1 6529:1 8036:0.5 8601:1 
1 12:0.5 14:0.333333 44:0.125 52:0.5 53:0.5 67:0.333333 94:0.4 172:0.333333 214:0.25 219:0.2 222:0.25 290:0.2 474:0.5 505:0.4 611:0.4 695:0.5 705:0.5 753:0.5 837:0.5 1078:0.333333 1139:0.2 1195:0.5 1451:0.666667 1604:0.5 1665:1 2194:0.5 2392:0.5 2851:0.5 3872:1 4931:1 7694:0.5 
1 108:0.333333 146:0.666667 151:0.333333 187:0.333333 202:0.666667 318:0.25 492:0.166667 503:0.5 978:0.333333 1115:0.5 1116:0.5 1124:0.2 1142:0.5 1306:0.666667 2235:1 2342:1 2506:0.333333 3038:0.5 3342:1 3352:1 4227:1 5768:0.5 8602:1 8603:1 
1 8:0.25 13:0.2 46:0.142857 49:0.2 53:0.25 61:0.5 115:0.166667 118:0.25 120:0.25 157:0.25 231:0.333333 246:0.5 258:0.5 288:0.181818 318:0.25 328:0.25 363:0.5 367:0.166667 378:1 386:0.333333 539:0.5 564:0.333333 712:0.166667 775:0.5 1151:0.333333 1303:0.5 1898:1 2248:0.333333 2412:0.5 4123:0.4 
1 5:0.25 17:0.333333 22:0.5 23:0.166667 53:0.25 68:0.25 75:0.166667 100:0.2 172:0.166667 214:0.25 385:1 393:0.5 455:0.25 505:0.2 516:0.5 519:0.5 1084:0.333333 1195:0.5 1570:0.333333 1856:0.5 2164:0.5 2392:0.5 3050:1 5341:0.5 8604:1 8605:1 8606:0.5 8607:1 
1 14:0.333333 17:0.333333 100:0.2 153:0.25 159:0.666667 219:0.4 247:0.2 328:0.25 337:0.333333 401:0.2 404:0.25 426:1 492:0.166667 523:0.25 531:0.2 567:0.25 611:0.2 613:0.4 665:0.5 687:0.666667 795:0.25 913:0.5 1010:0.666667 1721:0.333333 1785:1 2122:0.166667 3365:0.5 3921:0.5 4052:0.5 6420:1 7909:1 8608:0.5 8609:1 
1 15:0.25 22:0.5 29:0.333333 68:0.25 106:0.166667 121:0.166667 162:0.2 248:0.25 290:0.4 503:0.25 566:0.5 694:1 700:0.5 701:0.5 916:0.5 1465:0.5 1555:0.5 2194:0.5 2811:1 3347:1 3538:1 4474:0.333333 4540:0.5 7782:0.666667 
1 30:0.666667 40:0.25 44:0.125 58:0.166667 109:0.25 110:0.125 115:0.166667 168:0.166667 171:0.125 172:0.333333 367:0.166667 492:0.166667 533:0.333333 613:0.2 770:0.333333 902:0.25 935:0.333333 1010:0.333333 1087:0.333333 1191:0.5 1520:1 1622:0.5 1721:0.333333 1823:0.5 2138:0.5 3671:0.333333 3865:0.5 4857:0.5 4858:1 5506:0.5 5716:0.333333 8610:1 
1 5:0.25 27:0.333333 29:0.333333 30:0.333333 40:0.25 50:0.5 52:0.5 59:0.333333 113:0.142857 114:0.333333 129:0.5 133:0.333333 183:0.2 318:0.25 492:0.166667 653:0.2 694:1 775:1 959:0.5 1480:0.5 1733:0.333333 1751:0.333333 2330:0.333333 2352:0.333333 3347:1 4372:0.666667 5184:0.5 5506:0.5 8611:1 8612:1 8613:1 8614:0.5 8615:1 
1 5:0.25 13:0.2 16:0.25 61:0.5 94:0.2 171:0.125 172:0.166667 212:0.166667 214:0.25 455:0.25 473:1 474:0.25 481:0.5 505:0.4 564:0.166667 653:0.2 721:0.5 1116:0.25 1185:0.333333 1570:0.333333 2262:0.666667 2315:0.5 2392:0.5 2736:0.125 3123:0.333333 3124:0.25 4390:1 6424:1 8476:0.5 8605:1 8606:1 
1 5:0.25 13:0.2 44:0.125 46:0.142857 75:0.166667 99:0.25 151:0.666667 152:0.2 172:0.166667 214:0.25 287:0.25 288:0.363636 304:0.25 305:0.333333 500:0.5 548:0.333333 554:0.25 560:0.333333 655:1 724:0.333333 800:0.4 1116:0.25 1247:1 1512:0.333333 1747:0.5 1994:0.333333 2330:0.333333 3769:1 6565:1 8208:1 
1 5:0.5 17:0.333333 23:0.166667 49:0.2 82:0.333333 110:0.125 157:0.25 204:0.25 221:0.25 416:0.5 428:0.5 469:0.5 477:1 503:0.5 761:1 892:0.333333 1159:0.5 1396:0.5 1457:0.75 3142:0.5 3181:0.5 3579:0.333333 3606:0.5 3683:0.25 4309:0.5 5816:1 6630:0.5 7299:1 7688:0.5 8616:1 
1 328:0.25 539:0.166667 1412:0.25 2174:1 4591:0.25 4836:0.5 6283:0.5 
1 3:0.333333 208:0.333333 338:0.333333 426:0.25 433:0.333333 665:0.25 785:0.333333 2463:0.333333 4591:0.5 6993:0.5 8617:1 8618:1 8619:0.5 
1 16:0.5 106:0.333333 110:0.125 120:0.25 121:0.333333 162:0.2 197:0.166667 373:0.285714 765:0.333333 827:0.5 838:0.666667 916:0.5 1067:0.5 1115:0.5 1154:0.5 1161:0.5 1165:0.5 2733:0.5 3431:1 5171:0.5 5408:0.5 8620:1 8621:1 8622:1 8623:1 8624:1 
1 44:0.125 49:0.2 120:0.25 161:0.142857 194:0.2 212:0.166667 474:0.25 505:0.4 519:0.5 827:1 838:0.333333 916:1 1161:1 1165:0.5 1173:0.5 1402:0.5 2308:1 3488:0.333333 6424:1 8621:0.5 8625:1 
1 5:0.5 16:0.5 49:0.2 95:0.25 100:0.2 113:0.142857 120:0.25 151:0.333333 172:0.166667 187:0.333333 219:0.2 280:0.5 373:0.285714 380:0.333333 455:0.5 516:0.5 591:0.5 653:0.2 775:0.5 1010:0.333333 1480:0.5 1814:0.5 1926:0.5 2326:0.5 2327:0.666667 2364:0.5 3447:1 3486:0.333333 3606:0.5 4486:0.5 5571:0.5 7037:0.5 7441:0.5 8626:1 8627:1 
1 5:0.25 127:0.125 157:0.25 539:0.166667 591:0.25 3606:0.5 8450:1 8626:0.5 
1 49:0.2 57:0.666667 118:0.25 197:0.166667 290:0.2 503:0.25 564:0.333333 838:0.333333 1607:0.5 1628:0.333333 2186:0.666667 2348:1 3202:0.5 6437:1 8478:1 8628:1 
1 1:0.5 5:0.5 9:0.333333 11:0.166667 15:0.25 17:0.333333 22:0.5 44:0.125 49:0.2 53:0.25 75:0.166667 106:0.166667 121:0.166667 155:0.25 162:0.4 172:0.166667 226:0.2 290:0.2 367:0.333333 503:0.25 687:0.333333 695:0.25 913:0.5 1010:0.333333 1178:0.5 1195:0.5 1416:1 1450:1 1906:0.5 2117:0.5 2118:0.333333 2264:0.333333 2299:0.333333 2300:0.333333 2666:0.5 2667:0.333333 3346:0.5 3749:1 5278:1 5341:0.5 5877:0.5 8184:0.5 8193:1 8194:1 8629:1 8630:0.5 
1 5:0.25 11:0.166667 14:0.333333 15:0.25 46:0.142857 53:0.25 183:0.2 243:0.222222 318:0.25 330:0.5 367:0.166667 493:0.333333 503:0.5 505:0.2 695:0.25 860:0.333333 916:0.5 1162:0.5 1195:0.5 1416:0.5 2122:0.166667 2320:0.5 2392:0.5 3142:0.5 4125:0.5 4179:0.5 5278:0.5 5877:0.5 8193:1 8194:1 
1 1:0.5 4:0.166667 5:0.25 13:0.4 15:0.25 96:0.2 151:0.333333 153:0.25 162:0.2 226:0.2 243:0.111111 366:0.5 367:0.166667 401:0.2 695:0.25 1080:0.333333 1116:0.25 1416:1 1450:1 2118:0.333333 2299:0.333333 2300:0.333333 2630:0.5 2666:0.5 2709:0.5 3237:0.333333 3619:1 4179:1 5278:0.5 5877:1 7078:0.333333 8193:0.5 8194:0.5 8631:1 8632:1 8633:1 
1 11:0.166667 15:0.25 42:1 58:0.166667 75:0.166667 94:0.2 96:0.2 110:0.125 133:0.666667 155:0.25 243:0.111111 386:0.333333 560:0.333333 570:0.166667 576:0.333333 653:0.2 687:0.333333 721:0.5 732:0.5 775:0.5 825:1 941:1 1010:0.333333 1019:0.333333 1077:0.5 1395:0.333333 1644:0.25 2027:0.5 2186:0.666667 2211:1 4124:0.25 7261:1 8631:1 8634:1 
1 4:0.166667 5:0.25 59:0.333333 61:0.5 92:0.333333 94:0.2 110:0.125 162:0.2 328:0.25 380:0.333333 503:0.25 530:0.5 539:0.166667 594:0.333333 653:0.2 730:1 901:0.2 908:0.333333 924:0.333333 987:1 1092:0.5 1274:0.25 1495:0.333333 2331:0.25 3124:0.25 3296:1 7145:1 8635:1 8636:1 8637:1 8638:1 
1 5:0.25 16:0.25 75:0.333333 77:0.25 94:0.2 100:0.2 427:0.25 449:0.5 760:0.5 761:1 799:0.333333 838:0.333333 1239:0.333333 1572:0.5 2368:0.333333 2854:0.5 3209:0.5 3210:0.333333 3223:1 4369:0.5 4612:0.5 4614:1 4979:1 8639:1 8640:0.5 8641:1 8642:1 8643:1 8644:1 
1 5:0.25 503:0.25 542:0.333333 838:0.333333 965:0.333333 1179:1 1961:0.25 3431:1 5896:1 8645:0.5 8646:1 
1 3:0.333333 5:0.25 8:0.25 12:0.5 13:0.2 46:0.142857 49:0.2 58:0.166667 151:0.333333 162:0.2 175:0.333333 187:0.333333 219:0.2 328:0.5 334:0.5 373:0.142857 418:0.333333 539:0.166667 541:0.333333 591:0.25 695:0.25 706:1 1414:0.5 2232:1 2234:0.5 2642:1 
1 8:0.25 17:0.333333 35:0.25 40:0.25 67:0.666667 95:0.125 100:0.2 153:0.25 155:0.25 204:0.5 226:0.4 318:0.5 334:0.5 371:0.4 373:0.142857 418:0.666667 433:0.333333 547:0.25 785:0.333333 1266:0.666667 1524:1 1555:0.5 2107:0.5 2194:1 2663:1 5663:0.25 6731:1 8647:0.5 8648:1 
