solver_type L2R_LR
nr_class 3
label 1 0 25
nr_feature 16781
bias -1.000000000000000
w
0.009334355269413218 -0.009334355269413218 -0.003514455160649410 
0.01666308624150376 -0.01666308624150376 -0.004682165745771983 
-0.01541928093537782 0.01541928093537782 -0.03394240625006582 
-0.003352248159629102 0.003352248159629102 -0.03496220013259018 
0.2819949834610551 -0.2819949834610551 -0.08309762328190920 
0.003987007724764602 -0.003987007724764602 -0.0009176687812553622 
0.0005530030027093942 -0.0005530030027093942 -0.0001367975077396802 
-0.03930410498692898 0.03930410498692898 -0.09752458500191978 
0.01781070503970272 -0.01781070503970272 -0.009385359499837778 
0.001593774455183406 -0.001593774455183406 -0.003536896683044694 
0.03958852667739886 -0.03958852667739886 -0.01885615214678715 
0.01599279833707404 -0.01599279833707404 -0.009037538456152410 
-0.07747998527177054 0.07747998527177054 -0.1191070723682265 
0.003135529638589536 -0.003135529638589536 -0.009399860546123762 
0.02391144135692183 -0.02391144135692183 -0.02005234267990821 
-0.09491944483523423 0.09491944483523423 -0.1147877139712542 
-0.04158747413103393 0.04158747413103393 -0.08713285438621692 
0.001976861476223113 -0.001976861476223113 -0.0005040290940469329 
0.0005530030027093942 -0.0005530030027093942 -0.0001367975077396802 
-0.0005794433157261252 0.0005794433157261252 -0.002522555083600993 
0.0005767368218596849 -0.0005767368218596849 -0.0009061339056718476 
0.02575236373108397 -0.02575236373108397 -0.02782052557322377 
-0.09017160415236837 0.09017160415236837 -0.08957262973062817 
0.0003806074515589265 -0.0003806074515589265 -0.0001848186271042960 
-0.5615631951263794 0.5615631951263794 -0.8936726772185001 
0.001368441893827569 -0.001368441893827569 -0.0005721959762314915 
-0.007348526197646435 0.007348526197646435 -0.005931368907495921 
0.007181415235340518 -0.007181415235340518 -0.01090026453073724 
0.07198222260640887 -0.07198222260640887 -0.02030995778057172 
0.05684864633235287 -0.05684864633235287 -0.01700300890766210 
-0.0006260125868395717 0.0006260125868395717 -0.003282166486221231 
0.03465402816136702 -0.03465402816136702 -0.005739327484750265 
0.01172181326582976 -0.01172181326582976 -0.005143999592183072 
-0.04340354712870303 0.04340354712870303 -0.04082122400297870 
-0.01552780635192631 0.01552780635192631 -0.04628144580867001 
0.007116551492929282 -0.007116551492929282 -0.007106904620273023 
0.0006733905244186572 -0.0006733905244186572 -8.446237417855128e-05 
0.02004885663625993 -0.02004885663625993 -0.003706967084582952 
0.006907701280917156 -0.006907701280917156 -0.003356301859762182 
0.02929319807502835 -0.02929319807502835 -0.03498045289464992 
0.0006733905244186572 -0.0006733905244186572 -8.446237417855128e-05 
0.04697269466791294 -0.04697269466791294 -0.02029342201535710 
-0.003881618171977772 0.003881618171977772 -0.02436121364794152 
-0.1131160054845315 0.1131160054845315 -0.1322978755570205 
0.006843380013540692 -0.006843380013540692 -0.006364757271808480 
-0.1257223669552582 0.1257223669552582 -0.2093275619269981 
0.004810776320115295 -0.004810776320115295 -0.002215924360745749 
0.01399772429472209 -0.01399772429472209 -0.01428183569643557 
0.008917282827494330 -0.008917282827494330 -0.1508194245240697 
-0.01259977660716351 0.01259977660716351 -0.008797842559727577 
-0.01910584779326600 0.01910584779326600 -0.04427786740575983 
0.01451328882016217 -0.01451328882016217 -0.002255787521565193 
-0.004438308807445246 0.004438308807445246 -0.04244656721439084 
-0.001483015928481160 0.001483015928481160 -0.001340901498284259 
0.01522097636936354 -0.01522097636936354 -0.02287310614173978 
0.0006733905244186572 -0.0006733905244186572 -8.446237417855128e-05 
0.04848747377441422 -0.04848747377441422 -0.01405011662426938 
-0.02439054857567923 0.02439054857567923 -0.1512992613161019 
-0.001799479830722950 0.001799479830722950 -0.02660862792825744 
0.001402208854049652 -0.001402208854049652 -0.0004660454245644585 
-0.02586075301927554 0.02586075301927554 -0.02146080806909151 
-0.0007053291295789520 0.0007053291295789520 -0.0004560420187056389 
-0.003025641650180372 0.003025641650180372 -0.007732751347521808 
-0.02940989354704678 0.02940989354704678 -0.03455274813407133 
-0.01126709200061047 0.01126709200061047 -0.006417397250256330 
-0.01731663054544727 0.01731663054544727 -0.01430192652196385 
0.003193747065269740 -0.003193747065269740 -0.02852160369153126 
-0.04291649947990655 0.04291649947990655 -0.08114145908063587 
-0.0001275748456199833 0.0001275748456199833 -4.926136533830014e-05 
-0.01705842592168834 0.01705842592168834 -0.02507662604313135 
0.003088179094656845 -0.003088179094656845 -0.001925789770238588 
-0.05134889419855693 0.05134889419855693 -0.06258120007053743 
-0.003572443103438597 0.003572443103438597 -0.01843150174075931 
-0.004561982363843239 0.004561982363843239 -0.02240145191673183 
-0.1715675216111329 0.1715675216111329 -0.2076281954763559 
0.002230017419323870 -0.002230017419323870 -0.01544123393944696 
-0.01797323914519335 0.01797323914519335 -0.03723073987919074 
-0.01742714670282817 0.01742714670282817 -0.01152926525362779 
-0.004576031702602634 0.004576031702602634 -0.002652869651234171 
-0.01238281131138597 0.01238281131138597 -0.006601123448380247 
-0.0009096169141721824 0.0009096169141721824 -0.0004206444990652745 
0.001841161365727153 -0.001841161365727153 -0.01163500330447186 
0.006467115764381426 -0.006467115764381426 -0.003246753689647624 
-0.002582972807140484 0.002582972807140484 -0.001452603974200225 
-0.03964619076643694 0.03964619076643694 -0.02153874525567015 
0.005030049823717849 -0.005030049823717849 -0.005471793004337377 
-0.0009792255776494146 0.0009792255776494146 -0.002610630891729660 
-0.002045164104779851 0.002045164104779851 -0.003722556103527377 
0.001450927068221738 -0.001450927068221738 -0.005424200394212552 
-0.007130062736286200 0.007130062736286200 -0.004413749475191742 
0.005759215574253734 -0.005759215574253734 -0.01539948270605973 
-0.0004026859017463684 0.0004026859017463684 -0.003938571008418761 
-0.01086760974783193 0.01086760974783193 -0.008613080227723566 
-0.07795539646545796 0.07795539646545796 -0.1441657602779684 
-0.1558647488962443 0.1558647488962443 -0.1497843911395314 
-0.003829618025868657 0.003829618025868657 -0.01669393014949096 
-0.06287301104362712 0.06287301104362712 -0.06636023606973715 
-0.001783530946655831 0.001783530946655831 -0.001404723360160151 
-0.009811377201410136 0.009811377201410136 -0.02784619780209762 
-0.05898449689493206 0.05898449689493206 -0.1370598711547929 
-0.002790647270385346 0.002790647270385346 -0.001777628670549302 
-0.003269798619659867 0.003269798619659867 -0.001824305160131108 
-0.004617164191094056 0.004617164191094056 -0.002454663843402205 
-0.01215684744618269 0.01215684744618269 -0.007963723936661955 
-0.003675697490831709 0.003675697490831709 -0.001646127217657291 
-0.07994209930298850 0.07994209930298850 -0.1202647897497230 
-0.008763865928128903 0.008763865928128903 -0.007518933418982817 
-0.001980524185732756 0.001980524185732756 -0.02198783968579442 
-0.09199968037698300 0.09199968037698300 -0.06722761463606251 
-0.1092669507286637 0.1092669507286637 -0.1310474031466274 
-0.007175381863551445 0.007175381863551445 -0.003519278416852867 
0.01239785913344120 -0.01239785913344120 -0.03708483080365378 
-0.09979777898811568 0.09979777898811568 -0.1111992410556112 
-0.01463825994229707 0.01463825994229707 -0.06121594957678939 
-0.01878174908862844 0.01878174908862844 -0.05162441029366070 
-0.0008133769991481631 0.0008133769991481631 -0.001086329568605172 
0.01031670465351919 -0.01031670465351919 -0.01105287314286036 
-0.06614619330337289 0.06614619330337289 -0.1076121713914476 
-0.008191171938588322 0.008191171938588322 -0.01114148453351927 
0.03148347550821807 -0.03148347550821807 -0.04279470394647254 
-0.06796154888408444 0.06796154888408444 -0.1138359783565494 
-0.0001966633743912473 0.0001966633743912473 -6.395685997848810e-05 
-0.0006752682160131954 0.0006752682160131954 -0.0002191490513046743 
-0.0005181744995181775 0.0005181744995181775 -0.0004520919014878588 
-0.01234431937872752 0.01234431937872752 -0.01986328182923964 
-0.002380086859002443 0.002380086859002443 -0.002188217469578545 
-0.03310396342528411 0.03310396342528411 -0.02521538308678832 
0.0009669380554606275 -0.0009669380554606275 -0.01020705860093990 
-0.01510512363303906 0.01510512363303906 -0.01949628684376308 
-0.0009224471911610258 0.0009224471911610258 -0.0009732917730980991 
-0.05127779046971289 0.05127779046971289 -0.05757719738494783 
-0.01204938380561621 0.01204938380561621 -0.009354066959182436 
-0.05634318795963809 0.05634318795963809 -0.04776594522223952 
-0.03034086291583316 0.03034086291583316 -0.01617609253476001 
-0.009402369226515613 0.009402369226515613 -0.04184134857267036 
-0.008008959075327667 0.008008959075327667 -0.004681394935818170 
-0.01339537066606661 0.01339537066606661 -0.006537505970481035 
-0.02783028455652576 0.02783028455652576 -0.01536168773859828 
-0.005318458585216325 0.005318458585216325 -0.002985249171635934 
-0.02236211899850074 0.02236211899850074 -0.01738222122027355 
-0.004495663519297977 0.004495663519297977 -0.003604595639223715 
-0.0004644455113994483 0.0004644455113994483 -0.001659551072274103 
-0.0003851112566068400 0.0003851112566068400 -0.003256721618107486 
-0.002178240246146839 0.002178240246146839 -0.0008512572656343417 
-0.01256222759605054 0.01256222759605054 -0.01780052167875764 
-0.001623928970167101 0.001623928970167101 -0.009162081590320552 
-0.001690478609658133 0.001690478609658133 -0.003652843259276090 
-0.01212980747739299 0.01212980747739299 -0.009302880682464534 
-0.005563759650553580 0.005563759650553580 -0.005436646301672027 
-0.0006533471911977648 0.0006533471911977648 -0.01454029410622174 
0.03061970550377009 -0.03061970550377009 -0.02829566883196365 
-0.06952657992004903 0.06952657992004903 -0.07643380551302295 
-0.002556390291710036 0.002556390291710036 -0.05253440302549653 
0.005819810944637640 -0.005819810944637640 -0.003213589958105448 
-0.01981478125963785 0.01981478125963785 -0.02202009373855064 
-0.001435380158794448 0.001435380158794448 -0.0009437625149292811 
0.02331080245477264 -0.02331080245477264 -0.05326152057112616 
-0.02524799929643398 0.02524799929643398 -0.01380540465997733 
-0.007299395765973388 0.007299395765973388 -0.004784414242883213 
-0.02192728544612906 0.02192728544612906 -0.01173740912174825 
-0.1845673388487564 0.1845673388487564 -0.1811827127047343 
0.07810648403412082 -0.07810648403412082 -0.02803200702893455 
-0.009715638819286953 0.009715638819286953 -0.005051618476925785 
-0.04513541368044464 0.04513541368044464 -0.02518940876625682 
-0.006125525468818862 0.006125525468818862 -0.003942751513785848 
-0.01226630383984299 0.01226630383984299 -0.03434793363159710 
-0.007724339402923703 0.007724339402923703 -0.01239325422853397 
-0.02409082331322852 0.02409082331322852 -0.02296875443714691 
-0.01699102768745770 0.01699102768745770 -0.01180248023168253 
-0.01849205515314186 0.01849205515314186 -0.01457101940364893 
-0.03202447962365950 0.03202447962365950 -0.1227381389804574 
-0.009109595632415046 0.009109595632415046 -0.08592942333336580 
-0.01593943440776533 0.01593943440776533 -0.02307227438254539 
-0.01624982139427021 0.01624982139427021 -0.01060358364929664 
0.02690994896531315 -0.02690994896531315 -0.01666993348760554 
-0.007861077878158797 0.007861077878158797 -0.004201106896985280 
-0.002968266684550177 0.002968266684550177 -0.001186086395246654 
-0.007385055545156222 0.007385055545156222 -0.006501586795846497 
-0.01796127409903246 0.01796127409903246 -0.008568233912068183 
-0.001660618377282273 0.001660618377282273 -0.003724995752688251 
-0.005559137720847097 0.005559137720847097 -0.007909775590083034 
-0.009184423738999154 0.009184423738999154 -0.005770632216155621 
0.01390130793598329 -0.01390130793598329 -0.01507960064390351 
-0.001618223278265080 0.001618223278265080 -0.001410814463198911 
-0.0004653262462156230 0.0004653262462156230 -0.0002427106201465432 
0.0003881326106232580 -0.0003881326106232580 -0.0002654225791316572 
0.001566259704835545 -0.001566259704835545 -0.06278173439291379 
0.008470791121227405 -0.008470791121227405 -0.003495377872539426 
0.0005965851682422544 -0.0005965851682422544 -0.003488052392454198 
-0.05690281943574269 0.05690281943574269 -0.03241920625305166 
-0.001664136768126647 0.001664136768126647 -0.001761876219799581 
-0.0001049177909044685 0.0001049177909044685 -2.998706585493604e-05 
-0.001140547183276580 0.001140547183276580 -0.001084738401481512 
0.003814957766686100 -0.003814957766686100 -0.06747058342897626 
-0.002805655974266538 0.002805655974266538 -0.001491005887503638 
-0.02212737641484963 0.02212737641484963 -0.02533249548152579 
-0.09823425377554712 0.09823425377554712 -0.09298078965751990 
-0.04927446008497200 0.04927446008497200 -0.05638861404732784 
-0.001623909735146649 0.001623909735146649 -0.0007406083926936293 
-0.007982319137244204 0.007982319137244204 -0.004392991566258967 
-0.01082634045748842 0.01082634045748842 -0.005611432407207458 
0.009689154029257666 -0.009689154029257666 -0.005689243851666040 
-0.001364505811167771 0.001364505811167771 -0.004507403094754441 
0.02659334296149988 -0.02659334296149988 -0.01431304403682483 
-0.03441980351873833 0.03441980351873833 -0.03053943681655744 
-0.008201713999196853 0.008201713999196853 -0.01458154565770656 
-0.01129850942939908 0.01129850942939908 -0.006662113777503433 
-0.002013462784940469 0.002013462784940469 -0.005076625347045709 
-0.0001010363200398629 0.0001010363200398629 -0.0004035246418677695 
-0.001548833928703967 0.001548833928703967 -0.0007435595847142605 
-0.005731245917678235 0.005731245917678235 -0.007069587648212077 
-0.02215656276377700 0.02215656276377700 -0.02113009663606046 
-0.01190733211949876 0.01190733211949876 -0.01131729643173115 
0.08631293836880458 -0.08631293836880458 -0.02963116851477991 
-0.007400573109053964 0.007400573109053964 -0.003766178508165089 
-0.009135179171725063 0.009135179171725063 -0.05278831406683673 
-0.002579322890381795 0.002579322890381795 -0.001207363571173462 
-0.002157752833493638 0.002157752833493638 -0.0008284706058194090 
0.02761300469176026 -0.02761300469176026 -0.07652971524074025 
-0.02081065907267792 0.02081065907267792 -0.02279901976628862 
-0.001404362969961988 0.001404362969961988 -0.01890488698197994 
0.001935272494862510 -0.001935272494862510 -0.02444200288191162 
-0.001051059301216397 0.001051059301216397 -0.0003960055669002727 
-0.0003168757461187385 0.0003168757461187385 -0.0001046660214476864 
0.0008170160466889039 -0.0008170160466889039 -0.001397468710943849 
-0.06277458637283174 0.06277458637283174 -0.07802402955867288 
-0.002984473147571824 0.002984473147571824 -0.001839123997240162 
-0.01100492059639961 0.01100492059639961 -0.006654027586082230 
-0.001510982001984195 0.001510982001984195 -0.0005783459758234522 
-0.001620999617045628 0.001620999617045628 -0.0008234603366602835 
-0.006515062985726569 0.006515062985726569 -0.02522785338450221 
-0.01661826053098811 0.01661826053098811 -0.02517013606894477 
-0.001252000895630117 0.001252000895630117 -0.0006103002371351156 
-0.003464844279682727 0.003464844279682727 -0.002637126456496698 
-0.004624713407403909 0.004624713407403909 -0.002608666627849107 
-0.01260971765013633 0.01260971765013633 -0.006842340460699677 
-0.01616972663672887 0.01616972663672887 -0.009335369357818018 
-0.0001420206513716147 0.0001420206513716147 -7.213387363087370e-05 
-0.0006610537575877548 0.0006610537575877548 -0.0004330875659092405 
-0.01124043533919473 0.01124043533919473 -0.006739836063162875 
-0.0009912959906269196 0.0009912959906269196 -0.0009411862042767010 
-0.004274073146487277 0.004274073146487277 -0.001554092510719452 
-0.05064213085233876 0.05064213085233876 -0.07432770856827783 
-0.001319076847107458 0.001319076847107458 -0.001615915920423716 
0.0008604462667835399 -0.0008604462667835399 -0.0005398240660737670 
-0.002221038898081226 0.002221038898081226 -0.02078633230672481 
-0.1188795240073817 0.1188795240073817 -0.09291607444990750 
-0.02940794760263972 0.02940794760263972 -0.02848766963804771 
0.01185967138908614 -0.01185967138908614 -0.03068344146568558 
-0.006137155328914287 0.006137155328914287 -0.002870197538887688 
0.0008783379262357546 -0.0008783379262357546 -0.001482700187974231 
-0.0001420206513716147 0.0001420206513716147 -7.213387363087370e-05 
-0.006047252529986476 0.006047252529986476 -0.007099181479269553 
-0.0003480944542559989 0.0003480944542559989 -0.0001855055025058881 
0.0004113397146894600 -0.0004113397146894600 -0.005060703369844262 
-0.0002050160459347720 0.0002050160459347720 -0.0009301635181171959 
0.007376403156310478 -0.007376403156310478 -0.002879674374922920 
0.01255692432357829 -0.01255692432357829 -0.01123769382835265 
0.0005784850785770660 -0.0005784850785770660 -0.0001519862342230496 
-0.007633303382408917 0.007633303382408917 -0.004918803466584653 
-0.002254826054256665 0.002254826054256665 -0.004643442402105405 
0.002074981986730319 -0.002074981986730319 -0.001840573186861498 
-0.001554326895961595 0.001554326895961595 -0.0007353105717484870 
-0.0007883088906194581 0.0007883088906194581 -0.0003761141157411303 
0.002741501705942286 -0.002741501705942286 -0.002893430370593883 
-0.002433587914945766 0.002433587914945766 -0.001752084111627889 
-0.002288278194311024 0.002288278194311024 -0.001461959210797810 
-0.01099713137423107 0.01099713137423107 -0.005536435459618154 
-0.006661196543819373 0.006661196543819373 -0.009689481116035691 
0.0006410787404153565 -0.0006410787404153565 -0.001614096445118061 
-0.06346214048931857 0.06346214048931857 -0.04782093858129317 
-0.004603395918616193 0.004603395918616193 -0.002638308251856976 
-0.006069161614936690 0.006069161614936690 -0.01168609538774062 
0.0001247823803800378 -0.0001247823803800378 -0.0008136055750767161 
-0.01636372551972432 0.01636372551972432 -0.008582672837584288 
0.002128765439358092 -0.002128765439358092 -0.0008223017355739033 
0.001348772399691011 -0.001348772399691011 -0.002304056797257751 
-0.01247678373615378 0.01247678373615378 -0.01137546645157145 
-0.002056125780029428 0.002056125780029428 -0.0009307123436432814 
0.01580260915232719 -0.01580260915232719 -0.003435605799392155 
-0.0005767800836576869 0.0005767800836576869 -0.01258443503506098 
-0.001994261291920087 0.001994261291920087 -0.001020874776695382 
-0.004577333838249098 0.004577333838249098 -0.003325663909028334 
0.006046291308042339 -0.006046291308042339 -0.003601312345286842 
0.0008867609462627884 -0.0008867609462627884 -0.0003460384117925205 
-0.004341568654904765 0.004341568654904765 -0.002862284509333374 
-0.03176151633506832 0.03176151633506832 -0.03502506068596058 
-0.1216537625082950 0.1216537625082950 -0.1428264611575248 
-0.02014919635863152 0.02014919635863152 -0.01810870884910417 
-0.01027470234070279 0.01027470234070279 -0.1051416389601162 
-0.0001694607446445443 0.0001694607446445443 -0.0004686631946939782 
-0.003053912556565807 0.003053912556565807 -0.001946911596713896 
0.0007182494547812274 -0.0007182494547812274 -0.0004640975749984829 
-0.03414483253194960 0.03414483253194960 -0.01955905509083973 
-0.008469054474649539 0.008469054474649539 -0.01604056779007572 
0.002253219284987788 -0.002253219284987788 -0.01213063333997768 
-0.03257206591169425 0.03257206591169425 -0.03261645315883521 
-0.01297021728991554 0.01297021728991554 -0.006990187305159352 
-0.002343745735521978 0.002343745735521978 -0.001317675880043335 
-0.0007826060418329076 0.0007826060418329076 -0.002232364388498745 
0.002699469182897574 -0.002699469182897574 -0.005615701451221034 
-0.0009654563413466202 0.0009654563413466202 -0.002023239047056658 
-0.01476203294204458 0.01476203294204458 -0.008050069959586310 
-0.05136471683736719 0.05136471683736719 -0.06722370308098250 
-0.03869756695004492 0.03869756695004492 -0.03339301177797136 
-0.01736421874613277 0.01736421874613277 -0.01846657254725572 
-0.1071676911593467 0.1071676911593467 -0.08057485362574465 
-0.01677056379694775 0.01677056379694775 -0.01514502015261334 
-0.008050874358852324 0.008050874358852324 -0.004478005367919105 
-0.007952327065805887 0.007952327065805887 -0.004999465334331347 
-0.006168368668058215 0.006168368668058215 -0.003089045974844806 
0.0003755234616962546 -0.0003755234616962546 -0.01098083294017433 
-0.007522787242772252 0.007522787242772252 -0.008077186570832597 
-0.01521810655586660 0.01521810655586660 -0.02265480355338426 
0.01506332629016373 -0.01506332629016373 -0.006547320722705741 
-0.007051750951928493 0.007051750951928493 -0.003881314126126639 
0.001168285831016562 -0.001168285831016562 -0.005017792346723640 
-0.04296001303826099 0.04296001303826099 -0.08592560707361674 
-0.009231993129263589 0.009231993129263589 -0.006198871045960836 
-0.001704982257657808 0.001704982257657808 -0.0007293294233445661 
-2.281650269432422e-05 2.281650269432422e-05 -0.001749268096759058 
-0.01212007205866455 0.01212007205866455 -0.007113307810357524 
-0.009591673522112338 0.009591673522112338 -0.007780565871409418 
-0.004073215794826525 0.004073215794826525 -0.004169148305076280 
0.01226555722837032 -0.01226555722837032 -0.004123504760693317 
0.01187546180307284 -0.01187546180307284 -0.01359596267082126 
-0.09453902837537881 0.09453902837537881 -0.06215526789985472 
-0.01316146794922857 0.01316146794922857 -0.05467769500569167 
-0.0001291490485826917 0.0001291490485826917 -4.016988147742854e-05 
-6.450203707985045e-06 6.450203707985045e-06 -0.007471743881071194 
-0.03009389768535677 0.03009389768535677 -0.01595212204581034 
-0.0008775485523788072 0.0008775485523788072 -0.0003535810860770621 
-0.001741299636705867 0.001741299636705867 -0.0009095422957509445 
-0.005725575789498637 0.005725575789498637 -0.02452765312385411 
0.005701006974730909 -0.005701006974730909 -0.01253731643546129 
-0.01373569706652361 0.01373569706652361 -0.008009272456319768 
0.01220820601780050 -0.01220820601780050 -0.004376807115189257 
0.01189176409335234 -0.01189176409335234 -0.02592896637986682 
-0.02439499669127303 0.02439499669127303 -0.02000975242121858 
0.005601004118920692 -0.005601004118920692 -0.004128814433925049 
0.002184875320058996 -0.002184875320058996 -0.0006695900004697404 
-0.0003114735784108229 0.0003114735784108229 -0.0002242268762623508 
0.0005065540646792712 -0.0005065540646792712 -0.001557933077237756 
-0.001220462220122629 0.001220462220122629 -0.0005083264693411868 
-0.01110460819684913 0.01110460819684913 -0.006459943560848377 
-0.001484657919163850 0.001484657919163850 -0.0009415535797503236 
-0.008694775185807423 0.008694775185807423 -0.004591495997232144 
-0.003714546962747686 0.003714546962747686 -0.006085127374048582 
-0.003570693455496119 0.003570693455496119 -0.006102602262755069 
-0.0009309333393419773 0.0009309333393419773 -0.0005363502958529685 
-0.0003114735784108229 0.0003114735784108229 -0.0002242268762623508 
-0.01722211603823377 0.01722211603823377 -0.008206356953639060 
-0.02251401600557709 0.02251401600557709 -0.01336086931821604 
-0.0001438584643765731 0.0001438584643765731 -0.007268436185821270 
-0.001067980208190082 0.001067980208190082 -0.003530132945965758 
-0.008570393613928360 0.008570393613928360 -0.006356943239372895 
-0.0009473471740797570 0.0009473471740797570 -0.0009411763423044424 
0.05188880639421276 -0.05188880639421276 -0.01813476780650259 
-0.03327681466308033 0.03327681466308033 -0.01927986744040563 
-0.003230676498033748 0.003230676498033748 -0.001579966207133339 
-0.003517550265013350 0.003517550265013350 -0.001581484589831414 
-0.07565795924224183 0.07565795924224183 -0.04103112457401890 
-0.03453163209986866 0.03453163209986866 -0.03056299301218106 
-0.04264614109455146 0.04264614109455146 -0.02956067076872754 
0.002713132373174730 -0.002713132373174730 -0.001417575139773028 
-0.02158651782517526 0.02158651782517526 -0.01398411765287700 
-0.02217251671766241 0.02217251671766241 -0.04497179049603726 
-0.005564151839946024 0.005564151839946024 -0.003067081519583727 
-0.03438502841679911 0.03438502841679911 -0.01981352550267880 
-0.0006458082287606115 0.0006458082287606115 -0.0003560808833198616 
-0.01054262867548319 0.01054262867548319 -0.02318149299645175 
-0.02075450028894129 0.02075450028894129 -0.01357179056131646 
0.04772255878358878 -0.04772255878358878 -0.1743318438448712 
0.001236389326413287 -0.001236389326413287 -0.004459808164658382 
-0.01155664550869079 0.01155664550869079 -0.008870127367393480 
-0.0009626633550574511 0.0009626633550574511 -0.005579185143048962 
-0.005027046542486164 0.005027046542486164 -0.004382662193572581 
0.002452670559497258 -0.002452670559497258 -0.007860492520747695 
-0.007261184498236616 0.007261184498236616 -0.006049707071643635 
-0.06368960368938960 0.06368960368938960 -0.08147852073039014 
-0.02214954727451094 0.02214954727451094 -0.01585539748361551 
-0.002847244745617106 0.002847244745617106 -0.001710323764126973 
-0.001114425362850439 0.001114425362850439 -0.0005904942423780339 
-0.0006315798736297524 0.0006315798736297524 -0.0003936586061872723 
-0.002435952961134808 0.002435952961134808 -0.007311344238510346 
0.009175033374621330 -0.009175033374621330 -0.02877452337279750 
0.005333585926512429 -0.005333585926512429 -0.008232110322155628 
-0.0002217068143068352 0.0002217068143068352 -0.0001223353059798070 
-0.005385039216412033 0.005385039216412033 -0.008139294411662314 
0.005739359661666421 -0.005739359661666421 -0.001104707114062777 
-0.001606785244946074 0.001606785244946074 -0.001087279260516755 
-0.005718652422255307 0.005718652422255307 -0.006213087736070913 
-0.005130943878846835 0.005130943878846835 -0.006013326187897178 
-0.0006341624962992625 0.0006341624962992625 -0.0002312635664226498 
-0.001148147501485823 0.001148147501485823 -0.0009240148089059724 
-0.001662005986691639 0.001662005986691639 -0.001260126563445221 
-0.0002603211495680473 0.0002603211495680473 -0.0001291497116761040 
0.0003497670228500451 -0.0003497670228500451 -0.002064691083824673 
-0.001871017181829666 0.001871017181829666 -0.001035911034397617 
-0.01088933530419689 0.01088933530419689 -0.005289603946653931 
-0.05651212383000098 0.05651212383000098 -0.03760420531035794 
-0.007689018067327278 0.007689018067327278 -0.01129071487668674 
-0.001405194017428591 0.001405194017428591 -0.0008934907344937589 
-0.02077990064154738 0.02077990064154738 -0.02381376760977632 
-0.002292996125568049 0.002292996125568049 -0.001333531556830064 
-0.001551465774318616 0.001551465774318616 -0.01552658962299914 
-0.0003266049705466338 0.0003266049705466338 -0.0002538212209062338 
-0.0009045567848047454 0.0009045567848047454 -0.002162976248662997 
0.005711171822066333 -0.005711171822066333 -0.01040400748304063 
-0.01223197723865597 0.01223197723865597 -0.009108718043432890 
-0.01121186672065758 0.01121186672065758 -0.006744242436081986 
-0.0002304460048862185 0.0002304460048862185 -0.002758509458104641 
-0.001651977714980495 0.001651977714980495 -0.001197937952819970 
-0.0009350856521842343 0.0009350856521842343 -0.0004277912808886622 
-0.0001565486546633789 0.0001565486546633789 -6.080192335194239e-05 
-0.002224174960269651 0.002224174960269651 -0.002175822342599136 
-0.0009897981583242698 0.0009897981583242698 -0.0003967068488192778 
0.04559243641021561 -0.04559243641021561 -0.02208821740966988 
0.002527899704881465 -0.002527899704881465 -0.0009622902399019899 
-0.01252342225831724 0.01252342225831724 -0.02076781085988108 
-0.01037983767847960 0.01037983767847960 -0.005986432699510508 
-0.02466407298550894 0.02466407298550894 -0.01498850248040502 
-0.0007210213178029196 0.0007210213178029196 -0.0003647080213590604 
-0.001051375349472628 0.001051375349472628 -0.001050582700051021 
-0.004696841552489471 0.004696841552489471 -0.006876705863729267 
-0.02397083586400982 0.02397083586400982 -0.02829390697814168 
-0.08905557514888021 0.08905557514888021 -0.06071449478728073 
0.005207951735276512 -0.005207951735276512 -0.005443222534321951 
-0.002852297366151150 0.002852297366151150 -0.007136942832836247 
-0.001081706397818099 0.001081706397818099 -0.001920117830837100 
-0.0002487127874056082 0.0002487127874056082 -0.0001628450100369532 
0.0004591894460070974 -0.0004591894460070974 -0.001874958377150637 
0.001886688439455054 -0.001886688439455054 -0.009668293064176596 
-0.03882755911261821 0.03882755911261821 -0.03430117022503468 
-0.005038681297010099 0.005038681297010099 -0.003704860572924410 
0.0007017428145848846 -0.0007017428145848846 -0.005789530504458938 
-0.0008769313314309412 0.0008769313314309412 -0.0004275246075959571 
-0.002581288606140425 0.002581288606140425 -0.001157595564916865 
-0.01569889743925431 0.01569889743925431 -0.01503534855910433 
-0.003276849285128626 0.003276849285128626 -0.001784251277189214 
-0.002457995023037062 0.002457995023037062 -0.002160347286444834 
-0.004890630018812446 0.004890630018812446 -0.002871919830313088 
-0.0005448752275006226 0.0005448752275006226 -0.0007939557140407530 
-0.004025048194388875 0.004025048194388875 -0.002807237837320594 
-0.002530060699039621 0.002530060699039621 -0.001073771198034868 
-0.01853473432241467 0.01853473432241467 -0.01192599848177067 
-0.009938934054149775 0.009938934054149775 -0.008825114966741663 
-0.04363565966476335 0.04363565966476335 -0.02954750650114704 
-0.0001804855744811085 0.0001804855744811085 -0.003188227732974047 
-0.001493099877353767 0.001493099877353767 -0.0006493055647193532 
-0.01146520941467905 0.01146520941467905 -0.007086449300590985 
-0.0003698750227363537 0.0003698750227363537 -0.0001437773320160308 
-0.005546681580055440 0.005546681580055440 -0.002868524265245928 
-0.0005774830362606548 0.0005774830362606548 -0.0002486406725199466 
0.03122986715102683 -0.03122986715102683 -0.01330091358299498 
-0.004375999901339031 0.004375999901339031 -0.002318963425687227 
-0.002037083756144659 0.002037083756144659 -0.003206683667247023 
-0.003532820026846964 0.003532820026846964 -0.001771014649360799 
-0.002227417860498171 0.002227417860498171 -0.001752020228528616 
-0.01062161498945552 0.01062161498945552 -0.007094432658737297 
-0.001174870541341513 0.001174870541341513 -0.0005620646988271214 
-0.001008533877637042 0.001008533877637042 -0.0005270969467244261 
-0.0002237633516682508 0.0002237633516682508 -0.001235963984300192 
-0.0002148329084339849 0.0002148329084339849 -0.0001056365813404640 
-0.001343394440787574 0.001343394440787574 -0.003739282104290075 
-0.002287818264992921 0.002287818264992921 -0.001130992282439027 
-0.004300123146803512 0.004300123146803512 -0.005554363391266816 
-0.001483682926819672 0.001483682926819672 -0.0008638601267551800 
-0.006258575496580646 0.006258575496580646 -0.008401157322079458 
-0.0008747303450774844 0.0008747303450774844 -0.0002947296190464486 
-0.009508390012633422 0.009508390012633422 -0.008774668077871346 
0.002194652304814366 -0.002194652304814366 -0.003077966494109169 
-0.0002229035470777699 0.0002229035470777699 -0.002459441635919825 
0.02525016350460261 -0.02525016350460261 -0.01882367592750550 
-0.001785163286842327 0.001785163286842327 -0.01199859345532046 
0.006840000118803659 -0.006840000118803659 -0.002532866815783639 
0.001767838508616128 -0.001767838508616128 -0.005645019464094382 
-0.008880774663795938 0.008880774663795938 -0.004599357116434518 
-0.0005155842207840568 0.0005155842207840568 -0.0002052622325496791 
-0.02535572959242824 0.02535572959242824 -0.01598134410083418 
-0.007592963737819297 0.007592963737819297 -0.005364008119869182 
-0.001684660481448067 0.001684660481448067 -0.001418142730707218 
-0.0002780451489571785 0.0002780451489571785 -0.001319361312574509 
-0.0009635198924983581 0.0009635198924983581 -0.0005109001610016738 
-0.006371022892290808 0.006371022892290808 -0.003014810501160797 
-0.002784221479465651 0.002784221479465651 -0.005469527257556157 
-0.007202893500270113 0.007202893500270113 -0.004675644522671603 
0.006712890092849800 -0.006712890092849800 -0.007631525598457752 
-0.009285838996008851 0.009285838996008851 -0.008677186165786117 
-4.637795586456920e-05 4.637795586456920e-05 -0.0004843811391300879 
-0.0001980040223547788 0.0001980040223547788 -7.149921613273554e-05 
-0.03971521898285813 0.03971521898285813 -0.07724441467638611 
-0.01162373363650017 0.01162373363650017 -0.009824265774123703 
-0.0005427534401110931 0.0005427534401110931 -0.001386324725017872 
0.0001515277438512866 -0.0001515277438512866 -0.0003225889110432783 
-0.0001980040223547788 0.0001980040223547788 -7.149921613273554e-05 
-0.04518551763801555 0.04518551763801555 -0.02848600213197860 
0.0007676496521558147 -0.0007676496521558147 -0.0004177166341510678 
-0.003040962466609085 0.003040962466609085 -0.003310213155099709 
0.02659364027817816 -0.02659364027817816 -0.01214483747707338 
-0.005424181657609025 0.005424181657609025 -0.007714662416872220 
0.02376895941600275 -0.02376895941600275 -0.007132462292160335 
0.1129469250672358 -0.1129469250672358 -0.06015643780018668 
0.01399186211420092 -0.01399186211420092 -0.005610271096574983 
0.07097931470209885 -0.07097931470209885 -0.01401665440306912 
0.001723432087769522 -0.001723432087769522 -0.0006521609071328228 
0.003020576119954487 -0.003020576119954487 -0.0002827573464046372 
-0.004864767106110574 0.004864767106110574 -0.002756628388388792 
-0.03543833696666775 0.03543833696666775 -0.05154849111871025 
0.001383554452466515 -0.001383554452466515 -0.008065323487941261 
0.0005381017607658302 -0.0005381017607658302 -3.380049805110440e-05 
0.002547152960201586 -0.002547152960201586 -0.002445950724178797 
-7.778524675925108e-05 7.778524675925108e-05 -0.001302501607783293 
0.0005381017607658302 -0.0005381017607658302 -3.380049805110440e-05 
0.004120181439306439 -0.004120181439306439 -0.001911924996084426 
0.01211104235402267 -0.01211104235402267 -0.002945590074396127 
-0.008114988362415379 0.008114988362415379 -0.004592271636285194 
-0.0002164679617882381 0.0002164679617882381 -0.0004558962986514083 
0.01713609747892686 -0.01713609747892686 -0.003089118849434729 
0.002963593497494760 -0.002963593497494760 -0.001437944843125534 
0.005233870631514555 -0.005233870631514555 -0.004402695427036592 
-0.0004345031940928471 0.0004345031940928471 -0.001083378524155846 
-0.02699908971982338 0.02699908971982338 -0.02394775605867169 
-0.002022079236747354 0.002022079236747354 -0.001213977369906838 
-0.006693979040841101 0.006693979040841101 -0.006471863662612983 
-0.004477896614203697 0.004477896614203697 -0.001842066842924258 
-0.0007904571142508237 0.0007904571142508237 -0.001447462371457902 
-0.001421810711348772 0.001421810711348772 -0.001807124103587186 
-0.01238918153274454 0.01238918153274454 -0.01172755431125766 
-0.01782425918173980 0.01782425918173980 -0.01532225254248265 
-0.03344803770476194 0.03344803770476194 -0.05836133299764915 
-0.009488073129802580 0.009488073129802580 -0.006517992531266030 
0.008130365399542937 -0.008130365399542937 -0.02594994603755296 
-0.008095654371384752 0.008095654371384752 -0.005284942582975097 
-0.003793174911764254 0.003793174911764254 -0.001684810270834283 
-0.001672791445002253 0.001672791445002253 -0.001745195705314938 
-0.01056288457130292 0.01056288457130292 -0.01160502790988159 
0.003596582313804726 -0.003596582313804726 -0.01272181676200390 
0.03844733148410148 -0.03844733148410148 -0.06125048651654912 
-9.755645564459481e-05 9.755645564459481e-05 -4.396663545353311e-05 
-0.01218441497432583 0.01218441497432583 -0.02109571545525290 
-0.004380876069803956 0.004380876069803956 -0.003873204914158100 
-0.01305548685554712 0.01305548685554712 -0.01115752128763365 
-0.0006336943912052975 0.0006336943912052975 -0.0003335952438994532 
-0.02780235588311104 0.02780235588311104 -0.01509816930620018 
-0.003310198185520596 0.003310198185520596 -0.001672889447505985 
0.01399399010283764 -0.01399399010283764 -0.03879462952110001 
-0.01558981707654328 0.01558981707654328 -0.01783744092228767 
-0.02114041293069554 0.02114041293069554 -0.02264197824516934 
-0.003653289520356739 0.003653289520356739 -0.003817725574792908 
0.0002600927200010606 -0.0002600927200010606 -0.007561108267805341 
0.003916727773970625 -0.003916727773970625 -0.001562088993941120 
-0.0006028760770545174 0.0006028760770545174 -0.0002807834628679661 
-0.007959034881690294 0.007959034881690294 -0.01175337045767327 
-0.007243924242884197 0.007243924242884197 -0.005272811754386168 
-0.01650686045077660 0.01650686045077660 -0.02429603993209737 
-0.002086220393642516 0.002086220393642516 -0.003057512681178628 
-0.001406750748456053 0.001406750748456053 -0.0006558065079795942 
-0.0005011086244485968 0.0005011086244485968 -0.0002359288026033705 
-0.003286656766527635 0.003286656766527635 -0.01761227684435574 
-0.001623674232696299 0.001623674232696299 -0.002566530747229232 
-0.0005348148138292376 0.0005348148138292376 -0.004561580843839962 
0.002267372652496599 -0.002267372652496599 -0.001138816215873857 
-0.03016464817383913 0.03016464817383913 -0.04782841570709488 
-0.001010699264709053 0.001010699264709053 -0.002602564985155030 
-0.01927234561532388 0.01927234561532388 -0.01241072656408361 
-0.07062117796611297 0.07062117796611297 -0.04762249514292157 
-0.01893149298618556 0.01893149298618556 -0.01032905549524501 
-0.001976141040611698 0.001976141040611698 -0.0009627126616981095 
-0.01468990896328025 0.01468990896328025 -0.01896561639277704 
0.0002584595993884230 -0.0002584595993884230 -0.0006004759384605658 
-0.01294876347465113 0.01294876347465113 -0.01157669090653681 
-0.001673902406986721 0.001673902406986721 -0.0006649122173242075 
-0.001392040944371349 0.001392040944371349 -0.001014054984227940 
-0.009077598772006940 0.009077598772006940 -0.006915421806819534 
-0.02444793739497968 0.02444793739497968 -0.02363814777372562 
-0.0001071317481985226 0.0001071317481985226 -3.903920232230967e-05 
-0.002892516930551470 0.002892516930551470 -0.003864946944157776 
-0.0007782707130922291 0.0007782707130922291 -0.006536342580141422 
-0.004631589378346304 0.004631589378346304 -0.002240399052765935 
-0.03159951332679782 0.03159951332679782 -0.02681774535891101 
-0.001212883177430325 0.001212883177430325 -0.0008372334819358012 
-0.03192240695056915 0.03192240695056915 -0.01980580481903109 
-0.01841008076314164 0.01841008076314164 -0.01011484694914771 
-0.004118295316637700 0.004118295316637700 -0.002496962616456915 
-0.0006176690861487866 0.0006176690861487866 -0.0003814700719118962 
0.003424811921387671 -0.003424811921387671 -0.01223891864453994 
0.02636830577182187 -0.02636830577182187 -0.009464932102633395 
-0.002263844643557008 0.002263844643557008 -0.001032611191421757 
-0.002483114479014165 0.002483114479014165 -0.001553970133448794 
-0.01694629027901989 0.01694629027901989 -0.03237329517864201 
-0.02213534705119974 0.02213534705119974 -0.01332782446370553 
-0.003995890618526398 0.003995890618526398 -0.01540557908685403 
-0.01274094847908455 0.01274094847908455 -0.01451916944645886 
-0.001234036444529623 0.001234036444529623 -0.001059488382622499 
0.001803394735518822 -0.001803394735518822 -0.003724962843930076 
0.004156471795307614 -0.004156471795307614 -0.003160592405758255 
-0.01763289442038419 0.01763289442038419 -0.02645729212167160 
-0.004592878418403583 0.004592878418403583 -0.002143896862143194 
-0.0008481187941265301 0.0008481187941265301 -0.0003765743047111419 
-0.001011183966992811 0.001011183966992811 -0.0004899542117684076 
-0.005691632991421843 0.005691632991421843 -0.006657229814673602 
-0.005308819014789554 0.005308819014789554 -0.003446924015554324 
-0.009154441353151740 0.009154441353151740 -0.004711673412333921 
-0.0002202484601835316 0.0002202484601835316 -0.0001030553903661083 
-0.0002202484601835316 0.0002202484601835316 -0.0001030553903661083 
-0.01291222946779949 0.01291222946779949 -0.007009277877032138 
-0.0002202484601835316 0.0002202484601835316 -0.0001030553903661083 
-0.005950591930777435 0.005950591930777435 -0.003741470246246159 
-0.009803042392304803 0.009803042392304803 -0.007019418475156139 
-0.04630699853688476 0.04630699853688476 -0.04527976239909103 
-0.006213619859022847 0.006213619859022847 -0.02174159952630046 
0.03720095301271714 -0.03720095301271714 -0.008244786397863068 
-0.003382343502809118 0.003382343502809118 -0.002117713151967233 
-0.01052600107486058 0.01052600107486058 -0.006075869456101325 
-0.003339960876755892 0.003339960876755892 -0.002588463924231032 
-0.0007781487939560928 0.0007781487939560928 -0.0008700424514688007 
-0.01747728186854798 0.01747728186854798 -0.01512005678214346 
-0.0005595968312968404 0.0005595968312968404 -0.0003052101886815659 
-0.004659811487146146 0.004659811487146146 -0.004238749559759277 
-0.001088448618857823 0.001088448618857823 -0.0007930741220142813 
-0.0003898522819205749 0.0003898522819205749 -0.0001901973220347996 
-0.0008370457175697610 0.0008370457175697610 -0.0005527124354372172 
-0.006703970539300175 0.006703970539300175 -0.003453653121159364 
-0.001154575254147218 0.001154575254147218 -0.001433452423005762 
-0.004982061837915555 0.004982061837915555 -0.002590494823257353 
-0.004796133046836985 0.004796133046836985 -0.002859663019013733 
-0.0007350570439925526 0.0007350570439925526 -0.0003741797902111959 
-0.01280313328722738 0.01280313328722738 -0.008444264975415690 
-0.005763035475892766 0.005763035475892766 -0.003357059598436021 
-0.0008371288263433224 0.0008371288263433224 -0.0007273053145039819 
0.01051123958967450 -0.01051123958967450 -0.008083707229693106 
-0.0001590293054405939 0.0001590293054405939 -0.0007796549079764507 
-0.003983671327873143 0.003983671327873143 -0.003877412833221199 
-0.005384405947629130 0.005384405947629130 -0.004016638763936748 
-0.0008785625543172862 0.0008785625543172862 -0.0003611372252282502 
-0.009365914362052348 0.009365914362052348 -0.006013490230985411 
0.001747817754013898 -0.001747817754013898 -0.008025555139724850 
-0.003979239862664468 0.003979239862664468 -0.008347781058573950 
-0.004680953514917639 0.004680953514917639 -0.002299149971641662 
-0.003162998038124393 0.003162998038124393 -0.004406202098269261 
-0.004784382407748387 0.004784382407748387 -0.003520056233447171 
-0.003243799691269451 0.003243799691269451 -0.001588992932597863 
-0.001209841916215424 0.001209841916215424 -0.0005325301085193500 
0.01218378708990642 -0.01218378708990642 -0.01009965752440128 
-0.0007938590751207947 0.0007938590751207947 -0.0009076038326181343 
-0.005730710439195530 0.005730710439195530 -0.005353080353655903 
0.004720285713438541 -0.004720285713438541 -0.004940607426728908 
-0.003369459123027976 0.003369459123027976 -0.002918195650586451 
0.0007811360729555991 -0.0007811360729555991 -0.0004199541046050015 
0.003105259292098603 -0.003105259292098603 -0.007275849985516655 
0.0001827307806672245 -0.0001827307806672245 -0.0008261439815447932 
0.001340825832249832 -0.001340825832249832 -0.05641800190973474 
-0.001434031986642069 0.001434031986642069 -0.001301846374425611 
0.001305606764969951 -0.001305606764969951 -0.005137081429396287 
-0.002015364614287441 0.002015364614287441 -0.001934057439741957 
-0.0005319807622171469 0.0005319807622171469 -0.0002859237126793929 
-0.03792990423413954 0.03792990423413954 -0.01931073275102853 
-0.001899984884844323 0.001899984884844323 -0.003275078520368990 
-0.0003014912552885240 0.0003014912552885240 -0.0001387456372645416 
-0.002144552626001080 0.002144552626001080 -0.0008500834033392791 
0.0004743354779910094 -0.0004743354779910094 -0.0002217562706390724 
0.0007038903501573918 -0.0007038903501573918 -0.0006960711148918910 
-0.0006689331561349678 0.0006689331561349678 -0.0004379595236121002 
-0.02305433781123771 0.02305433781123771 -0.02433228796598408 
0.004325510308299303 -0.004325510308299303 -0.004488646980045303 
-0.0002930460530503754 0.0002930460530503754 -0.0002316839262040329 
-0.007290544575199482 0.007290544575199482 -0.006571846335377970 
-0.002603228132106775 0.002603228132106775 -0.001956610031572640 
-0.003552324051809593 0.003552324051809593 -0.002053835932147314 
-0.0001364371650334952 0.0001364371650334952 -4.923411735697622e-05 
-0.0004093114951004856 0.0004093114951004856 -0.0001477023520709287 
-0.005234032919248153 0.005234032919248153 -0.003097688541015391 
0.01401537161356144 -0.01401537161356144 -0.008970788009986444 
-0.0003687041120922584 0.0003687041120922584 -0.0001943735666939818 
-0.003723195992979678 0.003723195992979678 -0.004961791639663106 
-0.01260879989871503 0.01260879989871503 -0.006185124594215775 
-0.006281918245028299 0.006281918245028299 -0.002944373284750350 
-0.003449265745813780 0.003449265745813780 -0.003332168348277458 
-0.001129989214277062 0.001129989214277062 -0.0007880999428228917 
-0.0006841965722341927 0.0006841965722341927 -0.0008383130670737384 
-0.01049336622864802 0.01049336622864802 -0.008085848234650394 
-0.0001364371650334952 0.0001364371650334952 -4.923411735697622e-05 
-0.003166175777989062 0.003166175777989062 -0.002847913743078408 
-0.001834595149217956 0.001834595149217956 -0.002040806031533048 
-0.008497665424732025 0.008497665424732025 -0.01187010778728814 
0.01021319372164922 -0.01021319372164922 -0.02059658529595872 
-0.003178552173774799 0.003178552173774799 -0.002208749299197670 
-4.462798749697034e-05 4.462798749697034e-05 -0.003890330531038974 
-0.005108120052080288 0.005108120052080288 -0.003083368242004168 
0.003536704043889876 -0.003536704043889876 -0.0008579574277818042 
0.005916623996863389 -0.005916623996863389 -0.007445471691485027 
0.02931782974429063 -0.02931782974429063 -0.005560151659643259 
0.01834484901281328 -0.01834484901281328 -0.003054298448301467 
0.1620247463310938 -0.1620247463310938 -0.03727278521592911 
-0.001121730933660590 0.001121730933660590 -0.001967213690939641 
0.006027956615530137 -0.006027956615530137 -0.003368913735540486 
0.0009001749022169386 -0.0009001749022169386 -0.0003137680370547347 
0.004784742183304999 -0.004784742183304999 -0.001542064749334072 
-0.01624384305088262 0.01624384305088262 -0.01107612665298241 
0.03572644208549907 -0.03572644208549907 -0.009481892285852743 
0.02051032031012414 -0.02051032031012414 -0.004666308329367547 
0.01213059979908692 -0.01213059979908692 -0.004321929499916151 
-0.0004533697463890423 0.0004533697463890423 -0.002073134742048001 
0.03709293532068009 -0.03709293532068009 -0.008348173148098168 
0.01473218564774238 -0.01473218564774238 -0.003654442861131082 
0.007853128854634718 -0.007853128854634718 -0.001220917053223234 
0.001387418187672638 -0.001387418187672638 -0.0002911294348225200 
-0.001606479184593671 0.001606479184593671 -0.001770075499428256 
-0.01638776808822236 0.01638776808822236 -0.01448468566798750 
0.01008888277608550 -0.01008888277608550 -0.001672027790458452 
-0.03846310470326594 0.03846310470326594 -0.04547098127218564 
-0.03118596800153498 0.03118596800153498 -0.02896054988347744 
-0.0003919133583882671 0.0003919133583882671 -0.01720946582829659 
0.002134573673312971 -0.002134573673312971 -0.002617246334305365 
0.002979783463580870 -0.002979783463580870 -0.01114361820304344 
-0.001120088647927175 0.001120088647927175 -0.001734391885281885 
0.001477743848152062 -0.001477743848152062 -0.001673213295005396 
1.005441946523155e-05 -1.005441946523155e-05 -0.0007395755740598181 
0.002614103640220139 -0.002614103640220139 -0.003599126085292390 
0.02970912922021518 -0.02970912922021518 -0.006856027206113112 
-0.002784112597574228 0.002784112597574228 -0.002394684249081592 
-0.003239217448996204 0.003239217448996204 -0.002219535706244426 
-0.01432949821405680 0.01432949821405680 -0.03104988538472155 
-0.003056133493721940 0.003056133493721940 -0.001592546430270717 
0.002993334941369086 -0.002993334941369086 -0.01296496986218396 
0.0006611818795373764 -0.0006611818795373764 -0.003663537820679841 
-0.0001092184933337436 0.0001092184933337436 -0.0005993239339304298 
0.005275289108011500 -0.005275289108011500 -0.005075886591062223 
-7.987067631031681e-05 7.987067631031681e-05 -0.001316661054946302 
0.001469769992572948 -0.001469769992572948 -0.001399327337796115 
-0.004257175549775547 0.004257175549775547 -0.006979364568667381 
-0.0005977836243932978 0.0005977836243932978 -0.0005283002747732145 
-0.002934943303900116 0.002934943303900116 -0.001754913649682449 
-0.003727915901249610 0.003727915901249610 -0.001710976656948373 
0.0002920122806102817 -0.0002920122806102817 -7.657800882199459e-05 
-0.002555097375233873 0.002555097375233873 -0.0008857995731309808 
-0.001870498991058688 0.001870498991058688 -0.0006232789586119744 
-0.02094085405865545 0.02094085405865545 -0.01519938796307438 
-0.007308410184262709 0.007308410184262709 -0.005305274802247986 
-0.01885940513149362 0.01885940513149362 -0.009653328508003167 
-0.0005657428935145184 0.0005657428935145184 -0.0002632596270552892 
-0.01506958196466852 0.01506958196466852 -0.009919927720731775 
-0.0009787979917895656 0.0009787979917895656 -0.0004869514276058780 
-0.006767609065921330 0.006767609065921330 -0.003541680431367125 
-0.005922419865855237 0.005922419865855237 -0.003994410477083685 
-0.0003880459125992857 0.0003880459125992857 -0.001138581581430029 
-0.008087422470424788 0.008087422470424788 -0.003624478322279422 
-0.009260793569325692 0.009260793569325692 -0.006438961477174978 
-0.002461898118168519 0.002461898118168519 -0.002220782950041403 
-0.01656981541066429 0.01656981541066429 -0.02213320729757966 
0.0005790884563479373 -0.0005790884563479373 -0.008712612103717255 
-0.0007679612147974320 0.0007679612147974320 -0.008259316701009038 
0.007096082680763201 -0.007096082680763201 -0.001948848204364925 
0.005584723819323219 -0.005584723819323219 -0.002994882609639744 
0.005034454102180494 -0.005034454102180494 -0.001518158697798686 
0.005015306522770270 -0.005015306522770270 -0.001909152903896460 
-0.002073608223430975 0.002073608223430975 -0.002326540645348334 
0.004910691250565469 -0.004910691250565469 -0.0007721406588730344 
0.01371156815941966 -0.01371156815941966 -0.01449614265852610 
0.02674532142952843 -0.02674532142952843 -0.005034360771460674 
0.003441938884685902 -0.003441938884685902 -0.001967005903494764 
0.0008203407420367719 -0.0008203407420367719 -0.0003205671923226124 
0.0004734883306632418 -0.0004734883306632418 -0.0001457904096128293 
-0.02678843203188035 0.02678843203188035 -0.02482481986157439 
-0.01534104635556574 0.01534104635556574 -0.01493171234993630 
-0.0005092378465483887 0.0005092378465483887 -0.0005693464717209673 
-0.0005825394205523676 0.0005825394205523676 -0.001858547695507013 
-0.001671303357817565 0.001671303357817565 -0.0006705940523366810 
-0.005470848923923750 0.005470848923923750 -0.005917410521241288 
-0.02287780150030797 0.02287780150030797 -0.01869186141345131 
-0.01376835976560105 0.01376835976560105 -0.007514374814709707 
0.01149644506299246 -0.01149644506299246 -0.002121187764531186 
0.0003055237764225637 -0.0003055237764225637 -0.0001596211096349344 
0.02624521836893701 -0.02624521836893701 -0.003808021817212575 
0.0003055237764225637 -0.0003055237764225637 -0.0001596211096349344 
0.0005491917666214417 -0.0005491917666214417 -0.0004489156561535462 
-0.005266588608666732 0.005266588608666732 -0.003815126152689809 
0.001466433017530266 -0.001466433017530266 -0.0006534563347403091 
0.005971269012692616 -0.005971269012692616 -0.004050514048736304 
-0.002485166729501031 0.002485166729501031 -0.001126881838169228 
-0.0002088014617926021 0.0002088014617926021 -0.0001027584800689860 
-0.0001921611929335272 0.0001921611929335272 -0.0001000636357282750 
-0.01685035149049368 0.01685035149049368 -0.01459991154308447 
-0.0006744810313221695 0.0006744810313221695 -0.01028912840524662 
-0.003566277797301094 0.003566277797301094 -0.003784923795107339 
-0.0009391970551588376 0.0009391970551588376 -0.002218918671497540 
-0.0008413418692505858 0.0008413418692505858 -0.0003958998517061854 
-0.02005856155244227 0.02005856155244227 -0.01714098737635575 
-0.001144164962597004 0.001144164962597004 -0.0006882188854751961 
-0.001659355118664374 0.001659355118664374 -0.0007994843890243088 
5.609238383719123e-05 -5.609238383719123e-05 -0.001396634475642713 
-0.0009432358240512883 0.0009432358240512883 -0.0005155180287139759 
-0.0001921611929335272 0.0001921611929335272 -0.0001000636357282750 
-0.01518168159422962 0.01518168159422962 -0.009348744655003608 
-0.003946235818294969 0.003946235818294969 -0.003315424428318762 
-0.0001921611929335272 0.0001921611929335272 -0.0001000636357282750 
-0.01728694278073190 0.01728694278073190 -0.01044016710771619 
0.0008147304103053839 -0.0008147304103053839 -0.01964078085374775 
-0.04012020688792090 0.04012020688792090 -0.03553024162966355 
-0.01935217158553093 0.01935217158553093 -0.01194715731593466 
-0.001237286575738133 0.001237286575738133 -0.001048790964497756 
-0.001022030904090682 0.001022030904090682 -0.0005317509892297400 
-0.006102617428094864 0.006102617428094864 -0.005936278122821734 
-0.003150861573986458 0.003150861573986458 -0.001787766637670579 
-0.009825584217311407 0.009825584217311407 -0.006157970659672358 
-0.005913333139099841 0.005913333139099841 -0.003509513059899725 
-0.02023680120551482 0.02023680120551482 -0.01828569863825304 
-0.004421835504861442 0.004421835504861442 -0.002443736674357279 
-0.001088578094479892 0.001088578094479892 -0.001519044971021678 
-0.0005976883678678299 0.0005976883678678299 -0.0003093026593832284 
-0.0001524576377569756 0.0001524576377569756 -0.0001010277058401289 
-0.003371501561880049 0.003371501561880049 -0.002898654042931072 
-0.002538803925931718 0.002538803925931718 -0.001159791975849825 
-0.0004200875493866230 0.0004200875493866230 -0.0001548188293163990 
-0.0004053713039962997 0.0004053713039962997 -0.001854029180266767 
-0.003717750351879377 0.003717750351879377 -0.001607823684504661 
-0.007674971364064330 0.007674971364064330 -0.006118634744920088 
-0.005312051746704851 0.005312051746704851 -0.003348056355322179 
-0.0002179191894915160 0.0002179191894915160 -0.0001214920064110220 
-0.0009094976071540754 0.0009094976071540754 -0.0008542975605704633 
0.005345383948098543 -0.005345383948098543 -0.01025874226475944 
-0.005000980567941454 0.005000980567941454 -0.002383861295919948 
-0.004324587438568127 0.004324587438568127 -0.003514645008301220 
0.008113891761088355 -0.008113891761088355 -0.001902570473009833 
-0.005938898986437437 0.005938898986437437 -0.003981789422238940 
0.002150187553351504 -0.002150187553351504 -0.001845656773619935 
0.0007250195228906040 -0.0007250195228906040 -0.001245285232024920 
-0.002528516276755374 0.002528516276755374 -0.001171082278867957 
0.02238261787337730 -0.02238261787337730 -0.007389816392170918 
-0.01099001907496123 0.01099001907496123 -0.008421364950470503 
-0.004539971476337469 0.004539971476337469 -0.005642543884879233 
-0.003526597524841326 0.003526597524841326 -0.003402642435617993 
-0.02154639216405798 0.02154639216405798 -0.01518830075333213 
-0.001772466696133784 0.001772466696133784 -0.0009807617771349468 
-0.002019281716429198 0.002019281716429198 -0.001077977682133387 
0.02540471865326676 -0.02540471865326676 -0.004014649915029285 
0.01441831772780991 -0.01441831772780991 -0.004254018384982402 
-0.003944510177132124 0.003944510177132124 -0.001868769184258066 
-0.004254641849655289 0.004254641849655289 -0.004244453719800514 
-0.003469652667151831 0.003469652667151831 -0.002264170046968175 
-0.01210013888457017 0.01210013888457017 -0.009756728090409658 
-0.03937909051363813 0.03937909051363813 -0.02169674985548800 
-0.01276886858046277 0.01276886858046277 -0.006686420820619109 
-0.002458956670911363 0.002458956670911363 -0.001195304460106261 
-0.002985358249450639 0.002985358249450639 -0.001269957538042992 
-0.01487290806296225 0.01487290806296225 -0.01240187769209094 
-0.002837517228620045 0.002837517228620045 -0.001960727388199991 
-0.0005000467837465293 0.0005000467837465293 -0.0001822617171536946 
-0.001829057296499392 0.001829057296499392 -0.0008670457721103725 
-0.01020949271686350 0.01020949271686350 -0.005170613814544369 
-0.001247371427578993 0.001247371427578993 -0.0006529532369231667 
-0.006720463817139156 0.006720463817139156 -0.003270250928591922 
-0.001895259237852853 0.001895259237852853 -0.0009366823933373478 
-0.002895114166547487 0.002895114166547487 -0.003518167699164510 
-0.01115039800618328 0.01115039800618328 -0.005914077651072196 
-0.01530214470150294 0.01530214470150294 -0.009269160858212925 
-0.02785253329374427 0.02785253329374427 -0.01491085533842668 
-0.01793743140666397 0.01793743140666397 -0.01142241377375561 
-0.02598040365132088 0.02598040365132088 -0.01656863875723320 
-0.003901086817690463 0.003901086817690463 -0.003327968415543127 
-0.006770471470474716 0.006770471470474716 -0.003105116581935574 
-0.001773587428471444 0.001773587428471444 -0.0009942476754354520 
-0.001773587428471444 0.001773587428471444 -0.0009942476754354520 
-0.009745261739732468 0.009745261739732468 -0.01159520697908699 
-0.007548584521057874 0.007548584521057874 -0.005090686926411620 
-0.0001778654788046594 0.0001778654788046594 -0.0001056841564772136 
-0.0008754365690004014 0.0008754365690004014 -0.0005639090397194920 
-0.003025217637584130 0.003025217637584130 -0.001626970305601946 
-0.002173111840235731 0.002173111840235731 -0.001157745459096958 
-0.0006369031229694646 0.0006369031229694646 -0.0003630728180891083 
-0.01060479482773872 0.01060479482773872 -0.01674668849749446 
-0.001285899675329912 0.001285899675329912 -0.001521152265558556 
-0.01009895170040584 0.01009895170040584 -0.005295056828344651 
-0.001884899037179704 0.001884899037179704 -0.0009889833296394478 
-0.0003261114060001528 0.0003261114060001528 -0.0001176558731577235 
-0.01482056258436312 0.01482056258436312 -0.006914029354411613 
-0.01653986408274448 0.01653986408274448 -0.009970525136052727 
-0.004706853385887905 0.004706853385887905 -0.002575914047382750 
-0.01596558567865892 0.01596558567865892 -0.008834970093913642 
-0.0002240230578734388 0.0002240230578734388 -9.651418221919899e-05 
-0.001589752726675579 0.001589752726675579 -0.002062543029822554 
-0.01324503911142154 0.01324503911142154 -0.007033744637261534 
-4.867172600522220e-05 4.867172600522220e-05 -0.0003016842864074231 
-0.0003928856941503715 0.0003928856941503715 -0.0001208916582937087 
-0.007146971607750722 0.007146971607750722 -0.003394736266058308 
-0.03731079354665045 0.03731079354665045 -0.02123880072071032 
-0.008934070011626093 0.008934070011626093 -0.007273143194557382 
-0.01106744537823673 0.01106744537823673 -0.006398869791177307 
-0.002302806672964417 0.002302806672964417 -0.001204990717870065 
-0.0004756342934562333 0.0004756342934562333 -0.0002948699194235044 
0.0002180038161624707 -0.0002180038161624707 -0.002745667817252249 
-0.0006088248074977617 0.0006088248074977617 -0.0003678347813149168 
-0.001252354727033182 0.001252354727033182 -0.003887367889886009 
-0.06707692185267838 0.06707692185267838 -0.04945964773309884 
-0.002981148683323827 0.002981148683323827 -0.001467182305975919 
-0.009038143021713942 0.009038143021713942 -0.004849236681987639 
-0.004341347104739281 0.004341347104739281 -0.001942210687922310 
-0.005168357878784696 0.005168357878784696 -0.002845572645645139 
-0.005368441626171806 0.005368441626171806 -0.002809280769974453 
-0.01967353412197456 0.01967353412197456 -0.03431797203989015 
-0.04829936002893413 0.04829936002893413 -0.04563514206709849 
-0.008413862179383436 0.008413862179383436 -0.004821338730988562 
-0.003479699271615765 0.003479699271615765 -0.002555890236336970 
-0.0009290522266842472 0.0009290522266842472 -0.0004184413190074285 
-0.004620281595600985 0.004620281595600985 -0.003207607603256511 
-3.802452687211203e-05 3.802452687211203e-05 -1.511103369795326e-05 
-0.01827333043724978 0.01827333043724978 -0.02403212766419997 
-0.01506089675490295 0.01506089675490295 -0.01143955558323384 
-0.0001903825422284066 0.0001903825422284066 -5.475053581401086e-05 
-0.03317367030812709 0.03317367030812709 -0.03430067095405766 
-0.04091692828568644 0.04091692828568644 -0.03719841195370801 
-0.01915796654317520 0.01915796654317520 -0.01804504049071308 
-0.004115369891899940 0.004115369891899940 -0.002575940666554511 
-0.0003587546533136571 0.0003587546533136571 -0.0002871001513384462 
0.02881500776913185 -0.02881500776913185 -0.01307018004879087 
-0.004489691967851810 0.004489691967851810 -0.002498525874358594 
-0.003732802214941491 0.003732802214941491 -0.003608649808100095 
-0.0001711426044126422 0.0001711426044126422 -7.722815803186314e-05 
-0.002554606467110152 0.002554606467110152 -0.003933402939436117 
-0.01099488334686667 0.01099488334686667 -0.007292628729328000 
-0.0004055291768293121 0.0004055291768293121 -0.0001941773775579034 
-0.0001711426044126422 0.0001711426044126422 -7.722815803186314e-05 
0.004157371616589647 -0.004157371616589647 -0.003233036617532464 
-0.002364369390189228 0.002364369390189228 -0.001249024606573020 
-0.0001786588816466429 0.0001786588816466429 -8.067315705052642e-05 
-0.002640696328424423 0.002640696328424423 -0.002282566320927260 
-0.0005983833059545861 0.0005983833059545861 -0.001314637254932586 
-0.0008664662522254942 0.0008664662522254942 -0.0007273111138993932 
-0.0001711426044126422 0.0001711426044126422 -7.722815803186314e-05 
0.002694653233715420 -0.002694653233715420 -0.007818910850735793 
0.0008326592035392353 -0.0008326592035392353 -0.0005079627226149838 
-0.0001711426044126422 0.0001711426044126422 -7.722815803186314e-05 
-0.007154584375665492 0.007154584375665492 -0.004164219665578186 
0.02453388289246829 -0.02453388289246829 -0.006415790271430162 
-0.001178594986418794 0.001178594986418794 -0.0009242111597703257 
-0.006674704616313212 0.006674704616313212 -0.003692026437093466 
-0.0002937234101967095 0.0002937234101967095 -0.0001273161619563543 
0.008378380542171018 -0.008378380542171018 -0.006065994918124780 
-0.0003990325041577462 0.0003990325041577462 -0.0007526588042077155 
0.005031852773061288 -0.005031852773061288 -0.001569209537127022 
-0.001749213349130114 0.001749213349130114 -0.0007114119936491175 
-0.01013434271429475 0.01013434271429475 -0.006825047994836445 
-7.834285557908939e-05 7.834285557908939e-05 -0.0004784820847298048 
-0.0008026354093825372 0.0008026354093825372 -0.0004490091021705082 
-5.380306452654741e-05 5.380306452654741e-05 -0.0009605702657979632 
0.01114205334682406 -0.01114205334682406 -0.02331479064331914 
0.0002287705642900425 -0.0002287705642900425 -0.0002713981380309685 
-0.01544435161838235 0.01544435161838235 -0.008058277047573935 
-0.01221695445461404 0.01221695445461404 -0.006508227396232633 
-0.001260859911340274 0.001260859911340274 -0.0007080363485468606 
-0.001197034828842961 0.001197034828842961 -0.0006445592289625399 
-0.003730560742963271 0.003730560742963271 -0.002552712191892556 
-0.002494482118324031 0.002494482118324031 -0.002207497372739216 
-0.02022042358919498 0.02022042358919498 -0.01023522226538761 
-0.0007395831144180933 0.0007395831144180933 -0.0003593521238301172 
-0.01005176076478860 0.01005176076478860 -0.005160490148386425 
-0.0005656758059065630 0.0005656758059065630 -0.0002446560264845342 
0.005371323179374374 -0.005371323179374374 -0.002295209162344517 
0.001819661862007484 -0.001819661862007484 -0.002394808717831867 
-0.0005350011579860003 0.0005350011579860003 -0.0001801218611914648 
-0.009378646993946638 0.009378646993946638 -0.006915339214883184 
-0.0002828379029532815 0.0002828379029532815 -0.0001223280132422671 
-0.0004396478768410017 0.0004396478768410017 -0.0002247432160668405 
0.008776660957776244 -0.008776660957776244 -0.008043340393445515 
-0.003584765667392384 0.003584765667392384 -0.005610820329623218 
-0.0007286031554566543 0.0007286031554566543 -0.0004251979409860289 
-0.001762061751096256 0.001762061751096256 -0.0007794299830641564 
-0.002127377399875218 0.002127377399875218 -0.002594876209377050 
0.003530052122225827 -0.003530052122225827 -0.006199837125451916 
0.005773674190280529 -0.005773674190280529 -0.004700501842279857 
-0.0001850832704052939 0.0001850832704052939 -8.466875884943066e-05 
0.003260338243667649 -0.003260338243667649 -0.01181176658847699 
-0.0006908028236599015 0.0006908028236599015 -0.0003151408332596723 
0.0002281864692013004 -0.0002281864692013004 -0.0001539807365590186 
0.001327347509402559 -0.001327347509402559 -0.0005198035027621319 
-0.0003676569202435736 0.0003676569202435736 -0.0001531778276366901 
-0.01619490493620875 0.01619490493620875 -0.01119052375317171 
-0.01640017995531844 0.01640017995531844 -0.01461663681999495 
-0.003877264323178609 0.003877264323178609 -0.002562412106268153 
-0.003576939312548834 0.003576939312548834 -0.002498300867838806 
-0.01641262081360193 0.01641262081360193 -0.01103635017846275 
-0.0001850832704052939 0.0001850832704052939 -8.466875884943066e-05 
-4.008179633354693e-05 4.008179633354693e-05 -0.0004540867892500724 
-0.0003612923296631923 0.0003612923296631923 -0.001803483496501771 
-0.001650620816052730 0.001650620816052730 -0.001434134788257353 
0.001534076327692961 -0.001534076327692961 -0.001311802393097329 
-0.0002668637514767905 0.0002668637514767905 -0.0001130614484847115 
-0.0002435146570115165 0.0002435146570115165 -0.0001113991658433464 
-0.0002924699302022139 0.0002924699302022139 -0.001886119924247025 
-0.006494868532868233 0.006494868532868233 -0.004131109200625135 
-0.001370255506922502 0.001370255506922502 -0.0005293432501444439 
-0.005632742296682699 0.005632742296682699 -0.004849056085129148 
-0.0001072720798907208 0.0001072720798907208 -4.386067667764615e-05 
-0.0005527212249485338 0.0005527212249485338 -0.0002866020550710241 
0.0004547267047611810 -0.0004547267047611810 -0.0001893823846763941 
-0.002101049011426139 0.002101049011426139 -0.001107011578971913 
-0.0003847009898814464 0.0003847009898814464 -7.934380566707520e-05 
-0.009710412169614015 0.009710412169614015 -0.004686840903041291 
-0.006772883919915056 0.006772883919915056 -0.006343235607929780 
-0.002355102340947077 0.002355102340947077 -0.001126287060222720 
-0.0002762724307774444 0.0002762724307774444 -0.004034811760399386 
0.0001415935613870897 -0.0001415935613870897 -0.003240949676624041 
-0.001529271737959204 0.001529271737959204 -0.0008177950937716951 
0.0008978105818775199 -0.0008978105818775199 -0.0007443389899694982 
-0.001251512812503951 0.001251512812503951 -0.001893574270539622 
-0.006745206989431809 0.006745206989431809 -0.008554566503511326 
-0.0007453495520392410 0.0007453495520392410 -0.0004202545794638790 
-0.003964623288554616 0.003964623288554616 -0.002359633035863407 
0.05271198312911001 -0.05271198312911001 -0.03435284783570066 
0.003443062154080519 -0.003443062154080519 -0.004488004980471780 
-0.002221131912986170 0.002221131912986170 -0.001067586092206508 
-0.01121111311275001 0.01121111311275001 -0.02461305156627162 
-0.003119364657883744 0.003119364657883744 -0.002644625033020562 
-0.002647789468337891 0.002647789468337891 -0.001473460924283121 
-0.001574794729724338 0.001574794729724338 -0.0006904935268784851 
-0.0005177064175221171 0.0005177064175221171 -0.0006977216142869888 
0.0002407922457894238 -0.0002407922457894238 -0.004057272235194847 
-0.003914995047394084 0.003914995047394084 -0.008656843396519289 
0.003116038367039230 -0.003116038367039230 -0.001508264236044124 
-0.006789752498843196 0.006789752498843196 -0.004888298148349288 
-0.002130201244665305 0.002130201244665305 -0.0009215320721967605 
-0.002084026056023016 0.002084026056023016 -0.001297048856971979 
-0.004244033645183773 0.004244033645183773 -0.003142875215303317 
-0.005614565400194300 0.005614565400194300 -0.002924767271903339 
-0.0007740204999817791 0.0007740204999817791 -0.0005243230650659723 
-0.005074254082468700 0.005074254082468700 -0.002229726173713274 
0.0005665436677602559 -0.0005665436677602559 -0.0002723821206147551 
0.0003334279859411174 -0.0003334279859411174 -0.0002262487966823392 
-0.001471401789107367 0.001471401789107367 -0.0009901539578157648 
-0.003854078823798702 0.003854078823798702 -0.002041810359934236 
-0.0008885881260818577 0.0008885881260818577 -0.004199019986311263 
-0.0001166241737028170 0.0001166241737028170 -3.381827809322225e-05 
-0.005181324499409458 0.005181324499409458 -0.004144624508656582 
-0.0001166241737028170 0.0001166241737028170 -3.381827809322225e-05 
-0.01379102961571752 0.01379102961571752 -0.008427781661219583 
-0.0008128888782782413 0.0008128888782782413 -0.003121533533002475 
-0.004876021837119640 0.004876021837119640 -0.003618318637397021 
-0.008732989699824717 0.008732989699824717 -0.01743261901516835 
-0.002417858568115697 0.002417858568115697 -0.001935705783674283 
-5.831208685140849e-05 5.831208685140849e-05 -1.690913904661112e-05 
-0.001680382063792466 0.001680382063792466 -0.002060482629145138 
-0.01001114661546466 0.01001114661546466 -0.006228373173354138 
-0.01352017046409285 0.01352017046409285 -0.008222790666216171 
-0.007702936292158180 0.007702936292158180 -0.008551256161748925 
-5.831208685140849e-05 5.831208685140849e-05 -1.690913904661112e-05 
-5.831208685140849e-05 5.831208685140849e-05 -1.690913904661112e-05 
-0.007795772660756956 0.007795772660756956 -0.007315783559801680 
-0.0003354268426223784 0.0003354268426223784 -0.0002504429215390526 
-0.0006155112960399648 0.0006155112960399648 -0.0004442194429482654 
-0.004483123051035386 0.004483123051035386 -0.002691427756764980 
-0.005624324215044545 0.005624324215044545 -0.004924166658150213 
-0.008877803094691062 0.008877803094691062 -0.004973678206044259 
0.01837404275194884 -0.01837404275194884 -0.004677537088566733 
0.009364184212130560 -0.009364184212130560 -0.007946666013532357 
0.0003936754495240228 -0.0003936754495240228 -0.0005532449925571204 
-0.02549671952502114 0.02549671952502114 -0.01353174076220548 
-0.007297173798180095 0.007297173798180095 -0.003951757103859088 
-0.008385617953071594 0.008385617953071594 -0.008898881398649914 
-0.002758735676481021 0.002758735676481021 -0.001069349743500960 
-0.0001293041613803815 0.0001293041613803815 -4.071611882715211e-05 
-0.0001293041613803815 0.0001293041613803815 -4.071611882715211e-05 
-0.002260826551068258 0.002260826551068258 -0.002003332769590916 
-0.0008090991431834550 0.0008090991431834550 -0.001258166088815135 
-0.001319370036910800 0.001319370036910800 -0.0009651398462662716 
0.001053196211293229 -0.001053196211293229 -0.0009448919072319994 
0.001875674846524997 -0.001875674846524997 -0.003614747686421626 
-0.0008625618505336737 0.0008625618505336737 -0.0005174709555321636 
-0.001942614259170536 0.001942614259170536 -0.002133766073717304 
0.0001446603010146273 -0.0001446603010146273 -0.001576719214695229 
-0.008419063426898153 0.008419063426898153 -0.006363960511832258 
-0.01373285520275235 0.01373285520275235 -0.007506398324752378 
-0.0008925276944206008 0.0008925276944206008 -0.0004405109216337779 
-0.006138353998841176 0.006138353998841176 -0.005138937228209998 
-0.03951299278628295 0.03951299278628295 -0.02357789805912222 
-0.01068195584849801 0.01068195584849801 -0.01846644422081342 
0.04705472530907331 -0.04705472530907331 -0.007192918274386064 
0.01391710939029740 -0.01391710939029740 -0.01033152089681217 
0.0005976207838597776 -0.0005976207838597776 -0.0002373988807798870 
0.002496179670657215 -0.002496179670657215 -0.01308408230621264 
0.0002981754183740384 -0.0002981754183740384 -0.0002452099402057183 
-0.001045984746035003 0.001045984746035003 -0.0009970957731948425 
-0.001053364435171913 0.001053364435171913 -0.0002403648102736229 
-0.007478303562657001 0.007478303562657001 -0.006456737020398610 
-0.008111782747414165 0.008111782747414165 -0.01061901583900394 
-0.0008327446494410581 0.0008327446494410581 -0.0002972680095552754 
0.001805293338187620 -0.001805293338187620 -0.005580096941474112 
-0.001684531503595864 0.001684531503595864 -0.002963634218401668 
0.001119992478234394 -0.001119992478234394 -0.001453878506346182 
0.0002276619723328013 -0.0002276619723328013 -0.0002307521042152837 
0.001449352295757602 -0.001449352295757602 -0.003297807366391309 
0.002809473587421058 -0.002809473587421058 -0.002056271801271597 
0.002519958248461174 -0.002519958248461174 -0.001112403978945148 
-0.0002816671985730076 0.0002816671985730076 -6.289093149058200e-05 
0.001018742149195260 -0.001018742149195260 -0.0002977648912732737 
-0.0002816671985730076 0.0002816671985730076 -6.289093149058200e-05 
0.001593037256182643 -0.001593037256182643 -0.001000428869228907 
-0.001192033547653639 0.001192033547653639 -0.005892217510382802 
-0.002765197575795072 0.002765197575795072 -0.001522362886664720 
-0.003084018441530565 0.003084018441530565 -0.002585721339526790 
0.0009675395157178026 -0.0009675395157178026 -0.0002149565731254705 
-0.01030730864892558 0.01030730864892558 -0.01128689514313740 
-0.01805849065419078 0.01805849065419078 -0.01386441751138502 
-0.01153290070181899 0.01153290070181899 -0.008110200662732072 
0.0003153416196585820 -0.0003153416196585820 -0.0006824618205925970 
-0.003887210850375922 0.003887210850375922 -0.001365084164954722 
-0.006339723668431467 0.006339723668431467 -0.003282338271086467 
-0.0001777809766493120 0.0001777809766493120 -3.823170633875416e-05 
-0.0001558733705141436 0.0001558733705141436 -3.239382043050524e-05 
-0.0001558733705141436 0.0001558733705141436 -3.239382043050524e-05 
-0.0001777809766493120 0.0001777809766493120 -3.823170633875416e-05 
0.002011476052177518 -0.002011476052177518 -0.002993873351862758 
-0.0006535465099889841 0.0006535465099889841 -0.0004847080709972039 
-0.003118785205056150 0.003118785205056150 -0.003075056486713766 
0.03490580071753024 -0.03490580071753024 -0.01246807790007102 
0.004820661012623640 -0.004820661012623640 -0.01471855352771785 
0.005414815699291323 -0.005414815699291323 -0.002114912582439714 
-0.001030289476300635 0.001030289476300635 -0.01440001620941716 
-0.002265683237936455 0.002265683237936455 -0.002460695017611972 
0.0005634650704303508 -0.0005634650704303508 -0.0009902799702550566 
-0.002963411042055425 0.002963411042055425 -0.004185843470773801 
-0.01638628084693842 0.01638628084693842 -0.009106463406505345 
-0.003147466984512724 0.003147466984512724 -0.001565656734352399 
0.001684240680662649 -0.001684240680662649 -0.01133955852211026 
-0.01016218239265825 0.01016218239265825 -0.005978832147060401 
-0.001020813940650002 0.001020813940650002 -0.004734366751388535 
-0.004701073720728925 0.004701073720728925 -0.002524318214729348 
-0.02358994870509304 0.02358994870509304 -0.02873705477694885 
-0.02800962529380496 0.02800962529380496 -0.01688488925315001 
-0.003443868843805006 0.003443868843805006 -0.006093885412334602 
-0.04572341350090583 0.04572341350090583 -0.02492534425822766 
-0.0002892742199415771 0.0002892742199415771 -0.0001227732338567591 
0.002727706783260503 -0.002727706783260503 -0.001843805536185055 
0.0003304227116547493 -0.0003304227116547493 -0.002451312060623827 
0.0009453907488910681 -0.0009453907488910681 -0.002040990195368787 
-0.001915014127345948 0.001915014127345948 -0.002056134333115409 
-0.005537685604757327 0.005537685604757327 -0.006697124952179718 
-0.003660579004242948 0.003660579004242948 -0.004507522953588882 
-0.02814488768389681 0.02814488768389681 -0.02955765110592142 
0.002738138232215062 -0.002738138232215062 -0.003341702871300585 
-0.001402019809129540 0.001402019809129540 -0.001719616951258632 
-0.003506892192964014 0.003506892192964014 -0.002390033688606846 
-0.003523218097113924 0.003523218097113924 -0.001896806514191508 
-0.0003004392215350742 0.0003004392215350742 -0.0001739757683526606 
-0.002315810073158119 0.002315810073158119 -0.0009180175572174825 
-0.002238984169636363 0.002238984169636363 -0.001365646842784730 
-0.008181623761420405 0.008181623761420405 -0.003900772956115877 
0.005490045693631370 -0.005490045693631370 -0.001766437129402095 
0.003154495912568580 -0.003154495912568580 -0.0005611183326010326 
-0.001810647117740344 0.001810647117740344 -0.004914810515909578 
0.03677523013626595 -0.03677523013626595 -0.008550964966471650 
0.0008932041465271789 -0.0008932041465271789 -0.0005022070179801738 
0.0003071445546020713 -0.0003071445546020713 -0.0002708230963806354 
-0.0008326990089808932 0.0008326990089808932 -0.003023079367140396 
0.003814093566889991 -0.003814093566889991 -0.0007626780962129697 
-0.001616370882715825 0.001616370882715825 -0.002105490534104586 
0.0003846385800780168 -0.0003846385800780168 -0.0009951620818065715 
-0.001983443299369008 0.001983443299369008 -0.005773148487389937 
0.01553069606250427 -0.01553069606250427 -0.007306237654782821 
-0.009283916457258469 0.009283916457258469 -0.006886289390331442 
0.005314930304277651 -0.005314930304277651 -0.0008853207125908398 
0.008134809374237741 -0.008134809374237741 -0.0009399703522540041 
-0.06068027590776384 0.06068027590776384 -0.03488331114797309 
-0.04414323134529284 0.04414323134529284 -0.02880296470799163 
0.004038384564705153 -0.004038384564705153 -0.005476752396065304 
-0.009932313030148533 0.009932313030148533 -0.005548005454347479 
-0.0004624073457541413 0.0004624073457541413 -0.0009431590836141030 
-0.002303529952800274 0.002303529952800274 -0.001997456930709021 
-0.003604950295022259 0.003604950295022259 -0.005623755664402450 
-0.001094304358153730 0.001094304358153730 -0.0004668588964857931 
-0.001741835114049612 0.001741835114049612 -0.001683450083348720 
0.001846611919328646 -0.001846611919328646 -0.0009644320896872805 
0.004663128792977330 -0.004663128792977330 -0.0008790421155057642 
-0.0003414656064275715 0.0003414656064275715 -0.0001402350051480047 
-0.01727039996404736 0.01727039996404736 -0.01418577355327301 
-0.0004779561480431927 0.0004779561480431927 -0.0005174856569780124 
-0.02055948993751887 0.02055948993751887 -0.01391280732763397 
-0.004777471178609387 0.004777471178609387 -0.002848474163564470 
-0.0005338547333443727 0.0005338547333443727 -0.0006890774721843681 
-0.001738164227465330 0.001738164227465330 -0.001199472394119352 
-0.01139370400700384 0.01139370400700384 -0.006917206794082663 
0.006649948321564743 -0.006649948321564743 -0.005125802866241557 
-0.0003733554513063408 0.0003733554513063408 -0.0001622343074891426 
-0.002982586088875463 0.002982586088875463 -0.001485474289899709 
-0.001908949534595911 0.001908949534595911 -0.005035728510735847 
-0.0001974246533935809 0.0001974246533935809 -6.372642737230483e-05 
0.002293071112372780 -0.002293071112372780 -0.0006616799780050592 
-0.0003948493067871618 0.0003948493067871618 -0.0001274528547446097 
-0.0001974246533935809 0.0001974246533935809 -6.372642737230483e-05 
-0.0009579844481302003 0.0009579844481302003 -0.003023807457210969 
-0.007779182998896197 0.007779182998896197 -0.008362427255347091 
-0.006554213941102765 0.006554213941102765 -0.003732722662708939 
-0.02303729572896680 0.02303729572896680 -0.01332196352618175 
0.0009801066284488510 -0.0009801066284488510 -0.0002686592399786163 
0.01793595376387638 -0.01793595376387638 -0.006519585128819453 
-0.001299229821139876 0.001299229821139876 -0.0004647288787859304 
-0.004784512422733605 0.004784512422733605 -0.003246331995324402 
-0.0005483302388452887 0.0005483302388452887 -0.0003484429928938607 
0.004608802293618104 -0.004608802293618104 -0.001405863573696414 
0.002676399308345445 -0.002676399308345445 -0.001936714589488581 
0.001345980586584862 -0.001345980586584862 -0.0002835254040694035 
0.002750061014330180 -0.002750061014330180 -0.001053175715772099 
-0.003961846243369608 0.003961846243369608 -0.002878070779126158 
-0.0002713588907092331 0.0002713588907092331 -6.320638028293130e-05 
-0.005980214711894397 0.005980214711894397 -0.003466695449859628 
-0.01693463185580965 0.01693463185580965 -0.008866747409773034 
-6.148747544615500e-06 6.148747544615500e-06 -1.178635468130476e-06 
-6.148747544615500e-06 6.148747544615500e-06 -1.178635468130476e-06 
-0.003128716301197075 0.003128716301197075 -0.004052669219785320 
-0.0008020279749577752 0.0008020279749577752 -0.003692158277759808 
-0.0008744163335015301 0.0008744163335015301 -0.0004625566915158529 
-6.148747544615500e-06 6.148747544615500e-06 -1.178635468130476e-06 
-0.005803221101946363 0.005803221101946363 -0.003013520245282572 
-0.0001756832849044814 0.0001756832849044814 -7.935099103010647e-05 
-0.002145590575799395 0.002145590575799395 -0.003704564527209683 
-0.02250532758756520 0.02250532758756520 -0.01693162532333002 
-6.148747544615500e-06 6.148747544615500e-06 -1.178635468130476e-06 
-0.002644822064853353 0.002644822064853353 -0.001367414742370025 
-0.001052580045647273 0.001052580045647273 -0.001035983727929558 
-6.148747544615500e-06 6.148747544615500e-06 -1.178635468130476e-06 
-0.008123392788763850 0.008123392788763850 -0.004842328581404838 
-0.006623865233590537 0.006623865233590537 -0.003294681441903598 
-0.0008633375659575447 0.0008633375659575447 -0.002720992873182085 
-0.002524768109745659 0.002524768109745659 -0.001191706650563852 
-0.01343175211167352 0.01343175211167352 -0.01794084537331848 
-0.0002066898245340835 0.0002066898245340835 -4.734998517078953e-05 
-0.005707295085761146 0.005707295085761146 -0.003411643992201556 
-6.148747544615500e-06 6.148747544615500e-06 -1.178635468130476e-06 
-0.004134725366312993 0.004134725366312993 -0.001894714927781147 
-0.0008130776748494269 0.0008130776748494269 -0.0003560182652702169 
0.001495674351377724 -0.001495674351377724 -0.0004218723611983041 
-0.002506730834720948 0.002506730834720948 -0.001020460047443727 
-0.003038619133277215 0.003038619133277215 -0.002093485816749334 
-0.001594180768235985 0.001594180768235985 -0.0008921684209074960 
-0.0003871978899518134 0.0003871978899518134 -0.0002260920064687316 
0.0008910400240508049 -0.0008910400240508049 -0.005454806172495702 
0.001247785237988853 -0.001247785237988853 -0.0002805791006648862 
0.0001736582208903068 -0.0001736582208903068 -0.0004229780354670012 
-0.002054434413002580 0.002054434413002580 -0.006640906718588181 
-6.148747544615500e-06 6.148747544615500e-06 -1.178635468130476e-06 
-0.002521958834136865 0.002521958834136865 -0.001956345931363597 
0.0002015614641010022 -0.0002015614641010022 -0.0003283104221446293 
-6.148747544615500e-06 6.148747544615500e-06 -1.178635468130476e-06 
-0.0003315342323212929 0.0003315342323212929 -0.0008177666362508321 
-0.0002296500249965907 0.0002296500249965907 -0.0001406595044940413 
-0.002228831897409302 0.002228831897409302 -0.001139877803609447 
-0.001047188314115397 0.001047188314115397 -0.002736348048833611 
-0.0005468409719787072 0.0005468409719787072 -0.0002433352197589777 
-0.0005436791342628472 0.0005436791342628472 -0.0008664694120622665 
-0.0006718291375791734 0.0006718291375791734 -0.0005044111668451210 
-0.001061207109596908 0.001061207109596908 -0.0006006595958001406 
-0.0003133861315461590 0.0003133861315461590 -0.0002145587084358212 
-0.001885405497799031 0.001885405497799031 -0.001449093000526319 
-0.006979224711408279 0.006979224711408279 -0.005208225528026234 
-0.007582207355891816 0.007582207355891816 -0.005258334036047433 
-0.0009974153810336160 0.0009974153810336160 -0.001217991193460518 
-0.0007968772882308655 0.0007968772882308655 -0.0003950192271215735 
0.005181677482793028 -0.005181677482793028 -0.004702541691608767 
-0.0003133861315461590 0.0003133861315461590 -0.0002145587084358212 
-0.001407204351125981 0.001407204351125981 -0.0006561866457540629 
-0.003603706815717451 0.003603706815717451 -0.001385244448832869 
-0.001331893358357998 0.001331893358357998 -0.0005696678531488007 
-0.01565976631736039 0.01565976631736039 -0.01116598785606651 
-0.001973571349786617 0.001973571349786617 -0.001710793951701781 
-0.0008445115493051271 0.0008445115493051271 -0.0004402599924978640 
-0.005475912687178012 0.005475912687178012 -0.007494398087296037 
0.002838671964000374 -0.002838671964000374 -0.0004872661210049708 
-0.0001102512973861207 0.0001102512973861207 -0.0005396046065720364 
0.0003264550972969647 -0.0003264550972969647 -0.001329200318872355 
-0.002522141040816478 0.002522141040816478 -0.001747019036144852 
0.0006650206037513915 -0.0006650206037513915 -9.853348415841258e-05 
0.005993022275416258 -0.005993022275416258 -0.0006635875906325251 
-0.001358346110572028 0.001358346110572028 -0.0006828668748790277 
0.002368700404406205 -0.002368700404406205 -0.009245951874465355 
-0.001014175267517826 0.001014175267517826 -0.0003903517094737542 
-0.01032733716457117 0.01032733716457117 -0.01212492139730764 
0.003009581147009483 -0.003009581147009483 -0.0003880978051690656 
0.002828503200410058 -0.002828503200410058 -0.003460343299570841 
-0.0001379100449121473 0.0001379100449121473 -0.0005212336347514007 
-0.003992355447954193 0.003992355447954193 -0.004330143727020491 
-0.0005742826669192411 0.0005742826669192411 -0.0002148515323698613 
0.001976471701612454 -0.001976471701612454 -0.002158845332386711 
-0.0005148562398522615 0.0005148562398522615 -0.0002896162246045942 
-0.005075229659838487 0.005075229659838487 -0.009624012739073482 
-0.0005796278851239163 0.0005796278851239163 -0.003431925540794850 
-0.005682403419874290 0.005682403419874290 -0.002824790836219181 
-0.002828426566431806 0.002828426566431806 -0.0009115811407672169 
-0.002389746921033559 0.002389746921033559 -0.001130893801298701 
-0.007677368979062481 0.007677368979062481 -0.003360773106806859 
-0.0009525656146733838 0.0009525656146733838 -0.0003798093877341057 
-0.0009920053203403619 0.0009920053203403619 -0.001930489963353572 
-0.002607351942361614 0.002607351942361614 -0.005102593494909644 
-0.007411550596937257 0.007411550596937257 -0.004497691631337976 
-0.0001253687425720231 0.0001253687425720231 -8.282119460765162e-05 
0.0005908322514180150 -0.0005908322514180150 -0.001515859830046907 
-0.0003574899485006689 0.0003574899485006689 -0.001201988658115879 
-0.009356107656508510 0.009356107656508510 -0.005893823832828953 
-0.01965385561259485 0.01965385561259485 -0.01252639381987300 
-0.01140603896252696 0.01140603896252696 -0.007834450545310939 
-0.001957636390300021 0.001957636390300021 -0.001077382855547271 
-0.004755122346613379 0.004755122346613379 -0.003937292587868535 
-0.004773176260462553 0.004773176260462553 -0.003636847715646886 
-0.004512220184651235 0.004512220184651235 -0.007468215721450053 
-0.003274872767190440 0.003274872767190440 -0.002641008366909617 
-0.0004359779213989155 0.0004359779213989155 -0.001392626353457364 
-0.01847887347209445 0.01847887347209445 -0.01780351779948886 
0.003015070171661211 -0.003015070171661211 -0.003989470304295967 
-0.01494389659269441 0.01494389659269441 -0.01047836199811548 
-0.003065862256352322 0.003065862256352322 -0.001745560056609903 
-0.0001765074932325717 0.0001765074932325717 -0.0005395258654365548 
-0.0006683877628275998 0.0006683877628275998 -0.0007623936621086202 
0.001031520865457418 -0.001031520865457418 -0.0003494828705896449 
-0.0007398987981386360 0.0007398987981386360 -0.001456827253594203 
0.0002474409722821027 -0.0002474409722821027 -0.002055764310336254 
0.0003591403745214476 -0.0003591403745214476 -0.002196458764564156 
-0.001219052087271472 0.001219052087271472 -0.0007552512251150788 
-0.001208923548252924 0.001208923548252924 -0.0004810538526950544 
-0.001547984177896841 0.001547984177896841 -0.0007394048549025738 
0.001273967924760466 -0.001273967924760466 -0.001750443112566129 
-0.001155966332672090 0.001155966332672090 -0.003851410897087838 
-0.01722716287883744 0.01722716287883744 -0.009861125305158567 
-0.002849841004464298 0.002849841004464298 -0.001098924309602428 
0.02645788137029727 -0.02645788137029727 -0.007670440395269971 
-0.0007702464002961369 0.0007702464002961369 -0.0003155938232116047 
-0.03669464938234947 0.03669464938234947 -0.02124808026735968 
-0.002482645408164402 0.002482645408164402 -0.001276491630655322 
-0.002670497895926021 0.002670497895926021 -0.002131467777321376 
-0.0001652169209257697 0.0001652169209257697 -0.0002803477411144650 
-0.0003025504652782626 0.0003025504652782626 -0.0005869142462118270 
9.729167786054984e-05 -9.729167786054984e-05 -0.0002913855488968854 
-0.001115973041330195 0.001115973041330195 -0.004187048400703090 
-0.001017631230894780 0.001017631230894780 -0.004648916047869840 
0.0009337002987252444 -0.0009337002987252444 -0.0003916792435218249 
-0.01722920735316844 0.01722920735316844 -0.01654169861096786 
-0.002605769161385453 0.002605769161385453 -0.001746207887570014 
0.0008573938757806056 -0.0008573938757806056 -0.001906002601926775 
0.0001418588442898271 -0.0001418588442898271 -0.0002231963310810100 
-0.0002103666586730956 0.0002103666586730956 -1.912951655705537e-05 
0.0002676549442688383 -0.0002676549442688383 -0.0001857374072984379 
-0.002040866289802853 0.002040866289802853 -0.001441730501061296 
0.0002094558803569768 -0.0002094558803569768 -0.0004321527117124151 
-0.0002103666586730956 0.0002103666586730956 -1.912951655705537e-05 
-0.0005512530329451509 0.0005512530329451509 -0.0002028059304230880 
-0.0002103666586730956 0.0002103666586730956 -1.912951655705537e-05 
-0.001262236793692868 0.001262236793692868 -0.0005084087391025472 
0.0007843675393945040 -0.0007843675393945040 -0.001060116357812940 
-0.001075705632986907 0.001075705632986907 -0.0004294853019238099 
-0.002466976327190508 0.002466976327190508 -0.001156884295315718 
-0.0006169888303099531 0.0006169888303099531 -0.0002163218447627057 
-0.0006169888303099531 0.0006169888303099531 -0.0002163218447627057 
-0.0008829228301939033 0.0008829228301939033 -0.0002603245049191331 
0.01706589647899767 -0.01706589647899767 -0.006074032907681272 
0.009731602119970359 -0.009731602119970359 -0.01462137735405185 
-0.0004414614150969516 0.0004414614150969516 -0.0001301622524595666 
-0.001826434702707921 0.001826434702707921 -0.001269260751139213 
0.004592701898892358 -0.004592701898892358 -0.003046186029263604 
-0.001395817976742727 0.001395817976742727 -0.005173548305224802 
-0.001720590253479900 0.001720590253479900 -0.0007942973995493013 
0.002852835068443548 -0.002852835068443548 -0.001950183023529480 
-0.007641530297305470 0.007641530297305470 -0.005788680197773201 
-0.001415380755889459 0.001415380755889459 -0.0006499401554397923 
0.003761910355369724 -0.003761910355369724 -0.001745880647864435 
-0.01070596024558013 0.01070596024558013 -0.005286234859804758 
0.003843030403595522 -0.003843030403595522 -0.001104584249123908 
-0.0003387929360570734 0.0003387929360570734 -0.0002583947537093770 
-0.001535684973178386 0.001535684973178386 -0.0008751761599004161 
-0.004394432073060176 0.004394432073060176 -0.002475763071849406 
-0.0005446453457208186 0.0005446453457208186 -0.0003318665540123405 
-0.001053371876211252 0.001053371876211252 -0.0004417529767285060 
-0.001818648673697262 0.001818648673697262 -0.001123253053182004 
-0.005050036110990911 0.005050036110990911 -0.003600760065543728 
-0.0004411473374518212 0.0004411473374518212 -0.001045961953390226 
-0.005157027297326412 0.005157027297326412 -0.008731748366213474 
-0.0003864183159939378 0.0003864183159939378 -0.0002482800387029349 
-0.0008801136471728401 0.0008801136471728401 -0.001504485077055540 
-0.003304651681657687 0.003304651681657687 -0.004251850286958991 
-0.002257783887322635 0.002257783887322635 -0.002354888939746980 
-0.01238498040312676 0.01238498040312676 -0.009502953485963030 
0.0007918413630172917 -0.0007918413630172917 -0.003504109848360613 
-0.001336538214524120 0.001336538214524120 -0.0006327618029494047 
-0.0005972574998586287 0.0005972574998586287 -0.0002801769418182845 
-0.0005972574998586287 0.0005972574998586287 -0.0002801769418182845 
-0.0005972574998586287 0.0005972574998586287 -0.0002801769418182845 
-0.003214338699029569 0.003214338699029569 -0.001801567641421533 
-0.005112224253230356 0.005112224253230356 -0.002695449780032150 
-0.0008376304801892389 0.0008376304801892389 -0.0005245748647720423 
-0.001739361104665718 0.001739361104665718 -0.0007949499803646515 
-0.001106557985485256 0.001106557985485256 -0.0005723585173985221 
-0.0001290177732036366 0.0001290177732036366 -5.749373579927991e-05 
-0.0003714552394859868 0.0003714552394859868 -0.0002237196555559664 
-0.0001290177732036366 0.0001290177732036366 -5.749373579927991e-05 
-0.0007911741394863863 0.0007911741394863863 -0.0002945537922461511 
-0.0002259531320340133 0.0002259531320340133 -0.0001102257774128363 
-0.001445328425396354 0.001445328425396354 -0.0009365859842401619 
-0.009436221838575582 0.009436221838575582 -0.01367334812694862 
-0.007699058916991282 0.007699058916991282 -0.007122022301075146 
-7.316696244772144e-05 7.316696244772144e-05 -1.194968996939908e-05 
-0.002213001497709269 0.002213001497709269 -0.001108201945221931 
-0.0005385592596217645 0.0005385592596217645 -0.0001579958861784413 
-0.002092289573625262 0.002092289573625262 -0.003139085039307203 
-0.007128831326501336 0.007128831326501336 -0.008866785391095575 
0.01565785334678792 -0.01565785334678792 -0.01484314917259702 
-0.01166356320618386 0.01166356320618386 -0.006286118655012480 
0.007579846950509045 -0.007579846950509045 -0.004120136529084552 
-0.006790171287892564 0.006790171287892564 -0.008623502619016302 
-0.004691330132061885 0.004691330132061885 -0.002440492234815361 
-0.0005768228390732999 0.0005768228390732999 -0.0001940471604031111 
-0.001078736249773117 0.001078736249773117 -0.0004587394133264991 
0.001680241771012340 -0.001680241771012340 -0.0004571273472531850 
-0.0001463339248954429 0.0001463339248954429 -2.389937993879816e-05 
-0.004716106540803075 0.004716106540803075 -0.002619214452778870 
-0.003359191568550412 0.003359191568550412 -0.009001597535104731 
-0.0003753930203486610 0.0003753930203486610 -0.0001553168833694581 
0.01113478887625599 -0.01113478887625599 -0.003315266268671178 
-0.0001534999379131635 0.0001534999379131635 -0.0008100147276095942 
0.004893250762547721 -0.004893250762547721 -0.002209352107640406 
-0.008853335536435778 0.008853335536435778 -0.007473229786572114 
-0.002083978184751241 0.002083978184751241 -0.0009889802954258745 
0.009286759203775138 -0.009286759203775138 -0.001060406017008567 
0.0006424000143115866 -0.0006424000143115866 -0.0001091356402489037 
-0.0008413621351145417 0.0008413621351145417 -0.001338765918066758 
0.001384893007904594 -0.001384893007904594 -0.0004113886757947726 
-7.316696244772144e-05 7.316696244772144e-05 -1.194968996939908e-05 
0.0006870341925417471 -0.0006870341925417471 -7.679588179683540e-05 
-0.0004104041521478974 0.0004104041521478974 -0.001203710586964869 
0.0003984627790109864 -0.0003984627790109864 -0.0006897163515053162 
-0.001720718880872795 0.001720718880872795 -0.0006720553548588730 
-0.004268071441629960 0.004268071441629960 -0.003766199018975649 
-0.0002726201345399429 0.0002726201345399429 -8.436429800979450e-05 
-0.001505524067371652 0.001505524067371652 -0.0007439167992803124 
0.0009825258285855243 -0.0009825258285855243 -0.003498265724948771 
0.0002504300577867900 -0.0002504300577867900 -0.0001505850999279356 
0.01224664092881629 -0.01224664092881629 -0.009471305364601898 
0.002242317733646216 -0.002242317733646216 -0.004136134099200305 
-0.0002726201345399429 0.0002726201345399429 -8.436429800979450e-05 
-7.904752488771106e-05 7.904752488771106e-05 -0.002269009255211186 
0.003092853059829955 -0.003092853059829955 -0.0006972319458891244 
0.0009040383322757686 -0.0009040383322757686 -0.001222113586197143 
-0.0005126976549008793 0.0005126976549008793 -0.0002891351892538939 
-0.001666305523343668 0.001666305523343668 -0.002769615329667369 
-0.0003011933628184971 0.0003011933628184971 -0.0001992983505661978 
-0.0003011933628184971 0.0003011933628184971 -0.0001992983505661978 
-4.623101048908970e-05 4.623101048908970e-05 -0.0005182364616199499 
-0.0003011933628184971 0.0003011933628184971 -0.0001992983505661978 
-0.002568705085885291 0.002568705085885291 -0.004160202739014555 
0.006932561104780416 -0.006932561104780416 -0.001641134905096514 
-0.004054396369202695 0.004054396369202695 -0.003548186647910447 
-0.0001662841652283485 0.0001662841652283485 -0.003229621443567828 
-0.001076471856173676 0.001076471856173676 -0.001027026391484092 
0.009562603424450148 -0.009562603424450148 -0.001541987613341314 
0.009384489658750892 -0.009384489658750892 -0.005562083780483769 
-0.007271402053024308 0.007271402053024308 -0.005433082306800511 
-0.0002924710323627524 0.0002924710323627524 -0.0001479519727982451 
-0.0002924710323627524 0.0002924710323627524 -0.0001479519727982451 
-0.0004885587972227621 0.0004885587972227621 -0.0002165206599157417 
-0.008552655388097144 0.008552655388097144 -0.004768478014744854 
0.01163386111389425 -0.01163386111389425 -0.01194517246738619 
-0.01029596049653511 0.01029596049653511 -0.01754857870694084 
0.002366469870378227 -0.002366469870378227 -0.0006649330807514712 
0.004722286291115200 -0.004722286291115200 -0.01163529410098996 
-0.008689154292133327 0.008689154292133327 -0.01255684107273060 
0.0001172800182416013 -0.0001172800182416013 -0.0007055301184890202 
-0.004689569045123592 0.004689569045123592 -0.003477614027498038 
-0.001464536181640370 0.001464536181640370 -0.001068931219359652 
-7.392028672119293e-05 7.392028672119293e-05 -0.003012864355025354 
-0.003043684866947686 0.003043684866947686 -0.001786816896092286 
-0.002934976958139101 0.002934976958139101 -0.003013862317806368 
0.0007101965567085761 -0.0007101965567085761 -0.002166952537210797 
0.001315890220533611 -0.001315890220533611 -0.001070092030689442 
-0.004397621955025318 0.004397621955025318 -0.002835537136318552 
-0.0006523624012015822 0.0006523624012015822 -0.0007016524529098673 
0.0001958466659815119 -0.0001958466659815119 -0.002196708346711034 
-0.0002874563270927211 0.0002874563270927211 -0.0006302281510829800 
-0.001069153047930103 0.001069153047930103 -0.0005523374318796233 
-0.0007697319031862116 0.0007697319031862116 -0.0003172460660060262 
-0.0002055872388926796 0.0002055872388926796 -6.202344282059475e-05 
-0.005237832653154798 0.005237832653154798 -0.004029123833587594 
-0.0002055872388926796 0.0002055872388926796 -6.202344282059475e-05 
-0.0005925559970342393 0.0005925559970342393 -0.0002121295176639923 
0.01283833013209365 -0.01283833013209365 -0.004063808723721250 
-0.009446755264985302 0.009446755264985302 -0.004582234682473091 
-0.001089078164048844 0.001089078164048844 -0.0005723333418180570 
-0.0002055872388926796 0.0002055872388926796 -6.202344282059475e-05 
0.001567316293760441 -0.001567316293760441 -0.0008470733198114753 
0.0002509446451095289 -0.0002509446451095289 -0.0001567168269325026 
0.002330826293023595 -0.002330826293023595 -0.0001911336127682120 
-0.0005081739928746347 0.0005081739928746347 -0.0002115778596603527 
-0.001069931584370343 0.001069931584370343 -0.0002814473757478684 
0.002550066648542166 -0.002550066648542166 -0.001333968236600583 
-0.0008285645805055460 0.0008285645805055460 -0.0003124982414607449 
-0.01096867101725193 0.01096867101725193 -0.006322883775442677 
-0.01138624026701096 0.01138624026701096 -0.005784190371894347 
0.01227461698880389 -0.01227461698880389 -0.003014659104102974 
-0.01197317002473776 0.01197317002473776 -0.007090836763276279 
-0.001096750979966550 0.001096750979966550 -0.003954469863107477 
-0.001514979839276219 0.001514979839276219 -0.0005985398692666377 
-0.0004013806441322280 0.0004013806441322280 -0.0001231334922653856 
-0.001627008243065683 0.001627008243065683 -0.0006349981932104511 
-0.001236945129785760 0.001236945129785760 -0.0004436142858316088 
-0.004506585467133476 0.004506585467133476 -0.006481712240054342 
-0.005894883526878840 0.005894883526878840 -0.002667887988251955 
-9.417325308924813e-05 9.417325308924813e-05 -2.356037434786932e-05 
-0.0003505616439061502 0.0003505616439061502 -8.005283376938754e-05 
-0.0003337887217230036 0.0003337887217230036 -0.0001309737780169448 
-0.003113605246148247 0.003113605246148247 -0.002816705904722812 
0.0008216006721308685 -0.0008216006721308685 -0.0004695779815674125 
-9.417325308924813e-05 9.417325308924813e-05 -2.356037434786932e-05 
-0.0001883465061784963 0.0001883465061784963 -4.712074869573864e-05 
-0.001713938055208225 0.001713938055208225 -0.0007769696111727910 
0.006425749542494991 -0.006425749542494991 -0.005516183683244698 
-9.417325308924813e-05 9.417325308924813e-05 -2.356037434786932e-05 
